<neuralNetwork>
    <neuron name = "0" type = "sensor" linkName = "Link0" />
    <neuron name = "1" type = "sensor" linkName = "Link2" />
    <neuron name = "2" type = "sensor" linkName = "Link3" />
    <neuron name = "3" type = "sensor" linkName = "Link5" />
    <neuron name = "4" type = "motor"  jointName = "Link0_Cube00" />
    <neuron name = "5" type = "motor"  jointName = "Cube00_Link1" />
    <neuron name = "6" type = "motor"  jointName = "Link0_Cube01" />
    <neuron name = "7" type = "motor"  jointName = "Cube01_Cube11" />
    <neuron name = "8" type = "motor"  jointName = "Cube11_Link2" />
    <neuron name = "9" type = "motor"  jointName = "Link0_Cube02" />
    <neuron name = "10" type = "motor"  jointName = "Cube02_Link3" />
    <neuron name = "11" type = "motor"  jointName = "Link0_Cube03" />
    <neuron name = "12" type = "motor"  jointName = "Cube03_Link4" />
    <neuron name = "13" type = "motor"  jointName = "Link2_Cube04" />
    <neuron name = "14" type = "motor"  jointName = "Cube04_Link5" />
    <synapse sourceNeuronName = "0" targetNeuronName = "4" weight = "0.39165336788448046" />
    <synapse sourceNeuronName = "0" targetNeuronName = "5" weight = "-0.6326265832408233" />
    <synapse sourceNeuronName = "0" targetNeuronName = "6" weight = "0.049192393967653736" />
    <synapse sourceNeuronName = "0" targetNeuronName = "7" weight = "0.25275380399720926" />
    <synapse sourceNeuronName = "0" targetNeuronName = "8" weight = "0.4905097393000257" />
    <synapse sourceNeuronName = "0" targetNeuronName = "9" weight = "-0.49614647496212716" />
    <synapse sourceNeuronName = "0" targetNeuronName = "10" weight = "-0.868311860511847" />
    <synapse sourceNeuronName = "0" targetNeuronName = "11" weight = "-0.2706032296225769" />
    <synapse sourceNeuronName = "0" targetNeuronName = "12" weight = "0.7417266489529131" />
    <synapse sourceNeuronName = "0" targetNeuronName = "13" weight = "0.3684649085811258" />
    <synapse sourceNeuronName = "0" targetNeuronName = "14" weight = "-0.9462382949951966" />
    <synapse sourceNeuronName = "1" targetNeuronName = "4" weight = "-0.43473921076013977" />
    <synapse sourceNeuronName = "1" targetNeuronName = "5" weight = "0.029459124112215962" />
    <synapse sourceNeuronName = "1" targetNeuronName = "6" weight = "-0.5172844439874928" />
    <synapse sourceNeuronName = "1" targetNeuronName = "7" weight = "0.05324055757116808" />
    <synapse sourceNeuronName = "1" targetNeuronName = "8" weight = "-0.665481014305995" />
    <synapse sourceNeuronName = "1" targetNeuronName = "9" weight = "0.03216480961278445" />
    <synapse sourceNeuronName = "1" targetNeuronName = "10" weight = "0.24144042286726686" />
    <synapse sourceNeuronName = "1" targetNeuronName = "11" weight = "-0.5656850692303563" />
    <synapse sourceNeuronName = "1" targetNeuronName = "12" weight = "-0.19124270659706477" />
    <synapse sourceNeuronName = "1" targetNeuronName = "13" weight = "-0.9174186355045408" />
    <synapse sourceNeuronName = "1" targetNeuronName = "14" weight = "0.6908466677101825" />
    <synapse sourceNeuronName = "2" targetNeuronName = "4" weight = "-0.6860040815835389" />
    <synapse sourceNeuronName = "2" targetNeuronName = "5" weight = "0.24660330511094064" />
    <synapse sourceNeuronName = "2" targetNeuronName = "6" weight = "-0.2153737681063066" />
    <synapse sourceNeuronName = "2" targetNeuronName = "7" weight = "0.551506469934359" />
    <synapse sourceNeuronName = "2" targetNeuronName = "8" weight = "0.9310597248168484" />
    <synapse sourceNeuronName = "2" targetNeuronName = "9" weight = "-0.2487595020281539" />
    <synapse sourceNeuronName = "2" targetNeuronName = "10" weight = "-0.926090001996601" />
    <synapse sourceNeuronName = "2" targetNeuronName = "11" weight = "-0.9286280089719081" />
    <synapse sourceNeuronName = "2" targetNeuronName = "12" weight = "0.45670957110371924" />
    <synapse sourceNeuronName = "2" targetNeuronName = "13" weight = "0.24986889342719731" />
    <synapse sourceNeuronName = "2" targetNeuronName = "14" weight = "0.6476392310129311" />
    <synapse sourceNeuronName = "3" targetNeuronName = "4" weight = "0.4584979237442648" />
    <synapse sourceNeuronName = "3" targetNeuronName = "5" weight = "-0.3033147525069717" />
    <synapse sourceNeuronName = "3" targetNeuronName = "6" weight = "0.9024357321891625" />
    <synapse sourceNeuronName = "3" targetNeuronName = "7" weight = "-0.2339996183585773" />
    <synapse sourceNeuronName = "3" targetNeuronName = "8" weight = "-0.3747436162958806" />
    <synapse sourceNeuronName = "3" targetNeuronName = "9" weight = "-0.7549126418297496" />
    <synapse sourceNeuronName = "3" targetNeuronName = "10" weight = "0.06138353968481347" />
    <synapse sourceNeuronName = "3" targetNeuronName = "11" weight = "-0.19769623384849888" />
    <synapse sourceNeuronName = "3" targetNeuronName = "12" weight = "0.046520226015500654" />
    <synapse sourceNeuronName = "3" targetNeuronName = "13" weight = "-0.692076597153193" />
    <synapse sourceNeuronName = "3" targetNeuronName = "14" weight = "-0.3853204336322247" />
</neuralNetwork>