<neuralNetwork>
    <neuron name = "0" type = "sensor" linkName = "Link1" />
    <neuron name = "1" type = "sensor" linkName = "Link5" />
    <neuron name = "2" type = "sensor" linkName = "Link6" />
    <neuron name = "3" type = "motor"  jointName = "Link0_Link1" />
    <neuron name = "4" type = "motor"  jointName = "Link0_Link2" />
    <neuron name = "5" type = "motor"  jointName = "Link0_Cube02" />
    <neuron name = "6" type = "motor"  jointName = "Cube02_Cube12" />
    <neuron name = "7" type = "motor"  jointName = "Cube12_Link3" />
    <neuron name = "8" type = "motor"  jointName = "Link1_Cube03" />
    <neuron name = "9" type = "motor"  jointName = "Cube03_Link4" />
    <neuron name = "10" type = "motor"  jointName = "Link0_Link5" />
    <neuron name = "11" type = "motor"  jointName = "Link1_Link6" />
    <synapse sourceNeuronName = "0" targetNeuronName = "3" weight = "-0.415799177203821" />
    <synapse sourceNeuronName = "0" targetNeuronName = "4" weight = "0.9764838781112044" />
    <synapse sourceNeuronName = "0" targetNeuronName = "5" weight = "-0.8027464356590011" />
    <synapse sourceNeuronName = "0" targetNeuronName = "6" weight = "-0.535847048784116" />
    <synapse sourceNeuronName = "0" targetNeuronName = "7" weight = "-0.23155192439589323" />
    <synapse sourceNeuronName = "0" targetNeuronName = "8" weight = "-0.3044759363368219" />
    <synapse sourceNeuronName = "0" targetNeuronName = "9" weight = "0.9497406963210122" />
    <synapse sourceNeuronName = "0" targetNeuronName = "10" weight = "0.8859973022675887" />
    <synapse sourceNeuronName = "0" targetNeuronName = "11" weight = "0.7340538722224912" />
    <synapse sourceNeuronName = "1" targetNeuronName = "3" weight = "-0.6723254646206165" />
    <synapse sourceNeuronName = "1" targetNeuronName = "4" weight = "-0.13334060194502628" />
    <synapse sourceNeuronName = "1" targetNeuronName = "5" weight = "-0.8321336095917728" />
    <synapse sourceNeuronName = "1" targetNeuronName = "6" weight = "0.07125171688027065" />
    <synapse sourceNeuronName = "1" targetNeuronName = "7" weight = "0.4284403118514497" />
    <synapse sourceNeuronName = "1" targetNeuronName = "8" weight = "-0.38147535313601555" />
    <synapse sourceNeuronName = "1" targetNeuronName = "9" weight = "0.6968825784161452" />
    <synapse sourceNeuronName = "1" targetNeuronName = "10" weight = "0.3643059299106537" />
    <synapse sourceNeuronName = "1" targetNeuronName = "11" weight = "-0.39635712788324584" />
    <synapse sourceNeuronName = "2" targetNeuronName = "3" weight = "0.9088126298099328" />
    <synapse sourceNeuronName = "2" targetNeuronName = "4" weight = "-0.9976660457598692" />
    <synapse sourceNeuronName = "2" targetNeuronName = "5" weight = "0.6773271294988874" />
    <synapse sourceNeuronName = "2" targetNeuronName = "6" weight = "-0.021747629357834475" />
    <synapse sourceNeuronName = "2" targetNeuronName = "7" weight = "-0.5343271004523407" />
    <synapse sourceNeuronName = "2" targetNeuronName = "8" weight = "-0.5310912591973969" />
    <synapse sourceNeuronName = "2" targetNeuronName = "9" weight = "-0.30695674269775886" />
    <synapse sourceNeuronName = "2" targetNeuronName = "10" weight = "-0.5544052299461426" />
    <synapse sourceNeuronName = "2" targetNeuronName = "11" weight = "0.8365715220599843" />
</neuralNetwork>