<neuralNetwork>
    <neuron name = "0" type = "sensor" linkName = "Link1" />
    <neuron name = "1" type = "sensor" linkName = "Link2" />
    <neuron name = "2" type = "sensor" linkName = "Link4" />
    <neuron name = "3" type = "sensor" linkName = "Link5" />
    <neuron name = "4" type = "sensor" linkName = "Link7" />
    <neuron name = "5" type = "motor"  jointName = "Link0_Link1" />
    <neuron name = "6" type = "motor"  jointName = "Link0_Cube01" />
    <neuron name = "7" type = "motor"  jointName = "Cube01_Cube11" />
    <neuron name = "8" type = "motor"  jointName = "Cube11_Link2" />
    <neuron name = "9" type = "motor"  jointName = "Link0_Cube02" />
    <neuron name = "10" type = "motor"  jointName = "Cube02_Cube12" />
    <neuron name = "11" type = "motor"  jointName = "Cube12_Link3" />
    <neuron name = "12" type = "motor"  jointName = "Link2_Link4" />
    <neuron name = "13" type = "motor"  jointName = "Link0_Cube04" />
    <neuron name = "14" type = "motor"  jointName = "Cube04_Cube14" />
    <neuron name = "15" type = "motor"  jointName = "Cube14_Link5" />
    <neuron name = "16" type = "motor"  jointName = "Link5_Cube05" />
    <neuron name = "17" type = "motor"  jointName = "Cube05_Cube15" />
    <neuron name = "18" type = "motor"  jointName = "Cube15_Link6" />
    <neuron name = "19" type = "motor"  jointName = "Link2_Cube06" />
    <neuron name = "20" type = "motor"  jointName = "Cube06_Cube16" />
    <neuron name = "21" type = "motor"  jointName = "Cube16_Link7" />
    <neuron name = "22" type = "motor"  jointName = "Link0_Cube07" />
    <neuron name = "23" type = "motor"  jointName = "Cube07_Link8" />
    <neuron name = "24" type = "motor"  jointName = "Link8_Cube08" />
    <neuron name = "25" type = "motor"  jointName = "Cube08_Link9" />
    <synapse sourceNeuronName = "0" targetNeuronName = "5" weight = "-0.5155944247979147" />
    <synapse sourceNeuronName = "0" targetNeuronName = "6" weight = "0.49406489119338604" />
    <synapse sourceNeuronName = "0" targetNeuronName = "7" weight = "0.5944758893540207" />
    <synapse sourceNeuronName = "0" targetNeuronName = "8" weight = "-0.9975923016761798" />
    <synapse sourceNeuronName = "0" targetNeuronName = "9" weight = "-0.3939001638291677" />
    <synapse sourceNeuronName = "0" targetNeuronName = "10" weight = "-0.6038021673220586" />
    <synapse sourceNeuronName = "0" targetNeuronName = "11" weight = "-0.12412885054907274" />
    <synapse sourceNeuronName = "0" targetNeuronName = "12" weight = "0.6136815642784708" />
    <synapse sourceNeuronName = "0" targetNeuronName = "13" weight = "-0.03511976667186012" />
    <synapse sourceNeuronName = "0" targetNeuronName = "14" weight = "-0.9191176676446986" />
    <synapse sourceNeuronName = "0" targetNeuronName = "15" weight = "-0.45762059581803105" />
    <synapse sourceNeuronName = "0" targetNeuronName = "16" weight = "0.92052047961772" />
    <synapse sourceNeuronName = "0" targetNeuronName = "17" weight = "-0.5626312661968629" />
    <synapse sourceNeuronName = "0" targetNeuronName = "18" weight = "-0.9902054047033098" />
    <synapse sourceNeuronName = "0" targetNeuronName = "19" weight = "0.5315456532638827" />
    <synapse sourceNeuronName = "0" targetNeuronName = "20" weight = "0.266839618331417" />
    <synapse sourceNeuronName = "0" targetNeuronName = "21" weight = "-0.03334582556473431" />
    <synapse sourceNeuronName = "0" targetNeuronName = "22" weight = "0.6304515476882853" />
    <synapse sourceNeuronName = "0" targetNeuronName = "23" weight = "-0.7462289333852643" />
    <synapse sourceNeuronName = "0" targetNeuronName = "24" weight = "-0.6908336936751016" />
    <synapse sourceNeuronName = "0" targetNeuronName = "25" weight = "-0.32637931664043185" />
    <synapse sourceNeuronName = "1" targetNeuronName = "5" weight = "0.20195768369070133" />
    <synapse sourceNeuronName = "1" targetNeuronName = "6" weight = "0.5550526877611479" />
    <synapse sourceNeuronName = "1" targetNeuronName = "7" weight = "0.5486541518654238" />
    <synapse sourceNeuronName = "1" targetNeuronName = "8" weight = "0.6350789402053287" />
    <synapse sourceNeuronName = "1" targetNeuronName = "9" weight = "0.13484340828220676" />
    <synapse sourceNeuronName = "1" targetNeuronName = "10" weight = "-0.805203887057697" />
    <synapse sourceNeuronName = "1" targetNeuronName = "11" weight = "0.2857417221037548" />
    <synapse sourceNeuronName = "1" targetNeuronName = "12" weight = "-0.6709635300630827" />
    <synapse sourceNeuronName = "1" targetNeuronName = "13" weight = "-0.9450616319460925" />
    <synapse sourceNeuronName = "1" targetNeuronName = "14" weight = "0.7770018010591071" />
    <synapse sourceNeuronName = "1" targetNeuronName = "15" weight = "-0.7153351819049931" />
    <synapse sourceNeuronName = "1" targetNeuronName = "16" weight = "0.16626112636563217" />
    <synapse sourceNeuronName = "1" targetNeuronName = "17" weight = "0.14531188410193407" />
    <synapse sourceNeuronName = "1" targetNeuronName = "18" weight = "-0.7498031730612118" />
    <synapse sourceNeuronName = "1" targetNeuronName = "19" weight = "0.9706364631542528" />
    <synapse sourceNeuronName = "1" targetNeuronName = "20" weight = "0.2147751321077438" />
    <synapse sourceNeuronName = "1" targetNeuronName = "21" weight = "0.5975290673994247" />
    <synapse sourceNeuronName = "1" targetNeuronName = "22" weight = "-0.5917926209183009" />
    <synapse sourceNeuronName = "1" targetNeuronName = "23" weight = "-0.7422699797998549" />
    <synapse sourceNeuronName = "1" targetNeuronName = "24" weight = "-0.50458598288577" />
    <synapse sourceNeuronName = "1" targetNeuronName = "25" weight = "0.23539136403022876" />
    <synapse sourceNeuronName = "2" targetNeuronName = "5" weight = "-0.8619158175803261" />
    <synapse sourceNeuronName = "2" targetNeuronName = "6" weight = "-0.8501697299284057" />
    <synapse sourceNeuronName = "2" targetNeuronName = "7" weight = "-0.23810635097144628" />
    <synapse sourceNeuronName = "2" targetNeuronName = "8" weight = "0.20112624699673698" />
    <synapse sourceNeuronName = "2" targetNeuronName = "9" weight = "0.6049809217858444" />
    <synapse sourceNeuronName = "2" targetNeuronName = "10" weight = "-0.3071270851738823" />
    <synapse sourceNeuronName = "2" targetNeuronName = "11" weight = "-0.29123725634183817" />
    <synapse sourceNeuronName = "2" targetNeuronName = "12" weight = "-0.7461802466502396" />
    <synapse sourceNeuronName = "2" targetNeuronName = "13" weight = "-0.38720237660247125" />
    <synapse sourceNeuronName = "2" targetNeuronName = "14" weight = "0.2876479121076241" />
    <synapse sourceNeuronName = "2" targetNeuronName = "15" weight = "-0.3356606942227971" />
    <synapse sourceNeuronName = "2" targetNeuronName = "16" weight = "-0.5281831209812533" />
    <synapse sourceNeuronName = "2" targetNeuronName = "17" weight = "0.6797480058673802" />
    <synapse sourceNeuronName = "2" targetNeuronName = "18" weight = "0.1034426244010449" />
    <synapse sourceNeuronName = "2" targetNeuronName = "19" weight = "-0.2973124099071405" />
    <synapse sourceNeuronName = "2" targetNeuronName = "20" weight = "0.2882551253311001" />
    <synapse sourceNeuronName = "2" targetNeuronName = "21" weight = "-0.6685266671504935" />
    <synapse sourceNeuronName = "2" targetNeuronName = "22" weight = "0.8617654685201583" />
    <synapse sourceNeuronName = "2" targetNeuronName = "23" weight = "0.7983068757283784" />
    <synapse sourceNeuronName = "2" targetNeuronName = "24" weight = "0.29470970774301564" />
    <synapse sourceNeuronName = "2" targetNeuronName = "25" weight = "0.7398427239621812" />
    <synapse sourceNeuronName = "3" targetNeuronName = "5" weight = "0.16007961110614555" />
    <synapse sourceNeuronName = "3" targetNeuronName = "6" weight = "-0.8643451976757297" />
    <synapse sourceNeuronName = "3" targetNeuronName = "7" weight = "-0.7230182905031677" />
    <synapse sourceNeuronName = "3" targetNeuronName = "8" weight = "0.6225544461056118" />
    <synapse sourceNeuronName = "3" targetNeuronName = "9" weight = "-0.10069602330391203" />
    <synapse sourceNeuronName = "3" targetNeuronName = "10" weight = "0.14651654905858136" />
    <synapse sourceNeuronName = "3" targetNeuronName = "11" weight = "0.3382421826272035" />
    <synapse sourceNeuronName = "3" targetNeuronName = "12" weight = "-0.9297689090387331" />
    <synapse sourceNeuronName = "3" targetNeuronName = "13" weight = "0.815108536870027" />
    <synapse sourceNeuronName = "3" targetNeuronName = "14" weight = "-0.38137834232784784" />
    <synapse sourceNeuronName = "3" targetNeuronName = "15" weight = "-0.9105004842163187" />
    <synapse sourceNeuronName = "3" targetNeuronName = "16" weight = "0.8802748529189977" />
    <synapse sourceNeuronName = "3" targetNeuronName = "17" weight = "0.3883474308081898" />
    <synapse sourceNeuronName = "3" targetNeuronName = "18" weight = "0.7852988976436905" />
    <synapse sourceNeuronName = "3" targetNeuronName = "19" weight = "-0.5281926694930954" />
    <synapse sourceNeuronName = "3" targetNeuronName = "20" weight = "-0.35818012260804344" />
    <synapse sourceNeuronName = "3" targetNeuronName = "21" weight = "-0.4053950439369123" />
    <synapse sourceNeuronName = "3" targetNeuronName = "22" weight = "-0.055981269993916616" />
    <synapse sourceNeuronName = "3" targetNeuronName = "23" weight = "0.47638072719659474" />
    <synapse sourceNeuronName = "3" targetNeuronName = "24" weight = "-0.14863566646048776" />
    <synapse sourceNeuronName = "3" targetNeuronName = "25" weight = "0.7996574172495545" />
    <synapse sourceNeuronName = "4" targetNeuronName = "5" weight = "-0.3654753734764846" />
    <synapse sourceNeuronName = "4" targetNeuronName = "6" weight = "-0.009404533857666042" />
    <synapse sourceNeuronName = "4" targetNeuronName = "7" weight = "0.12383830620570557" />
    <synapse sourceNeuronName = "4" targetNeuronName = "8" weight = "0.03548251418176851" />
    <synapse sourceNeuronName = "4" targetNeuronName = "9" weight = "-0.893301845647648" />
    <synapse sourceNeuronName = "4" targetNeuronName = "10" weight = "-0.90988001024865" />
    <synapse sourceNeuronName = "4" targetNeuronName = "11" weight = "-0.018768286504335263" />
    <synapse sourceNeuronName = "4" targetNeuronName = "12" weight = "0.590954209865223" />
    <synapse sourceNeuronName = "4" targetNeuronName = "13" weight = "-0.9133387701793834" />
    <synapse sourceNeuronName = "4" targetNeuronName = "14" weight = "-0.25252336379145435" />
    <synapse sourceNeuronName = "4" targetNeuronName = "15" weight = "-0.9997218583311736" />
    <synapse sourceNeuronName = "4" targetNeuronName = "16" weight = "-0.35509109207340694" />
    <synapse sourceNeuronName = "4" targetNeuronName = "17" weight = "0.41442885895716364" />
    <synapse sourceNeuronName = "4" targetNeuronName = "18" weight = "-0.09715203046938492" />
    <synapse sourceNeuronName = "4" targetNeuronName = "19" weight = "0.07172301915164359" />
    <synapse sourceNeuronName = "4" targetNeuronName = "20" weight = "-0.9163170496559614" />
    <synapse sourceNeuronName = "4" targetNeuronName = "21" weight = "0.9461057402232786" />
    <synapse sourceNeuronName = "4" targetNeuronName = "22" weight = "-0.7224941168382171" />
    <synapse sourceNeuronName = "4" targetNeuronName = "23" weight = "0.6180559412107114" />
    <synapse sourceNeuronName = "4" targetNeuronName = "24" weight = "-0.6618607377726526" />
    <synapse sourceNeuronName = "4" targetNeuronName = "25" weight = "-0.5614521778635493" />
</neuralNetwork>