<neuralNetwork>
    <neuron name = "0" type = "sensor" linkName = "Link2" />
    <neuron name = "1" type = "sensor" linkName = "Link3" />
    <neuron name = "2" type = "sensor" linkName = "Link5" />
    <neuron name = "3" type = "sensor" linkName = "Link7" />
    <neuron name = "4" type = "motor"  jointName = "Link0_Cube00" />
    <neuron name = "5" type = "motor"  jointName = "Cube00_Link1" />
    <neuron name = "6" type = "motor"  jointName = "Link0_Link2" />
    <neuron name = "7" type = "motor"  jointName = "Link2_Cube02" />
    <neuron name = "8" type = "motor"  jointName = "Cube02_Cube12" />
    <neuron name = "9" type = "motor"  jointName = "Cube12_Link3" />
    <neuron name = "10" type = "motor"  jointName = "Link2_Cube03" />
    <neuron name = "11" type = "motor"  jointName = "Cube03_Link4" />
    <neuron name = "12" type = "motor"  jointName = "Link4_Link5" />
    <neuron name = "13" type = "motor"  jointName = "Link0_Link6" />
    <neuron name = "14" type = "motor"  jointName = "Link4_Cube06" />
    <neuron name = "15" type = "motor"  jointName = "Cube06_Link7" />
    <neuron name = "16" type = "motor"  jointName = "Link6_Cube07" />
    <neuron name = "17" type = "motor"  jointName = "Cube07_Link8" />
    <synapse sourceNeuronName = "0" targetNeuronName = "4" weight = "-0.5897859911978414" />
    <synapse sourceNeuronName = "0" targetNeuronName = "5" weight = "0.9438408057575864" />
    <synapse sourceNeuronName = "0" targetNeuronName = "6" weight = "0.26144591138310824" />
    <synapse sourceNeuronName = "0" targetNeuronName = "7" weight = "-0.3365984556640256" />
    <synapse sourceNeuronName = "0" targetNeuronName = "8" weight = "-0.40637261784047074" />
    <synapse sourceNeuronName = "0" targetNeuronName = "9" weight = "-0.6964908757190591" />
    <synapse sourceNeuronName = "0" targetNeuronName = "10" weight = "0.3523381520154065" />
    <synapse sourceNeuronName = "0" targetNeuronName = "11" weight = "-0.10228236725163287" />
    <synapse sourceNeuronName = "0" targetNeuronName = "12" weight = "0.6623506383738893" />
    <synapse sourceNeuronName = "0" targetNeuronName = "13" weight = "-0.5111955669912984" />
    <synapse sourceNeuronName = "0" targetNeuronName = "14" weight = "-0.5431111868345149" />
    <synapse sourceNeuronName = "0" targetNeuronName = "15" weight = "-0.09638388343457671" />
    <synapse sourceNeuronName = "0" targetNeuronName = "16" weight = "-0.1497748668483525" />
    <synapse sourceNeuronName = "0" targetNeuronName = "17" weight = "-0.44923058389387793" />
    <synapse sourceNeuronName = "1" targetNeuronName = "4" weight = "0.8932660573428055" />
    <synapse sourceNeuronName = "1" targetNeuronName = "5" weight = "-0.4675653936559061" />
    <synapse sourceNeuronName = "1" targetNeuronName = "6" weight = "0.644757414163778" />
    <synapse sourceNeuronName = "1" targetNeuronName = "7" weight = "0.2409197437968844" />
    <synapse sourceNeuronName = "1" targetNeuronName = "8" weight = "-0.11764929888075248" />
    <synapse sourceNeuronName = "1" targetNeuronName = "9" weight = "-0.19054238183628258" />
    <synapse sourceNeuronName = "1" targetNeuronName = "10" weight = "0.6226322269202229" />
    <synapse sourceNeuronName = "1" targetNeuronName = "11" weight = "0.7345725993343128" />
    <synapse sourceNeuronName = "1" targetNeuronName = "12" weight = "-0.022319344023467913" />
    <synapse sourceNeuronName = "1" targetNeuronName = "13" weight = "0.2966343886965186" />
    <synapse sourceNeuronName = "1" targetNeuronName = "14" weight = "-0.9051740541569158" />
    <synapse sourceNeuronName = "1" targetNeuronName = "15" weight = "-0.4441184036463657" />
    <synapse sourceNeuronName = "1" targetNeuronName = "16" weight = "0.6874242728234041" />
    <synapse sourceNeuronName = "1" targetNeuronName = "17" weight = "-0.35046994388090735" />
    <synapse sourceNeuronName = "2" targetNeuronName = "4" weight = "-0.5010087295406171" />
    <synapse sourceNeuronName = "2" targetNeuronName = "5" weight = "-0.5984011688706417" />
    <synapse sourceNeuronName = "2" targetNeuronName = "6" weight = "0.694211121151556" />
    <synapse sourceNeuronName = "2" targetNeuronName = "7" weight = "0.2691849622952318" />
    <synapse sourceNeuronName = "2" targetNeuronName = "8" weight = "-0.5939173703277709" />
    <synapse sourceNeuronName = "2" targetNeuronName = "9" weight = "-0.8844463839780292" />
    <synapse sourceNeuronName = "2" targetNeuronName = "10" weight = "-0.39330038482296725" />
    <synapse sourceNeuronName = "2" targetNeuronName = "11" weight = "-0.2052397497294669" />
    <synapse sourceNeuronName = "2" targetNeuronName = "12" weight = "-0.5572401031050549" />
    <synapse sourceNeuronName = "2" targetNeuronName = "13" weight = "0.2599088188930987" />
    <synapse sourceNeuronName = "2" targetNeuronName = "14" weight = "0.7815417392753123" />
    <synapse sourceNeuronName = "2" targetNeuronName = "15" weight = "-0.8163678738555025" />
    <synapse sourceNeuronName = "2" targetNeuronName = "16" weight = "0.23376249672718763" />
    <synapse sourceNeuronName = "2" targetNeuronName = "17" weight = "-0.7203891313914941" />
    <synapse sourceNeuronName = "3" targetNeuronName = "4" weight = "-0.9162233259204535" />
    <synapse sourceNeuronName = "3" targetNeuronName = "5" weight = "-0.4886901561282022" />
    <synapse sourceNeuronName = "3" targetNeuronName = "6" weight = "0.6292317940363867" />
    <synapse sourceNeuronName = "3" targetNeuronName = "7" weight = "0.7215354489841641" />
    <synapse sourceNeuronName = "3" targetNeuronName = "8" weight = "-0.2038437639971442" />
    <synapse sourceNeuronName = "3" targetNeuronName = "9" weight = "-0.9936994864871638" />
    <synapse sourceNeuronName = "3" targetNeuronName = "10" weight = "0.3009243460981361" />
    <synapse sourceNeuronName = "3" targetNeuronName = "11" weight = "-0.31209207997077537" />
    <synapse sourceNeuronName = "3" targetNeuronName = "12" weight = "-0.3882792789505747" />
    <synapse sourceNeuronName = "3" targetNeuronName = "13" weight = "-0.7642147580723022" />
    <synapse sourceNeuronName = "3" targetNeuronName = "14" weight = "0.37806369984394395" />
    <synapse sourceNeuronName = "3" targetNeuronName = "15" weight = "0.6662641111404015" />
    <synapse sourceNeuronName = "3" targetNeuronName = "16" weight = "-0.010269799430901116" />
    <synapse sourceNeuronName = "3" targetNeuronName = "17" weight = "0.07917880444322489" />
</neuralNetwork>