<neuralNetwork>
    <neuron name = "0" type = "sensor" linkName = "Link1" />
    <neuron name = "1" type = "sensor" linkName = "Link2" />
    <neuron name = "2" type = "sensor" linkName = "Link4" />
    <neuron name = "3" type = "sensor" linkName = "Link5" />
    <neuron name = "4" type = "sensor" linkName = "Link7" />
    <neuron name = "5" type = "motor"  jointName = "Link0_Link1" />
    <neuron name = "6" type = "motor"  jointName = "Link0_Cube01" />
    <neuron name = "7" type = "motor"  jointName = "Cube01_Cube11" />
    <neuron name = "8" type = "motor"  jointName = "Cube11_Link2" />
    <neuron name = "9" type = "motor"  jointName = "Link0_Cube02" />
    <neuron name = "10" type = "motor"  jointName = "Cube02_Cube12" />
    <neuron name = "11" type = "motor"  jointName = "Cube12_Link3" />
    <neuron name = "12" type = "motor"  jointName = "Link2_Link4" />
    <neuron name = "13" type = "motor"  jointName = "Link0_Cube04" />
    <neuron name = "14" type = "motor"  jointName = "Cube04_Cube14" />
    <neuron name = "15" type = "motor"  jointName = "Cube14_Link5" />
    <neuron name = "16" type = "motor"  jointName = "Link5_Cube05" />
    <neuron name = "17" type = "motor"  jointName = "Cube05_Cube15" />
    <neuron name = "18" type = "motor"  jointName = "Cube15_Link6" />
    <neuron name = "19" type = "motor"  jointName = "Link2_Cube06" />
    <neuron name = "20" type = "motor"  jointName = "Cube06_Cube16" />
    <neuron name = "21" type = "motor"  jointName = "Cube16_Link7" />
    <neuron name = "22" type = "motor"  jointName = "Link0_Cube07" />
    <neuron name = "23" type = "motor"  jointName = "Cube07_Link8" />
    <neuron name = "24" type = "motor"  jointName = "Link8_Cube08" />
    <neuron name = "25" type = "motor"  jointName = "Cube08_Link9" />
    <synapse sourceNeuronName = "0" targetNeuronName = "5" weight = "-0.22763813883471307" />
    <synapse sourceNeuronName = "0" targetNeuronName = "6" weight = "0.039236445047587276" />
    <synapse sourceNeuronName = "0" targetNeuronName = "7" weight = "-0.07391285995370267" />
    <synapse sourceNeuronName = "0" targetNeuronName = "8" weight = "-0.5611146397956082" />
    <synapse sourceNeuronName = "0" targetNeuronName = "9" weight = "-0.8328954815127934" />
    <synapse sourceNeuronName = "0" targetNeuronName = "10" weight = "0.7276330618608062" />
    <synapse sourceNeuronName = "0" targetNeuronName = "11" weight = "0.10552264479182139" />
    <synapse sourceNeuronName = "0" targetNeuronName = "12" weight = "0.888563108898256" />
    <synapse sourceNeuronName = "0" targetNeuronName = "13" weight = "-0.0876848556656431" />
    <synapse sourceNeuronName = "0" targetNeuronName = "14" weight = "0.10418360918146874" />
    <synapse sourceNeuronName = "0" targetNeuronName = "15" weight = "-0.791804202095894" />
    <synapse sourceNeuronName = "0" targetNeuronName = "16" weight = "0.7364398040636506" />
    <synapse sourceNeuronName = "0" targetNeuronName = "17" weight = "0.16105166728917109" />
    <synapse sourceNeuronName = "0" targetNeuronName = "18" weight = "-0.5346976794794625" />
    <synapse sourceNeuronName = "0" targetNeuronName = "19" weight = "0.798029694916401" />
    <synapse sourceNeuronName = "0" targetNeuronName = "20" weight = "-0.6892182152406263" />
    <synapse sourceNeuronName = "0" targetNeuronName = "21" weight = "0.8149225670090032" />
    <synapse sourceNeuronName = "0" targetNeuronName = "22" weight = "0.023609430179694968" />
    <synapse sourceNeuronName = "0" targetNeuronName = "23" weight = "0.5787276474155598" />
    <synapse sourceNeuronName = "0" targetNeuronName = "24" weight = "-0.35558599730240514" />
    <synapse sourceNeuronName = "0" targetNeuronName = "25" weight = "-0.38918612629340865" />
    <synapse sourceNeuronName = "1" targetNeuronName = "5" weight = "-0.6273728119562669" />
    <synapse sourceNeuronName = "1" targetNeuronName = "6" weight = "0.9344245414275381" />
    <synapse sourceNeuronName = "1" targetNeuronName = "7" weight = "-0.4007267542212285" />
    <synapse sourceNeuronName = "1" targetNeuronName = "8" weight = "0.5578999682650616" />
    <synapse sourceNeuronName = "1" targetNeuronName = "9" weight = "-0.9888831592029155" />
    <synapse sourceNeuronName = "1" targetNeuronName = "10" weight = "-0.43267275432138885" />
    <synapse sourceNeuronName = "1" targetNeuronName = "11" weight = "0.5684481523992495" />
    <synapse sourceNeuronName = "1" targetNeuronName = "12" weight = "-0.46778178945415094" />
    <synapse sourceNeuronName = "1" targetNeuronName = "13" weight = "0.43942833802496883" />
    <synapse sourceNeuronName = "1" targetNeuronName = "14" weight = "0.4763690117556172" />
    <synapse sourceNeuronName = "1" targetNeuronName = "15" weight = "0.19842288127367724" />
    <synapse sourceNeuronName = "1" targetNeuronName = "16" weight = "0.04450808054860578" />
    <synapse sourceNeuronName = "1" targetNeuronName = "17" weight = "-0.48877818040721266" />
    <synapse sourceNeuronName = "1" targetNeuronName = "18" weight = "-0.7572757942287867" />
    <synapse sourceNeuronName = "1" targetNeuronName = "19" weight = "0.8497008350102251" />
    <synapse sourceNeuronName = "1" targetNeuronName = "20" weight = "-0.09630126094418845" />
    <synapse sourceNeuronName = "1" targetNeuronName = "21" weight = "-0.9720555121279273" />
    <synapse sourceNeuronName = "1" targetNeuronName = "22" weight = "0.5768974265004068" />
    <synapse sourceNeuronName = "1" targetNeuronName = "23" weight = "0.7238856952330053" />
    <synapse sourceNeuronName = "1" targetNeuronName = "24" weight = "-0.3290267827663258" />
    <synapse sourceNeuronName = "1" targetNeuronName = "25" weight = "-0.538925584153116" />
    <synapse sourceNeuronName = "2" targetNeuronName = "5" weight = "-0.16220465232636516" />
    <synapse sourceNeuronName = "2" targetNeuronName = "6" weight = "-0.19555821647237637" />
    <synapse sourceNeuronName = "2" targetNeuronName = "7" weight = "0.00557055334868517" />
    <synapse sourceNeuronName = "2" targetNeuronName = "8" weight = "-0.17891463053557088" />
    <synapse sourceNeuronName = "2" targetNeuronName = "9" weight = "0.8796612630319116" />
    <synapse sourceNeuronName = "2" targetNeuronName = "10" weight = "0.5359806293595912" />
    <synapse sourceNeuronName = "2" targetNeuronName = "11" weight = "-0.7718154143476175" />
    <synapse sourceNeuronName = "2" targetNeuronName = "12" weight = "0.9868317389747645" />
    <synapse sourceNeuronName = "2" targetNeuronName = "13" weight = "0.6998371561561705" />
    <synapse sourceNeuronName = "2" targetNeuronName = "14" weight = "-0.34541623005082056" />
    <synapse sourceNeuronName = "2" targetNeuronName = "15" weight = "-0.09397580881666712" />
    <synapse sourceNeuronName = "2" targetNeuronName = "16" weight = "-0.7451591868373595" />
    <synapse sourceNeuronName = "2" targetNeuronName = "17" weight = "0.40502924310268207" />
    <synapse sourceNeuronName = "2" targetNeuronName = "18" weight = "-0.7426085742610038" />
    <synapse sourceNeuronName = "2" targetNeuronName = "19" weight = "-0.013901269472713862" />
    <synapse sourceNeuronName = "2" targetNeuronName = "20" weight = "0.14823043804360458" />
    <synapse sourceNeuronName = "2" targetNeuronName = "21" weight = "0.7868022548606626" />
    <synapse sourceNeuronName = "2" targetNeuronName = "22" weight = "0.2691855741138831" />
    <synapse sourceNeuronName = "2" targetNeuronName = "23" weight = "-0.980339977899827" />
    <synapse sourceNeuronName = "2" targetNeuronName = "24" weight = "0.7924747076115557" />
    <synapse sourceNeuronName = "2" targetNeuronName = "25" weight = "0.27962941033387634" />
    <synapse sourceNeuronName = "3" targetNeuronName = "5" weight = "-0.7538242691190828" />
    <synapse sourceNeuronName = "3" targetNeuronName = "6" weight = "-0.4412692963861986" />
    <synapse sourceNeuronName = "3" targetNeuronName = "7" weight = "0.6866238209087985" />
    <synapse sourceNeuronName = "3" targetNeuronName = "8" weight = "0.693751683545119" />
    <synapse sourceNeuronName = "3" targetNeuronName = "9" weight = "-0.1965464114722424" />
    <synapse sourceNeuronName = "3" targetNeuronName = "10" weight = "0.609309490828152" />
    <synapse sourceNeuronName = "3" targetNeuronName = "11" weight = "-0.8903462676603848" />
    <synapse sourceNeuronName = "3" targetNeuronName = "12" weight = "-0.47340147224018403" />
    <synapse sourceNeuronName = "3" targetNeuronName = "13" weight = "-0.46917263624287053" />
    <synapse sourceNeuronName = "3" targetNeuronName = "14" weight = "-0.7845248335767645" />
    <synapse sourceNeuronName = "3" targetNeuronName = "15" weight = "-0.4546226628822263" />
    <synapse sourceNeuronName = "3" targetNeuronName = "16" weight = "0.22761730517299528" />
    <synapse sourceNeuronName = "3" targetNeuronName = "17" weight = "-0.5466853861028855" />
    <synapse sourceNeuronName = "3" targetNeuronName = "18" weight = "0.5533841334538812" />
    <synapse sourceNeuronName = "3" targetNeuronName = "19" weight = "0.4931835717460593" />
    <synapse sourceNeuronName = "3" targetNeuronName = "20" weight = "-0.8201053516623664" />
    <synapse sourceNeuronName = "3" targetNeuronName = "21" weight = "0.14055922201654858" />
    <synapse sourceNeuronName = "3" targetNeuronName = "22" weight = "-0.044146468253644544" />
    <synapse sourceNeuronName = "3" targetNeuronName = "23" weight = "0.3178115919985367" />
    <synapse sourceNeuronName = "3" targetNeuronName = "24" weight = "0.9629604668195946" />
    <synapse sourceNeuronName = "3" targetNeuronName = "25" weight = "0.3174430232649128" />
    <synapse sourceNeuronName = "4" targetNeuronName = "5" weight = "0.7145329308538533" />
    <synapse sourceNeuronName = "4" targetNeuronName = "6" weight = "-0.8777719917904852" />
    <synapse sourceNeuronName = "4" targetNeuronName = "7" weight = "0.42136431385534423" />
    <synapse sourceNeuronName = "4" targetNeuronName = "8" weight = "0.2216918656886544" />
    <synapse sourceNeuronName = "4" targetNeuronName = "9" weight = "0.7828971830838805" />
    <synapse sourceNeuronName = "4" targetNeuronName = "10" weight = "0.030915451292036877" />
    <synapse sourceNeuronName = "4" targetNeuronName = "11" weight = "0.08283308696210123" />
    <synapse sourceNeuronName = "4" targetNeuronName = "12" weight = "-0.8460606070657071" />
    <synapse sourceNeuronName = "4" targetNeuronName = "13" weight = "-0.9117231276384223" />
    <synapse sourceNeuronName = "4" targetNeuronName = "14" weight = "0.8862171361993378" />
    <synapse sourceNeuronName = "4" targetNeuronName = "15" weight = "0.9248281327374872" />
    <synapse sourceNeuronName = "4" targetNeuronName = "16" weight = "-0.37650486022566976" />
    <synapse sourceNeuronName = "4" targetNeuronName = "17" weight = "0.8184250557591057" />
    <synapse sourceNeuronName = "4" targetNeuronName = "18" weight = "-0.42741295795824974" />
    <synapse sourceNeuronName = "4" targetNeuronName = "19" weight = "-0.9216639825761441" />
    <synapse sourceNeuronName = "4" targetNeuronName = "20" weight = "0.18616476152052375" />
    <synapse sourceNeuronName = "4" targetNeuronName = "21" weight = "0.7246354937262269" />
    <synapse sourceNeuronName = "4" targetNeuronName = "22" weight = "0.2746451607496643" />
    <synapse sourceNeuronName = "4" targetNeuronName = "23" weight = "-0.5233831566702134" />
    <synapse sourceNeuronName = "4" targetNeuronName = "24" weight = "-0.5793411292700557" />
    <synapse sourceNeuronName = "4" targetNeuronName = "25" weight = "-0.6430614405636383" />
</neuralNetwork>