<neuralNetwork>
    <neuron name = "0" type = "sensor" linkName = "Link0" />
    <neuron name = "1" type = "sensor" linkName = "Link2" />
    <neuron name = "2" type = "sensor" linkName = "Link4" />
    <neuron name = "3" type = "motor"  jointName = "Link0_Link1" />
    <neuron name = "4" type = "motor"  jointName = "Link0_Cube01" />
    <neuron name = "5" type = "motor"  jointName = "Cube01_Link2" />
    <neuron name = "6" type = "motor"  jointName = "Link0_Link3" />
    <neuron name = "7" type = "motor"  jointName = "Link0_Cube03" />
    <neuron name = "8" type = "motor"  jointName = "Cube03_Cube13" />
    <neuron name = "9" type = "motor"  jointName = "Cube13_Link4" />
    <neuron name = "10" type = "motor"  jointName = "Link1_Cube04" />
    <neuron name = "11" type = "motor"  jointName = "Cube04_Cube14" />
    <neuron name = "12" type = "motor"  jointName = "Cube14_Link5" />
    <neuron name = "13" type = "motor"  jointName = "Link2_Link6" />
    <synapse sourceNeuronName = "0" targetNeuronName = "3" weight = "-0.9150271194644575" />
    <synapse sourceNeuronName = "0" targetNeuronName = "4" weight = "-0.1099029165484009" />
    <synapse sourceNeuronName = "0" targetNeuronName = "5" weight = "-0.8615396697347604" />
    <synapse sourceNeuronName = "0" targetNeuronName = "6" weight = "-0.741608453264242" />
    <synapse sourceNeuronName = "0" targetNeuronName = "7" weight = "-0.8032267357432539" />
    <synapse sourceNeuronName = "0" targetNeuronName = "8" weight = "-0.33510885763875575" />
    <synapse sourceNeuronName = "0" targetNeuronName = "9" weight = "0.07036418243486708" />
    <synapse sourceNeuronName = "0" targetNeuronName = "10" weight = "0.9583290190902451" />
    <synapse sourceNeuronName = "0" targetNeuronName = "11" weight = "-0.6111251757053215" />
    <synapse sourceNeuronName = "0" targetNeuronName = "12" weight = "0.6413242239453143" />
    <synapse sourceNeuronName = "0" targetNeuronName = "13" weight = "0.4943576693718019" />
    <synapse sourceNeuronName = "1" targetNeuronName = "3" weight = "-0.7564004070202752" />
    <synapse sourceNeuronName = "1" targetNeuronName = "4" weight = "0.19229442913781702" />
    <synapse sourceNeuronName = "1" targetNeuronName = "5" weight = "0.24325213925178146" />
    <synapse sourceNeuronName = "1" targetNeuronName = "6" weight = "0.09544640938670912" />
    <synapse sourceNeuronName = "1" targetNeuronName = "7" weight = "-0.8567242109735429" />
    <synapse sourceNeuronName = "1" targetNeuronName = "8" weight = "0.6825883824529635" />
    <synapse sourceNeuronName = "1" targetNeuronName = "9" weight = "-0.10326958091418659" />
    <synapse sourceNeuronName = "1" targetNeuronName = "10" weight = "0.9790427243019799" />
    <synapse sourceNeuronName = "1" targetNeuronName = "11" weight = "-0.9946291485592884" />
    <synapse sourceNeuronName = "1" targetNeuronName = "12" weight = "-0.8758158391377489" />
    <synapse sourceNeuronName = "1" targetNeuronName = "13" weight = "-0.9383889349977841" />
    <synapse sourceNeuronName = "2" targetNeuronName = "3" weight = "-0.8819951031212141" />
    <synapse sourceNeuronName = "2" targetNeuronName = "4" weight = "0.6812161812407289" />
    <synapse sourceNeuronName = "2" targetNeuronName = "5" weight = "0.26110543022727906" />
    <synapse sourceNeuronName = "2" targetNeuronName = "6" weight = "-0.25369580670064606" />
    <synapse sourceNeuronName = "2" targetNeuronName = "7" weight = "-0.5227547849668168" />
    <synapse sourceNeuronName = "2" targetNeuronName = "8" weight = "-0.17318519416583822" />
    <synapse sourceNeuronName = "2" targetNeuronName = "9" weight = "-0.527533442726208" />
    <synapse sourceNeuronName = "2" targetNeuronName = "10" weight = "-0.6036953289612335" />
    <synapse sourceNeuronName = "2" targetNeuronName = "11" weight = "0.7707543220396609" />
    <synapse sourceNeuronName = "2" targetNeuronName = "12" weight = "-0.5400642001938043" />
    <synapse sourceNeuronName = "2" targetNeuronName = "13" weight = "0.18347771154863457" />
</neuralNetwork>