<neuralNetwork>
    <neuron name = "0" type = "sensor" linkName = "Link0" />
    <neuron name = "1" type = "sensor" linkName = "Link1" />
    <neuron name = "2" type = "sensor" linkName = "Link2" />
    <neuron name = "3" type = "sensor" linkName = "Link3" />
    <neuron name = "4" type = "sensor" linkName = "Link6" />
    <neuron name = "5" type = "sensor" linkName = "Link7" />
    <neuron name = "6" type = "sensor" linkName = "Link8" />
    <neuron name = "7" type = "sensor" linkName = "Link10" />
    <neuron name = "8" type = "sensor" linkName = "Link12" />
    <neuron name = "9" type = "sensor" linkName = "Link13" />
    <neuron name = "10" type = "motor"  jointName = "Link0_Cube00" />
    <neuron name = "11" type = "motor"  jointName = "Cube00_Link1" />
    <neuron name = "12" type = "motor"  jointName = "Link1_Cube01" />
    <neuron name = "13" type = "motor"  jointName = "Cube01_Link2" />
    <neuron name = "14" type = "motor"  jointName = "Link0_Cube02" />
    <neuron name = "15" type = "motor"  jointName = "Cube02_Cube12" />
    <neuron name = "16" type = "motor"  jointName = "Cube12_Link3" />
    <neuron name = "17" type = "motor"  jointName = "Link3_Link4" />
    <neuron name = "18" type = "motor"  jointName = "Link1_Cube04" />
    <neuron name = "19" type = "motor"  jointName = "Cube04_Cube14" />
    <neuron name = "20" type = "motor"  jointName = "Cube14_Link5" />
    <neuron name = "21" type = "motor"  jointName = "Link5_Cube05" />
    <neuron name = "22" type = "motor"  jointName = "Cube05_Link6" />
    <neuron name = "23" type = "motor"  jointName = "Link4_Cube06" />
    <neuron name = "24" type = "motor"  jointName = "Cube06_Link7" />
    <neuron name = "25" type = "motor"  jointName = "Link4_Cube07" />
    <neuron name = "26" type = "motor"  jointName = "Cube07_Cube17" />
    <neuron name = "27" type = "motor"  jointName = "Cube17_Link8" />
    <neuron name = "28" type = "motor"  jointName = "Link3_Cube08" />
    <neuron name = "29" type = "motor"  jointName = "Cube08_Link9" />
    <neuron name = "30" type = "motor"  jointName = "Link3_Cube09" />
    <neuron name = "31" type = "motor"  jointName = "Cube09_Link10" />
    <neuron name = "32" type = "motor"  jointName = "Link4_Cube010" />
    <neuron name = "33" type = "motor"  jointName = "Cube010_Cube110" />
    <neuron name = "34" type = "motor"  jointName = "Cube110_Link11" />
    <neuron name = "35" type = "motor"  jointName = "Link7_Cube011" />
    <neuron name = "36" type = "motor"  jointName = "Cube011_Link12" />
    <neuron name = "37" type = "motor"  jointName = "Link4_Link13" />
    <neuron name = "38" type = "motor"  jointName = "Link12_Cube013" />
    <neuron name = "39" type = "motor"  jointName = "Cube013_Link14" />
    <neuron name = "40" type = "motor"  jointName = "Link8_Cube014" />
    <neuron name = "41" type = "motor"  jointName = "Cube014_Cube114" />
    <neuron name = "42" type = "motor"  jointName = "Cube114_Link15" />
    <neuron name = "43" type = "motor"  jointName = "Link1_Link16" />
    <synapse sourceNeuronName = "0" targetNeuronName = "10" weight = "0.3792578005665086" />
    <synapse sourceNeuronName = "0" targetNeuronName = "11" weight = "-0.3809583235360683" />
    <synapse sourceNeuronName = "0" targetNeuronName = "12" weight = "0.5380574106768821" />
    <synapse sourceNeuronName = "0" targetNeuronName = "13" weight = "-0.04372094119915215" />
    <synapse sourceNeuronName = "0" targetNeuronName = "14" weight = "-0.16333165798969462" />
    <synapse sourceNeuronName = "0" targetNeuronName = "15" weight = "0.6036476269415456" />
    <synapse sourceNeuronName = "0" targetNeuronName = "16" weight = "0.21194312088817524" />
    <synapse sourceNeuronName = "0" targetNeuronName = "17" weight = "0.4575258393985193" />
    <synapse sourceNeuronName = "0" targetNeuronName = "18" weight = "-0.4791787148842408" />
    <synapse sourceNeuronName = "0" targetNeuronName = "19" weight = "0.12931407948452622" />
    <synapse sourceNeuronName = "0" targetNeuronName = "20" weight = "-0.10539574100528082" />
    <synapse sourceNeuronName = "0" targetNeuronName = "21" weight = "0.006567997903791367" />
    <synapse sourceNeuronName = "0" targetNeuronName = "22" weight = "0.5438028028724209" />
    <synapse sourceNeuronName = "0" targetNeuronName = "23" weight = "-0.8318660567825782" />
    <synapse sourceNeuronName = "0" targetNeuronName = "24" weight = "0.7705943334047747" />
    <synapse sourceNeuronName = "0" targetNeuronName = "25" weight = "0.46655625752084773" />
    <synapse sourceNeuronName = "0" targetNeuronName = "26" weight = "-0.6440507278766319" />
    <synapse sourceNeuronName = "0" targetNeuronName = "27" weight = "0.3704888061084286" />
    <synapse sourceNeuronName = "0" targetNeuronName = "28" weight = "0.2903573752369666" />
    <synapse sourceNeuronName = "0" targetNeuronName = "29" weight = "-0.15078695892974303" />
    <synapse sourceNeuronName = "0" targetNeuronName = "30" weight = "-0.06373305591950706" />
    <synapse sourceNeuronName = "0" targetNeuronName = "31" weight = "-0.40130961591488834" />
    <synapse sourceNeuronName = "0" targetNeuronName = "32" weight = "-0.6908701912152797" />
    <synapse sourceNeuronName = "0" targetNeuronName = "33" weight = "-0.31823119689787616" />
    <synapse sourceNeuronName = "0" targetNeuronName = "34" weight = "-0.05721679250218781" />
    <synapse sourceNeuronName = "0" targetNeuronName = "35" weight = "-0.6965275783577256" />
    <synapse sourceNeuronName = "0" targetNeuronName = "36" weight = "-0.13734716955331328" />
    <synapse sourceNeuronName = "0" targetNeuronName = "37" weight = "-0.5152189910785367" />
    <synapse sourceNeuronName = "0" targetNeuronName = "38" weight = "0.7144964732097263" />
    <synapse sourceNeuronName = "0" targetNeuronName = "39" weight = "0.6029914256240689" />
    <synapse sourceNeuronName = "0" targetNeuronName = "40" weight = "-0.6664985021091239" />
    <synapse sourceNeuronName = "0" targetNeuronName = "41" weight = "-0.9262389326597809" />
    <synapse sourceNeuronName = "0" targetNeuronName = "42" weight = "-0.22483792139916137" />
    <synapse sourceNeuronName = "0" targetNeuronName = "43" weight = "-0.7335600043550985" />
    <synapse sourceNeuronName = "1" targetNeuronName = "10" weight = "-0.7728785062149872" />
    <synapse sourceNeuronName = "1" targetNeuronName = "11" weight = "-0.016405994308061445" />
    <synapse sourceNeuronName = "1" targetNeuronName = "12" weight = "-0.2798379587153452" />
    <synapse sourceNeuronName = "1" targetNeuronName = "13" weight = "0.05961409390061756" />
    <synapse sourceNeuronName = "1" targetNeuronName = "14" weight = "-0.09868684410261408" />
    <synapse sourceNeuronName = "1" targetNeuronName = "15" weight = "0.8933039053402763" />
    <synapse sourceNeuronName = "1" targetNeuronName = "16" weight = "-0.19092237593268124" />
    <synapse sourceNeuronName = "1" targetNeuronName = "17" weight = "-0.322373424140344" />
    <synapse sourceNeuronName = "1" targetNeuronName = "18" weight = "-0.670127973765029" />
    <synapse sourceNeuronName = "1" targetNeuronName = "19" weight = "-0.16342260178331114" />
    <synapse sourceNeuronName = "1" targetNeuronName = "20" weight = "-0.16159201712187943" />
    <synapse sourceNeuronName = "1" targetNeuronName = "21" weight = "-0.27766106797947065" />
    <synapse sourceNeuronName = "1" targetNeuronName = "22" weight = "-0.17227553164064124" />
    <synapse sourceNeuronName = "1" targetNeuronName = "23" weight = "-0.7997259054016708" />
    <synapse sourceNeuronName = "1" targetNeuronName = "24" weight = "-0.2348326730803194" />
    <synapse sourceNeuronName = "1" targetNeuronName = "25" weight = "0.3702892462631442" />
    <synapse sourceNeuronName = "1" targetNeuronName = "26" weight = "0.9727428037548795" />
    <synapse sourceNeuronName = "1" targetNeuronName = "27" weight = "0.5235635520375346" />
    <synapse sourceNeuronName = "1" targetNeuronName = "28" weight = "-0.26023482076933147" />
    <synapse sourceNeuronName = "1" targetNeuronName = "29" weight = "-0.2280812250061386" />
    <synapse sourceNeuronName = "1" targetNeuronName = "30" weight = "0.040854079921786024" />
    <synapse sourceNeuronName = "1" targetNeuronName = "31" weight = "-0.0009908558820588276" />
    <synapse sourceNeuronName = "1" targetNeuronName = "32" weight = "-0.15721156152174554" />
    <synapse sourceNeuronName = "1" targetNeuronName = "33" weight = "-0.6230737581033767" />
    <synapse sourceNeuronName = "1" targetNeuronName = "34" weight = "0.6337854503544815" />
    <synapse sourceNeuronName = "1" targetNeuronName = "35" weight = "0.1960121805541557" />
    <synapse sourceNeuronName = "1" targetNeuronName = "36" weight = "-0.002618129666381641" />
    <synapse sourceNeuronName = "1" targetNeuronName = "37" weight = "0.7962174683854089" />
    <synapse sourceNeuronName = "1" targetNeuronName = "38" weight = "0.9976181414661247" />
    <synapse sourceNeuronName = "1" targetNeuronName = "39" weight = "0.32157202147311703" />
    <synapse sourceNeuronName = "1" targetNeuronName = "40" weight = "0.15415494263271223" />
    <synapse sourceNeuronName = "1" targetNeuronName = "41" weight = "0.820454847571275" />
    <synapse sourceNeuronName = "1" targetNeuronName = "42" weight = "-0.5071437747833856" />
    <synapse sourceNeuronName = "1" targetNeuronName = "43" weight = "-0.2405319633351981" />
    <synapse sourceNeuronName = "2" targetNeuronName = "10" weight = "0.9307276534769191" />
    <synapse sourceNeuronName = "2" targetNeuronName = "11" weight = "0.8653959824422868" />
    <synapse sourceNeuronName = "2" targetNeuronName = "12" weight = "0.6267681456546419" />
    <synapse sourceNeuronName = "2" targetNeuronName = "13" weight = "0.2802394578924461" />
    <synapse sourceNeuronName = "2" targetNeuronName = "14" weight = "0.14390090098893804" />
    <synapse sourceNeuronName = "2" targetNeuronName = "15" weight = "0.511523505993539" />
    <synapse sourceNeuronName = "2" targetNeuronName = "16" weight = "-0.6178374304169145" />
    <synapse sourceNeuronName = "2" targetNeuronName = "17" weight = "0.010460771238020028" />
    <synapse sourceNeuronName = "2" targetNeuronName = "18" weight = "-0.5469473710762096" />
    <synapse sourceNeuronName = "2" targetNeuronName = "19" weight = "0.4810531861764713" />
    <synapse sourceNeuronName = "2" targetNeuronName = "20" weight = "0.20688480181988433" />
    <synapse sourceNeuronName = "2" targetNeuronName = "21" weight = "-0.42467681225362197" />
    <synapse sourceNeuronName = "2" targetNeuronName = "22" weight = "-0.9622815038376951" />
    <synapse sourceNeuronName = "2" targetNeuronName = "23" weight = "0.6664845866796127" />
    <synapse sourceNeuronName = "2" targetNeuronName = "24" weight = "-0.2527329989767291" />
    <synapse sourceNeuronName = "2" targetNeuronName = "25" weight = "0.7055017499108769" />
    <synapse sourceNeuronName = "2" targetNeuronName = "26" weight = "0.39860352082146155" />
    <synapse sourceNeuronName = "2" targetNeuronName = "27" weight = "0.8420213725077452" />
    <synapse sourceNeuronName = "2" targetNeuronName = "28" weight = "-0.47190352682686965" />
    <synapse sourceNeuronName = "2" targetNeuronName = "29" weight = "0.7306852602307765" />
    <synapse sourceNeuronName = "2" targetNeuronName = "30" weight = "-0.13511258320508146" />
    <synapse sourceNeuronName = "2" targetNeuronName = "31" weight = "-0.596771830239126" />
    <synapse sourceNeuronName = "2" targetNeuronName = "32" weight = "-0.8648282189517338" />
    <synapse sourceNeuronName = "2" targetNeuronName = "33" weight = "-0.21476854596394368" />
    <synapse sourceNeuronName = "2" targetNeuronName = "34" weight = "0.10386146405492958" />
    <synapse sourceNeuronName = "2" targetNeuronName = "35" weight = "-0.13068809636101486" />
    <synapse sourceNeuronName = "2" targetNeuronName = "36" weight = "-0.4814613516041306" />
    <synapse sourceNeuronName = "2" targetNeuronName = "37" weight = "-0.8810128151649332" />
    <synapse sourceNeuronName = "2" targetNeuronName = "38" weight = "-0.9798603487494448" />
    <synapse sourceNeuronName = "2" targetNeuronName = "39" weight = "0.7312119732191458" />
    <synapse sourceNeuronName = "2" targetNeuronName = "40" weight = "0.9527102473076381" />
    <synapse sourceNeuronName = "2" targetNeuronName = "41" weight = "-0.6545541993723905" />
    <synapse sourceNeuronName = "2" targetNeuronName = "42" weight = "0.14909635462324555" />
    <synapse sourceNeuronName = "2" targetNeuronName = "43" weight = "-0.9851266723539971" />
    <synapse sourceNeuronName = "3" targetNeuronName = "10" weight = "0.6129985032551193" />
    <synapse sourceNeuronName = "3" targetNeuronName = "11" weight = "-0.3934517357512788" />
    <synapse sourceNeuronName = "3" targetNeuronName = "12" weight = "0.06362972821731971" />
    <synapse sourceNeuronName = "3" targetNeuronName = "13" weight = "0.6157636059127185" />
    <synapse sourceNeuronName = "3" targetNeuronName = "14" weight = "-0.5473724630726027" />
    <synapse sourceNeuronName = "3" targetNeuronName = "15" weight = "0.6338743440824373" />
    <synapse sourceNeuronName = "3" targetNeuronName = "16" weight = "0.1587917754091268" />
    <synapse sourceNeuronName = "3" targetNeuronName = "17" weight = "-0.05624337464691953" />
    <synapse sourceNeuronName = "3" targetNeuronName = "18" weight = "-0.8883699517368693" />
    <synapse sourceNeuronName = "3" targetNeuronName = "19" weight = "0.8245541609524736" />
    <synapse sourceNeuronName = "3" targetNeuronName = "20" weight = "-0.14732175143302007" />
    <synapse sourceNeuronName = "3" targetNeuronName = "21" weight = "-0.27067109555921354" />
    <synapse sourceNeuronName = "3" targetNeuronName = "22" weight = "0.6452353983750594" />
    <synapse sourceNeuronName = "3" targetNeuronName = "23" weight = "0.18519125564040229" />
    <synapse sourceNeuronName = "3" targetNeuronName = "24" weight = "0.6383979962301434" />
    <synapse sourceNeuronName = "3" targetNeuronName = "25" weight = "-0.061278670465323426" />
    <synapse sourceNeuronName = "3" targetNeuronName = "26" weight = "-0.17897504046935864" />
    <synapse sourceNeuronName = "3" targetNeuronName = "27" weight = "-0.2538744592307911" />
    <synapse sourceNeuronName = "3" targetNeuronName = "28" weight = "-0.2356432479109889" />
    <synapse sourceNeuronName = "3" targetNeuronName = "29" weight = "-0.39824374696388665" />
    <synapse sourceNeuronName = "3" targetNeuronName = "30" weight = "-0.5463498218783127" />
    <synapse sourceNeuronName = "3" targetNeuronName = "31" weight = "0.5146527417807403" />
    <synapse sourceNeuronName = "3" targetNeuronName = "32" weight = "0.9413867390962605" />
    <synapse sourceNeuronName = "3" targetNeuronName = "33" weight = "0.16690252791213345" />
    <synapse sourceNeuronName = "3" targetNeuronName = "34" weight = "-0.6299821425283807" />
    <synapse sourceNeuronName = "3" targetNeuronName = "35" weight = "0.20226997554695125" />
    <synapse sourceNeuronName = "3" targetNeuronName = "36" weight = "0.6393813154010586" />
    <synapse sourceNeuronName = "3" targetNeuronName = "37" weight = "-0.45701287842968874" />
    <synapse sourceNeuronName = "3" targetNeuronName = "38" weight = "0.02681837002462073" />
    <synapse sourceNeuronName = "3" targetNeuronName = "39" weight = "0.3692400420138646" />
    <synapse sourceNeuronName = "3" targetNeuronName = "40" weight = "0.3922739108232507" />
    <synapse sourceNeuronName = "3" targetNeuronName = "41" weight = "-0.2121606974194754" />
    <synapse sourceNeuronName = "3" targetNeuronName = "42" weight = "0.9442462477459164" />
    <synapse sourceNeuronName = "3" targetNeuronName = "43" weight = "-0.7237462826170924" />
    <synapse sourceNeuronName = "4" targetNeuronName = "10" weight = "0.3513863451384396" />
    <synapse sourceNeuronName = "4" targetNeuronName = "11" weight = "0.2997736066014314" />
    <synapse sourceNeuronName = "4" targetNeuronName = "12" weight = "0.4463455681559887" />
    <synapse sourceNeuronName = "4" targetNeuronName = "13" weight = "0.33812411291088096" />
    <synapse sourceNeuronName = "4" targetNeuronName = "14" weight = "-0.4703419354110918" />
    <synapse sourceNeuronName = "4" targetNeuronName = "15" weight = "-0.21525863261021594" />
    <synapse sourceNeuronName = "4" targetNeuronName = "16" weight = "-0.1012791461802276" />
    <synapse sourceNeuronName = "4" targetNeuronName = "17" weight = "-0.9471773884150418" />
    <synapse sourceNeuronName = "4" targetNeuronName = "18" weight = "0.3141022727801912" />
    <synapse sourceNeuronName = "4" targetNeuronName = "19" weight = "-0.877180930098443" />
    <synapse sourceNeuronName = "4" targetNeuronName = "20" weight = "-0.5885371031306235" />
    <synapse sourceNeuronName = "4" targetNeuronName = "21" weight = "-0.8117822761702367" />
    <synapse sourceNeuronName = "4" targetNeuronName = "22" weight = "0.6379928139773836" />
    <synapse sourceNeuronName = "4" targetNeuronName = "23" weight = "-0.0423058690909357" />
    <synapse sourceNeuronName = "4" targetNeuronName = "24" weight = "-0.5769202503716964" />
    <synapse sourceNeuronName = "4" targetNeuronName = "25" weight = "-0.3221861472477541" />
    <synapse sourceNeuronName = "4" targetNeuronName = "26" weight = "0.9819137085714755" />
    <synapse sourceNeuronName = "4" targetNeuronName = "27" weight = "0.991487175040392" />
    <synapse sourceNeuronName = "4" targetNeuronName = "28" weight = "0.5764662430252379" />
    <synapse sourceNeuronName = "4" targetNeuronName = "29" weight = "0.41643145362134737" />
    <synapse sourceNeuronName = "4" targetNeuronName = "30" weight = "-0.8508038538828591" />
    <synapse sourceNeuronName = "4" targetNeuronName = "31" weight = "-0.8575494487385369" />
    <synapse sourceNeuronName = "4" targetNeuronName = "32" weight = "0.6324511783591711" />
    <synapse sourceNeuronName = "4" targetNeuronName = "33" weight = "0.36906669272160775" />
    <synapse sourceNeuronName = "4" targetNeuronName = "34" weight = "0.11410425802509461" />
    <synapse sourceNeuronName = "4" targetNeuronName = "35" weight = "-0.2040604239586119" />
    <synapse sourceNeuronName = "4" targetNeuronName = "36" weight = "0.08687533784184187" />
    <synapse sourceNeuronName = "4" targetNeuronName = "37" weight = "-0.39050055973752107" />
    <synapse sourceNeuronName = "4" targetNeuronName = "38" weight = "-0.9309173155260173" />
    <synapse sourceNeuronName = "4" targetNeuronName = "39" weight = "0.6931910371593186" />
    <synapse sourceNeuronName = "4" targetNeuronName = "40" weight = "-0.6245171530287887" />
    <synapse sourceNeuronName = "4" targetNeuronName = "41" weight = "0.866822477178548" />
    <synapse sourceNeuronName = "4" targetNeuronName = "42" weight = "-0.3973839220567459" />
    <synapse sourceNeuronName = "4" targetNeuronName = "43" weight = "-0.2928855558902228" />
    <synapse sourceNeuronName = "5" targetNeuronName = "10" weight = "0.5249728239933178" />
    <synapse sourceNeuronName = "5" targetNeuronName = "11" weight = "-0.17364683741406406" />
    <synapse sourceNeuronName = "5" targetNeuronName = "12" weight = "0.8457695032654959" />
    <synapse sourceNeuronName = "5" targetNeuronName = "13" weight = "0.434453224213424" />
    <synapse sourceNeuronName = "5" targetNeuronName = "14" weight = "-0.022396523102688803" />
    <synapse sourceNeuronName = "5" targetNeuronName = "15" weight = "-0.5566643962853444" />
    <synapse sourceNeuronName = "5" targetNeuronName = "16" weight = "-0.4201522089569203" />
    <synapse sourceNeuronName = "5" targetNeuronName = "17" weight = "0.8730218280136013" />
    <synapse sourceNeuronName = "5" targetNeuronName = "18" weight = "-0.3688069619198757" />
    <synapse sourceNeuronName = "5" targetNeuronName = "19" weight = "0.8103364094082548" />
    <synapse sourceNeuronName = "5" targetNeuronName = "20" weight = "0.9251261868068634" />
    <synapse sourceNeuronName = "5" targetNeuronName = "21" weight = "-0.6875645842069071" />
    <synapse sourceNeuronName = "5" targetNeuronName = "22" weight = "-0.5332158116061103" />
    <synapse sourceNeuronName = "5" targetNeuronName = "23" weight = "0.7484767728608588" />
    <synapse sourceNeuronName = "5" targetNeuronName = "24" weight = "-0.5584052282030278" />
    <synapse sourceNeuronName = "5" targetNeuronName = "25" weight = "-0.43629053652410255" />
    <synapse sourceNeuronName = "5" targetNeuronName = "26" weight = "0.27472004918496773" />
    <synapse sourceNeuronName = "5" targetNeuronName = "27" weight = "0.7045689634538441" />
    <synapse sourceNeuronName = "5" targetNeuronName = "28" weight = "-0.9557007802504114" />
    <synapse sourceNeuronName = "5" targetNeuronName = "29" weight = "0.9914696963494949" />
    <synapse sourceNeuronName = "5" targetNeuronName = "30" weight = "-0.15443833591231138" />
    <synapse sourceNeuronName = "5" targetNeuronName = "31" weight = "0.09333647965996095" />
    <synapse sourceNeuronName = "5" targetNeuronName = "32" weight = "0.4201221668784878" />
    <synapse sourceNeuronName = "5" targetNeuronName = "33" weight = "-0.6334998608752518" />
    <synapse sourceNeuronName = "5" targetNeuronName = "34" weight = "-0.9037938596512074" />
    <synapse sourceNeuronName = "5" targetNeuronName = "35" weight = "0.5081614502030791" />
    <synapse sourceNeuronName = "5" targetNeuronName = "36" weight = "-0.6757590854660305" />
    <synapse sourceNeuronName = "5" targetNeuronName = "37" weight = "0.46457141633565735" />
    <synapse sourceNeuronName = "5" targetNeuronName = "38" weight = "-0.30643024241032735" />
    <synapse sourceNeuronName = "5" targetNeuronName = "39" weight = "0.567917957275428" />
    <synapse sourceNeuronName = "5" targetNeuronName = "40" weight = "-0.1444025570357963" />
    <synapse sourceNeuronName = "5" targetNeuronName = "41" weight = "0.752378017915853" />
    <synapse sourceNeuronName = "5" targetNeuronName = "42" weight = "-0.2740754595777106" />
    <synapse sourceNeuronName = "5" targetNeuronName = "43" weight = "0.23351885969627806" />
    <synapse sourceNeuronName = "6" targetNeuronName = "10" weight = "0.3039894350830272" />
    <synapse sourceNeuronName = "6" targetNeuronName = "11" weight = "0.5341328410392068" />
    <synapse sourceNeuronName = "6" targetNeuronName = "12" weight = "0.34465730053268806" />
    <synapse sourceNeuronName = "6" targetNeuronName = "13" weight = "-0.6033493672625139" />
    <synapse sourceNeuronName = "6" targetNeuronName = "14" weight = "-0.5925927556380628" />
    <synapse sourceNeuronName = "6" targetNeuronName = "15" weight = "-0.837289710981026" />
    <synapse sourceNeuronName = "6" targetNeuronName = "16" weight = "0.5092110577342348" />
    <synapse sourceNeuronName = "6" targetNeuronName = "17" weight = "-0.7856771032196266" />
    <synapse sourceNeuronName = "6" targetNeuronName = "18" weight = "-0.5361830748290481" />
    <synapse sourceNeuronName = "6" targetNeuronName = "19" weight = "0.8006217295338718" />
    <synapse sourceNeuronName = "6" targetNeuronName = "20" weight = "0.9334934341679955" />
    <synapse sourceNeuronName = "6" targetNeuronName = "21" weight = "0.7047294671030959" />
    <synapse sourceNeuronName = "6" targetNeuronName = "22" weight = "0.1747282008200084" />
    <synapse sourceNeuronName = "6" targetNeuronName = "23" weight = "0.749586284800863" />
    <synapse sourceNeuronName = "6" targetNeuronName = "24" weight = "0.8299651756797473" />
    <synapse sourceNeuronName = "6" targetNeuronName = "25" weight = "0.29789919297749035" />
    <synapse sourceNeuronName = "6" targetNeuronName = "26" weight = "0.8138142630952849" />
    <synapse sourceNeuronName = "6" targetNeuronName = "27" weight = "-0.3487878787350165" />
    <synapse sourceNeuronName = "6" targetNeuronName = "28" weight = "-0.6072575177338604" />
    <synapse sourceNeuronName = "6" targetNeuronName = "29" weight = "0.7780388601667061" />
    <synapse sourceNeuronName = "6" targetNeuronName = "30" weight = "0.33949405747196826" />
    <synapse sourceNeuronName = "6" targetNeuronName = "31" weight = "0.5684187564695515" />
    <synapse sourceNeuronName = "6" targetNeuronName = "32" weight = "-0.4838800020923586" />
    <synapse sourceNeuronName = "6" targetNeuronName = "33" weight = "-0.9888299089208452" />
    <synapse sourceNeuronName = "6" targetNeuronName = "34" weight = "0.8571922321953132" />
    <synapse sourceNeuronName = "6" targetNeuronName = "35" weight = "0.9285833064141773" />
    <synapse sourceNeuronName = "6" targetNeuronName = "36" weight = "0.10326262104484374" />
    <synapse sourceNeuronName = "6" targetNeuronName = "37" weight = "0.6911016527777372" />
    <synapse sourceNeuronName = "6" targetNeuronName = "38" weight = "0.8055636944240396" />
    <synapse sourceNeuronName = "6" targetNeuronName = "39" weight = "0.7817936043970553" />
    <synapse sourceNeuronName = "6" targetNeuronName = "40" weight = "-0.22580449100116473" />
    <synapse sourceNeuronName = "6" targetNeuronName = "41" weight = "0.4572573793515271" />
    <synapse sourceNeuronName = "6" targetNeuronName = "42" weight = "-0.6313385420259083" />
    <synapse sourceNeuronName = "6" targetNeuronName = "43" weight = "-0.059494810553000876" />
    <synapse sourceNeuronName = "7" targetNeuronName = "10" weight = "0.41131636129695126" />
    <synapse sourceNeuronName = "7" targetNeuronName = "11" weight = "0.721468098554982" />
    <synapse sourceNeuronName = "7" targetNeuronName = "12" weight = "-0.19273840103871653" />
    <synapse sourceNeuronName = "7" targetNeuronName = "13" weight = "0.39494397497820755" />
    <synapse sourceNeuronName = "7" targetNeuronName = "14" weight = "0.35188565871077127" />
    <synapse sourceNeuronName = "7" targetNeuronName = "15" weight = "-0.6145304246558028" />
    <synapse sourceNeuronName = "7" targetNeuronName = "16" weight = "-0.40312610657264103" />
    <synapse sourceNeuronName = "7" targetNeuronName = "17" weight = "-0.16624542102159934" />
    <synapse sourceNeuronName = "7" targetNeuronName = "18" weight = "0.5191206489294193" />
    <synapse sourceNeuronName = "7" targetNeuronName = "19" weight = "-0.4927507641351949" />
    <synapse sourceNeuronName = "7" targetNeuronName = "20" weight = "0.9357609109027294" />
    <synapse sourceNeuronName = "7" targetNeuronName = "21" weight = "0.03940059100992821" />
    <synapse sourceNeuronName = "7" targetNeuronName = "22" weight = "0.7297043658647602" />
    <synapse sourceNeuronName = "7" targetNeuronName = "23" weight = "-0.7532866438624892" />
    <synapse sourceNeuronName = "7" targetNeuronName = "24" weight = "-0.5448166518750575" />
    <synapse sourceNeuronName = "7" targetNeuronName = "25" weight = "0.4570177530438435" />
    <synapse sourceNeuronName = "7" targetNeuronName = "26" weight = "0.06922466322041299" />
    <synapse sourceNeuronName = "7" targetNeuronName = "27" weight = "0.04522266088807281" />
    <synapse sourceNeuronName = "7" targetNeuronName = "28" weight = "-0.7226369555981758" />
    <synapse sourceNeuronName = "7" targetNeuronName = "29" weight = "-0.9247680185972726" />
    <synapse sourceNeuronName = "7" targetNeuronName = "30" weight = "0.6247865170667108" />
    <synapse sourceNeuronName = "7" targetNeuronName = "31" weight = "0.04010571052805312" />
    <synapse sourceNeuronName = "7" targetNeuronName = "32" weight = "0.8485286723932202" />
    <synapse sourceNeuronName = "7" targetNeuronName = "33" weight = "-0.9965284355957884" />
    <synapse sourceNeuronName = "7" targetNeuronName = "34" weight = "0.19600157390163875" />
    <synapse sourceNeuronName = "7" targetNeuronName = "35" weight = "0.6026251604153858" />
    <synapse sourceNeuronName = "7" targetNeuronName = "36" weight = "0.5309200785320489" />
    <synapse sourceNeuronName = "7" targetNeuronName = "37" weight = "-0.48908048501795864" />
    <synapse sourceNeuronName = "7" targetNeuronName = "38" weight = "-0.6434839591420454" />
    <synapse sourceNeuronName = "7" targetNeuronName = "39" weight = "0.009077555726423325" />
    <synapse sourceNeuronName = "7" targetNeuronName = "40" weight = "-0.6501194565908295" />
    <synapse sourceNeuronName = "7" targetNeuronName = "41" weight = "-0.3103510214576093" />
    <synapse sourceNeuronName = "7" targetNeuronName = "42" weight = "-0.6795764788588359" />
    <synapse sourceNeuronName = "7" targetNeuronName = "43" weight = "0.17204158532491798" />
    <synapse sourceNeuronName = "8" targetNeuronName = "10" weight = "-0.14108717420031947" />
    <synapse sourceNeuronName = "8" targetNeuronName = "11" weight = "-0.6200907734827161" />
    <synapse sourceNeuronName = "8" targetNeuronName = "12" weight = "0.12508740867860269" />
    <synapse sourceNeuronName = "8" targetNeuronName = "13" weight = "0.3021331545984216" />
    <synapse sourceNeuronName = "8" targetNeuronName = "14" weight = "-0.594995920113705" />
    <synapse sourceNeuronName = "8" targetNeuronName = "15" weight = "0.664253608535198" />
    <synapse sourceNeuronName = "8" targetNeuronName = "16" weight = "0.4650559780825194" />
    <synapse sourceNeuronName = "8" targetNeuronName = "17" weight = "0.12461599886940644" />
    <synapse sourceNeuronName = "8" targetNeuronName = "18" weight = "0.30370350268627866" />
    <synapse sourceNeuronName = "8" targetNeuronName = "19" weight = "-0.13150284447233918" />
    <synapse sourceNeuronName = "8" targetNeuronName = "20" weight = "-0.26927888225093377" />
    <synapse sourceNeuronName = "8" targetNeuronName = "21" weight = "-0.041661638859226136" />
    <synapse sourceNeuronName = "8" targetNeuronName = "22" weight = "-0.22770953539224248" />
    <synapse sourceNeuronName = "8" targetNeuronName = "23" weight = "0.7264386117808392" />
    <synapse sourceNeuronName = "8" targetNeuronName = "24" weight = "-0.43962722902395446" />
    <synapse sourceNeuronName = "8" targetNeuronName = "25" weight = "-0.21815320034710006" />
    <synapse sourceNeuronName = "8" targetNeuronName = "26" weight = "0.8402974282434588" />
    <synapse sourceNeuronName = "8" targetNeuronName = "27" weight = "-0.15855940820527725" />
    <synapse sourceNeuronName = "8" targetNeuronName = "28" weight = "0.46890110440094634" />
    <synapse sourceNeuronName = "8" targetNeuronName = "29" weight = "0.2655160874714384" />
    <synapse sourceNeuronName = "8" targetNeuronName = "30" weight = "-0.9094134540996484" />
    <synapse sourceNeuronName = "8" targetNeuronName = "31" weight = "-0.8143961628051408" />
    <synapse sourceNeuronName = "8" targetNeuronName = "32" weight = "-0.39019690393981565" />
    <synapse sourceNeuronName = "8" targetNeuronName = "33" weight = "0.20710214821313722" />
    <synapse sourceNeuronName = "8" targetNeuronName = "34" weight = "-0.38042770551627925" />
    <synapse sourceNeuronName = "8" targetNeuronName = "35" weight = "0.3816755854048146" />
    <synapse sourceNeuronName = "8" targetNeuronName = "36" weight = "0.4238986905804465" />
    <synapse sourceNeuronName = "8" targetNeuronName = "37" weight = "0.13245589930086066" />
    <synapse sourceNeuronName = "8" targetNeuronName = "38" weight = "0.5591642708309483" />
    <synapse sourceNeuronName = "8" targetNeuronName = "39" weight = "0.31727533764532523" />
    <synapse sourceNeuronName = "8" targetNeuronName = "40" weight = "0.5568781301468451" />
    <synapse sourceNeuronName = "8" targetNeuronName = "41" weight = "0.17315098739073087" />
    <synapse sourceNeuronName = "8" targetNeuronName = "42" weight = "-0.3329169168823529" />
    <synapse sourceNeuronName = "8" targetNeuronName = "43" weight = "-0.18440062851516204" />
    <synapse sourceNeuronName = "9" targetNeuronName = "10" weight = "0.4887749265574832" />
    <synapse sourceNeuronName = "9" targetNeuronName = "11" weight = "-0.5761173789079568" />
    <synapse sourceNeuronName = "9" targetNeuronName = "12" weight = "-0.18056592525364068" />
    <synapse sourceNeuronName = "9" targetNeuronName = "13" weight = "0.035410119431383835" />
    <synapse sourceNeuronName = "9" targetNeuronName = "14" weight = "0.7087795956908787" />
    <synapse sourceNeuronName = "9" targetNeuronName = "15" weight = "-0.7698412696924053" />
    <synapse sourceNeuronName = "9" targetNeuronName = "16" weight = "0.5693035572373619" />
    <synapse sourceNeuronName = "9" targetNeuronName = "17" weight = "-0.7533604040617845" />
    <synapse sourceNeuronName = "9" targetNeuronName = "18" weight = "-0.44381949626508455" />
    <synapse sourceNeuronName = "9" targetNeuronName = "19" weight = "0.6888174079094658" />
    <synapse sourceNeuronName = "9" targetNeuronName = "20" weight = "0.17796364740952075" />
    <synapse sourceNeuronName = "9" targetNeuronName = "21" weight = "-0.8018654488378212" />
    <synapse sourceNeuronName = "9" targetNeuronName = "22" weight = "0.3575932022225441" />
    <synapse sourceNeuronName = "9" targetNeuronName = "23" weight = "-0.7785499918625358" />
    <synapse sourceNeuronName = "9" targetNeuronName = "24" weight = "0.41696316704002734" />
    <synapse sourceNeuronName = "9" targetNeuronName = "25" weight = "0.718596075577574" />
    <synapse sourceNeuronName = "9" targetNeuronName = "26" weight = "0.0001769891964675807" />
    <synapse sourceNeuronName = "9" targetNeuronName = "27" weight = "-0.6996409374051156" />
    <synapse sourceNeuronName = "9" targetNeuronName = "28" weight = "0.34057217210972657" />
    <synapse sourceNeuronName = "9" targetNeuronName = "29" weight = "0.8204684444005428" />
    <synapse sourceNeuronName = "9" targetNeuronName = "30" weight = "-0.2886635345251436" />
    <synapse sourceNeuronName = "9" targetNeuronName = "31" weight = "0.7597904558347208" />
    <synapse sourceNeuronName = "9" targetNeuronName = "32" weight = "0.7489031398136623" />
    <synapse sourceNeuronName = "9" targetNeuronName = "33" weight = "0.00766880111017576" />
    <synapse sourceNeuronName = "9" targetNeuronName = "34" weight = "0.8501203451562236" />
    <synapse sourceNeuronName = "9" targetNeuronName = "35" weight = "0.9186985822916229" />
    <synapse sourceNeuronName = "9" targetNeuronName = "36" weight = "-0.7914530806211137" />
    <synapse sourceNeuronName = "9" targetNeuronName = "37" weight = "-0.5452015268915" />
    <synapse sourceNeuronName = "9" targetNeuronName = "38" weight = "0.7445414701365294" />
    <synapse sourceNeuronName = "9" targetNeuronName = "39" weight = "0.4036716697703586" />
    <synapse sourceNeuronName = "9" targetNeuronName = "40" weight = "-0.8414504379154664" />
    <synapse sourceNeuronName = "9" targetNeuronName = "41" weight = "0.8738601532896655" />
    <synapse sourceNeuronName = "9" targetNeuronName = "42" weight = "0.7257059109905155" />
    <synapse sourceNeuronName = "9" targetNeuronName = "43" weight = "-0.1681193107925667" />
</neuralNetwork>