<neuralNetwork>
    <neuron name = "0" type = "sensor" linkName = "Link1" />
    <neuron name = "1" type = "sensor" linkName = "Link2" />
    <neuron name = "2" type = "sensor" linkName = "Link4" />
    <neuron name = "3" type = "sensor" linkName = "Link5" />
    <neuron name = "4" type = "sensor" linkName = "Link7" />
    <neuron name = "5" type = "motor"  jointName = "Link0_Link1" />
    <neuron name = "6" type = "motor"  jointName = "Link0_Cube01" />
    <neuron name = "7" type = "motor"  jointName = "Cube01_Cube11" />
    <neuron name = "8" type = "motor"  jointName = "Cube11_Link2" />
    <neuron name = "9" type = "motor"  jointName = "Link0_Cube02" />
    <neuron name = "10" type = "motor"  jointName = "Cube02_Cube12" />
    <neuron name = "11" type = "motor"  jointName = "Cube12_Link3" />
    <neuron name = "12" type = "motor"  jointName = "Link2_Link4" />
    <neuron name = "13" type = "motor"  jointName = "Link0_Cube04" />
    <neuron name = "14" type = "motor"  jointName = "Cube04_Cube14" />
    <neuron name = "15" type = "motor"  jointName = "Cube14_Link5" />
    <neuron name = "16" type = "motor"  jointName = "Link5_Cube05" />
    <neuron name = "17" type = "motor"  jointName = "Cube05_Cube15" />
    <neuron name = "18" type = "motor"  jointName = "Cube15_Link6" />
    <neuron name = "19" type = "motor"  jointName = "Link2_Cube06" />
    <neuron name = "20" type = "motor"  jointName = "Cube06_Cube16" />
    <neuron name = "21" type = "motor"  jointName = "Cube16_Link7" />
    <neuron name = "22" type = "motor"  jointName = "Link0_Cube07" />
    <neuron name = "23" type = "motor"  jointName = "Cube07_Link8" />
    <neuron name = "24" type = "motor"  jointName = "Link8_Cube08" />
    <neuron name = "25" type = "motor"  jointName = "Cube08_Link9" />
    <synapse sourceNeuronName = "0" targetNeuronName = "5" weight = "0.8066411979704342" />
    <synapse sourceNeuronName = "0" targetNeuronName = "6" weight = "0.6571074709788063" />
    <synapse sourceNeuronName = "0" targetNeuronName = "7" weight = "0.8623375134157594" />
    <synapse sourceNeuronName = "0" targetNeuronName = "8" weight = "-0.18645997853884588" />
    <synapse sourceNeuronName = "0" targetNeuronName = "9" weight = "0.4591206969149597" />
    <synapse sourceNeuronName = "0" targetNeuronName = "10" weight = "0.7671643200477984" />
    <synapse sourceNeuronName = "0" targetNeuronName = "11" weight = "-0.18329282830103044" />
    <synapse sourceNeuronName = "0" targetNeuronName = "12" weight = "-0.8448882745189767" />
    <synapse sourceNeuronName = "0" targetNeuronName = "13" weight = "-0.8685218856317605" />
    <synapse sourceNeuronName = "0" targetNeuronName = "14" weight = "0.5118117567208036" />
    <synapse sourceNeuronName = "0" targetNeuronName = "15" weight = "-0.7845865121279476" />
    <synapse sourceNeuronName = "0" targetNeuronName = "16" weight = "0.09810119935401573" />
    <synapse sourceNeuronName = "0" targetNeuronName = "17" weight = "0.2810092762283092" />
    <synapse sourceNeuronName = "0" targetNeuronName = "18" weight = "0.7243020251739531" />
    <synapse sourceNeuronName = "0" targetNeuronName = "19" weight = "-0.8286797655537586" />
    <synapse sourceNeuronName = "0" targetNeuronName = "20" weight = "-0.9999882716345343" />
    <synapse sourceNeuronName = "0" targetNeuronName = "21" weight = "0.14917300587388937" />
    <synapse sourceNeuronName = "0" targetNeuronName = "22" weight = "-0.42179964018424254" />
    <synapse sourceNeuronName = "0" targetNeuronName = "23" weight = "0.7595188654051002" />
    <synapse sourceNeuronName = "0" targetNeuronName = "24" weight = "-0.9480600153306535" />
    <synapse sourceNeuronName = "0" targetNeuronName = "25" weight = "-0.16463930714492325" />
    <synapse sourceNeuronName = "1" targetNeuronName = "5" weight = "-0.870014602966861" />
    <synapse sourceNeuronName = "1" targetNeuronName = "6" weight = "-0.014013738105492113" />
    <synapse sourceNeuronName = "1" targetNeuronName = "7" weight = "0.2441973649835063" />
    <synapse sourceNeuronName = "1" targetNeuronName = "8" weight = "0.7501911587111749" />
    <synapse sourceNeuronName = "1" targetNeuronName = "9" weight = "0.950657477684353" />
    <synapse sourceNeuronName = "1" targetNeuronName = "10" weight = "-0.8915444415375877" />
    <synapse sourceNeuronName = "1" targetNeuronName = "11" weight = "-0.9554713060278381" />
    <synapse sourceNeuronName = "1" targetNeuronName = "12" weight = "-0.7022953522216815" />
    <synapse sourceNeuronName = "1" targetNeuronName = "13" weight = "0.44957111233837765" />
    <synapse sourceNeuronName = "1" targetNeuronName = "14" weight = "0.8524184042625833" />
    <synapse sourceNeuronName = "1" targetNeuronName = "15" weight = "0.8911826251518251" />
    <synapse sourceNeuronName = "1" targetNeuronName = "16" weight = "0.40089660629248014" />
    <synapse sourceNeuronName = "1" targetNeuronName = "17" weight = "-0.27164006593740186" />
    <synapse sourceNeuronName = "1" targetNeuronName = "18" weight = "0.9938462825471657" />
    <synapse sourceNeuronName = "1" targetNeuronName = "19" weight = "0.40079409286073964" />
    <synapse sourceNeuronName = "1" targetNeuronName = "20" weight = "0.8903835189954121" />
    <synapse sourceNeuronName = "1" targetNeuronName = "21" weight = "0.11568470824578414" />
    <synapse sourceNeuronName = "1" targetNeuronName = "22" weight = "0.5074494481376779" />
    <synapse sourceNeuronName = "1" targetNeuronName = "23" weight = "-0.4207224942372798" />
    <synapse sourceNeuronName = "1" targetNeuronName = "24" weight = "0.08122032684139957" />
    <synapse sourceNeuronName = "1" targetNeuronName = "25" weight = "0.3258993694530856" />
    <synapse sourceNeuronName = "2" targetNeuronName = "5" weight = "-0.3855040721296683" />
    <synapse sourceNeuronName = "2" targetNeuronName = "6" weight = "0.8005582861817406" />
    <synapse sourceNeuronName = "2" targetNeuronName = "7" weight = "-0.20842599490979108" />
    <synapse sourceNeuronName = "2" targetNeuronName = "8" weight = "-0.1187345938536577" />
    <synapse sourceNeuronName = "2" targetNeuronName = "9" weight = "-0.3517099079465569" />
    <synapse sourceNeuronName = "2" targetNeuronName = "10" weight = "0.8045354386781762" />
    <synapse sourceNeuronName = "2" targetNeuronName = "11" weight = "-0.2034624680538213" />
    <synapse sourceNeuronName = "2" targetNeuronName = "12" weight = "-0.2429272678288339" />
    <synapse sourceNeuronName = "2" targetNeuronName = "13" weight = "0.5317857225823319" />
    <synapse sourceNeuronName = "2" targetNeuronName = "14" weight = "0.9863977409565221" />
    <synapse sourceNeuronName = "2" targetNeuronName = "15" weight = "-0.04813290571825379" />
    <synapse sourceNeuronName = "2" targetNeuronName = "16" weight = "0.23021495087808774" />
    <synapse sourceNeuronName = "2" targetNeuronName = "17" weight = "0.6058802760521023" />
    <synapse sourceNeuronName = "2" targetNeuronName = "18" weight = "-0.9533203945366473" />
    <synapse sourceNeuronName = "2" targetNeuronName = "19" weight = "-0.44944054785544174" />
    <synapse sourceNeuronName = "2" targetNeuronName = "20" weight = "-0.8491796071314879" />
    <synapse sourceNeuronName = "2" targetNeuronName = "21" weight = "0.9008589000757536" />
    <synapse sourceNeuronName = "2" targetNeuronName = "22" weight = "0.32079514795684405" />
    <synapse sourceNeuronName = "2" targetNeuronName = "23" weight = "-0.6014216864912425" />
    <synapse sourceNeuronName = "2" targetNeuronName = "24" weight = "0.15687138809195456" />
    <synapse sourceNeuronName = "2" targetNeuronName = "25" weight = "-0.677876368178749" />
    <synapse sourceNeuronName = "3" targetNeuronName = "5" weight = "-0.6861315741682825" />
    <synapse sourceNeuronName = "3" targetNeuronName = "6" weight = "-0.5582878429044411" />
    <synapse sourceNeuronName = "3" targetNeuronName = "7" weight = "0.16879034748035804" />
    <synapse sourceNeuronName = "3" targetNeuronName = "8" weight = "0.5869582507204079" />
    <synapse sourceNeuronName = "3" targetNeuronName = "9" weight = "-0.08651815810197205" />
    <synapse sourceNeuronName = "3" targetNeuronName = "10" weight = "0.9372227384272149" />
    <synapse sourceNeuronName = "3" targetNeuronName = "11" weight = "0.9288734497015902" />
    <synapse sourceNeuronName = "3" targetNeuronName = "12" weight = "-0.5473483667198691" />
    <synapse sourceNeuronName = "3" targetNeuronName = "13" weight = "-0.062229258159969936" />
    <synapse sourceNeuronName = "3" targetNeuronName = "14" weight = "0.8190246078429388" />
    <synapse sourceNeuronName = "3" targetNeuronName = "15" weight = "-0.6501721595730194" />
    <synapse sourceNeuronName = "3" targetNeuronName = "16" weight = "0.9416076688640449" />
    <synapse sourceNeuronName = "3" targetNeuronName = "17" weight = "-0.3829264310551519" />
    <synapse sourceNeuronName = "3" targetNeuronName = "18" weight = "-0.5056780011127455" />
    <synapse sourceNeuronName = "3" targetNeuronName = "19" weight = "-0.02833374058875049" />
    <synapse sourceNeuronName = "3" targetNeuronName = "20" weight = "-0.8437356335337498" />
    <synapse sourceNeuronName = "3" targetNeuronName = "21" weight = "-0.8681600897566206" />
    <synapse sourceNeuronName = "3" targetNeuronName = "22" weight = "0.6094008968126197" />
    <synapse sourceNeuronName = "3" targetNeuronName = "23" weight = "0.29742731104488995" />
    <synapse sourceNeuronName = "3" targetNeuronName = "24" weight = "0.7633805829712919" />
    <synapse sourceNeuronName = "3" targetNeuronName = "25" weight = "0.3348924673440381" />
    <synapse sourceNeuronName = "4" targetNeuronName = "5" weight = "-0.4609612389112081" />
    <synapse sourceNeuronName = "4" targetNeuronName = "6" weight = "-0.9269853341244885" />
    <synapse sourceNeuronName = "4" targetNeuronName = "7" weight = "-0.22968758146945079" />
    <synapse sourceNeuronName = "4" targetNeuronName = "8" weight = "-0.6973809737797796" />
    <synapse sourceNeuronName = "4" targetNeuronName = "9" weight = "-0.6388342656851715" />
    <synapse sourceNeuronName = "4" targetNeuronName = "10" weight = "0.29234782620168787" />
    <synapse sourceNeuronName = "4" targetNeuronName = "11" weight = "0.5832930083854333" />
    <synapse sourceNeuronName = "4" targetNeuronName = "12" weight = "-0.6283497689692017" />
    <synapse sourceNeuronName = "4" targetNeuronName = "13" weight = "0.16624382836668095" />
    <synapse sourceNeuronName = "4" targetNeuronName = "14" weight = "-0.639525442025958" />
    <synapse sourceNeuronName = "4" targetNeuronName = "15" weight = "-0.530910912257524" />
    <synapse sourceNeuronName = "4" targetNeuronName = "16" weight = "0.9733437344371729" />
    <synapse sourceNeuronName = "4" targetNeuronName = "17" weight = "0.024351226284954786" />
    <synapse sourceNeuronName = "4" targetNeuronName = "18" weight = "-0.8607082940719915" />
    <synapse sourceNeuronName = "4" targetNeuronName = "19" weight = "-0.8758300898065363" />
    <synapse sourceNeuronName = "4" targetNeuronName = "20" weight = "0.7319103500701885" />
    <synapse sourceNeuronName = "4" targetNeuronName = "21" weight = "-0.19071256869717335" />
    <synapse sourceNeuronName = "4" targetNeuronName = "22" weight = "0.04157044247406838" />
    <synapse sourceNeuronName = "4" targetNeuronName = "23" weight = "-0.5888422625501724" />
    <synapse sourceNeuronName = "4" targetNeuronName = "24" weight = "0.7554894363360856" />
    <synapse sourceNeuronName = "4" targetNeuronName = "25" weight = "0.6915059283203693" />
</neuralNetwork>