<neuralNetwork>
    <neuron name = "0" type = "sensor" linkName = "Link0" />
    <neuron name = "1" type = "sensor" linkName = "Link1" />
    <neuron name = "2" type = "sensor" linkName = "Link2" />
    <neuron name = "3" type = "sensor" linkName = "Link6" />
    <neuron name = "4" type = "motor"  jointName = "Link0_Cube00" />
    <neuron name = "5" type = "motor"  jointName = "Cube00_Cube10" />
    <neuron name = "6" type = "motor"  jointName = "Cube10_Link1" />
    <neuron name = "7" type = "motor"  jointName = "Link0_Cube01" />
    <neuron name = "8" type = "motor"  jointName = "Cube01_Link2" />
    <neuron name = "9" type = "motor"  jointName = "Link0_Cube02" />
    <neuron name = "10" type = "motor"  jointName = "Cube02_Cube12" />
    <neuron name = "11" type = "motor"  jointName = "Cube12_Link3" />
    <neuron name = "12" type = "motor"  jointName = "Link0_Cube03" />
    <neuron name = "13" type = "motor"  jointName = "Cube03_Link4" />
    <neuron name = "14" type = "motor"  jointName = "Link0_Link5" />
    <neuron name = "15" type = "motor"  jointName = "Link4_Link6" />
    <neuron name = "16" type = "motor"  jointName = "Link4_Cube06" />
    <neuron name = "17" type = "motor"  jointName = "Cube06_Link7" />
    <synapse sourceNeuronName = "0" targetNeuronName = "4" weight = "-0.4324476795749279" />
    <synapse sourceNeuronName = "0" targetNeuronName = "5" weight = "-0.8327278905412203" />
    <synapse sourceNeuronName = "0" targetNeuronName = "6" weight = "0.2144357488286983" />
    <synapse sourceNeuronName = "0" targetNeuronName = "7" weight = "0.845112950318353" />
    <synapse sourceNeuronName = "0" targetNeuronName = "8" weight = "-0.8227424138987574" />
    <synapse sourceNeuronName = "0" targetNeuronName = "9" weight = "-0.3339596399884861" />
    <synapse sourceNeuronName = "0" targetNeuronName = "10" weight = "-0.8321224572053776" />
    <synapse sourceNeuronName = "0" targetNeuronName = "11" weight = "-0.7338773430864902" />
    <synapse sourceNeuronName = "0" targetNeuronName = "12" weight = "-0.2090979409260889" />
    <synapse sourceNeuronName = "0" targetNeuronName = "13" weight = "-0.07393833580509157" />
    <synapse sourceNeuronName = "0" targetNeuronName = "14" weight = "0.6479049094876215" />
    <synapse sourceNeuronName = "0" targetNeuronName = "15" weight = "0.6629545837453885" />
    <synapse sourceNeuronName = "0" targetNeuronName = "16" weight = "0.1945805282286397" />
    <synapse sourceNeuronName = "0" targetNeuronName = "17" weight = "0.852671085722372" />
    <synapse sourceNeuronName = "1" targetNeuronName = "4" weight = "-0.10083154681155881" />
    <synapse sourceNeuronName = "1" targetNeuronName = "5" weight = "-0.5835789638938318" />
    <synapse sourceNeuronName = "1" targetNeuronName = "6" weight = "0.7114568192918851" />
    <synapse sourceNeuronName = "1" targetNeuronName = "7" weight = "0.1269928894681096" />
    <synapse sourceNeuronName = "1" targetNeuronName = "8" weight = "-0.5585080781357152" />
    <synapse sourceNeuronName = "1" targetNeuronName = "9" weight = "-0.7717999824641917" />
    <synapse sourceNeuronName = "1" targetNeuronName = "10" weight = "-0.8654789624022656" />
    <synapse sourceNeuronName = "1" targetNeuronName = "11" weight = "0.8185339488275634" />
    <synapse sourceNeuronName = "1" targetNeuronName = "12" weight = "-0.8634493115716557" />
    <synapse sourceNeuronName = "1" targetNeuronName = "13" weight = "-0.08650220452472679" />
    <synapse sourceNeuronName = "1" targetNeuronName = "14" weight = "0.47101148672914905" />
    <synapse sourceNeuronName = "1" targetNeuronName = "15" weight = "-0.4426466586941671" />
    <synapse sourceNeuronName = "1" targetNeuronName = "16" weight = "0.6905056054005503" />
    <synapse sourceNeuronName = "1" targetNeuronName = "17" weight = "0.20040551187887878" />
    <synapse sourceNeuronName = "2" targetNeuronName = "4" weight = "-0.5913630713878502" />
    <synapse sourceNeuronName = "2" targetNeuronName = "5" weight = "0.8546587617212278" />
    <synapse sourceNeuronName = "2" targetNeuronName = "6" weight = "0.1639919395353977" />
    <synapse sourceNeuronName = "2" targetNeuronName = "7" weight = "-0.39442715845445075" />
    <synapse sourceNeuronName = "2" targetNeuronName = "8" weight = "-0.781949492163377" />
    <synapse sourceNeuronName = "2" targetNeuronName = "9" weight = "0.9059947210296158" />
    <synapse sourceNeuronName = "2" targetNeuronName = "10" weight = "0.06105501117189682" />
    <synapse sourceNeuronName = "2" targetNeuronName = "11" weight = "0.8200716503585535" />
    <synapse sourceNeuronName = "2" targetNeuronName = "12" weight = "-0.6866619091605748" />
    <synapse sourceNeuronName = "2" targetNeuronName = "13" weight = "0.49075882011677385" />
    <synapse sourceNeuronName = "2" targetNeuronName = "14" weight = "0.43807821020619375" />
    <synapse sourceNeuronName = "2" targetNeuronName = "15" weight = "-0.22794274624330968" />
    <synapse sourceNeuronName = "2" targetNeuronName = "16" weight = "-0.7492265862883951" />
    <synapse sourceNeuronName = "2" targetNeuronName = "17" weight = "-0.06317026264698855" />
    <synapse sourceNeuronName = "3" targetNeuronName = "4" weight = "0.3163304782933165" />
    <synapse sourceNeuronName = "3" targetNeuronName = "5" weight = "0.026256922069092692" />
    <synapse sourceNeuronName = "3" targetNeuronName = "6" weight = "0.972611787696612" />
    <synapse sourceNeuronName = "3" targetNeuronName = "7" weight = "-0.38880765629777714" />
    <synapse sourceNeuronName = "3" targetNeuronName = "8" weight = "0.6882724295126965" />
    <synapse sourceNeuronName = "3" targetNeuronName = "9" weight = "0.8842637318217863" />
    <synapse sourceNeuronName = "3" targetNeuronName = "10" weight = "-0.5597261556294277" />
    <synapse sourceNeuronName = "3" targetNeuronName = "11" weight = "-0.6138493895090462" />
    <synapse sourceNeuronName = "3" targetNeuronName = "12" weight = "0.7927961258558254" />
    <synapse sourceNeuronName = "3" targetNeuronName = "13" weight = "-0.08690167481843614" />
    <synapse sourceNeuronName = "3" targetNeuronName = "14" weight = "-0.5956473750066562" />
    <synapse sourceNeuronName = "3" targetNeuronName = "15" weight = "0.4414755280991163" />
    <synapse sourceNeuronName = "3" targetNeuronName = "16" weight = "-0.7334570200887327" />
    <synapse sourceNeuronName = "3" targetNeuronName = "17" weight = "0.05320362773011378" />
</neuralNetwork>