<neuralNetwork>
    <neuron name = "0" type = "sensor" linkName = "Link1" />
    <neuron name = "1" type = "sensor" linkName = "Link7" />
    <neuron name = "2" type = "motor"  jointName = "Link0_Cube00" />
    <neuron name = "3" type = "motor"  jointName = "Cube00_Cube10" />
    <neuron name = "4" type = "motor"  jointName = "Cube10_Link1" />
    <neuron name = "5" type = "motor"  jointName = "Link0_Cube01" />
    <neuron name = "6" type = "motor"  jointName = "Cube01_Link2" />
    <neuron name = "7" type = "motor"  jointName = "Link2_Cube02" />
    <neuron name = "8" type = "motor"  jointName = "Cube02_Link3" />
    <neuron name = "9" type = "motor"  jointName = "Link2_Cube03" />
    <neuron name = "10" type = "motor"  jointName = "Cube03_Cube13" />
    <neuron name = "11" type = "motor"  jointName = "Cube13_Link4" />
    <neuron name = "12" type = "motor"  jointName = "Link3_Link5" />
    <neuron name = "13" type = "motor"  jointName = "Link5_Link6" />
    <neuron name = "14" type = "motor"  jointName = "Link2_Cube06" />
    <neuron name = "15" type = "motor"  jointName = "Cube06_Link7" />
    <synapse sourceNeuronName = "0" targetNeuronName = "2" weight = "0.833040566861287" />
    <synapse sourceNeuronName = "0" targetNeuronName = "3" weight = "-0.6996315525808998" />
    <synapse sourceNeuronName = "0" targetNeuronName = "4" weight = "-0.30548420736131665" />
    <synapse sourceNeuronName = "0" targetNeuronName = "5" weight = "0.495530169078799" />
    <synapse sourceNeuronName = "0" targetNeuronName = "6" weight = "-0.07026766286589625" />
    <synapse sourceNeuronName = "0" targetNeuronName = "7" weight = "0.5192124221068031" />
    <synapse sourceNeuronName = "0" targetNeuronName = "8" weight = "0.2602598947317929" />
    <synapse sourceNeuronName = "0" targetNeuronName = "9" weight = "-0.3706399246148302" />
    <synapse sourceNeuronName = "0" targetNeuronName = "10" weight = "0.6902129663042795" />
    <synapse sourceNeuronName = "0" targetNeuronName = "11" weight = "0.2286388116656748" />
    <synapse sourceNeuronName = "0" targetNeuronName = "12" weight = "-0.957951106207457" />
    <synapse sourceNeuronName = "0" targetNeuronName = "13" weight = "-0.337254334638766" />
    <synapse sourceNeuronName = "0" targetNeuronName = "14" weight = "0.534150038075484" />
    <synapse sourceNeuronName = "0" targetNeuronName = "15" weight = "0.023732377135735394" />
    <synapse sourceNeuronName = "1" targetNeuronName = "2" weight = "0.8568912539206084" />
    <synapse sourceNeuronName = "1" targetNeuronName = "3" weight = "0.09277910107278808" />
    <synapse sourceNeuronName = "1" targetNeuronName = "4" weight = "-0.3244878213544551" />
    <synapse sourceNeuronName = "1" targetNeuronName = "5" weight = "0.37641365629186274" />
    <synapse sourceNeuronName = "1" targetNeuronName = "6" weight = "0.22299954250989562" />
    <synapse sourceNeuronName = "1" targetNeuronName = "7" weight = "0.3918631340895069" />
    <synapse sourceNeuronName = "1" targetNeuronName = "8" weight = "-0.6352311811099332" />
    <synapse sourceNeuronName = "1" targetNeuronName = "9" weight = "0.4884232335029963" />
    <synapse sourceNeuronName = "1" targetNeuronName = "10" weight = "-0.6705951016203535" />
    <synapse sourceNeuronName = "1" targetNeuronName = "11" weight = "-0.8464222767021261" />
    <synapse sourceNeuronName = "1" targetNeuronName = "12" weight = "-0.8224104578263103" />
    <synapse sourceNeuronName = "1" targetNeuronName = "13" weight = "0.3789663025756165" />
    <synapse sourceNeuronName = "1" targetNeuronName = "14" weight = "0.8866308528479911" />
    <synapse sourceNeuronName = "1" targetNeuronName = "15" weight = "-0.9985677310127397" />
</neuralNetwork>