<neuralNetwork>
    <neuron name = "0" type = "sensor" linkName = "Link1" />
    <neuron name = "1" type = "sensor" linkName = "Link2" />
    <neuron name = "2" type = "sensor" linkName = "Link4" />
    <neuron name = "3" type = "sensor" linkName = "Link5" />
    <neuron name = "4" type = "sensor" linkName = "Link7" />
    <neuron name = "5" type = "motor"  jointName = "Link0_Link1" />
    <neuron name = "6" type = "motor"  jointName = "Link0_Cube01" />
    <neuron name = "7" type = "motor"  jointName = "Cube01_Cube11" />
    <neuron name = "8" type = "motor"  jointName = "Cube11_Link2" />
    <neuron name = "9" type = "motor"  jointName = "Link0_Cube02" />
    <neuron name = "10" type = "motor"  jointName = "Cube02_Cube12" />
    <neuron name = "11" type = "motor"  jointName = "Cube12_Link3" />
    <neuron name = "12" type = "motor"  jointName = "Link2_Link4" />
    <neuron name = "13" type = "motor"  jointName = "Link0_Cube04" />
    <neuron name = "14" type = "motor"  jointName = "Cube04_Cube14" />
    <neuron name = "15" type = "motor"  jointName = "Cube14_Link5" />
    <neuron name = "16" type = "motor"  jointName = "Link5_Cube05" />
    <neuron name = "17" type = "motor"  jointName = "Cube05_Cube15" />
    <neuron name = "18" type = "motor"  jointName = "Cube15_Link6" />
    <neuron name = "19" type = "motor"  jointName = "Link2_Cube06" />
    <neuron name = "20" type = "motor"  jointName = "Cube06_Cube16" />
    <neuron name = "21" type = "motor"  jointName = "Cube16_Link7" />
    <neuron name = "22" type = "motor"  jointName = "Link0_Cube07" />
    <neuron name = "23" type = "motor"  jointName = "Cube07_Link8" />
    <neuron name = "24" type = "motor"  jointName = "Link8_Cube08" />
    <neuron name = "25" type = "motor"  jointName = "Cube08_Link9" />
    <synapse sourceNeuronName = "0" targetNeuronName = "5" weight = "0.5800884542847604" />
    <synapse sourceNeuronName = "0" targetNeuronName = "6" weight = "-0.8199126076214898" />
    <synapse sourceNeuronName = "0" targetNeuronName = "7" weight = "-0.2966783559057691" />
    <synapse sourceNeuronName = "0" targetNeuronName = "8" weight = "0.9893856550797302" />
    <synapse sourceNeuronName = "0" targetNeuronName = "9" weight = "0.6475938492109112" />
    <synapse sourceNeuronName = "0" targetNeuronName = "10" weight = "0.975276551197138" />
    <synapse sourceNeuronName = "0" targetNeuronName = "11" weight = "-0.45191666267457054" />
    <synapse sourceNeuronName = "0" targetNeuronName = "12" weight = "-0.40754115621873255" />
    <synapse sourceNeuronName = "0" targetNeuronName = "13" weight = "-0.05865639359917263" />
    <synapse sourceNeuronName = "0" targetNeuronName = "14" weight = "0.7665396593603768" />
    <synapse sourceNeuronName = "0" targetNeuronName = "15" weight = "-0.7493666117301883" />
    <synapse sourceNeuronName = "0" targetNeuronName = "16" weight = "-0.10048918598180445" />
    <synapse sourceNeuronName = "0" targetNeuronName = "17" weight = "0.20669576131100653" />
    <synapse sourceNeuronName = "0" targetNeuronName = "18" weight = "0.5635448919329236" />
    <synapse sourceNeuronName = "0" targetNeuronName = "19" weight = "-0.8075482982474467" />
    <synapse sourceNeuronName = "0" targetNeuronName = "20" weight = "0.1922647973710392" />
    <synapse sourceNeuronName = "0" targetNeuronName = "21" weight = "-0.8322625048699204" />
    <synapse sourceNeuronName = "0" targetNeuronName = "22" weight = "-0.8551972464281783" />
    <synapse sourceNeuronName = "0" targetNeuronName = "23" weight = "-0.9387476021650534" />
    <synapse sourceNeuronName = "0" targetNeuronName = "24" weight = "-0.460813909670307" />
    <synapse sourceNeuronName = "0" targetNeuronName = "25" weight = "-0.2163522508925282" />
    <synapse sourceNeuronName = "1" targetNeuronName = "5" weight = "0.6629976843496672" />
    <synapse sourceNeuronName = "1" targetNeuronName = "6" weight = "-0.40598992228685193" />
    <synapse sourceNeuronName = "1" targetNeuronName = "7" weight = "-0.030074322784405583" />
    <synapse sourceNeuronName = "1" targetNeuronName = "8" weight = "-0.6782786179955143" />
    <synapse sourceNeuronName = "1" targetNeuronName = "9" weight = "-0.13331102838258113" />
    <synapse sourceNeuronName = "1" targetNeuronName = "10" weight = "0.053346217893074366" />
    <synapse sourceNeuronName = "1" targetNeuronName = "11" weight = "0.8116243858396146" />
    <synapse sourceNeuronName = "1" targetNeuronName = "12" weight = "-0.7994007706925441" />
    <synapse sourceNeuronName = "1" targetNeuronName = "13" weight = "-0.3283146807351367" />
    <synapse sourceNeuronName = "1" targetNeuronName = "14" weight = "-0.20437618051885065" />
    <synapse sourceNeuronName = "1" targetNeuronName = "15" weight = "-0.14317897654872302" />
    <synapse sourceNeuronName = "1" targetNeuronName = "16" weight = "0.11482967017067636" />
    <synapse sourceNeuronName = "1" targetNeuronName = "17" weight = "-0.3298418294393901" />
    <synapse sourceNeuronName = "1" targetNeuronName = "18" weight = "-0.1600436328997319" />
    <synapse sourceNeuronName = "1" targetNeuronName = "19" weight = "0.9974443967767515" />
    <synapse sourceNeuronName = "1" targetNeuronName = "20" weight = "-0.018494553369525768" />
    <synapse sourceNeuronName = "1" targetNeuronName = "21" weight = "-0.2648778610338638" />
    <synapse sourceNeuronName = "1" targetNeuronName = "22" weight = "-0.6480815427848705" />
    <synapse sourceNeuronName = "1" targetNeuronName = "23" weight = "0.7708860653889176" />
    <synapse sourceNeuronName = "1" targetNeuronName = "24" weight = "0.7595629037658285" />
    <synapse sourceNeuronName = "1" targetNeuronName = "25" weight = "-0.9693281610663589" />
    <synapse sourceNeuronName = "2" targetNeuronName = "5" weight = "0.004901277968277107" />
    <synapse sourceNeuronName = "2" targetNeuronName = "6" weight = "-0.9359580275153616" />
    <synapse sourceNeuronName = "2" targetNeuronName = "7" weight = "0.6126456524626869" />
    <synapse sourceNeuronName = "2" targetNeuronName = "8" weight = "0.7108920082578649" />
    <synapse sourceNeuronName = "2" targetNeuronName = "9" weight = "0.39266720571893643" />
    <synapse sourceNeuronName = "2" targetNeuronName = "10" weight = "-0.623586881546343" />
    <synapse sourceNeuronName = "2" targetNeuronName = "11" weight = "-0.8324027271743746" />
    <synapse sourceNeuronName = "2" targetNeuronName = "12" weight = "-0.7442007463694531" />
    <synapse sourceNeuronName = "2" targetNeuronName = "13" weight = "-0.2771468971130302" />
    <synapse sourceNeuronName = "2" targetNeuronName = "14" weight = "-0.47925781686050306" />
    <synapse sourceNeuronName = "2" targetNeuronName = "15" weight = "-0.6952199494869573" />
    <synapse sourceNeuronName = "2" targetNeuronName = "16" weight = "0.9177121583144254" />
    <synapse sourceNeuronName = "2" targetNeuronName = "17" weight = "-0.6528561919240043" />
    <synapse sourceNeuronName = "2" targetNeuronName = "18" weight = "-0.8138569402890661" />
    <synapse sourceNeuronName = "2" targetNeuronName = "19" weight = "0.29500770567049694" />
    <synapse sourceNeuronName = "2" targetNeuronName = "20" weight = "-0.11372550282574356" />
    <synapse sourceNeuronName = "2" targetNeuronName = "21" weight = "-0.9468566609458804" />
    <synapse sourceNeuronName = "2" targetNeuronName = "22" weight = "0.4185294223732161" />
    <synapse sourceNeuronName = "2" targetNeuronName = "23" weight = "0.5817155971809154" />
    <synapse sourceNeuronName = "2" targetNeuronName = "24" weight = "-0.7536278838795942" />
    <synapse sourceNeuronName = "2" targetNeuronName = "25" weight = "-0.7131979382246445" />
    <synapse sourceNeuronName = "3" targetNeuronName = "5" weight = "0.4830266101443643" />
    <synapse sourceNeuronName = "3" targetNeuronName = "6" weight = "0.37106993655351506" />
    <synapse sourceNeuronName = "3" targetNeuronName = "7" weight = "-0.7624591030289936" />
    <synapse sourceNeuronName = "3" targetNeuronName = "8" weight = "0.4502150444727919" />
    <synapse sourceNeuronName = "3" targetNeuronName = "9" weight = "0.9437739008039829" />
    <synapse sourceNeuronName = "3" targetNeuronName = "10" weight = "-0.9299758093369761" />
    <synapse sourceNeuronName = "3" targetNeuronName = "11" weight = "-0.3836780193140563" />
    <synapse sourceNeuronName = "3" targetNeuronName = "12" weight = "-0.7382805900640799" />
    <synapse sourceNeuronName = "3" targetNeuronName = "13" weight = "0.20860639359164557" />
    <synapse sourceNeuronName = "3" targetNeuronName = "14" weight = "-0.9651421471832626" />
    <synapse sourceNeuronName = "3" targetNeuronName = "15" weight = "-0.5060645093874978" />
    <synapse sourceNeuronName = "3" targetNeuronName = "16" weight = "0.7540833832549383" />
    <synapse sourceNeuronName = "3" targetNeuronName = "17" weight = "0.5418768337925624" />
    <synapse sourceNeuronName = "3" targetNeuronName = "18" weight = "-0.13999404091511813" />
    <synapse sourceNeuronName = "3" targetNeuronName = "19" weight = "-0.11207432570846954" />
    <synapse sourceNeuronName = "3" targetNeuronName = "20" weight = "0.5103503726243941" />
    <synapse sourceNeuronName = "3" targetNeuronName = "21" weight = "-0.44984912168091284" />
    <synapse sourceNeuronName = "3" targetNeuronName = "22" weight = "2.7729357521266706e-06" />
    <synapse sourceNeuronName = "3" targetNeuronName = "23" weight = "-0.45100090434324147" />
    <synapse sourceNeuronName = "3" targetNeuronName = "24" weight = "0.4059707681780227" />
    <synapse sourceNeuronName = "3" targetNeuronName = "25" weight = "0.8895796352159642" />
    <synapse sourceNeuronName = "4" targetNeuronName = "5" weight = "0.9635522701963048" />
    <synapse sourceNeuronName = "4" targetNeuronName = "6" weight = "-0.11028079340809183" />
    <synapse sourceNeuronName = "4" targetNeuronName = "7" weight = "-0.7417965268570972" />
    <synapse sourceNeuronName = "4" targetNeuronName = "8" weight = "-0.9810680488247561" />
    <synapse sourceNeuronName = "4" targetNeuronName = "9" weight = "-0.48366531934243384" />
    <synapse sourceNeuronName = "4" targetNeuronName = "10" weight = "0.5042856505751883" />
    <synapse sourceNeuronName = "4" targetNeuronName = "11" weight = "-0.8697350384092499" />
    <synapse sourceNeuronName = "4" targetNeuronName = "12" weight = "0.4397348102152645" />
    <synapse sourceNeuronName = "4" targetNeuronName = "13" weight = "0.27976250393878876" />
    <synapse sourceNeuronName = "4" targetNeuronName = "14" weight = "0.6241781620028979" />
    <synapse sourceNeuronName = "4" targetNeuronName = "15" weight = "0.6549228872873467" />
    <synapse sourceNeuronName = "4" targetNeuronName = "16" weight = "-0.9773943690744145" />
    <synapse sourceNeuronName = "4" targetNeuronName = "17" weight = "0.3236213554975924" />
    <synapse sourceNeuronName = "4" targetNeuronName = "18" weight = "0.15475121704433392" />
    <synapse sourceNeuronName = "4" targetNeuronName = "19" weight = "0.2298698767556342" />
    <synapse sourceNeuronName = "4" targetNeuronName = "20" weight = "0.019268809514785934" />
    <synapse sourceNeuronName = "4" targetNeuronName = "21" weight = "-0.7567567081483866" />
    <synapse sourceNeuronName = "4" targetNeuronName = "22" weight = "-0.5425131230224707" />
    <synapse sourceNeuronName = "4" targetNeuronName = "23" weight = "0.33991106885097455" />
    <synapse sourceNeuronName = "4" targetNeuronName = "24" weight = "-0.8010489141067978" />
    <synapse sourceNeuronName = "4" targetNeuronName = "25" weight = "0.9924681047701849" />
</neuralNetwork>