<neuralNetwork>
    <neuron name = "0" type = "sensor" linkName = "Link0" />
    <neuron name = "1" type = "sensor" linkName = "Link2" />
    <neuron name = "2" type = "sensor" linkName = "Link3" />
    <neuron name = "3" type = "sensor" linkName = "Link5" />
    <neuron name = "4" type = "motor"  jointName = "Link0_Cube00" />
    <neuron name = "5" type = "motor"  jointName = "Cube00_Link1" />
    <neuron name = "6" type = "motor"  jointName = "Link0_Cube01" />
    <neuron name = "7" type = "motor"  jointName = "Cube01_Cube11" />
    <neuron name = "8" type = "motor"  jointName = "Cube11_Link2" />
    <neuron name = "9" type = "motor"  jointName = "Link0_Cube02" />
    <neuron name = "10" type = "motor"  jointName = "Cube02_Link3" />
    <neuron name = "11" type = "motor"  jointName = "Link0_Cube03" />
    <neuron name = "12" type = "motor"  jointName = "Cube03_Link4" />
    <neuron name = "13" type = "motor"  jointName = "Link2_Cube04" />
    <neuron name = "14" type = "motor"  jointName = "Cube04_Link5" />
    <synapse sourceNeuronName = "0" targetNeuronName = "4" weight = "0.8221657412133934" />
    <synapse sourceNeuronName = "0" targetNeuronName = "5" weight = "-0.0991735395555382" />
    <synapse sourceNeuronName = "0" targetNeuronName = "6" weight = "0.2895081661403842" />
    <synapse sourceNeuronName = "0" targetNeuronName = "7" weight = "0.4879412486544312" />
    <synapse sourceNeuronName = "0" targetNeuronName = "8" weight = "-0.20409229120755645" />
    <synapse sourceNeuronName = "0" targetNeuronName = "9" weight = "0.6730857735643094" />
    <synapse sourceNeuronName = "0" targetNeuronName = "10" weight = "0.9976199341291716" />
    <synapse sourceNeuronName = "0" targetNeuronName = "11" weight = "-0.21831114334251533" />
    <synapse sourceNeuronName = "0" targetNeuronName = "12" weight = "-0.37492958733890136" />
    <synapse sourceNeuronName = "0" targetNeuronName = "13" weight = "-0.7221326229244844" />
    <synapse sourceNeuronName = "0" targetNeuronName = "14" weight = "-0.858723107313927" />
    <synapse sourceNeuronName = "1" targetNeuronName = "4" weight = "-0.7478697290362835" />
    <synapse sourceNeuronName = "1" targetNeuronName = "5" weight = "0.7726936384707226" />
    <synapse sourceNeuronName = "1" targetNeuronName = "6" weight = "-0.9726417847292215" />
    <synapse sourceNeuronName = "1" targetNeuronName = "7" weight = "0.8463775444695611" />
    <synapse sourceNeuronName = "1" targetNeuronName = "8" weight = "0.18714637105923337" />
    <synapse sourceNeuronName = "1" targetNeuronName = "9" weight = "0.3761221366724774" />
    <synapse sourceNeuronName = "1" targetNeuronName = "10" weight = "-0.6854778363256901" />
    <synapse sourceNeuronName = "1" targetNeuronName = "11" weight = "0.8338366173534237" />
    <synapse sourceNeuronName = "1" targetNeuronName = "12" weight = "-0.778546175555157" />
    <synapse sourceNeuronName = "1" targetNeuronName = "13" weight = "-0.5007030063474671" />
    <synapse sourceNeuronName = "1" targetNeuronName = "14" weight = "-0.7228430263253023" />
    <synapse sourceNeuronName = "2" targetNeuronName = "4" weight = "-0.7593228318220975" />
    <synapse sourceNeuronName = "2" targetNeuronName = "5" weight = "-0.42276743721814847" />
    <synapse sourceNeuronName = "2" targetNeuronName = "6" weight = "0.7644011027416822" />
    <synapse sourceNeuronName = "2" targetNeuronName = "7" weight = "-0.5652273033612485" />
    <synapse sourceNeuronName = "2" targetNeuronName = "8" weight = "-0.20795829944519295" />
    <synapse sourceNeuronName = "2" targetNeuronName = "9" weight = "0.3426865878421099" />
    <synapse sourceNeuronName = "2" targetNeuronName = "10" weight = "-0.6359927149241547" />
    <synapse sourceNeuronName = "2" targetNeuronName = "11" weight = "0.4183933907714916" />
    <synapse sourceNeuronName = "2" targetNeuronName = "12" weight = "0.058931280036602196" />
    <synapse sourceNeuronName = "2" targetNeuronName = "13" weight = "-0.6382729520663721" />
    <synapse sourceNeuronName = "2" targetNeuronName = "14" weight = "0.8910749845649797" />
    <synapse sourceNeuronName = "3" targetNeuronName = "4" weight = "-0.9655251828458233" />
    <synapse sourceNeuronName = "3" targetNeuronName = "5" weight = "0.27706315596981335" />
    <synapse sourceNeuronName = "3" targetNeuronName = "6" weight = "0.4797823751437962" />
    <synapse sourceNeuronName = "3" targetNeuronName = "7" weight = "0.8385540144994466" />
    <synapse sourceNeuronName = "3" targetNeuronName = "8" weight = "-0.6129194698127773" />
    <synapse sourceNeuronName = "3" targetNeuronName = "9" weight = "0.41898419626921646" />
    <synapse sourceNeuronName = "3" targetNeuronName = "10" weight = "-0.10303767849990364" />
    <synapse sourceNeuronName = "3" targetNeuronName = "11" weight = "-0.10376678465134126" />
    <synapse sourceNeuronName = "3" targetNeuronName = "12" weight = "-0.6633790345632602" />
    <synapse sourceNeuronName = "3" targetNeuronName = "13" weight = "-0.8332926705279406" />
    <synapse sourceNeuronName = "3" targetNeuronName = "14" weight = "-0.17647139061908734" />
</neuralNetwork>