<neuralNetwork>
    <neuron name = "0" type = "sensor" linkName = "Link0" />
    <neuron name = "1" type = "sensor" linkName = "Link3" />
    <neuron name = "2" type = "sensor" linkName = "Link4" />
    <neuron name = "3" type = "sensor" linkName = "Link7" />
    <neuron name = "4" type = "sensor" linkName = "Link9" />
    <neuron name = "5" type = "motor"  jointName = "Link0_Cube00" />
    <neuron name = "6" type = "motor"  jointName = "Cube00_Link1" />
    <neuron name = "7" type = "motor"  jointName = "Link0_Cube01" />
    <neuron name = "8" type = "motor"  jointName = "Cube01_Cube11" />
    <neuron name = "9" type = "motor"  jointName = "Cube11_Link2" />
    <neuron name = "10" type = "motor"  jointName = "Link0_Link3" />
    <neuron name = "11" type = "motor"  jointName = "Link2_Cube03" />
    <neuron name = "12" type = "motor"  jointName = "Cube03_Cube13" />
    <neuron name = "13" type = "motor"  jointName = "Cube13_Link4" />
    <neuron name = "14" type = "motor"  jointName = "Link0_Cube04" />
    <neuron name = "15" type = "motor"  jointName = "Cube04_Link5" />
    <neuron name = "16" type = "motor"  jointName = "Link2_Link6" />
    <neuron name = "17" type = "motor"  jointName = "Link1_Cube06" />
    <neuron name = "18" type = "motor"  jointName = "Cube06_Link7" />
    <neuron name = "19" type = "motor"  jointName = "Link1_Cube07" />
    <neuron name = "20" type = "motor"  jointName = "Cube07_Link8" />
    <neuron name = "21" type = "motor"  jointName = "Link3_Cube08" />
    <neuron name = "22" type = "motor"  jointName = "Cube08_Link9" />
    <neuron name = "23" type = "motor"  jointName = "Link6_Link10" />
    <synapse sourceNeuronName = "0" targetNeuronName = "5" weight = "-0.7187762089983627" />
    <synapse sourceNeuronName = "0" targetNeuronName = "6" weight = "0.08587596273457265" />
    <synapse sourceNeuronName = "0" targetNeuronName = "7" weight = "0.27034341921692895" />
    <synapse sourceNeuronName = "0" targetNeuronName = "8" weight = "-0.08935822687681982" />
    <synapse sourceNeuronName = "0" targetNeuronName = "9" weight = "-0.46901530481153686" />
    <synapse sourceNeuronName = "0" targetNeuronName = "10" weight = "0.8347036165466515" />
    <synapse sourceNeuronName = "0" targetNeuronName = "11" weight = "-0.39235273111651514" />
    <synapse sourceNeuronName = "0" targetNeuronName = "12" weight = "0.10493705717754831" />
    <synapse sourceNeuronName = "0" targetNeuronName = "13" weight = "0.005994585156242849" />
    <synapse sourceNeuronName = "0" targetNeuronName = "14" weight = "0.10889673613722728" />
    <synapse sourceNeuronName = "0" targetNeuronName = "15" weight = "0.5629709935054266" />
    <synapse sourceNeuronName = "0" targetNeuronName = "16" weight = "0.5568370062681682" />
    <synapse sourceNeuronName = "0" targetNeuronName = "17" weight = "-0.5224195469800101" />
    <synapse sourceNeuronName = "0" targetNeuronName = "18" weight = "0.8754068825725618" />
    <synapse sourceNeuronName = "0" targetNeuronName = "19" weight = "-0.4642694062468471" />
    <synapse sourceNeuronName = "0" targetNeuronName = "20" weight = "0.32798366363463494" />
    <synapse sourceNeuronName = "0" targetNeuronName = "21" weight = "-0.23562464778981784" />
    <synapse sourceNeuronName = "0" targetNeuronName = "22" weight = "-0.28342065860068333" />
    <synapse sourceNeuronName = "0" targetNeuronName = "23" weight = "0.2757093593217459" />
    <synapse sourceNeuronName = "1" targetNeuronName = "5" weight = "-0.27629429322317467" />
    <synapse sourceNeuronName = "1" targetNeuronName = "6" weight = "-0.40275277995311787" />
    <synapse sourceNeuronName = "1" targetNeuronName = "7" weight = "0.9208191832920305" />
    <synapse sourceNeuronName = "1" targetNeuronName = "8" weight = "0.6093066595098722" />
    <synapse sourceNeuronName = "1" targetNeuronName = "9" weight = "-0.8218502950606776" />
    <synapse sourceNeuronName = "1" targetNeuronName = "10" weight = "0.6632353650148952" />
    <synapse sourceNeuronName = "1" targetNeuronName = "11" weight = "-0.818297654089486" />
    <synapse sourceNeuronName = "1" targetNeuronName = "12" weight = "-0.7668997804197721" />
    <synapse sourceNeuronName = "1" targetNeuronName = "13" weight = "0.3764096019868246" />
    <synapse sourceNeuronName = "1" targetNeuronName = "14" weight = "-0.07629038379097208" />
    <synapse sourceNeuronName = "1" targetNeuronName = "15" weight = "0.4333846111880728" />
    <synapse sourceNeuronName = "1" targetNeuronName = "16" weight = "0.8017159449526334" />
    <synapse sourceNeuronName = "1" targetNeuronName = "17" weight = "0.8623879040696374" />
    <synapse sourceNeuronName = "1" targetNeuronName = "18" weight = "0.5787582391051789" />
    <synapse sourceNeuronName = "1" targetNeuronName = "19" weight = "0.2955286853887824" />
    <synapse sourceNeuronName = "1" targetNeuronName = "20" weight = "0.6787703166658487" />
    <synapse sourceNeuronName = "1" targetNeuronName = "21" weight = "-0.39726308521407616" />
    <synapse sourceNeuronName = "1" targetNeuronName = "22" weight = "0.0717029614897855" />
    <synapse sourceNeuronName = "1" targetNeuronName = "23" weight = "0.3399256008005358" />
    <synapse sourceNeuronName = "2" targetNeuronName = "5" weight = "0.6777235184040642" />
    <synapse sourceNeuronName = "2" targetNeuronName = "6" weight = "0.9683230206220985" />
    <synapse sourceNeuronName = "2" targetNeuronName = "7" weight = "-0.06569136942354614" />
    <synapse sourceNeuronName = "2" targetNeuronName = "8" weight = "0.4567766096029564" />
    <synapse sourceNeuronName = "2" targetNeuronName = "9" weight = "-0.5293372599101522" />
    <synapse sourceNeuronName = "2" targetNeuronName = "10" weight = "0.7070399111343952" />
    <synapse sourceNeuronName = "2" targetNeuronName = "11" weight = "-0.8974381486542418" />
    <synapse sourceNeuronName = "2" targetNeuronName = "12" weight = "-0.9149158921752683" />
    <synapse sourceNeuronName = "2" targetNeuronName = "13" weight = "0.603786001883408" />
    <synapse sourceNeuronName = "2" targetNeuronName = "14" weight = "-0.8794379407085029" />
    <synapse sourceNeuronName = "2" targetNeuronName = "15" weight = "0.7231300725635863" />
    <synapse sourceNeuronName = "2" targetNeuronName = "16" weight = "-0.8399573064579395" />
    <synapse sourceNeuronName = "2" targetNeuronName = "17" weight = "-0.6630371840749627" />
    <synapse sourceNeuronName = "2" targetNeuronName = "18" weight = "-0.4091406552048862" />
    <synapse sourceNeuronName = "2" targetNeuronName = "19" weight = "0.9002244010951457" />
    <synapse sourceNeuronName = "2" targetNeuronName = "20" weight = "-0.4272884398231822" />
    <synapse sourceNeuronName = "2" targetNeuronName = "21" weight = "-0.7889920972467532" />
    <synapse sourceNeuronName = "2" targetNeuronName = "22" weight = "0.15019248849716993" />
    <synapse sourceNeuronName = "2" targetNeuronName = "23" weight = "0.30327545821505564" />
    <synapse sourceNeuronName = "3" targetNeuronName = "5" weight = "0.7137359730360651" />
    <synapse sourceNeuronName = "3" targetNeuronName = "6" weight = "-0.48756902702956806" />
    <synapse sourceNeuronName = "3" targetNeuronName = "7" weight = "-0.3127804701429888" />
    <synapse sourceNeuronName = "3" targetNeuronName = "8" weight = "-0.34509119004846034" />
    <synapse sourceNeuronName = "3" targetNeuronName = "9" weight = "0.17311004432469845" />
    <synapse sourceNeuronName = "3" targetNeuronName = "10" weight = "-0.1402422953392204" />
    <synapse sourceNeuronName = "3" targetNeuronName = "11" weight = "0.8954492814282873" />
    <synapse sourceNeuronName = "3" targetNeuronName = "12" weight = "-0.2902098815061067" />
    <synapse sourceNeuronName = "3" targetNeuronName = "13" weight = "-0.991550979601461" />
    <synapse sourceNeuronName = "3" targetNeuronName = "14" weight = "0.30571351381074163" />
    <synapse sourceNeuronName = "3" targetNeuronName = "15" weight = "0.31370704866836374" />
    <synapse sourceNeuronName = "3" targetNeuronName = "16" weight = "0.8826877416259775" />
    <synapse sourceNeuronName = "3" targetNeuronName = "17" weight = "-0.19234866302179188" />
    <synapse sourceNeuronName = "3" targetNeuronName = "18" weight = "-0.9401469186452907" />
    <synapse sourceNeuronName = "3" targetNeuronName = "19" weight = "-0.7307398850958988" />
    <synapse sourceNeuronName = "3" targetNeuronName = "20" weight = "0.01911264417508618" />
    <synapse sourceNeuronName = "3" targetNeuronName = "21" weight = "0.7952577238643144" />
    <synapse sourceNeuronName = "3" targetNeuronName = "22" weight = "0.10496421233927777" />
    <synapse sourceNeuronName = "3" targetNeuronName = "23" weight = "-0.8979717155460036" />
    <synapse sourceNeuronName = "4" targetNeuronName = "5" weight = "0.24137205920792582" />
    <synapse sourceNeuronName = "4" targetNeuronName = "6" weight = "0.2667638282456213" />
    <synapse sourceNeuronName = "4" targetNeuronName = "7" weight = "-0.8841916822197291" />
    <synapse sourceNeuronName = "4" targetNeuronName = "8" weight = "-0.302049842148689" />
    <synapse sourceNeuronName = "4" targetNeuronName = "9" weight = "0.6465200455476203" />
    <synapse sourceNeuronName = "4" targetNeuronName = "10" weight = "-0.911826729424916" />
    <synapse sourceNeuronName = "4" targetNeuronName = "11" weight = "-0.4597769305593917" />
    <synapse sourceNeuronName = "4" targetNeuronName = "12" weight = "0.3513521859582853" />
    <synapse sourceNeuronName = "4" targetNeuronName = "13" weight = "-0.9239575770316257" />
    <synapse sourceNeuronName = "4" targetNeuronName = "14" weight = "-0.573856662909001" />
    <synapse sourceNeuronName = "4" targetNeuronName = "15" weight = "0.9117571836691474" />
    <synapse sourceNeuronName = "4" targetNeuronName = "16" weight = "-0.0223423010378323" />
    <synapse sourceNeuronName = "4" targetNeuronName = "17" weight = "-0.2879093300736928" />
    <synapse sourceNeuronName = "4" targetNeuronName = "18" weight = "-0.3405290765007507" />
    <synapse sourceNeuronName = "4" targetNeuronName = "19" weight = "-0.5340567849514992" />
    <synapse sourceNeuronName = "4" targetNeuronName = "20" weight = "0.35998416509463427" />
    <synapse sourceNeuronName = "4" targetNeuronName = "21" weight = "0.032164466373651335" />
    <synapse sourceNeuronName = "4" targetNeuronName = "22" weight = "-0.6393444101400121" />
    <synapse sourceNeuronName = "4" targetNeuronName = "23" weight = "-0.016706494243639902" />
</neuralNetwork>