<neuralNetwork>
    <neuron name = "0" type = "sensor" linkName = "Link0" />
    <neuron name = "1" type = "sensor" linkName = "Link2" />
    <neuron name = "2" type = "sensor" linkName = "Link3" />
    <neuron name = "3" type = "sensor" linkName = "Link5" />
    <neuron name = "4" type = "motor"  jointName = "Link0_Cube00" />
    <neuron name = "5" type = "motor"  jointName = "Cube00_Link1" />
    <neuron name = "6" type = "motor"  jointName = "Link0_Cube01" />
    <neuron name = "7" type = "motor"  jointName = "Cube01_Cube11" />
    <neuron name = "8" type = "motor"  jointName = "Cube11_Link2" />
    <neuron name = "9" type = "motor"  jointName = "Link0_Cube02" />
    <neuron name = "10" type = "motor"  jointName = "Cube02_Link3" />
    <neuron name = "11" type = "motor"  jointName = "Link0_Cube03" />
    <neuron name = "12" type = "motor"  jointName = "Cube03_Link4" />
    <neuron name = "13" type = "motor"  jointName = "Link2_Cube04" />
    <neuron name = "14" type = "motor"  jointName = "Cube04_Link5" />
    <synapse sourceNeuronName = "0" targetNeuronName = "4" weight = "0.261893707433865" />
    <synapse sourceNeuronName = "0" targetNeuronName = "5" weight = "-0.9934584667413029" />
    <synapse sourceNeuronName = "0" targetNeuronName = "6" weight = "0.06836022517428963" />
    <synapse sourceNeuronName = "0" targetNeuronName = "7" weight = "-0.9251805186243893" />
    <synapse sourceNeuronName = "0" targetNeuronName = "8" weight = "0.7089707250280135" />
    <synapse sourceNeuronName = "0" targetNeuronName = "9" weight = "-0.6028283173977074" />
    <synapse sourceNeuronName = "0" targetNeuronName = "10" weight = "-0.7015231255255583" />
    <synapse sourceNeuronName = "0" targetNeuronName = "11" weight = "0.6966406935486431" />
    <synapse sourceNeuronName = "0" targetNeuronName = "12" weight = "-0.2661055231134508" />
    <synapse sourceNeuronName = "0" targetNeuronName = "13" weight = "0.14509551062641424" />
    <synapse sourceNeuronName = "0" targetNeuronName = "14" weight = "0.21918323524812333" />
    <synapse sourceNeuronName = "1" targetNeuronName = "4" weight = "0.8672874194577385" />
    <synapse sourceNeuronName = "1" targetNeuronName = "5" weight = "-0.9621651242323965" />
    <synapse sourceNeuronName = "1" targetNeuronName = "6" weight = "-0.7611693237541579" />
    <synapse sourceNeuronName = "1" targetNeuronName = "7" weight = "0.6030225906428759" />
    <synapse sourceNeuronName = "1" targetNeuronName = "8" weight = "0.04360155309135072" />
    <synapse sourceNeuronName = "1" targetNeuronName = "9" weight = "-0.017757578900135407" />
    <synapse sourceNeuronName = "1" targetNeuronName = "10" weight = "0.408948388287524" />
    <synapse sourceNeuronName = "1" targetNeuronName = "11" weight = "-0.2375631199981032" />
    <synapse sourceNeuronName = "1" targetNeuronName = "12" weight = "-0.872355624249538" />
    <synapse sourceNeuronName = "1" targetNeuronName = "13" weight = "0.39055535526614094" />
    <synapse sourceNeuronName = "1" targetNeuronName = "14" weight = "0.29058542534909226" />
    <synapse sourceNeuronName = "2" targetNeuronName = "4" weight = "-0.14220614596038672" />
    <synapse sourceNeuronName = "2" targetNeuronName = "5" weight = "0.750184819484641" />
    <synapse sourceNeuronName = "2" targetNeuronName = "6" weight = "-0.678853066969372" />
    <synapse sourceNeuronName = "2" targetNeuronName = "7" weight = "-0.35187772008892004" />
    <synapse sourceNeuronName = "2" targetNeuronName = "8" weight = "0.8546417846769729" />
    <synapse sourceNeuronName = "2" targetNeuronName = "9" weight = "0.6086092302637489" />
    <synapse sourceNeuronName = "2" targetNeuronName = "10" weight = "0.27053708577423796" />
    <synapse sourceNeuronName = "2" targetNeuronName = "11" weight = "0.3583156159360037" />
    <synapse sourceNeuronName = "2" targetNeuronName = "12" weight = "-0.3004804359175066" />
    <synapse sourceNeuronName = "2" targetNeuronName = "13" weight = "-0.28082484596363466" />
    <synapse sourceNeuronName = "2" targetNeuronName = "14" weight = "0.9812962106420371" />
    <synapse sourceNeuronName = "3" targetNeuronName = "4" weight = "-0.615796591830948" />
    <synapse sourceNeuronName = "3" targetNeuronName = "5" weight = "-0.6304612186646017" />
    <synapse sourceNeuronName = "3" targetNeuronName = "6" weight = "0.11393884682453703" />
    <synapse sourceNeuronName = "3" targetNeuronName = "7" weight = "-0.4190841039011881" />
    <synapse sourceNeuronName = "3" targetNeuronName = "8" weight = "0.558974180086163" />
    <synapse sourceNeuronName = "3" targetNeuronName = "9" weight = "-0.7784431250864876" />
    <synapse sourceNeuronName = "3" targetNeuronName = "10" weight = "-0.43999113894533703" />
    <synapse sourceNeuronName = "3" targetNeuronName = "11" weight = "-0.36219615269819116" />
    <synapse sourceNeuronName = "3" targetNeuronName = "12" weight = "-0.196525313697832" />
    <synapse sourceNeuronName = "3" targetNeuronName = "13" weight = "0.2696611711887429" />
    <synapse sourceNeuronName = "3" targetNeuronName = "14" weight = "0.01717109646781223" />
</neuralNetwork>