<neuralNetwork>
    <neuron name = "0" type = "sensor" linkName = "Link2" />
    <neuron name = "1" type = "sensor" linkName = "Link3" />
    <neuron name = "2" type = "sensor" linkName = "Link5" />
    <neuron name = "3" type = "sensor" linkName = "Link7" />
    <neuron name = "4" type = "motor"  jointName = "Link0_Cube00" />
    <neuron name = "5" type = "motor"  jointName = "Cube00_Link1" />
    <neuron name = "6" type = "motor"  jointName = "Link0_Link2" />
    <neuron name = "7" type = "motor"  jointName = "Link2_Cube02" />
    <neuron name = "8" type = "motor"  jointName = "Cube02_Cube12" />
    <neuron name = "9" type = "motor"  jointName = "Cube12_Link3" />
    <neuron name = "10" type = "motor"  jointName = "Link0_Cube03" />
    <neuron name = "11" type = "motor"  jointName = "Cube03_Link4" />
    <neuron name = "12" type = "motor"  jointName = "Link2_Link5" />
    <neuron name = "13" type = "motor"  jointName = "Link2_Link6" />
    <neuron name = "14" type = "motor"  jointName = "Link0_Cube06" />
    <neuron name = "15" type = "motor"  jointName = "Cube06_Link7" />
    <neuron name = "16" type = "motor"  jointName = "Link7_Cube07" />
    <neuron name = "17" type = "motor"  jointName = "Cube07_Link8" />
    <synapse sourceNeuronName = "0" targetNeuronName = "4" weight = "-0.19047111679505835" />
    <synapse sourceNeuronName = "0" targetNeuronName = "5" weight = "0.04680439170826789" />
    <synapse sourceNeuronName = "0" targetNeuronName = "6" weight = "0.7628791195819327" />
    <synapse sourceNeuronName = "0" targetNeuronName = "7" weight = "-0.6399506926816227" />
    <synapse sourceNeuronName = "0" targetNeuronName = "8" weight = "-0.4902815754850445" />
    <synapse sourceNeuronName = "0" targetNeuronName = "9" weight = "0.739053702281167" />
    <synapse sourceNeuronName = "0" targetNeuronName = "10" weight = "0.7605555919478257" />
    <synapse sourceNeuronName = "0" targetNeuronName = "11" weight = "-0.2733883506305548" />
    <synapse sourceNeuronName = "0" targetNeuronName = "12" weight = "0.7745696047962483" />
    <synapse sourceNeuronName = "0" targetNeuronName = "13" weight = "0.37098202868028807" />
    <synapse sourceNeuronName = "0" targetNeuronName = "14" weight = "0.6757461322394169" />
    <synapse sourceNeuronName = "0" targetNeuronName = "15" weight = "0.9729293518520556" />
    <synapse sourceNeuronName = "0" targetNeuronName = "16" weight = "-0.679375418060959" />
    <synapse sourceNeuronName = "0" targetNeuronName = "17" weight = "0.9566436314455671" />
    <synapse sourceNeuronName = "1" targetNeuronName = "4" weight = "0.48067097415853377" />
    <synapse sourceNeuronName = "1" targetNeuronName = "5" weight = "-0.8573762321517597" />
    <synapse sourceNeuronName = "1" targetNeuronName = "6" weight = "-0.3157016211172168" />
    <synapse sourceNeuronName = "1" targetNeuronName = "7" weight = "0.564025370024011" />
    <synapse sourceNeuronName = "1" targetNeuronName = "8" weight = "-0.3210321907559308" />
    <synapse sourceNeuronName = "1" targetNeuronName = "9" weight = "-0.006254854482684147" />
    <synapse sourceNeuronName = "1" targetNeuronName = "10" weight = "-0.0355277878259499" />
    <synapse sourceNeuronName = "1" targetNeuronName = "11" weight = "-0.7440019818654753" />
    <synapse sourceNeuronName = "1" targetNeuronName = "12" weight = "-0.5101480860798191" />
    <synapse sourceNeuronName = "1" targetNeuronName = "13" weight = "-0.6648503532073899" />
    <synapse sourceNeuronName = "1" targetNeuronName = "14" weight = "-0.44832709918531544" />
    <synapse sourceNeuronName = "1" targetNeuronName = "15" weight = "-0.24122646379175672" />
    <synapse sourceNeuronName = "1" targetNeuronName = "16" weight = "-0.6351421011539247" />
    <synapse sourceNeuronName = "1" targetNeuronName = "17" weight = "0.13987177240070525" />
    <synapse sourceNeuronName = "2" targetNeuronName = "4" weight = "-0.5875960231165389" />
    <synapse sourceNeuronName = "2" targetNeuronName = "5" weight = "-0.8347931002265547" />
    <synapse sourceNeuronName = "2" targetNeuronName = "6" weight = "-0.680377064377478" />
    <synapse sourceNeuronName = "2" targetNeuronName = "7" weight = "0.42452940754278745" />
    <synapse sourceNeuronName = "2" targetNeuronName = "8" weight = "-0.9175884150132336" />
    <synapse sourceNeuronName = "2" targetNeuronName = "9" weight = "0.6472360618220998" />
    <synapse sourceNeuronName = "2" targetNeuronName = "10" weight = "-0.5283604780582123" />
    <synapse sourceNeuronName = "2" targetNeuronName = "11" weight = "-0.3892780025588003" />
    <synapse sourceNeuronName = "2" targetNeuronName = "12" weight = "-0.19262627071171612" />
    <synapse sourceNeuronName = "2" targetNeuronName = "13" weight = "0.766313777855264" />
    <synapse sourceNeuronName = "2" targetNeuronName = "14" weight = "-0.34092983107874186" />
    <synapse sourceNeuronName = "2" targetNeuronName = "15" weight = "0.47695794830592453" />
    <synapse sourceNeuronName = "2" targetNeuronName = "16" weight = "-0.7158453449860702" />
    <synapse sourceNeuronName = "2" targetNeuronName = "17" weight = "0.7826544161728735" />
    <synapse sourceNeuronName = "3" targetNeuronName = "4" weight = "0.8887261542361109" />
    <synapse sourceNeuronName = "3" targetNeuronName = "5" weight = "0.7183019942053506" />
    <synapse sourceNeuronName = "3" targetNeuronName = "6" weight = "-0.029770224982830662" />
    <synapse sourceNeuronName = "3" targetNeuronName = "7" weight = "-0.30389762123884867" />
    <synapse sourceNeuronName = "3" targetNeuronName = "8" weight = "0.7083937873231911" />
    <synapse sourceNeuronName = "3" targetNeuronName = "9" weight = "0.4519577023155137" />
    <synapse sourceNeuronName = "3" targetNeuronName = "10" weight = "0.4980762358075619" />
    <synapse sourceNeuronName = "3" targetNeuronName = "11" weight = "0.0993809753621453" />
    <synapse sourceNeuronName = "3" targetNeuronName = "12" weight = "0.07554817674536007" />
    <synapse sourceNeuronName = "3" targetNeuronName = "13" weight = "-0.8377968997230016" />
    <synapse sourceNeuronName = "3" targetNeuronName = "14" weight = "-0.33921695812346386" />
    <synapse sourceNeuronName = "3" targetNeuronName = "15" weight = "0.12125588217392047" />
    <synapse sourceNeuronName = "3" targetNeuronName = "16" weight = "-0.10892604902475722" />
    <synapse sourceNeuronName = "3" targetNeuronName = "17" weight = "-0.4593424886999138" />
</neuralNetwork>