<neuralNetwork>
    <neuron name = "0" type = "sensor" linkName = "Link1" />
    <neuron name = "1" type = "sensor" linkName = "Link2" />
    <neuron name = "2" type = "sensor" linkName = "Link4" />
    <neuron name = "3" type = "sensor" linkName = "Link5" />
    <neuron name = "4" type = "sensor" linkName = "Link7" />
    <neuron name = "5" type = "motor"  jointName = "Link0_Link1" />
    <neuron name = "6" type = "motor"  jointName = "Link0_Cube01" />
    <neuron name = "7" type = "motor"  jointName = "Cube01_Cube11" />
    <neuron name = "8" type = "motor"  jointName = "Cube11_Link2" />
    <neuron name = "9" type = "motor"  jointName = "Link0_Cube02" />
    <neuron name = "10" type = "motor"  jointName = "Cube02_Cube12" />
    <neuron name = "11" type = "motor"  jointName = "Cube12_Link3" />
    <neuron name = "12" type = "motor"  jointName = "Link2_Link4" />
    <neuron name = "13" type = "motor"  jointName = "Link0_Cube04" />
    <neuron name = "14" type = "motor"  jointName = "Cube04_Cube14" />
    <neuron name = "15" type = "motor"  jointName = "Cube14_Link5" />
    <neuron name = "16" type = "motor"  jointName = "Link5_Cube05" />
    <neuron name = "17" type = "motor"  jointName = "Cube05_Cube15" />
    <neuron name = "18" type = "motor"  jointName = "Cube15_Link6" />
    <neuron name = "19" type = "motor"  jointName = "Link2_Cube06" />
    <neuron name = "20" type = "motor"  jointName = "Cube06_Cube16" />
    <neuron name = "21" type = "motor"  jointName = "Cube16_Link7" />
    <neuron name = "22" type = "motor"  jointName = "Link0_Cube07" />
    <neuron name = "23" type = "motor"  jointName = "Cube07_Link8" />
    <neuron name = "24" type = "motor"  jointName = "Link8_Cube08" />
    <neuron name = "25" type = "motor"  jointName = "Cube08_Link9" />
    <synapse sourceNeuronName = "0" targetNeuronName = "5" weight = "0.26109932448324513" />
    <synapse sourceNeuronName = "0" targetNeuronName = "6" weight = "-0.7651894423688146" />
    <synapse sourceNeuronName = "0" targetNeuronName = "7" weight = "-0.5626243075241957" />
    <synapse sourceNeuronName = "0" targetNeuronName = "8" weight = "-0.7976054605513372" />
    <synapse sourceNeuronName = "0" targetNeuronName = "9" weight = "0.9403631112482647" />
    <synapse sourceNeuronName = "0" targetNeuronName = "10" weight = "-0.5569421722985115" />
    <synapse sourceNeuronName = "0" targetNeuronName = "11" weight = "-0.529942869010408" />
    <synapse sourceNeuronName = "0" targetNeuronName = "12" weight = "0.6504067906345719" />
    <synapse sourceNeuronName = "0" targetNeuronName = "13" weight = "-0.19267205230029227" />
    <synapse sourceNeuronName = "0" targetNeuronName = "14" weight = "0.15837913074952037" />
    <synapse sourceNeuronName = "0" targetNeuronName = "15" weight = "-0.35214569980364163" />
    <synapse sourceNeuronName = "0" targetNeuronName = "16" weight = "-0.7601678624295638" />
    <synapse sourceNeuronName = "0" targetNeuronName = "17" weight = "0.18785236198191502" />
    <synapse sourceNeuronName = "0" targetNeuronName = "18" weight = "0.8632246134932975" />
    <synapse sourceNeuronName = "0" targetNeuronName = "19" weight = "0.3413931565520947" />
    <synapse sourceNeuronName = "0" targetNeuronName = "20" weight = "0.2879879970275987" />
    <synapse sourceNeuronName = "0" targetNeuronName = "21" weight = "0.7246503956740225" />
    <synapse sourceNeuronName = "0" targetNeuronName = "22" weight = "0.47723125922087895" />
    <synapse sourceNeuronName = "0" targetNeuronName = "23" weight = "-0.1650605126640734" />
    <synapse sourceNeuronName = "0" targetNeuronName = "24" weight = "0.7215668632699428" />
    <synapse sourceNeuronName = "0" targetNeuronName = "25" weight = "-0.8241606042383198" />
    <synapse sourceNeuronName = "1" targetNeuronName = "5" weight = "0.7083765465284773" />
    <synapse sourceNeuronName = "1" targetNeuronName = "6" weight = "0.8190638122274787" />
    <synapse sourceNeuronName = "1" targetNeuronName = "7" weight = "-0.6996310874607041" />
    <synapse sourceNeuronName = "1" targetNeuronName = "8" weight = "-0.5004006500033897" />
    <synapse sourceNeuronName = "1" targetNeuronName = "9" weight = "-0.24127109760956444" />
    <synapse sourceNeuronName = "1" targetNeuronName = "10" weight = "0.23767393380819613" />
    <synapse sourceNeuronName = "1" targetNeuronName = "11" weight = "0.9936741339850381" />
    <synapse sourceNeuronName = "1" targetNeuronName = "12" weight = "-0.2858263357833528" />
    <synapse sourceNeuronName = "1" targetNeuronName = "13" weight = "0.38949852727895706" />
    <synapse sourceNeuronName = "1" targetNeuronName = "14" weight = "-0.6387560558809529" />
    <synapse sourceNeuronName = "1" targetNeuronName = "15" weight = "-0.47735567660959144" />
    <synapse sourceNeuronName = "1" targetNeuronName = "16" weight = "-0.810487516818083" />
    <synapse sourceNeuronName = "1" targetNeuronName = "17" weight = "0.4368534325799094" />
    <synapse sourceNeuronName = "1" targetNeuronName = "18" weight = "0.02085785665490625" />
    <synapse sourceNeuronName = "1" targetNeuronName = "19" weight = "0.66888084523494" />
    <synapse sourceNeuronName = "1" targetNeuronName = "20" weight = "-0.3149329099316449" />
    <synapse sourceNeuronName = "1" targetNeuronName = "21" weight = "0.8492930853562701" />
    <synapse sourceNeuronName = "1" targetNeuronName = "22" weight = "-0.3412749072437986" />
    <synapse sourceNeuronName = "1" targetNeuronName = "23" weight = "-0.5777396992259227" />
    <synapse sourceNeuronName = "1" targetNeuronName = "24" weight = "0.7854541331544167" />
    <synapse sourceNeuronName = "1" targetNeuronName = "25" weight = "0.7685059718959117" />
    <synapse sourceNeuronName = "2" targetNeuronName = "5" weight = "-0.01637245415062183" />
    <synapse sourceNeuronName = "2" targetNeuronName = "6" weight = "-0.12804613964178535" />
    <synapse sourceNeuronName = "2" targetNeuronName = "7" weight = "-0.08823643950563342" />
    <synapse sourceNeuronName = "2" targetNeuronName = "8" weight = "-0.27977524718963465" />
    <synapse sourceNeuronName = "2" targetNeuronName = "9" weight = "0.3289940301422707" />
    <synapse sourceNeuronName = "2" targetNeuronName = "10" weight = "-0.15477290900235596" />
    <synapse sourceNeuronName = "2" targetNeuronName = "11" weight = "-0.7885037324561488" />
    <synapse sourceNeuronName = "2" targetNeuronName = "12" weight = "-0.7330273239174085" />
    <synapse sourceNeuronName = "2" targetNeuronName = "13" weight = "-0.6850290649837845" />
    <synapse sourceNeuronName = "2" targetNeuronName = "14" weight = "0.48832589715347496" />
    <synapse sourceNeuronName = "2" targetNeuronName = "15" weight = "0.7758695464408933" />
    <synapse sourceNeuronName = "2" targetNeuronName = "16" weight = "-0.6203841215518018" />
    <synapse sourceNeuronName = "2" targetNeuronName = "17" weight = "0.4310658807408141" />
    <synapse sourceNeuronName = "2" targetNeuronName = "18" weight = "-0.31291966204552724" />
    <synapse sourceNeuronName = "2" targetNeuronName = "19" weight = "-0.26789632457225077" />
    <synapse sourceNeuronName = "2" targetNeuronName = "20" weight = "-0.34236060658059086" />
    <synapse sourceNeuronName = "2" targetNeuronName = "21" weight = "0.1829826188604895" />
    <synapse sourceNeuronName = "2" targetNeuronName = "22" weight = "0.1687898572959874" />
    <synapse sourceNeuronName = "2" targetNeuronName = "23" weight = "0.32707433694532306" />
    <synapse sourceNeuronName = "2" targetNeuronName = "24" weight = "-0.3732049627146672" />
    <synapse sourceNeuronName = "2" targetNeuronName = "25" weight = "0.867610543740629" />
    <synapse sourceNeuronName = "3" targetNeuronName = "5" weight = "-0.8452329252070567" />
    <synapse sourceNeuronName = "3" targetNeuronName = "6" weight = "-0.3156428576200072" />
    <synapse sourceNeuronName = "3" targetNeuronName = "7" weight = "0.22390085944583005" />
    <synapse sourceNeuronName = "3" targetNeuronName = "8" weight = "0.3125727533400926" />
    <synapse sourceNeuronName = "3" targetNeuronName = "9" weight = "-0.7136360553971612" />
    <synapse sourceNeuronName = "3" targetNeuronName = "10" weight = "-0.4040113273542014" />
    <synapse sourceNeuronName = "3" targetNeuronName = "11" weight = "-0.3538591472334105" />
    <synapse sourceNeuronName = "3" targetNeuronName = "12" weight = "-0.6689114593901062" />
    <synapse sourceNeuronName = "3" targetNeuronName = "13" weight = "-0.4441339288836583" />
    <synapse sourceNeuronName = "3" targetNeuronName = "14" weight = "-0.5691977754547963" />
    <synapse sourceNeuronName = "3" targetNeuronName = "15" weight = "-0.7163850421302529" />
    <synapse sourceNeuronName = "3" targetNeuronName = "16" weight = "0.9218241478859515" />
    <synapse sourceNeuronName = "3" targetNeuronName = "17" weight = "0.4667710340253035" />
    <synapse sourceNeuronName = "3" targetNeuronName = "18" weight = "-0.8246760740416088" />
    <synapse sourceNeuronName = "3" targetNeuronName = "19" weight = "0.14722774615102696" />
    <synapse sourceNeuronName = "3" targetNeuronName = "20" weight = "-0.27449772172807907" />
    <synapse sourceNeuronName = "3" targetNeuronName = "21" weight = "-0.5754456422505949" />
    <synapse sourceNeuronName = "3" targetNeuronName = "22" weight = "-0.6780685570350256" />
    <synapse sourceNeuronName = "3" targetNeuronName = "23" weight = "-0.044334268584466985" />
    <synapse sourceNeuronName = "3" targetNeuronName = "24" weight = "0.41482347631833005" />
    <synapse sourceNeuronName = "3" targetNeuronName = "25" weight = "0.9120625934658242" />
    <synapse sourceNeuronName = "4" targetNeuronName = "5" weight = "-0.9403741625236026" />
    <synapse sourceNeuronName = "4" targetNeuronName = "6" weight = "0.09700327966812328" />
    <synapse sourceNeuronName = "4" targetNeuronName = "7" weight = "-0.24301925814814496" />
    <synapse sourceNeuronName = "4" targetNeuronName = "8" weight = "-0.2818688540031511" />
    <synapse sourceNeuronName = "4" targetNeuronName = "9" weight = "0.1479000233241321" />
    <synapse sourceNeuronName = "4" targetNeuronName = "10" weight = "0.36395540762972667" />
    <synapse sourceNeuronName = "4" targetNeuronName = "11" weight = "0.3447938706133937" />
    <synapse sourceNeuronName = "4" targetNeuronName = "12" weight = "-0.312723573982697" />
    <synapse sourceNeuronName = "4" targetNeuronName = "13" weight = "-0.7084315264125893" />
    <synapse sourceNeuronName = "4" targetNeuronName = "14" weight = "-0.2514223502924313" />
    <synapse sourceNeuronName = "4" targetNeuronName = "15" weight = "0.15819450467098162" />
    <synapse sourceNeuronName = "4" targetNeuronName = "16" weight = "0.9659608935300215" />
    <synapse sourceNeuronName = "4" targetNeuronName = "17" weight = "0.5291391893801995" />
    <synapse sourceNeuronName = "4" targetNeuronName = "18" weight = "0.2049922157238988" />
    <synapse sourceNeuronName = "4" targetNeuronName = "19" weight = "0.5938098373677869" />
    <synapse sourceNeuronName = "4" targetNeuronName = "20" weight = "0.7227900150359332" />
    <synapse sourceNeuronName = "4" targetNeuronName = "21" weight = "-0.9294116917122985" />
    <synapse sourceNeuronName = "4" targetNeuronName = "22" weight = "-0.14424680170144732" />
    <synapse sourceNeuronName = "4" targetNeuronName = "23" weight = "0.34237282854090667" />
    <synapse sourceNeuronName = "4" targetNeuronName = "24" weight = "-0.44830064514721957" />
    <synapse sourceNeuronName = "4" targetNeuronName = "25" weight = "-0.782723515965758" />
</neuralNetwork>