<neuralNetwork>
    <neuron name = "0" type = "sensor" linkName = "Link0" />
    <neuron name = "1" type = "sensor" linkName = "Link4" />
    <neuron name = "2" type = "sensor" linkName = "Link5" />
    <neuron name = "3" type = "sensor" linkName = "Link6" />
    <neuron name = "4" type = "sensor" linkName = "Link8" />
    <neuron name = "5" type = "sensor" linkName = "Link9" />
    <neuron name = "6" type = "sensor" linkName = "Link10" />
    <neuron name = "7" type = "motor"  jointName = "Link0_Cube00" />
    <neuron name = "8" type = "motor"  jointName = "Cube00_Link1" />
    <neuron name = "9" type = "motor"  jointName = "Link1_Link2" />
    <neuron name = "10" type = "motor"  jointName = "Link0_Link3" />
    <neuron name = "11" type = "motor"  jointName = "Link0_Link4" />
    <neuron name = "12" type = "motor"  jointName = "Link3_Cube04" />
    <neuron name = "13" type = "motor"  jointName = "Cube04_Link5" />
    <neuron name = "14" type = "motor"  jointName = "Link0_Cube05" />
    <neuron name = "15" type = "motor"  jointName = "Cube05_Link6" />
    <neuron name = "16" type = "motor"  jointName = "Link6_Link7" />
    <neuron name = "17" type = "motor"  jointName = "Link1_Cube07" />
    <neuron name = "18" type = "motor"  jointName = "Cube07_Cube17" />
    <neuron name = "19" type = "motor"  jointName = "Cube17_Link8" />
    <neuron name = "20" type = "motor"  jointName = "Link3_Link9" />
    <neuron name = "21" type = "motor"  jointName = "Link6_Cube09" />
    <neuron name = "22" type = "motor"  jointName = "Cube09_Link10" />
    <synapse sourceNeuronName = "0" targetNeuronName = "7" weight = "0.1419628820590113" />
    <synapse sourceNeuronName = "0" targetNeuronName = "8" weight = "-0.4807234951782906" />
    <synapse sourceNeuronName = "0" targetNeuronName = "9" weight = "0.6086027435843226" />
    <synapse sourceNeuronName = "0" targetNeuronName = "10" weight = "0.21054012437220582" />
    <synapse sourceNeuronName = "0" targetNeuronName = "11" weight = "-0.7621939303583976" />
    <synapse sourceNeuronName = "0" targetNeuronName = "12" weight = "-0.5182211364744862" />
    <synapse sourceNeuronName = "0" targetNeuronName = "13" weight = "0.004291699958726136" />
    <synapse sourceNeuronName = "0" targetNeuronName = "14" weight = "-0.1708373953839457" />
    <synapse sourceNeuronName = "0" targetNeuronName = "15" weight = "0.3576942597376871" />
    <synapse sourceNeuronName = "0" targetNeuronName = "16" weight = "-0.31606324927312524" />
    <synapse sourceNeuronName = "0" targetNeuronName = "17" weight = "0.18374659493863477" />
    <synapse sourceNeuronName = "0" targetNeuronName = "18" weight = "0.6944682384187955" />
    <synapse sourceNeuronName = "0" targetNeuronName = "19" weight = "-0.13102422340099373" />
    <synapse sourceNeuronName = "0" targetNeuronName = "20" weight = "0.23605355561594155" />
    <synapse sourceNeuronName = "0" targetNeuronName = "21" weight = "0.0001756916820301324" />
    <synapse sourceNeuronName = "0" targetNeuronName = "22" weight = "0.3684542801704953" />
    <synapse sourceNeuronName = "1" targetNeuronName = "7" weight = "0.8736194532832555" />
    <synapse sourceNeuronName = "1" targetNeuronName = "8" weight = "-0.16723865934185422" />
    <synapse sourceNeuronName = "1" targetNeuronName = "9" weight = "0.7989545445715331" />
    <synapse sourceNeuronName = "1" targetNeuronName = "10" weight = "0.9237634380845259" />
    <synapse sourceNeuronName = "1" targetNeuronName = "11" weight = "0.8309180501095652" />
    <synapse sourceNeuronName = "1" targetNeuronName = "12" weight = "-0.44935290242895354" />
    <synapse sourceNeuronName = "1" targetNeuronName = "13" weight = "-0.08332410511726529" />
    <synapse sourceNeuronName = "1" targetNeuronName = "14" weight = "0.5247087593211828" />
    <synapse sourceNeuronName = "1" targetNeuronName = "15" weight = "0.008049981350351842" />
    <synapse sourceNeuronName = "1" targetNeuronName = "16" weight = "-0.1256892177985025" />
    <synapse sourceNeuronName = "1" targetNeuronName = "17" weight = "-0.3007423639975284" />
    <synapse sourceNeuronName = "1" targetNeuronName = "18" weight = "-0.29015124489172606" />
    <synapse sourceNeuronName = "1" targetNeuronName = "19" weight = "0.3480995217496905" />
    <synapse sourceNeuronName = "1" targetNeuronName = "20" weight = "-0.20920349993688325" />
    <synapse sourceNeuronName = "1" targetNeuronName = "21" weight = "0.8092563879562187" />
    <synapse sourceNeuronName = "1" targetNeuronName = "22" weight = "0.5065473485413581" />
    <synapse sourceNeuronName = "2" targetNeuronName = "7" weight = "-0.23497432555484" />
    <synapse sourceNeuronName = "2" targetNeuronName = "8" weight = "-0.3876842246290555" />
    <synapse sourceNeuronName = "2" targetNeuronName = "9" weight = "0.9445429532901166" />
    <synapse sourceNeuronName = "2" targetNeuronName = "10" weight = "0.7631748057745431" />
    <synapse sourceNeuronName = "2" targetNeuronName = "11" weight = "-0.7938378606960621" />
    <synapse sourceNeuronName = "2" targetNeuronName = "12" weight = "0.24643491136579598" />
    <synapse sourceNeuronName = "2" targetNeuronName = "13" weight = "0.9890179733562361" />
    <synapse sourceNeuronName = "2" targetNeuronName = "14" weight = "-0.6988475583782696" />
    <synapse sourceNeuronName = "2" targetNeuronName = "15" weight = "0.35078809995187177" />
    <synapse sourceNeuronName = "2" targetNeuronName = "16" weight = "-0.2165644948109524" />
    <synapse sourceNeuronName = "2" targetNeuronName = "17" weight = "-0.39119442283358885" />
    <synapse sourceNeuronName = "2" targetNeuronName = "18" weight = "-0.7161137040316576" />
    <synapse sourceNeuronName = "2" targetNeuronName = "19" weight = "-0.2588617553072694" />
    <synapse sourceNeuronName = "2" targetNeuronName = "20" weight = "-0.019238892075038594" />
    <synapse sourceNeuronName = "2" targetNeuronName = "21" weight = "0.9470908945718894" />
    <synapse sourceNeuronName = "2" targetNeuronName = "22" weight = "-0.9063193087977122" />
    <synapse sourceNeuronName = "3" targetNeuronName = "7" weight = "0.2942104003686514" />
    <synapse sourceNeuronName = "3" targetNeuronName = "8" weight = "-0.007498061073477169" />
    <synapse sourceNeuronName = "3" targetNeuronName = "9" weight = "-0.895092057652316" />
    <synapse sourceNeuronName = "3" targetNeuronName = "10" weight = "0.7614628245786905" />
    <synapse sourceNeuronName = "3" targetNeuronName = "11" weight = "-0.3083410763659893" />
    <synapse sourceNeuronName = "3" targetNeuronName = "12" weight = "-0.6896799925090615" />
    <synapse sourceNeuronName = "3" targetNeuronName = "13" weight = "-0.04405439575679959" />
    <synapse sourceNeuronName = "3" targetNeuronName = "14" weight = "-0.32572817880131644" />
    <synapse sourceNeuronName = "3" targetNeuronName = "15" weight = "0.6778281833027044" />
    <synapse sourceNeuronName = "3" targetNeuronName = "16" weight = "0.604558860911028" />
    <synapse sourceNeuronName = "3" targetNeuronName = "17" weight = "-0.10167968056828891" />
    <synapse sourceNeuronName = "3" targetNeuronName = "18" weight = "-0.3307060463644531" />
    <synapse sourceNeuronName = "3" targetNeuronName = "19" weight = "-0.6869104692854515" />
    <synapse sourceNeuronName = "3" targetNeuronName = "20" weight = "-0.6795341124503742" />
    <synapse sourceNeuronName = "3" targetNeuronName = "21" weight = "0.0016824512485364984" />
    <synapse sourceNeuronName = "3" targetNeuronName = "22" weight = "-0.46060369760771236" />
    <synapse sourceNeuronName = "4" targetNeuronName = "7" weight = "0.22507972347878602" />
    <synapse sourceNeuronName = "4" targetNeuronName = "8" weight = "0.16936123150374138" />
    <synapse sourceNeuronName = "4" targetNeuronName = "9" weight = "-0.7256135272170408" />
    <synapse sourceNeuronName = "4" targetNeuronName = "10" weight = "-0.8593436961286158" />
    <synapse sourceNeuronName = "4" targetNeuronName = "11" weight = "-0.24365786334265493" />
    <synapse sourceNeuronName = "4" targetNeuronName = "12" weight = "-0.21309005562182115" />
    <synapse sourceNeuronName = "4" targetNeuronName = "13" weight = "-0.8901303976941359" />
    <synapse sourceNeuronName = "4" targetNeuronName = "14" weight = "-0.9653923198150436" />
    <synapse sourceNeuronName = "4" targetNeuronName = "15" weight = "0.8949418153268223" />
    <synapse sourceNeuronName = "4" targetNeuronName = "16" weight = "0.7307666800008512" />
    <synapse sourceNeuronName = "4" targetNeuronName = "17" weight = "0.7175825680802408" />
    <synapse sourceNeuronName = "4" targetNeuronName = "18" weight = "-0.3524763195855307" />
    <synapse sourceNeuronName = "4" targetNeuronName = "19" weight = "-0.20625662894912167" />
    <synapse sourceNeuronName = "4" targetNeuronName = "20" weight = "-0.1677849685796442" />
    <synapse sourceNeuronName = "4" targetNeuronName = "21" weight = "-0.9207002061844789" />
    <synapse sourceNeuronName = "4" targetNeuronName = "22" weight = "-0.888724126920077" />
    <synapse sourceNeuronName = "5" targetNeuronName = "7" weight = "-0.20267788597916403" />
    <synapse sourceNeuronName = "5" targetNeuronName = "8" weight = "-0.45105769700660026" />
    <synapse sourceNeuronName = "5" targetNeuronName = "9" weight = "-0.1554858039712841" />
    <synapse sourceNeuronName = "5" targetNeuronName = "10" weight = "-0.5613444986867473" />
    <synapse sourceNeuronName = "5" targetNeuronName = "11" weight = "-0.7847756974472211" />
    <synapse sourceNeuronName = "5" targetNeuronName = "12" weight = "-0.5385690238596632" />
    <synapse sourceNeuronName = "5" targetNeuronName = "13" weight = "0.6982942901803466" />
    <synapse sourceNeuronName = "5" targetNeuronName = "14" weight = "-0.9263728997190486" />
    <synapse sourceNeuronName = "5" targetNeuronName = "15" weight = "-0.5070772901574709" />
    <synapse sourceNeuronName = "5" targetNeuronName = "16" weight = "0.4967811330213905" />
    <synapse sourceNeuronName = "5" targetNeuronName = "17" weight = "0.29861893502066184" />
    <synapse sourceNeuronName = "5" targetNeuronName = "18" weight = "-0.13645888229211023" />
    <synapse sourceNeuronName = "5" targetNeuronName = "19" weight = "-0.4961005080410412" />
    <synapse sourceNeuronName = "5" targetNeuronName = "20" weight = "-0.9978082214218678" />
    <synapse sourceNeuronName = "5" targetNeuronName = "21" weight = "-0.20041122853770532" />
    <synapse sourceNeuronName = "5" targetNeuronName = "22" weight = "-0.25709990897353663" />
    <synapse sourceNeuronName = "6" targetNeuronName = "7" weight = "-0.8615370647658007" />
    <synapse sourceNeuronName = "6" targetNeuronName = "8" weight = "-0.39714276906660984" />
    <synapse sourceNeuronName = "6" targetNeuronName = "9" weight = "0.47539261537112965" />
    <synapse sourceNeuronName = "6" targetNeuronName = "10" weight = "-0.3128083812738971" />
    <synapse sourceNeuronName = "6" targetNeuronName = "11" weight = "0.5872395510152806" />
    <synapse sourceNeuronName = "6" targetNeuronName = "12" weight = "-0.6489422594438388" />
    <synapse sourceNeuronName = "6" targetNeuronName = "13" weight = "0.4781772327861262" />
    <synapse sourceNeuronName = "6" targetNeuronName = "14" weight = "0.9220379432006176" />
    <synapse sourceNeuronName = "6" targetNeuronName = "15" weight = "-0.012048931476247748" />
    <synapse sourceNeuronName = "6" targetNeuronName = "16" weight = "-0.8536779056253931" />
    <synapse sourceNeuronName = "6" targetNeuronName = "17" weight = "-0.4041572249218721" />
    <synapse sourceNeuronName = "6" targetNeuronName = "18" weight = "-0.348796110966219" />
    <synapse sourceNeuronName = "6" targetNeuronName = "19" weight = "-0.9669588230431518" />
    <synapse sourceNeuronName = "6" targetNeuronName = "20" weight = "0.8651225528847761" />
    <synapse sourceNeuronName = "6" targetNeuronName = "21" weight = "0.9383624482900397" />
    <synapse sourceNeuronName = "6" targetNeuronName = "22" weight = "0.9512682507724162" />
</neuralNetwork>