<neuralNetwork>
    <neuron name = "0" type = "sensor" linkName = "Link3" />
    <neuron name = "1" type = "sensor" linkName = "Link5" />
    <neuron name = "2" type = "sensor" linkName = "Link6" />
    <neuron name = "3" type = "motor"  jointName = "Link0_Link1" />
    <neuron name = "4" type = "motor"  jointName = "Link1_Cube01" />
    <neuron name = "5" type = "motor"  jointName = "Cube01_Link2" />
    <neuron name = "6" type = "motor"  jointName = "Link0_Cube02" />
    <neuron name = "7" type = "motor"  jointName = "Cube02_Link3" />
    <neuron name = "8" type = "motor"  jointName = "Link0_Link4" />
    <neuron name = "9" type = "motor"  jointName = "Link1_Link5" />
    <neuron name = "10" type = "motor"  jointName = "Link0_Cube05" />
    <neuron name = "11" type = "motor"  jointName = "Cube05_Link6" />
    <synapse sourceNeuronName = "0" targetNeuronName = "3" weight = "-0.15909187681381942" />
    <synapse sourceNeuronName = "0" targetNeuronName = "4" weight = "-0.18777809713158433" />
    <synapse sourceNeuronName = "0" targetNeuronName = "5" weight = "-0.3329673721862889" />
    <synapse sourceNeuronName = "0" targetNeuronName = "6" weight = "0.8853970313053403" />
    <synapse sourceNeuronName = "0" targetNeuronName = "7" weight = "0.18581338498852817" />
    <synapse sourceNeuronName = "0" targetNeuronName = "8" weight = "0.38487842685367557" />
    <synapse sourceNeuronName = "0" targetNeuronName = "9" weight = "-0.7545422346931356" />
    <synapse sourceNeuronName = "0" targetNeuronName = "10" weight = "0.778394551776064" />
    <synapse sourceNeuronName = "0" targetNeuronName = "11" weight = "0.2251433411355186" />
    <synapse sourceNeuronName = "1" targetNeuronName = "3" weight = "0.3763516153699402" />
    <synapse sourceNeuronName = "1" targetNeuronName = "4" weight = "-0.6357502063354437" />
    <synapse sourceNeuronName = "1" targetNeuronName = "5" weight = "-0.5403866136373456" />
    <synapse sourceNeuronName = "1" targetNeuronName = "6" weight = "-0.7349755819801822" />
    <synapse sourceNeuronName = "1" targetNeuronName = "7" weight = "-0.467934108031524" />
    <synapse sourceNeuronName = "1" targetNeuronName = "8" weight = "-0.9019917729622242" />
    <synapse sourceNeuronName = "1" targetNeuronName = "9" weight = "-0.6873068447370878" />
    <synapse sourceNeuronName = "1" targetNeuronName = "10" weight = "0.6296633725880969" />
    <synapse sourceNeuronName = "1" targetNeuronName = "11" weight = "0.5016113839575533" />
    <synapse sourceNeuronName = "2" targetNeuronName = "3" weight = "-0.8447030116761827" />
    <synapse sourceNeuronName = "2" targetNeuronName = "4" weight = "0.551370149869213" />
    <synapse sourceNeuronName = "2" targetNeuronName = "5" weight = "-0.4401788166637157" />
    <synapse sourceNeuronName = "2" targetNeuronName = "6" weight = "0.810043082591192" />
    <synapse sourceNeuronName = "2" targetNeuronName = "7" weight = "0.1314588424278682" />
    <synapse sourceNeuronName = "2" targetNeuronName = "8" weight = "-0.13597162056675072" />
    <synapse sourceNeuronName = "2" targetNeuronName = "9" weight = "0.5541403480851583" />
    <synapse sourceNeuronName = "2" targetNeuronName = "10" weight = "0.004307319708664492" />
    <synapse sourceNeuronName = "2" targetNeuronName = "11" weight = "0.39366593467075606" />
</neuralNetwork>