<neuralNetwork>
    <neuron name = "0" type = "sensor" linkName = "Link0" />
    <neuron name = "1" type = "sensor" linkName = "Link2" />
    <neuron name = "2" type = "sensor" linkName = "Link3" />
    <neuron name = "3" type = "sensor" linkName = "Link5" />
    <neuron name = "4" type = "motor"  jointName = "Link0_Cube00" />
    <neuron name = "5" type = "motor"  jointName = "Cube00_Link1" />
    <neuron name = "6" type = "motor"  jointName = "Link0_Cube01" />
    <neuron name = "7" type = "motor"  jointName = "Cube01_Cube11" />
    <neuron name = "8" type = "motor"  jointName = "Cube11_Link2" />
    <neuron name = "9" type = "motor"  jointName = "Link2_Cube02" />
    <neuron name = "10" type = "motor"  jointName = "Cube02_Link3" />
    <neuron name = "11" type = "motor"  jointName = "Link1_Cube03" />
    <neuron name = "12" type = "motor"  jointName = "Cube03_Link4" />
    <neuron name = "13" type = "motor"  jointName = "Link0_Cube04" />
    <neuron name = "14" type = "motor"  jointName = "Cube04_Link5" />
    <synapse sourceNeuronName = "0" targetNeuronName = "4" weight = "-0.5773929101351618" />
    <synapse sourceNeuronName = "0" targetNeuronName = "5" weight = "-0.7151611414218384" />
    <synapse sourceNeuronName = "0" targetNeuronName = "6" weight = "-0.2783563348363882" />
    <synapse sourceNeuronName = "0" targetNeuronName = "7" weight = "-0.550226179152377" />
    <synapse sourceNeuronName = "0" targetNeuronName = "8" weight = "0.5265318338109748" />
    <synapse sourceNeuronName = "0" targetNeuronName = "9" weight = "-0.2861789868174498" />
    <synapse sourceNeuronName = "0" targetNeuronName = "10" weight = "0.5556260982916199" />
    <synapse sourceNeuronName = "0" targetNeuronName = "11" weight = "-0.9150386035895499" />
    <synapse sourceNeuronName = "0" targetNeuronName = "12" weight = "0.6479898805293482" />
    <synapse sourceNeuronName = "0" targetNeuronName = "13" weight = "0.49717296141826517" />
    <synapse sourceNeuronName = "0" targetNeuronName = "14" weight = "-0.24359743279480517" />
    <synapse sourceNeuronName = "1" targetNeuronName = "4" weight = "-0.5373867945157365" />
    <synapse sourceNeuronName = "1" targetNeuronName = "5" weight = "-0.3573578679026763" />
    <synapse sourceNeuronName = "1" targetNeuronName = "6" weight = "0.41034161282981585" />
    <synapse sourceNeuronName = "1" targetNeuronName = "7" weight = "0.6244424987094999" />
    <synapse sourceNeuronName = "1" targetNeuronName = "8" weight = "0.3521932218008619" />
    <synapse sourceNeuronName = "1" targetNeuronName = "9" weight = "0.3735929307693131" />
    <synapse sourceNeuronName = "1" targetNeuronName = "10" weight = "0.8415818655096465" />
    <synapse sourceNeuronName = "1" targetNeuronName = "11" weight = "0.20518326239728246" />
    <synapse sourceNeuronName = "1" targetNeuronName = "12" weight = "-0.7520994376165129" />
    <synapse sourceNeuronName = "1" targetNeuronName = "13" weight = "-0.6395901476477812" />
    <synapse sourceNeuronName = "1" targetNeuronName = "14" weight = "-0.5239525576955064" />
    <synapse sourceNeuronName = "2" targetNeuronName = "4" weight = "0.543225511332547" />
    <synapse sourceNeuronName = "2" targetNeuronName = "5" weight = "-0.4300801926373965" />
    <synapse sourceNeuronName = "2" targetNeuronName = "6" weight = "-0.3266298035913986" />
    <synapse sourceNeuronName = "2" targetNeuronName = "7" weight = "0.6438029246933603" />
    <synapse sourceNeuronName = "2" targetNeuronName = "8" weight = "-0.5002670129710083" />
    <synapse sourceNeuronName = "2" targetNeuronName = "9" weight = "-0.22821168305841244" />
    <synapse sourceNeuronName = "2" targetNeuronName = "10" weight = "-0.16161959869744935" />
    <synapse sourceNeuronName = "2" targetNeuronName = "11" weight = "-0.04337418860619224" />
    <synapse sourceNeuronName = "2" targetNeuronName = "12" weight = "0.8316232317318784" />
    <synapse sourceNeuronName = "2" targetNeuronName = "13" weight = "0.835910613956123" />
    <synapse sourceNeuronName = "2" targetNeuronName = "14" weight = "0.3306665504940596" />
    <synapse sourceNeuronName = "3" targetNeuronName = "4" weight = "-0.9749150894291365" />
    <synapse sourceNeuronName = "3" targetNeuronName = "5" weight = "-0.14295705202748055" />
    <synapse sourceNeuronName = "3" targetNeuronName = "6" weight = "-0.2746679112608017" />
    <synapse sourceNeuronName = "3" targetNeuronName = "7" weight = "-0.6988890709996054" />
    <synapse sourceNeuronName = "3" targetNeuronName = "8" weight = "0.5102276820679725" />
    <synapse sourceNeuronName = "3" targetNeuronName = "9" weight = "-0.5605579365413687" />
    <synapse sourceNeuronName = "3" targetNeuronName = "10" weight = "0.14823206535672306" />
    <synapse sourceNeuronName = "3" targetNeuronName = "11" weight = "-0.0349304688313985" />
    <synapse sourceNeuronName = "3" targetNeuronName = "12" weight = "-0.1607889037140564" />
    <synapse sourceNeuronName = "3" targetNeuronName = "13" weight = "-0.6485432319800799" />
    <synapse sourceNeuronName = "3" targetNeuronName = "14" weight = "-0.6491270535242044" />
</neuralNetwork>