<neuralNetwork>
    <neuron name = "0" type = "sensor" linkName = "Link0" />
    <neuron name = "1" type = "sensor" linkName = "Link1" />
    <neuron name = "2" type = "sensor" linkName = "Link2" />
    <neuron name = "3" type = "sensor" linkName = "Link3" />
    <neuron name = "4" type = "sensor" linkName = "Link6" />
    <neuron name = "5" type = "sensor" linkName = "Link7" />
    <neuron name = "6" type = "sensor" linkName = "Link8" />
    <neuron name = "7" type = "sensor" linkName = "Link10" />
    <neuron name = "8" type = "sensor" linkName = "Link12" />
    <neuron name = "9" type = "sensor" linkName = "Link13" />
    <neuron name = "10" type = "motor"  jointName = "Link0_Cube00" />
    <neuron name = "11" type = "motor"  jointName = "Cube00_Link1" />
    <neuron name = "12" type = "motor"  jointName = "Link1_Cube01" />
    <neuron name = "13" type = "motor"  jointName = "Cube01_Link2" />
    <neuron name = "14" type = "motor"  jointName = "Link0_Cube02" />
    <neuron name = "15" type = "motor"  jointName = "Cube02_Cube12" />
    <neuron name = "16" type = "motor"  jointName = "Cube12_Link3" />
    <neuron name = "17" type = "motor"  jointName = "Link3_Link4" />
    <neuron name = "18" type = "motor"  jointName = "Link2_Cube04" />
    <neuron name = "19" type = "motor"  jointName = "Cube04_Cube14" />
    <neuron name = "20" type = "motor"  jointName = "Cube14_Link5" />
    <neuron name = "21" type = "motor"  jointName = "Link3_Cube05" />
    <neuron name = "22" type = "motor"  jointName = "Cube05_Link6" />
    <neuron name = "23" type = "motor"  jointName = "Link3_Cube06" />
    <neuron name = "24" type = "motor"  jointName = "Cube06_Link7" />
    <neuron name = "25" type = "motor"  jointName = "Link1_Cube07" />
    <neuron name = "26" type = "motor"  jointName = "Cube07_Cube17" />
    <neuron name = "27" type = "motor"  jointName = "Cube17_Link8" />
    <neuron name = "28" type = "motor"  jointName = "Link8_Cube08" />
    <neuron name = "29" type = "motor"  jointName = "Cube08_Link9" />
    <neuron name = "30" type = "motor"  jointName = "Link0_Cube09" />
    <neuron name = "31" type = "motor"  jointName = "Cube09_Link10" />
    <neuron name = "32" type = "motor"  jointName = "Link9_Cube010" />
    <neuron name = "33" type = "motor"  jointName = "Cube010_Cube110" />
    <neuron name = "34" type = "motor"  jointName = "Cube110_Link11" />
    <neuron name = "35" type = "motor"  jointName = "Link8_Cube011" />
    <neuron name = "36" type = "motor"  jointName = "Cube011_Link12" />
    <neuron name = "37" type = "motor"  jointName = "Link8_Link13" />
    <neuron name = "38" type = "motor"  jointName = "Link7_Cube013" />
    <neuron name = "39" type = "motor"  jointName = "Cube013_Link14" />
    <neuron name = "40" type = "motor"  jointName = "Link3_Cube014" />
    <neuron name = "41" type = "motor"  jointName = "Cube014_Cube114" />
    <neuron name = "42" type = "motor"  jointName = "Cube114_Link15" />
    <neuron name = "43" type = "motor"  jointName = "Link11_Link16" />
    <synapse sourceNeuronName = "0" targetNeuronName = "10" weight = "0.2491642024705394" />
    <synapse sourceNeuronName = "0" targetNeuronName = "11" weight = "-0.019574110447725834" />
    <synapse sourceNeuronName = "0" targetNeuronName = "12" weight = "0.052720860351161525" />
    <synapse sourceNeuronName = "0" targetNeuronName = "13" weight = "-0.5884513031945597" />
    <synapse sourceNeuronName = "0" targetNeuronName = "14" weight = "-0.7568438882748474" />
    <synapse sourceNeuronName = "0" targetNeuronName = "15" weight = "-0.6148170797755326" />
    <synapse sourceNeuronName = "0" targetNeuronName = "16" weight = "-0.34964165200466524" />
    <synapse sourceNeuronName = "0" targetNeuronName = "17" weight = "0.6398570102279679" />
    <synapse sourceNeuronName = "0" targetNeuronName = "18" weight = "-0.44744710847218316" />
    <synapse sourceNeuronName = "0" targetNeuronName = "19" weight = "-0.5182871031982221" />
    <synapse sourceNeuronName = "0" targetNeuronName = "20" weight = "0.17600904435619524" />
    <synapse sourceNeuronName = "0" targetNeuronName = "21" weight = "0.20522419358951605" />
    <synapse sourceNeuronName = "0" targetNeuronName = "22" weight = "-0.9362355054013984" />
    <synapse sourceNeuronName = "0" targetNeuronName = "23" weight = "-0.9722239985996015" />
    <synapse sourceNeuronName = "0" targetNeuronName = "24" weight = "0.7753378258306964" />
    <synapse sourceNeuronName = "0" targetNeuronName = "25" weight = "-0.18614462638935314" />
    <synapse sourceNeuronName = "0" targetNeuronName = "26" weight = "0.7545500728820789" />
    <synapse sourceNeuronName = "0" targetNeuronName = "27" weight = "0.8389046430696605" />
    <synapse sourceNeuronName = "0" targetNeuronName = "28" weight = "-0.656680127133801" />
    <synapse sourceNeuronName = "0" targetNeuronName = "29" weight = "0.8398235589938501" />
    <synapse sourceNeuronName = "0" targetNeuronName = "30" weight = "-0.7169769983503249" />
    <synapse sourceNeuronName = "0" targetNeuronName = "31" weight = "0.3294260875927979" />
    <synapse sourceNeuronName = "0" targetNeuronName = "32" weight = "-0.5038893519385947" />
    <synapse sourceNeuronName = "0" targetNeuronName = "33" weight = "-0.2552375963754656" />
    <synapse sourceNeuronName = "0" targetNeuronName = "34" weight = "-0.49994708019031964" />
    <synapse sourceNeuronName = "0" targetNeuronName = "35" weight = "0.9859361055160942" />
    <synapse sourceNeuronName = "0" targetNeuronName = "36" weight = "-0.30111702468658286" />
    <synapse sourceNeuronName = "0" targetNeuronName = "37" weight = "-0.9115338518137959" />
    <synapse sourceNeuronName = "0" targetNeuronName = "38" weight = "0.27647146989207716" />
    <synapse sourceNeuronName = "0" targetNeuronName = "39" weight = "0.631779292995444" />
    <synapse sourceNeuronName = "0" targetNeuronName = "40" weight = "0.8014208481954697" />
    <synapse sourceNeuronName = "0" targetNeuronName = "41" weight = "-0.5649050458687119" />
    <synapse sourceNeuronName = "0" targetNeuronName = "42" weight = "-0.7477222028466166" />
    <synapse sourceNeuronName = "0" targetNeuronName = "43" weight = "-0.3119047012036038" />
    <synapse sourceNeuronName = "1" targetNeuronName = "10" weight = "-0.7975689545478764" />
    <synapse sourceNeuronName = "1" targetNeuronName = "11" weight = "-0.8534128091826927" />
    <synapse sourceNeuronName = "1" targetNeuronName = "12" weight = "0.2350310180371631" />
    <synapse sourceNeuronName = "1" targetNeuronName = "13" weight = "-0.25883461426996845" />
    <synapse sourceNeuronName = "1" targetNeuronName = "14" weight = "0.6320331903039189" />
    <synapse sourceNeuronName = "1" targetNeuronName = "15" weight = "0.47269417185108464" />
    <synapse sourceNeuronName = "1" targetNeuronName = "16" weight = "0.7785037700531983" />
    <synapse sourceNeuronName = "1" targetNeuronName = "17" weight = "0.23244120094585075" />
    <synapse sourceNeuronName = "1" targetNeuronName = "18" weight = "-0.45603290379960515" />
    <synapse sourceNeuronName = "1" targetNeuronName = "19" weight = "-0.7422873888137052" />
    <synapse sourceNeuronName = "1" targetNeuronName = "20" weight = "0.8468241316258058" />
    <synapse sourceNeuronName = "1" targetNeuronName = "21" weight = "0.5456944814547613" />
    <synapse sourceNeuronName = "1" targetNeuronName = "22" weight = "0.9604650712681195" />
    <synapse sourceNeuronName = "1" targetNeuronName = "23" weight = "-0.5728504519376423" />
    <synapse sourceNeuronName = "1" targetNeuronName = "24" weight = "0.5410761303334672" />
    <synapse sourceNeuronName = "1" targetNeuronName = "25" weight = "-0.7520593730210194" />
    <synapse sourceNeuronName = "1" targetNeuronName = "26" weight = "-0.9719927583828258" />
    <synapse sourceNeuronName = "1" targetNeuronName = "27" weight = "0.49669955403475674" />
    <synapse sourceNeuronName = "1" targetNeuronName = "28" weight = "-0.8863101555775084" />
    <synapse sourceNeuronName = "1" targetNeuronName = "29" weight = "0.42047512039351576" />
    <synapse sourceNeuronName = "1" targetNeuronName = "30" weight = "-0.7287872722702788" />
    <synapse sourceNeuronName = "1" targetNeuronName = "31" weight = "0.6611972531997568" />
    <synapse sourceNeuronName = "1" targetNeuronName = "32" weight = "-0.2719412164205335" />
    <synapse sourceNeuronName = "1" targetNeuronName = "33" weight = "0.8115866757894534" />
    <synapse sourceNeuronName = "1" targetNeuronName = "34" weight = "0.3926631746729765" />
    <synapse sourceNeuronName = "1" targetNeuronName = "35" weight = "0.5227968621741321" />
    <synapse sourceNeuronName = "1" targetNeuronName = "36" weight = "-0.012331884966512163" />
    <synapse sourceNeuronName = "1" targetNeuronName = "37" weight = "-0.1885898821358507" />
    <synapse sourceNeuronName = "1" targetNeuronName = "38" weight = "0.15479641983742476" />
    <synapse sourceNeuronName = "1" targetNeuronName = "39" weight = "0.07222543333421405" />
    <synapse sourceNeuronName = "1" targetNeuronName = "40" weight = "-0.7170623742400917" />
    <synapse sourceNeuronName = "1" targetNeuronName = "41" weight = "-0.14850818467606341" />
    <synapse sourceNeuronName = "1" targetNeuronName = "42" weight = "-0.34077220372603056" />
    <synapse sourceNeuronName = "1" targetNeuronName = "43" weight = "0.1320784639451411" />
    <synapse sourceNeuronName = "2" targetNeuronName = "10" weight = "0.1355691882109813" />
    <synapse sourceNeuronName = "2" targetNeuronName = "11" weight = "-0.005387948134402576" />
    <synapse sourceNeuronName = "2" targetNeuronName = "12" weight = "-0.8667237060329553" />
    <synapse sourceNeuronName = "2" targetNeuronName = "13" weight = "-0.45181216548542436" />
    <synapse sourceNeuronName = "2" targetNeuronName = "14" weight = "-0.7582402943635653" />
    <synapse sourceNeuronName = "2" targetNeuronName = "15" weight = "0.4204907701027274" />
    <synapse sourceNeuronName = "2" targetNeuronName = "16" weight = "-0.27112207071092853" />
    <synapse sourceNeuronName = "2" targetNeuronName = "17" weight = "-0.502834245641264" />
    <synapse sourceNeuronName = "2" targetNeuronName = "18" weight = "-0.4047593114884167" />
    <synapse sourceNeuronName = "2" targetNeuronName = "19" weight = "-0.3760604638021914" />
    <synapse sourceNeuronName = "2" targetNeuronName = "20" weight = "-0.972426698102169" />
    <synapse sourceNeuronName = "2" targetNeuronName = "21" weight = "-0.7259707489772687" />
    <synapse sourceNeuronName = "2" targetNeuronName = "22" weight = "-0.9878834510280432" />
    <synapse sourceNeuronName = "2" targetNeuronName = "23" weight = "-0.05488098712768896" />
    <synapse sourceNeuronName = "2" targetNeuronName = "24" weight = "-0.2419736709560223" />
    <synapse sourceNeuronName = "2" targetNeuronName = "25" weight = "0.25159659899379117" />
    <synapse sourceNeuronName = "2" targetNeuronName = "26" weight = "0.26786331139553154" />
    <synapse sourceNeuronName = "2" targetNeuronName = "27" weight = "-0.7982001466680924" />
    <synapse sourceNeuronName = "2" targetNeuronName = "28" weight = "-0.796539712534355" />
    <synapse sourceNeuronName = "2" targetNeuronName = "29" weight = "-0.9873625469592757" />
    <synapse sourceNeuronName = "2" targetNeuronName = "30" weight = "-0.22928927198376647" />
    <synapse sourceNeuronName = "2" targetNeuronName = "31" weight = "0.34383094442599704" />
    <synapse sourceNeuronName = "2" targetNeuronName = "32" weight = "-0.1358382104663356" />
    <synapse sourceNeuronName = "2" targetNeuronName = "33" weight = "-0.19700897845870036" />
    <synapse sourceNeuronName = "2" targetNeuronName = "34" weight = "0.9984393227454473" />
    <synapse sourceNeuronName = "2" targetNeuronName = "35" weight = "-0.9964922898969661" />
    <synapse sourceNeuronName = "2" targetNeuronName = "36" weight = "0.5962884352282707" />
    <synapse sourceNeuronName = "2" targetNeuronName = "37" weight = "-0.3507869258056693" />
    <synapse sourceNeuronName = "2" targetNeuronName = "38" weight = "0.9124850801582147" />
    <synapse sourceNeuronName = "2" targetNeuronName = "39" weight = "0.039331402480519584" />
    <synapse sourceNeuronName = "2" targetNeuronName = "40" weight = "-0.6775957123910434" />
    <synapse sourceNeuronName = "2" targetNeuronName = "41" weight = "-0.4762118227871672" />
    <synapse sourceNeuronName = "2" targetNeuronName = "42" weight = "-0.5107736853898628" />
    <synapse sourceNeuronName = "2" targetNeuronName = "43" weight = "-0.18176194012910885" />
    <synapse sourceNeuronName = "3" targetNeuronName = "10" weight = "0.4658527194532527" />
    <synapse sourceNeuronName = "3" targetNeuronName = "11" weight = "-0.4291541868387141" />
    <synapse sourceNeuronName = "3" targetNeuronName = "12" weight = "0.9978280904055714" />
    <synapse sourceNeuronName = "3" targetNeuronName = "13" weight = "0.4073813156683954" />
    <synapse sourceNeuronName = "3" targetNeuronName = "14" weight = "-0.3964576474964432" />
    <synapse sourceNeuronName = "3" targetNeuronName = "15" weight = "0.32789927218102277" />
    <synapse sourceNeuronName = "3" targetNeuronName = "16" weight = "0.24493528366651907" />
    <synapse sourceNeuronName = "3" targetNeuronName = "17" weight = "-0.0680277891640324" />
    <synapse sourceNeuronName = "3" targetNeuronName = "18" weight = "0.37771786136824237" />
    <synapse sourceNeuronName = "3" targetNeuronName = "19" weight = "-0.1225815903347438" />
    <synapse sourceNeuronName = "3" targetNeuronName = "20" weight = "-0.8700208729645811" />
    <synapse sourceNeuronName = "3" targetNeuronName = "21" weight = "-0.2772141467723297" />
    <synapse sourceNeuronName = "3" targetNeuronName = "22" weight = "0.9415907904987324" />
    <synapse sourceNeuronName = "3" targetNeuronName = "23" weight = "-0.3338456325400252" />
    <synapse sourceNeuronName = "3" targetNeuronName = "24" weight = "0.06839064198843414" />
    <synapse sourceNeuronName = "3" targetNeuronName = "25" weight = "-0.8827646052837503" />
    <synapse sourceNeuronName = "3" targetNeuronName = "26" weight = "-0.9958388372815494" />
    <synapse sourceNeuronName = "3" targetNeuronName = "27" weight = "-0.23015480704700741" />
    <synapse sourceNeuronName = "3" targetNeuronName = "28" weight = "0.41532725018640115" />
    <synapse sourceNeuronName = "3" targetNeuronName = "29" weight = "-0.049963563511194575" />
    <synapse sourceNeuronName = "3" targetNeuronName = "30" weight = "-0.7447018251521058" />
    <synapse sourceNeuronName = "3" targetNeuronName = "31" weight = "-0.020412750357582388" />
    <synapse sourceNeuronName = "3" targetNeuronName = "32" weight = "-0.7509579486486206" />
    <synapse sourceNeuronName = "3" targetNeuronName = "33" weight = "0.8477790354760892" />
    <synapse sourceNeuronName = "3" targetNeuronName = "34" weight = "-0.5508682170084533" />
    <synapse sourceNeuronName = "3" targetNeuronName = "35" weight = "0.48263938483482116" />
    <synapse sourceNeuronName = "3" targetNeuronName = "36" weight = "0.2567765807325433" />
    <synapse sourceNeuronName = "3" targetNeuronName = "37" weight = "0.7753830557648054" />
    <synapse sourceNeuronName = "3" targetNeuronName = "38" weight = "0.6931063174184342" />
    <synapse sourceNeuronName = "3" targetNeuronName = "39" weight = "-0.4084998491062046" />
    <synapse sourceNeuronName = "3" targetNeuronName = "40" weight = "0.1803875211846384" />
    <synapse sourceNeuronName = "3" targetNeuronName = "41" weight = "-0.008280757897000113" />
    <synapse sourceNeuronName = "3" targetNeuronName = "42" weight = "-0.8694169575322599" />
    <synapse sourceNeuronName = "3" targetNeuronName = "43" weight = "0.4273065168503636" />
    <synapse sourceNeuronName = "4" targetNeuronName = "10" weight = "0.8644126117399378" />
    <synapse sourceNeuronName = "4" targetNeuronName = "11" weight = "-0.13959575399871116" />
    <synapse sourceNeuronName = "4" targetNeuronName = "12" weight = "0.14890477815358993" />
    <synapse sourceNeuronName = "4" targetNeuronName = "13" weight = "0.7261984894283853" />
    <synapse sourceNeuronName = "4" targetNeuronName = "14" weight = "0.8311125256637415" />
    <synapse sourceNeuronName = "4" targetNeuronName = "15" weight = "0.7388205601331874" />
    <synapse sourceNeuronName = "4" targetNeuronName = "16" weight = "-0.4099522161697946" />
    <synapse sourceNeuronName = "4" targetNeuronName = "17" weight = "0.09538111410118955" />
    <synapse sourceNeuronName = "4" targetNeuronName = "18" weight = "-0.05220445914282812" />
    <synapse sourceNeuronName = "4" targetNeuronName = "19" weight = "0.5087093386214705" />
    <synapse sourceNeuronName = "4" targetNeuronName = "20" weight = "0.6509921554858802" />
    <synapse sourceNeuronName = "4" targetNeuronName = "21" weight = "-0.09173646167024918" />
    <synapse sourceNeuronName = "4" targetNeuronName = "22" weight = "0.8413842393842508" />
    <synapse sourceNeuronName = "4" targetNeuronName = "23" weight = "-0.8778652773963862" />
    <synapse sourceNeuronName = "4" targetNeuronName = "24" weight = "0.43039661829124953" />
    <synapse sourceNeuronName = "4" targetNeuronName = "25" weight = "0.08010241692525888" />
    <synapse sourceNeuronName = "4" targetNeuronName = "26" weight = "-0.7988733956186584" />
    <synapse sourceNeuronName = "4" targetNeuronName = "27" weight = "0.8325245643488919" />
    <synapse sourceNeuronName = "4" targetNeuronName = "28" weight = "0.6525575630663123" />
    <synapse sourceNeuronName = "4" targetNeuronName = "29" weight = "-0.5909269972798121" />
    <synapse sourceNeuronName = "4" targetNeuronName = "30" weight = "-0.2653803810134219" />
    <synapse sourceNeuronName = "4" targetNeuronName = "31" weight = "-0.19757453490902055" />
    <synapse sourceNeuronName = "4" targetNeuronName = "32" weight = "-0.9214698471859855" />
    <synapse sourceNeuronName = "4" targetNeuronName = "33" weight = "-0.2886520067964222" />
    <synapse sourceNeuronName = "4" targetNeuronName = "34" weight = "0.568240368371778" />
    <synapse sourceNeuronName = "4" targetNeuronName = "35" weight = "-0.9110172959865883" />
    <synapse sourceNeuronName = "4" targetNeuronName = "36" weight = "-0.8248966041076098" />
    <synapse sourceNeuronName = "4" targetNeuronName = "37" weight = "0.5448330881429126" />
    <synapse sourceNeuronName = "4" targetNeuronName = "38" weight = "-0.03642693241012096" />
    <synapse sourceNeuronName = "4" targetNeuronName = "39" weight = "-0.0028098897788617627" />
    <synapse sourceNeuronName = "4" targetNeuronName = "40" weight = "-0.011251033416985523" />
    <synapse sourceNeuronName = "4" targetNeuronName = "41" weight = "-0.7213158635776531" />
    <synapse sourceNeuronName = "4" targetNeuronName = "42" weight = "0.8601209679658253" />
    <synapse sourceNeuronName = "4" targetNeuronName = "43" weight = "-0.000564893255690313" />
    <synapse sourceNeuronName = "5" targetNeuronName = "10" weight = "0.5857075787544639" />
    <synapse sourceNeuronName = "5" targetNeuronName = "11" weight = "0.6020720028874909" />
    <synapse sourceNeuronName = "5" targetNeuronName = "12" weight = "-0.801113673542861" />
    <synapse sourceNeuronName = "5" targetNeuronName = "13" weight = "0.6871340113518074" />
    <synapse sourceNeuronName = "5" targetNeuronName = "14" weight = "0.5622575839630075" />
    <synapse sourceNeuronName = "5" targetNeuronName = "15" weight = "0.0770087245168456" />
    <synapse sourceNeuronName = "5" targetNeuronName = "16" weight = "-0.12748267181855044" />
    <synapse sourceNeuronName = "5" targetNeuronName = "17" weight = "-0.646873803882694" />
    <synapse sourceNeuronName = "5" targetNeuronName = "18" weight = "-0.3914144457002038" />
    <synapse sourceNeuronName = "5" targetNeuronName = "19" weight = "-0.4267897438220025" />
    <synapse sourceNeuronName = "5" targetNeuronName = "20" weight = "0.28889577104676567" />
    <synapse sourceNeuronName = "5" targetNeuronName = "21" weight = "-0.023336714056986008" />
    <synapse sourceNeuronName = "5" targetNeuronName = "22" weight = "-0.40741384280252135" />
    <synapse sourceNeuronName = "5" targetNeuronName = "23" weight = "0.07210947054192252" />
    <synapse sourceNeuronName = "5" targetNeuronName = "24" weight = "0.05371198854324577" />
    <synapse sourceNeuronName = "5" targetNeuronName = "25" weight = "-0.5135926116549434" />
    <synapse sourceNeuronName = "5" targetNeuronName = "26" weight = "0.1185732442710381" />
    <synapse sourceNeuronName = "5" targetNeuronName = "27" weight = "0.6274390728870312" />
    <synapse sourceNeuronName = "5" targetNeuronName = "28" weight = "-0.8871553377870627" />
    <synapse sourceNeuronName = "5" targetNeuronName = "29" weight = "0.7369181673588228" />
    <synapse sourceNeuronName = "5" targetNeuronName = "30" weight = "-0.9251354450292184" />
    <synapse sourceNeuronName = "5" targetNeuronName = "31" weight = "0.29409268672585887" />
    <synapse sourceNeuronName = "5" targetNeuronName = "32" weight = "-0.7953956249394967" />
    <synapse sourceNeuronName = "5" targetNeuronName = "33" weight = "-0.4644246604246265" />
    <synapse sourceNeuronName = "5" targetNeuronName = "34" weight = "-0.16711584647834665" />
    <synapse sourceNeuronName = "5" targetNeuronName = "35" weight = "0.5381498292701896" />
    <synapse sourceNeuronName = "5" targetNeuronName = "36" weight = "-0.6487677851152935" />
    <synapse sourceNeuronName = "5" targetNeuronName = "37" weight = "-0.6843592265380858" />
    <synapse sourceNeuronName = "5" targetNeuronName = "38" weight = "0.8746989877808051" />
    <synapse sourceNeuronName = "5" targetNeuronName = "39" weight = "0.14965974625502843" />
    <synapse sourceNeuronName = "5" targetNeuronName = "40" weight = "0.21110946862384017" />
    <synapse sourceNeuronName = "5" targetNeuronName = "41" weight = "-0.8209769308710466" />
    <synapse sourceNeuronName = "5" targetNeuronName = "42" weight = "-0.0003067001600540742" />
    <synapse sourceNeuronName = "5" targetNeuronName = "43" weight = "-0.6724270109044754" />
    <synapse sourceNeuronName = "6" targetNeuronName = "10" weight = "-0.19123556063422598" />
    <synapse sourceNeuronName = "6" targetNeuronName = "11" weight = "-0.15988073596736352" />
    <synapse sourceNeuronName = "6" targetNeuronName = "12" weight = "0.04404965689475793" />
    <synapse sourceNeuronName = "6" targetNeuronName = "13" weight = "-0.8378059908003996" />
    <synapse sourceNeuronName = "6" targetNeuronName = "14" weight = "0.9121917618479611" />
    <synapse sourceNeuronName = "6" targetNeuronName = "15" weight = "0.7659079955649069" />
    <synapse sourceNeuronName = "6" targetNeuronName = "16" weight = "0.961413126819789" />
    <synapse sourceNeuronName = "6" targetNeuronName = "17" weight = "0.7029300072451115" />
    <synapse sourceNeuronName = "6" targetNeuronName = "18" weight = "0.29962160563533047" />
    <synapse sourceNeuronName = "6" targetNeuronName = "19" weight = "-0.8760234637752626" />
    <synapse sourceNeuronName = "6" targetNeuronName = "20" weight = "0.09220206204597714" />
    <synapse sourceNeuronName = "6" targetNeuronName = "21" weight = "0.6296442355307199" />
    <synapse sourceNeuronName = "6" targetNeuronName = "22" weight = "0.6276177942707486" />
    <synapse sourceNeuronName = "6" targetNeuronName = "23" weight = "0.7225341761637518" />
    <synapse sourceNeuronName = "6" targetNeuronName = "24" weight = "-0.5212408314185888" />
    <synapse sourceNeuronName = "6" targetNeuronName = "25" weight = "-0.5185698142430997" />
    <synapse sourceNeuronName = "6" targetNeuronName = "26" weight = "-0.996561459044035" />
    <synapse sourceNeuronName = "6" targetNeuronName = "27" weight = "0.4209201328159986" />
    <synapse sourceNeuronName = "6" targetNeuronName = "28" weight = "-0.025540391721963873" />
    <synapse sourceNeuronName = "6" targetNeuronName = "29" weight = "0.24371466990720925" />
    <synapse sourceNeuronName = "6" targetNeuronName = "30" weight = "-0.7080709254672455" />
    <synapse sourceNeuronName = "6" targetNeuronName = "31" weight = "0.09423138009175025" />
    <synapse sourceNeuronName = "6" targetNeuronName = "32" weight = "-0.8087420263990834" />
    <synapse sourceNeuronName = "6" targetNeuronName = "33" weight = "0.8078268679298772" />
    <synapse sourceNeuronName = "6" targetNeuronName = "34" weight = "-0.17508370749682367" />
    <synapse sourceNeuronName = "6" targetNeuronName = "35" weight = "-0.6002739252013212" />
    <synapse sourceNeuronName = "6" targetNeuronName = "36" weight = "-0.13941391183563967" />
    <synapse sourceNeuronName = "6" targetNeuronName = "37" weight = "-0.7532303918885519" />
    <synapse sourceNeuronName = "6" targetNeuronName = "38" weight = "0.9106534903886725" />
    <synapse sourceNeuronName = "6" targetNeuronName = "39" weight = "0.5668272004259147" />
    <synapse sourceNeuronName = "6" targetNeuronName = "40" weight = "0.5549047916580905" />
    <synapse sourceNeuronName = "6" targetNeuronName = "41" weight = "0.8756936898956869" />
    <synapse sourceNeuronName = "6" targetNeuronName = "42" weight = "0.5586740655094433" />
    <synapse sourceNeuronName = "6" targetNeuronName = "43" weight = "0.3528175360512653" />
    <synapse sourceNeuronName = "7" targetNeuronName = "10" weight = "-0.15388919227299502" />
    <synapse sourceNeuronName = "7" targetNeuronName = "11" weight = "0.9949800441721206" />
    <synapse sourceNeuronName = "7" targetNeuronName = "12" weight = "-0.07792022653214414" />
    <synapse sourceNeuronName = "7" targetNeuronName = "13" weight = "-0.4237000251832306" />
    <synapse sourceNeuronName = "7" targetNeuronName = "14" weight = "-0.027109184974867695" />
    <synapse sourceNeuronName = "7" targetNeuronName = "15" weight = "0.004008871070828146" />
    <synapse sourceNeuronName = "7" targetNeuronName = "16" weight = "0.3846287170308751" />
    <synapse sourceNeuronName = "7" targetNeuronName = "17" weight = "-0.10409852058953062" />
    <synapse sourceNeuronName = "7" targetNeuronName = "18" weight = "-0.6189846725701595" />
    <synapse sourceNeuronName = "7" targetNeuronName = "19" weight = "0.3571321832083685" />
    <synapse sourceNeuronName = "7" targetNeuronName = "20" weight = "0.14959770410692297" />
    <synapse sourceNeuronName = "7" targetNeuronName = "21" weight = "-0.9423818182618671" />
    <synapse sourceNeuronName = "7" targetNeuronName = "22" weight = "-0.9305693238422583" />
    <synapse sourceNeuronName = "7" targetNeuronName = "23" weight = "-0.13773006706756874" />
    <synapse sourceNeuronName = "7" targetNeuronName = "24" weight = "0.8880044850969242" />
    <synapse sourceNeuronName = "7" targetNeuronName = "25" weight = "0.10181999196256641" />
    <synapse sourceNeuronName = "7" targetNeuronName = "26" weight = "0.6777497173948537" />
    <synapse sourceNeuronName = "7" targetNeuronName = "27" weight = "-0.058537238871125385" />
    <synapse sourceNeuronName = "7" targetNeuronName = "28" weight = "-0.31909760941414067" />
    <synapse sourceNeuronName = "7" targetNeuronName = "29" weight = "0.3652144934123629" />
    <synapse sourceNeuronName = "7" targetNeuronName = "30" weight = "-0.5096160565068337" />
    <synapse sourceNeuronName = "7" targetNeuronName = "31" weight = "0.9377893634545664" />
    <synapse sourceNeuronName = "7" targetNeuronName = "32" weight = "0.5142943392981967" />
    <synapse sourceNeuronName = "7" targetNeuronName = "33" weight = "-0.04290403431204215" />
    <synapse sourceNeuronName = "7" targetNeuronName = "34" weight = "0.7594952233326926" />
    <synapse sourceNeuronName = "7" targetNeuronName = "35" weight = "-0.10655584327677703" />
    <synapse sourceNeuronName = "7" targetNeuronName = "36" weight = "-0.7433534611165475" />
    <synapse sourceNeuronName = "7" targetNeuronName = "37" weight = "-0.22612730604449904" />
    <synapse sourceNeuronName = "7" targetNeuronName = "38" weight = "-0.7476342105950615" />
    <synapse sourceNeuronName = "7" targetNeuronName = "39" weight = "-0.13541607839377123" />
    <synapse sourceNeuronName = "7" targetNeuronName = "40" weight = "0.1827555865292232" />
    <synapse sourceNeuronName = "7" targetNeuronName = "41" weight = "-0.1802591303228418" />
    <synapse sourceNeuronName = "7" targetNeuronName = "42" weight = "-0.40623003602557506" />
    <synapse sourceNeuronName = "7" targetNeuronName = "43" weight = "-0.26491662707390584" />
    <synapse sourceNeuronName = "8" targetNeuronName = "10" weight = "-0.6481131471897037" />
    <synapse sourceNeuronName = "8" targetNeuronName = "11" weight = "-0.7643688188723081" />
    <synapse sourceNeuronName = "8" targetNeuronName = "12" weight = "0.4381751563784968" />
    <synapse sourceNeuronName = "8" targetNeuronName = "13" weight = "-0.9891470045654904" />
    <synapse sourceNeuronName = "8" targetNeuronName = "14" weight = "-0.6078540998781898" />
    <synapse sourceNeuronName = "8" targetNeuronName = "15" weight = "-0.8379129655467243" />
    <synapse sourceNeuronName = "8" targetNeuronName = "16" weight = "0.08951866687228827" />
    <synapse sourceNeuronName = "8" targetNeuronName = "17" weight = "-0.9910639474466174" />
    <synapse sourceNeuronName = "8" targetNeuronName = "18" weight = "-0.4367877698221443" />
    <synapse sourceNeuronName = "8" targetNeuronName = "19" weight = "-0.12530491144842104" />
    <synapse sourceNeuronName = "8" targetNeuronName = "20" weight = "0.971940176463703" />
    <synapse sourceNeuronName = "8" targetNeuronName = "21" weight = "0.9534376676621195" />
    <synapse sourceNeuronName = "8" targetNeuronName = "22" weight = "0.4109201720332356" />
    <synapse sourceNeuronName = "8" targetNeuronName = "23" weight = "-0.7145899480203393" />
    <synapse sourceNeuronName = "8" targetNeuronName = "24" weight = "-0.47687018419382277" />
    <synapse sourceNeuronName = "8" targetNeuronName = "25" weight = "0.8441385809374511" />
    <synapse sourceNeuronName = "8" targetNeuronName = "26" weight = "0.5297382732606037" />
    <synapse sourceNeuronName = "8" targetNeuronName = "27" weight = "-0.31886980895450323" />
    <synapse sourceNeuronName = "8" targetNeuronName = "28" weight = "-0.22581354966497647" />
    <synapse sourceNeuronName = "8" targetNeuronName = "29" weight = "0.2653699636342697" />
    <synapse sourceNeuronName = "8" targetNeuronName = "30" weight = "-0.4013622274963857" />
    <synapse sourceNeuronName = "8" targetNeuronName = "31" weight = "0.9970893836063588" />
    <synapse sourceNeuronName = "8" targetNeuronName = "32" weight = "-0.41744393976002114" />
    <synapse sourceNeuronName = "8" targetNeuronName = "33" weight = "0.7421011563900048" />
    <synapse sourceNeuronName = "8" targetNeuronName = "34" weight = "-0.21698651737540642" />
    <synapse sourceNeuronName = "8" targetNeuronName = "35" weight = "-0.5212407609600826" />
    <synapse sourceNeuronName = "8" targetNeuronName = "36" weight = "-0.3106520188918629" />
    <synapse sourceNeuronName = "8" targetNeuronName = "37" weight = "-0.13316091395289953" />
    <synapse sourceNeuronName = "8" targetNeuronName = "38" weight = "-0.9439547793466574" />
    <synapse sourceNeuronName = "8" targetNeuronName = "39" weight = "-0.11666362080765524" />
    <synapse sourceNeuronName = "8" targetNeuronName = "40" weight = "0.6643562599403607" />
    <synapse sourceNeuronName = "8" targetNeuronName = "41" weight = "-0.615075745312905" />
    <synapse sourceNeuronName = "8" targetNeuronName = "42" weight = "-0.6505782269237821" />
    <synapse sourceNeuronName = "8" targetNeuronName = "43" weight = "0.9510986763580376" />
    <synapse sourceNeuronName = "9" targetNeuronName = "10" weight = "0.8938725078190191" />
    <synapse sourceNeuronName = "9" targetNeuronName = "11" weight = "-0.867761812357402" />
    <synapse sourceNeuronName = "9" targetNeuronName = "12" weight = "0.7306728736946977" />
    <synapse sourceNeuronName = "9" targetNeuronName = "13" weight = "0.7771354904211405" />
    <synapse sourceNeuronName = "9" targetNeuronName = "14" weight = "0.14572855606743973" />
    <synapse sourceNeuronName = "9" targetNeuronName = "15" weight = "-0.07697632378355634" />
    <synapse sourceNeuronName = "9" targetNeuronName = "16" weight = "-0.5194143340690933" />
    <synapse sourceNeuronName = "9" targetNeuronName = "17" weight = "-0.019791235004704477" />
    <synapse sourceNeuronName = "9" targetNeuronName = "18" weight = "0.874024123661342" />
    <synapse sourceNeuronName = "9" targetNeuronName = "19" weight = "0.6361513073306393" />
    <synapse sourceNeuronName = "9" targetNeuronName = "20" weight = "0.35911358440766494" />
    <synapse sourceNeuronName = "9" targetNeuronName = "21" weight = "-0.9368733589208917" />
    <synapse sourceNeuronName = "9" targetNeuronName = "22" weight = "-0.02688260067973669" />
    <synapse sourceNeuronName = "9" targetNeuronName = "23" weight = "-0.22138725777466095" />
    <synapse sourceNeuronName = "9" targetNeuronName = "24" weight = "-0.2428828722563099" />
    <synapse sourceNeuronName = "9" targetNeuronName = "25" weight = "0.7561791499373787" />
    <synapse sourceNeuronName = "9" targetNeuronName = "26" weight = "0.9754603223528526" />
    <synapse sourceNeuronName = "9" targetNeuronName = "27" weight = "-0.415532578505303" />
    <synapse sourceNeuronName = "9" targetNeuronName = "28" weight = "-0.9855536343016318" />
    <synapse sourceNeuronName = "9" targetNeuronName = "29" weight = "-0.9484913753163928" />
    <synapse sourceNeuronName = "9" targetNeuronName = "30" weight = "0.25615842382767573" />
    <synapse sourceNeuronName = "9" targetNeuronName = "31" weight = "0.878645258820802" />
    <synapse sourceNeuronName = "9" targetNeuronName = "32" weight = "0.4504474522890154" />
    <synapse sourceNeuronName = "9" targetNeuronName = "33" weight = "0.8627116206984142" />
    <synapse sourceNeuronName = "9" targetNeuronName = "34" weight = "-0.7526855817942983" />
    <synapse sourceNeuronName = "9" targetNeuronName = "35" weight = "-0.5552550580268363" />
    <synapse sourceNeuronName = "9" targetNeuronName = "36" weight = "0.8954717324854387" />
    <synapse sourceNeuronName = "9" targetNeuronName = "37" weight = "0.27911528756449955" />
    <synapse sourceNeuronName = "9" targetNeuronName = "38" weight = "-0.8628951440427379" />
    <synapse sourceNeuronName = "9" targetNeuronName = "39" weight = "-0.3930671935728083" />
    <synapse sourceNeuronName = "9" targetNeuronName = "40" weight = "-0.3534982109136622" />
    <synapse sourceNeuronName = "9" targetNeuronName = "41" weight = "0.4423750844211545" />
    <synapse sourceNeuronName = "9" targetNeuronName = "42" weight = "0.023163678901659823" />
    <synapse sourceNeuronName = "9" targetNeuronName = "43" weight = "-0.38401554837410434" />
</neuralNetwork>