<neuralNetwork>
    <neuron name = "0" type = "sensor" linkName = "Link0" />
    <neuron name = "1" type = "sensor" linkName = "Link3" />
    <neuron name = "2" type = "sensor" linkName = "Link4" />
    <neuron name = "3" type = "sensor" linkName = "Link6" />
    <neuron name = "4" type = "sensor" linkName = "Link7" />
    <neuron name = "5" type = "motor"  jointName = "Link0_Cube00" />
    <neuron name = "6" type = "motor"  jointName = "Cube00_Cube10" />
    <neuron name = "7" type = "motor"  jointName = "Cube10_Link1" />
    <neuron name = "8" type = "motor"  jointName = "Link0_Cube01" />
    <neuron name = "9" type = "motor"  jointName = "Cube01_Link2" />
    <neuron name = "10" type = "motor"  jointName = "Link0_Cube02" />
    <neuron name = "11" type = "motor"  jointName = "Cube02_Cube12" />
    <neuron name = "12" type = "motor"  jointName = "Cube12_Link3" />
    <neuron name = "13" type = "motor"  jointName = "Link1_Cube03" />
    <neuron name = "14" type = "motor"  jointName = "Cube03_Cube13" />
    <neuron name = "15" type = "motor"  jointName = "Cube13_Link4" />
    <neuron name = "16" type = "motor"  jointName = "Link1_Link5" />
    <neuron name = "17" type = "motor"  jointName = "Link0_Cube05" />
    <neuron name = "18" type = "motor"  jointName = "Cube05_Link6" />
    <neuron name = "19" type = "motor"  jointName = "Link1_Cube06" />
    <neuron name = "20" type = "motor"  jointName = "Cube06_Cube16" />
    <neuron name = "21" type = "motor"  jointName = "Cube16_Link7" />
    <synapse sourceNeuronName = "0" targetNeuronName = "5" weight = "-0.5922369827861971" />
    <synapse sourceNeuronName = "0" targetNeuronName = "6" weight = "-0.41617682180997906" />
    <synapse sourceNeuronName = "0" targetNeuronName = "7" weight = "0.6032668767806908" />
    <synapse sourceNeuronName = "0" targetNeuronName = "8" weight = "0.48671143505196945" />
    <synapse sourceNeuronName = "0" targetNeuronName = "9" weight = "0.6712611634435961" />
    <synapse sourceNeuronName = "0" targetNeuronName = "10" weight = "0.6481590922246163" />
    <synapse sourceNeuronName = "0" targetNeuronName = "11" weight = "-0.9053710763420326" />
    <synapse sourceNeuronName = "0" targetNeuronName = "12" weight = "0.1074357223365372" />
    <synapse sourceNeuronName = "0" targetNeuronName = "13" weight = "0.08268960257598912" />
    <synapse sourceNeuronName = "0" targetNeuronName = "14" weight = "-0.7345205187018748" />
    <synapse sourceNeuronName = "0" targetNeuronName = "15" weight = "0.03129304585057202" />
    <synapse sourceNeuronName = "0" targetNeuronName = "16" weight = "-0.16604385610954475" />
    <synapse sourceNeuronName = "0" targetNeuronName = "17" weight = "0.4663470346193146" />
    <synapse sourceNeuronName = "0" targetNeuronName = "18" weight = "-0.6727588982917299" />
    <synapse sourceNeuronName = "0" targetNeuronName = "19" weight = "-0.3388664928628855" />
    <synapse sourceNeuronName = "0" targetNeuronName = "20" weight = "-0.7450415366178982" />
    <synapse sourceNeuronName = "0" targetNeuronName = "21" weight = "0.7800267891426049" />
    <synapse sourceNeuronName = "1" targetNeuronName = "5" weight = "-0.760506097979281" />
    <synapse sourceNeuronName = "1" targetNeuronName = "6" weight = "-0.31064368812395005" />
    <synapse sourceNeuronName = "1" targetNeuronName = "7" weight = "-0.24892495320932384" />
    <synapse sourceNeuronName = "1" targetNeuronName = "8" weight = "-0.18818932921427867" />
    <synapse sourceNeuronName = "1" targetNeuronName = "9" weight = "-0.0032136205450454813" />
    <synapse sourceNeuronName = "1" targetNeuronName = "10" weight = "-0.28769184029467065" />
    <synapse sourceNeuronName = "1" targetNeuronName = "11" weight = "-0.4091650284336603" />
    <synapse sourceNeuronName = "1" targetNeuronName = "12" weight = "-0.11478023303016016" />
    <synapse sourceNeuronName = "1" targetNeuronName = "13" weight = "0.6982256042996033" />
    <synapse sourceNeuronName = "1" targetNeuronName = "14" weight = "0.8557585475189056" />
    <synapse sourceNeuronName = "1" targetNeuronName = "15" weight = "0.8621065712234044" />
    <synapse sourceNeuronName = "1" targetNeuronName = "16" weight = "-0.6358193183805196" />
    <synapse sourceNeuronName = "1" targetNeuronName = "17" weight = "0.04023442528291721" />
    <synapse sourceNeuronName = "1" targetNeuronName = "18" weight = "0.5633002468956496" />
    <synapse sourceNeuronName = "1" targetNeuronName = "19" weight = "-0.21730641305949883" />
    <synapse sourceNeuronName = "1" targetNeuronName = "20" weight = "0.6260441473874012" />
    <synapse sourceNeuronName = "1" targetNeuronName = "21" weight = "0.41816494118464886" />
    <synapse sourceNeuronName = "2" targetNeuronName = "5" weight = "0.13395170639168485" />
    <synapse sourceNeuronName = "2" targetNeuronName = "6" weight = "0.39658864682475525" />
    <synapse sourceNeuronName = "2" targetNeuronName = "7" weight = "-0.9667978745451831" />
    <synapse sourceNeuronName = "2" targetNeuronName = "8" weight = "-0.11420568402465325" />
    <synapse sourceNeuronName = "2" targetNeuronName = "9" weight = "0.008214142654000334" />
    <synapse sourceNeuronName = "2" targetNeuronName = "10" weight = "0.593350547680012" />
    <synapse sourceNeuronName = "2" targetNeuronName = "11" weight = "-0.4929802427854495" />
    <synapse sourceNeuronName = "2" targetNeuronName = "12" weight = "-0.4665472166069602" />
    <synapse sourceNeuronName = "2" targetNeuronName = "13" weight = "0.6443340395389616" />
    <synapse sourceNeuronName = "2" targetNeuronName = "14" weight = "-0.31007796644517605" />
    <synapse sourceNeuronName = "2" targetNeuronName = "15" weight = "0.7747462139246779" />
    <synapse sourceNeuronName = "2" targetNeuronName = "16" weight = "0.8140533883121839" />
    <synapse sourceNeuronName = "2" targetNeuronName = "17" weight = "0.39695542018693697" />
    <synapse sourceNeuronName = "2" targetNeuronName = "18" weight = "0.551353086250973" />
    <synapse sourceNeuronName = "2" targetNeuronName = "19" weight = "-0.06491191857965317" />
    <synapse sourceNeuronName = "2" targetNeuronName = "20" weight = "-0.10559075607649993" />
    <synapse sourceNeuronName = "2" targetNeuronName = "21" weight = "0.48678292340291485" />
    <synapse sourceNeuronName = "3" targetNeuronName = "5" weight = "0.6459059210765457" />
    <synapse sourceNeuronName = "3" targetNeuronName = "6" weight = "-0.38149342451789736" />
    <synapse sourceNeuronName = "3" targetNeuronName = "7" weight = "0.8776732964519083" />
    <synapse sourceNeuronName = "3" targetNeuronName = "8" weight = "-0.7715770392402976" />
    <synapse sourceNeuronName = "3" targetNeuronName = "9" weight = "-0.06378890544152416" />
    <synapse sourceNeuronName = "3" targetNeuronName = "10" weight = "0.21169817179862904" />
    <synapse sourceNeuronName = "3" targetNeuronName = "11" weight = "0.927804488179925" />
    <synapse sourceNeuronName = "3" targetNeuronName = "12" weight = "-0.24143118739391278" />
    <synapse sourceNeuronName = "3" targetNeuronName = "13" weight = "-0.014252186673984868" />
    <synapse sourceNeuronName = "3" targetNeuronName = "14" weight = "0.8131140382562658" />
    <synapse sourceNeuronName = "3" targetNeuronName = "15" weight = "-0.9476152442572954" />
    <synapse sourceNeuronName = "3" targetNeuronName = "16" weight = "-0.9225297179539667" />
    <synapse sourceNeuronName = "3" targetNeuronName = "17" weight = "-0.40267496944037706" />
    <synapse sourceNeuronName = "3" targetNeuronName = "18" weight = "0.0019439613998593064" />
    <synapse sourceNeuronName = "3" targetNeuronName = "19" weight = "-0.07007966880255934" />
    <synapse sourceNeuronName = "3" targetNeuronName = "20" weight = "0.009295121711962784" />
    <synapse sourceNeuronName = "3" targetNeuronName = "21" weight = "0.757191825335519" />
    <synapse sourceNeuronName = "4" targetNeuronName = "5" weight = "-0.03019066339034371" />
    <synapse sourceNeuronName = "4" targetNeuronName = "6" weight = "0.11250959323821097" />
    <synapse sourceNeuronName = "4" targetNeuronName = "7" weight = "0.7837762128217565" />
    <synapse sourceNeuronName = "4" targetNeuronName = "8" weight = "-0.4741061582237176" />
    <synapse sourceNeuronName = "4" targetNeuronName = "9" weight = "0.6135022986196894" />
    <synapse sourceNeuronName = "4" targetNeuronName = "10" weight = "-0.6115998190102623" />
    <synapse sourceNeuronName = "4" targetNeuronName = "11" weight = "-0.9824371558378013" />
    <synapse sourceNeuronName = "4" targetNeuronName = "12" weight = "-0.8889358865734882" />
    <synapse sourceNeuronName = "4" targetNeuronName = "13" weight = "-0.2268849172423688" />
    <synapse sourceNeuronName = "4" targetNeuronName = "14" weight = "0.5071002453213567" />
    <synapse sourceNeuronName = "4" targetNeuronName = "15" weight = "0.964826174179132" />
    <synapse sourceNeuronName = "4" targetNeuronName = "16" weight = "-0.8788182005936755" />
    <synapse sourceNeuronName = "4" targetNeuronName = "17" weight = "-0.656554689854552" />
    <synapse sourceNeuronName = "4" targetNeuronName = "18" weight = "0.012905555807527502" />
    <synapse sourceNeuronName = "4" targetNeuronName = "19" weight = "0.818090298314029" />
    <synapse sourceNeuronName = "4" targetNeuronName = "20" weight = "0.029897123851060137" />
    <synapse sourceNeuronName = "4" targetNeuronName = "21" weight = "0.00953495150247563" />
</neuralNetwork>