<neuralNetwork>
    <neuron name = "0" type = "sensor" linkName = "Link1" />
    <neuron name = "1" type = "sensor" linkName = "Link7" />
    <neuron name = "2" type = "motor"  jointName = "Link0_Cube00" />
    <neuron name = "3" type = "motor"  jointName = "Cube00_Cube10" />
    <neuron name = "4" type = "motor"  jointName = "Cube10_Link1" />
    <neuron name = "5" type = "motor"  jointName = "Link0_Cube01" />
    <neuron name = "6" type = "motor"  jointName = "Cube01_Link2" />
    <neuron name = "7" type = "motor"  jointName = "Link2_Cube02" />
    <neuron name = "8" type = "motor"  jointName = "Cube02_Link3" />
    <neuron name = "9" type = "motor"  jointName = "Link2_Cube03" />
    <neuron name = "10" type = "motor"  jointName = "Cube03_Cube13" />
    <neuron name = "11" type = "motor"  jointName = "Cube13_Link4" />
    <neuron name = "12" type = "motor"  jointName = "Link3_Link5" />
    <neuron name = "13" type = "motor"  jointName = "Link5_Link6" />
    <neuron name = "14" type = "motor"  jointName = "Link2_Cube06" />
    <neuron name = "15" type = "motor"  jointName = "Cube06_Link7" />
    <synapse sourceNeuronName = "0" targetNeuronName = "2" weight = "0.17119322520269908" />
    <synapse sourceNeuronName = "0" targetNeuronName = "3" weight = "-0.9043244660992042" />
    <synapse sourceNeuronName = "0" targetNeuronName = "4" weight = "-0.4433566540710816" />
    <synapse sourceNeuronName = "0" targetNeuronName = "5" weight = "0.027759809262456026" />
    <synapse sourceNeuronName = "0" targetNeuronName = "6" weight = "0.28812518220829486" />
    <synapse sourceNeuronName = "0" targetNeuronName = "7" weight = "0.5347960739815518" />
    <synapse sourceNeuronName = "0" targetNeuronName = "8" weight = "-0.49936834447955847" />
    <synapse sourceNeuronName = "0" targetNeuronName = "9" weight = "-0.9082180505125477" />
    <synapse sourceNeuronName = "0" targetNeuronName = "10" weight = "0.0710031407794085" />
    <synapse sourceNeuronName = "0" targetNeuronName = "11" weight = "0.8051751984509219" />
    <synapse sourceNeuronName = "0" targetNeuronName = "12" weight = "-0.940835851777108" />
    <synapse sourceNeuronName = "0" targetNeuronName = "13" weight = "0.2229547225543116" />
    <synapse sourceNeuronName = "0" targetNeuronName = "14" weight = "-0.09984255299326716" />
    <synapse sourceNeuronName = "0" targetNeuronName = "15" weight = "0.4715130274127102" />
    <synapse sourceNeuronName = "1" targetNeuronName = "2" weight = "0.7816429285991293" />
    <synapse sourceNeuronName = "1" targetNeuronName = "3" weight = "-0.5950770746026628" />
    <synapse sourceNeuronName = "1" targetNeuronName = "4" weight = "-0.5189033717032883" />
    <synapse sourceNeuronName = "1" targetNeuronName = "5" weight = "0.2770894588791384" />
    <synapse sourceNeuronName = "1" targetNeuronName = "6" weight = "0.008989622889783" />
    <synapse sourceNeuronName = "1" targetNeuronName = "7" weight = "0.2893114743628997" />
    <synapse sourceNeuronName = "1" targetNeuronName = "8" weight = "-0.6113684827779367" />
    <synapse sourceNeuronName = "1" targetNeuronName = "9" weight = "-0.2367734527734544" />
    <synapse sourceNeuronName = "1" targetNeuronName = "10" weight = "0.933759786946927" />
    <synapse sourceNeuronName = "1" targetNeuronName = "11" weight = "-0.06884819163805478" />
    <synapse sourceNeuronName = "1" targetNeuronName = "12" weight = "-0.8649213978642447" />
    <synapse sourceNeuronName = "1" targetNeuronName = "13" weight = "-0.9834015670100904" />
    <synapse sourceNeuronName = "1" targetNeuronName = "14" weight = "-0.12046329650343934" />
    <synapse sourceNeuronName = "1" targetNeuronName = "15" weight = "0.22604200476093506" />
</neuralNetwork>