<neuralNetwork>
    <neuron name = "0" type = "sensor" linkName = "Link2" />
    <neuron name = "1" type = "sensor" linkName = "Link3" />
    <neuron name = "2" type = "sensor" linkName = "Link4" />
    <neuron name = "3" type = "sensor" linkName = "Link5" />
    <neuron name = "4" type = "sensor" linkName = "Link6" />
    <neuron name = "5" type = "motor"  jointName = "Link0_Link1" />
    <neuron name = "6" type = "motor"  jointName = "Link0_Link2" />
    <neuron name = "7" type = "motor"  jointName = "Link1_Link3" />
    <neuron name = "8" type = "motor"  jointName = "Link2_Cube03" />
    <neuron name = "9" type = "motor"  jointName = "Cube03_Link4" />
    <neuron name = "10" type = "motor"  jointName = "Link0_Cube04" />
    <neuron name = "11" type = "motor"  jointName = "Cube04_Link5" />
    <neuron name = "12" type = "motor"  jointName = "Link4_Cube05" />
    <neuron name = "13" type = "motor"  jointName = "Cube05_Cube15" />
    <neuron name = "14" type = "motor"  jointName = "Cube15_Link6" />
    <neuron name = "15" type = "motor"  jointName = "Link5_Cube06" />
    <neuron name = "16" type = "motor"  jointName = "Cube06_Link7" />
    <synapse sourceNeuronName = "0" targetNeuronName = "5" weight = "0.6988261460482508" />
    <synapse sourceNeuronName = "0" targetNeuronName = "6" weight = "0.9652186911844116" />
    <synapse sourceNeuronName = "0" targetNeuronName = "7" weight = "0.9441285916140343" />
    <synapse sourceNeuronName = "0" targetNeuronName = "8" weight = "-0.9263756547320134" />
    <synapse sourceNeuronName = "0" targetNeuronName = "9" weight = "-0.8206123801678298" />
    <synapse sourceNeuronName = "0" targetNeuronName = "10" weight = "-0.19645801693825793" />
    <synapse sourceNeuronName = "0" targetNeuronName = "11" weight = "0.6477208821306502" />
    <synapse sourceNeuronName = "0" targetNeuronName = "12" weight = "0.12059281426106705" />
    <synapse sourceNeuronName = "0" targetNeuronName = "13" weight = "-0.17112932780000079" />
    <synapse sourceNeuronName = "0" targetNeuronName = "14" weight = "0.12681015438585308" />
    <synapse sourceNeuronName = "0" targetNeuronName = "15" weight = "-0.6805390665919515" />
    <synapse sourceNeuronName = "0" targetNeuronName = "16" weight = "0.4611453470342368" />
    <synapse sourceNeuronName = "1" targetNeuronName = "5" weight = "-0.631516069703939" />
    <synapse sourceNeuronName = "1" targetNeuronName = "6" weight = "-0.05729261325702195" />
    <synapse sourceNeuronName = "1" targetNeuronName = "7" weight = "-0.2880852258535933" />
    <synapse sourceNeuronName = "1" targetNeuronName = "8" weight = "0.5060110080281088" />
    <synapse sourceNeuronName = "1" targetNeuronName = "9" weight = "0.2573057730097601" />
    <synapse sourceNeuronName = "1" targetNeuronName = "10" weight = "-0.5595578926286797" />
    <synapse sourceNeuronName = "1" targetNeuronName = "11" weight = "0.1385338549438373" />
    <synapse sourceNeuronName = "1" targetNeuronName = "12" weight = "0.023935727038541188" />
    <synapse sourceNeuronName = "1" targetNeuronName = "13" weight = "-0.45714523478612445" />
    <synapse sourceNeuronName = "1" targetNeuronName = "14" weight = "0.9115135572528839" />
    <synapse sourceNeuronName = "1" targetNeuronName = "15" weight = "0.6810276637302344" />
    <synapse sourceNeuronName = "1" targetNeuronName = "16" weight = "0.3032257075709519" />
    <synapse sourceNeuronName = "2" targetNeuronName = "5" weight = "-0.15325789459916406" />
    <synapse sourceNeuronName = "2" targetNeuronName = "6" weight = "0.1791069976128723" />
    <synapse sourceNeuronName = "2" targetNeuronName = "7" weight = "0.14906079022353635" />
    <synapse sourceNeuronName = "2" targetNeuronName = "8" weight = "0.061791187326198704" />
    <synapse sourceNeuronName = "2" targetNeuronName = "9" weight = "0.10759961990928035" />
    <synapse sourceNeuronName = "2" targetNeuronName = "10" weight = "0.5177580792059191" />
    <synapse sourceNeuronName = "2" targetNeuronName = "11" weight = "0.3993070335502129" />
    <synapse sourceNeuronName = "2" targetNeuronName = "12" weight = "0.02731199448894417" />
    <synapse sourceNeuronName = "2" targetNeuronName = "13" weight = "0.3503868232753631" />
    <synapse sourceNeuronName = "2" targetNeuronName = "14" weight = "0.48594988949806095" />
    <synapse sourceNeuronName = "2" targetNeuronName = "15" weight = "-0.6055831340332278" />
    <synapse sourceNeuronName = "2" targetNeuronName = "16" weight = "-0.22732723643237973" />
    <synapse sourceNeuronName = "3" targetNeuronName = "5" weight = "-0.2051189557081281" />
    <synapse sourceNeuronName = "3" targetNeuronName = "6" weight = "-0.07119664134615067" />
    <synapse sourceNeuronName = "3" targetNeuronName = "7" weight = "-0.10595960769304891" />
    <synapse sourceNeuronName = "3" targetNeuronName = "8" weight = "-0.7713657813995416" />
    <synapse sourceNeuronName = "3" targetNeuronName = "9" weight = "0.5760747584427193" />
    <synapse sourceNeuronName = "3" targetNeuronName = "10" weight = "0.24558750963001463" />
    <synapse sourceNeuronName = "3" targetNeuronName = "11" weight = "-0.3392447426012639" />
    <synapse sourceNeuronName = "3" targetNeuronName = "12" weight = "0.9093568190830039" />
    <synapse sourceNeuronName = "3" targetNeuronName = "13" weight = "0.5995021755786782" />
    <synapse sourceNeuronName = "3" targetNeuronName = "14" weight = "-0.6092211148007396" />
    <synapse sourceNeuronName = "3" targetNeuronName = "15" weight = "0.7614151819928305" />
    <synapse sourceNeuronName = "3" targetNeuronName = "16" weight = "-0.5445502977217098" />
    <synapse sourceNeuronName = "4" targetNeuronName = "5" weight = "-0.29727808244890985" />
    <synapse sourceNeuronName = "4" targetNeuronName = "6" weight = "0.2650619665587417" />
    <synapse sourceNeuronName = "4" targetNeuronName = "7" weight = "0.35258757599053037" />
    <synapse sourceNeuronName = "4" targetNeuronName = "8" weight = "-0.385329715323677" />
    <synapse sourceNeuronName = "4" targetNeuronName = "9" weight = "-0.3464465297775108" />
    <synapse sourceNeuronName = "4" targetNeuronName = "10" weight = "0.7689326965310521" />
    <synapse sourceNeuronName = "4" targetNeuronName = "11" weight = "0.1018456857610881" />
    <synapse sourceNeuronName = "4" targetNeuronName = "12" weight = "0.8687279406294699" />
    <synapse sourceNeuronName = "4" targetNeuronName = "13" weight = "-0.4929400441063154" />
    <synapse sourceNeuronName = "4" targetNeuronName = "14" weight = "0.2417705629692879" />
    <synapse sourceNeuronName = "4" targetNeuronName = "15" weight = "-0.14270143152762582" />
    <synapse sourceNeuronName = "4" targetNeuronName = "16" weight = "0.4702245100591034" />
</neuralNetwork>