<neuralNetwork>
    <neuron name = "0" type = "sensor" linkName = "Link0" />
    <neuron name = "1" type = "sensor" linkName = "Link1" />
    <neuron name = "2" type = "sensor" linkName = "Link2" />
    <neuron name = "3" type = "sensor" linkName = "Link3" />
    <neuron name = "4" type = "sensor" linkName = "Link4" />
    <neuron name = "5" type = "sensor" linkName = "Link5" />
    <neuron name = "6" type = "sensor" linkName = "Link7" />
    <neuron name = "7" type = "sensor" linkName = "Link9" />
    <neuron name = "8" type = "sensor" linkName = "Link11" />
    <neuron name = "9" type = "motor"  jointName = "Link0_Cube00" />
    <neuron name = "10" type = "motor"  jointName = "Cube00_Cube10" />
    <neuron name = "11" type = "motor"  jointName = "Cube10_Link1" />
    <neuron name = "12" type = "motor"  jointName = "Link0_Cube01" />
    <neuron name = "13" type = "motor"  jointName = "Cube01_Link2" />
    <neuron name = "14" type = "motor"  jointName = "Link2_Link3" />
    <neuron name = "15" type = "motor"  jointName = "Link3_Cube03" />
    <neuron name = "16" type = "motor"  jointName = "Cube03_Link4" />
    <neuron name = "17" type = "motor"  jointName = "Link1_Link5" />
    <neuron name = "18" type = "motor"  jointName = "Link0_Cube05" />
    <neuron name = "19" type = "motor"  jointName = "Cube05_Link6" />
    <neuron name = "20" type = "motor"  jointName = "Link4_Cube06" />
    <neuron name = "21" type = "motor"  jointName = "Cube06_Cube16" />
    <neuron name = "22" type = "motor"  jointName = "Cube16_Link7" />
    <neuron name = "23" type = "motor"  jointName = "Link5_Cube07" />
    <neuron name = "24" type = "motor"  jointName = "Cube07_Cube17" />
    <neuron name = "25" type = "motor"  jointName = "Cube17_Link8" />
    <neuron name = "26" type = "motor"  jointName = "Link0_Cube08" />
    <neuron name = "27" type = "motor"  jointName = "Cube08_Cube18" />
    <neuron name = "28" type = "motor"  jointName = "Cube18_Link9" />
    <neuron name = "29" type = "motor"  jointName = "Link3_Cube09" />
    <neuron name = "30" type = "motor"  jointName = "Cube09_Cube19" />
    <neuron name = "31" type = "motor"  jointName = "Cube19_Link10" />
    <neuron name = "32" type = "motor"  jointName = "Link4_Cube010" />
    <neuron name = "33" type = "motor"  jointName = "Cube010_Link11" />
    <neuron name = "34" type = "motor"  jointName = "Link9_Cube011" />
    <neuron name = "35" type = "motor"  jointName = "Cube011_Link12" />
    <neuron name = "36" type = "motor"  jointName = "Link12_Cube012" />
    <neuron name = "37" type = "motor"  jointName = "Cube012_Cube112" />
    <neuron name = "38" type = "motor"  jointName = "Cube112_Link13" />
    <synapse sourceNeuronName = "0" targetNeuronName = "9" weight = "0.6032275057763157" />
    <synapse sourceNeuronName = "0" targetNeuronName = "10" weight = "0.41629356672091133" />
    <synapse sourceNeuronName = "0" targetNeuronName = "11" weight = "0.43174044174316695" />
    <synapse sourceNeuronName = "0" targetNeuronName = "12" weight = "-0.6715580302529582" />
    <synapse sourceNeuronName = "0" targetNeuronName = "13" weight = "-0.6031049542807583" />
    <synapse sourceNeuronName = "0" targetNeuronName = "14" weight = "-0.429903939830766" />
    <synapse sourceNeuronName = "0" targetNeuronName = "15" weight = "0.9449941037381362" />
    <synapse sourceNeuronName = "0" targetNeuronName = "16" weight = "-0.496838005118319" />
    <synapse sourceNeuronName = "0" targetNeuronName = "17" weight = "0.35766308825164916" />
    <synapse sourceNeuronName = "0" targetNeuronName = "18" weight = "0.08550100340448563" />
    <synapse sourceNeuronName = "0" targetNeuronName = "19" weight = "0.11281033718774136" />
    <synapse sourceNeuronName = "0" targetNeuronName = "20" weight = "-0.8235260407250611" />
    <synapse sourceNeuronName = "0" targetNeuronName = "21" weight = "-0.4400531690713876" />
    <synapse sourceNeuronName = "0" targetNeuronName = "22" weight = "0.7616581790157322" />
    <synapse sourceNeuronName = "0" targetNeuronName = "23" weight = "-0.9079091843732188" />
    <synapse sourceNeuronName = "0" targetNeuronName = "24" weight = "0.35779866470733745" />
    <synapse sourceNeuronName = "0" targetNeuronName = "25" weight = "0.7840053181075395" />
    <synapse sourceNeuronName = "0" targetNeuronName = "26" weight = "0.5328083405066979" />
    <synapse sourceNeuronName = "0" targetNeuronName = "27" weight = "-0.6301405762715959" />
    <synapse sourceNeuronName = "0" targetNeuronName = "28" weight = "-0.5228271491898608" />
    <synapse sourceNeuronName = "0" targetNeuronName = "29" weight = "0.19260717369642033" />
    <synapse sourceNeuronName = "0" targetNeuronName = "30" weight = "0.12995095874037288" />
    <synapse sourceNeuronName = "0" targetNeuronName = "31" weight = "-0.14818275380262858" />
    <synapse sourceNeuronName = "0" targetNeuronName = "32" weight = "-0.5376318861492928" />
    <synapse sourceNeuronName = "0" targetNeuronName = "33" weight = "-0.5050690757839673" />
    <synapse sourceNeuronName = "0" targetNeuronName = "34" weight = "0.5391224218680908" />
    <synapse sourceNeuronName = "0" targetNeuronName = "35" weight = "-0.543823106812976" />
    <synapse sourceNeuronName = "0" targetNeuronName = "36" weight = "-0.7426620080458484" />
    <synapse sourceNeuronName = "0" targetNeuronName = "37" weight = "-0.4196559821922863" />
    <synapse sourceNeuronName = "0" targetNeuronName = "38" weight = "-0.6449635684925727" />
    <synapse sourceNeuronName = "1" targetNeuronName = "9" weight = "0.34087467911175096" />
    <synapse sourceNeuronName = "1" targetNeuronName = "10" weight = "-0.007746526356224637" />
    <synapse sourceNeuronName = "1" targetNeuronName = "11" weight = "0.44454406630596344" />
    <synapse sourceNeuronName = "1" targetNeuronName = "12" weight = "0.7060601864888061" />
    <synapse sourceNeuronName = "1" targetNeuronName = "13" weight = "0.749603222257192" />
    <synapse sourceNeuronName = "1" targetNeuronName = "14" weight = "-0.8065237877748017" />
    <synapse sourceNeuronName = "1" targetNeuronName = "15" weight = "-0.8160481812823828" />
    <synapse sourceNeuronName = "1" targetNeuronName = "16" weight = "-0.31178802471602407" />
    <synapse sourceNeuronName = "1" targetNeuronName = "17" weight = "0.0968476352247516" />
    <synapse sourceNeuronName = "1" targetNeuronName = "18" weight = "-0.02839497908895594" />
    <synapse sourceNeuronName = "1" targetNeuronName = "19" weight = "-0.2853436536203604" />
    <synapse sourceNeuronName = "1" targetNeuronName = "20" weight = "-0.9845169642777241" />
    <synapse sourceNeuronName = "1" targetNeuronName = "21" weight = "-0.5068805247953825" />
    <synapse sourceNeuronName = "1" targetNeuronName = "22" weight = "0.8072187322615076" />
    <synapse sourceNeuronName = "1" targetNeuronName = "23" weight = "-0.8033548768664258" />
    <synapse sourceNeuronName = "1" targetNeuronName = "24" weight = "-0.18535283933471391" />
    <synapse sourceNeuronName = "1" targetNeuronName = "25" weight = "0.49570528441262574" />
    <synapse sourceNeuronName = "1" targetNeuronName = "26" weight = "-0.14946419354421203" />
    <synapse sourceNeuronName = "1" targetNeuronName = "27" weight = "0.35990050120165806" />
    <synapse sourceNeuronName = "1" targetNeuronName = "28" weight = "0.2716878216850429" />
    <synapse sourceNeuronName = "1" targetNeuronName = "29" weight = "0.30280773351279744" />
    <synapse sourceNeuronName = "1" targetNeuronName = "30" weight = "-0.9952545291507617" />
    <synapse sourceNeuronName = "1" targetNeuronName = "31" weight = "-0.8647024319744738" />
    <synapse sourceNeuronName = "1" targetNeuronName = "32" weight = "0.4951387456648284" />
    <synapse sourceNeuronName = "1" targetNeuronName = "33" weight = "0.9915628680160036" />
    <synapse sourceNeuronName = "1" targetNeuronName = "34" weight = "-0.4086091894819166" />
    <synapse sourceNeuronName = "1" targetNeuronName = "35" weight = "-0.21923442296989126" />
    <synapse sourceNeuronName = "1" targetNeuronName = "36" weight = "0.547675252733737" />
    <synapse sourceNeuronName = "1" targetNeuronName = "37" weight = "-0.8668857817433049" />
    <synapse sourceNeuronName = "1" targetNeuronName = "38" weight = "0.3826353917762453" />
    <synapse sourceNeuronName = "2" targetNeuronName = "9" weight = "0.7949074015940185" />
    <synapse sourceNeuronName = "2" targetNeuronName = "10" weight = "-0.24279150319769527" />
    <synapse sourceNeuronName = "2" targetNeuronName = "11" weight = "-0.6628897059863141" />
    <synapse sourceNeuronName = "2" targetNeuronName = "12" weight = "0.9251986223205648" />
    <synapse sourceNeuronName = "2" targetNeuronName = "13" weight = "0.9235250714942067" />
    <synapse sourceNeuronName = "2" targetNeuronName = "14" weight = "-0.8903608189854406" />
    <synapse sourceNeuronName = "2" targetNeuronName = "15" weight = "-0.6697794619512762" />
    <synapse sourceNeuronName = "2" targetNeuronName = "16" weight = "-0.4132333869381679" />
    <synapse sourceNeuronName = "2" targetNeuronName = "17" weight = "0.9915407872586472" />
    <synapse sourceNeuronName = "2" targetNeuronName = "18" weight = "-0.7773903825034434" />
    <synapse sourceNeuronName = "2" targetNeuronName = "19" weight = "-0.3077933146316909" />
    <synapse sourceNeuronName = "2" targetNeuronName = "20" weight = "-0.12188141972157496" />
    <synapse sourceNeuronName = "2" targetNeuronName = "21" weight = "-0.12107613460293831" />
    <synapse sourceNeuronName = "2" targetNeuronName = "22" weight = "-0.6767877420004722" />
    <synapse sourceNeuronName = "2" targetNeuronName = "23" weight = "0.39438101809014525" />
    <synapse sourceNeuronName = "2" targetNeuronName = "24" weight = "0.6746043998342712" />
    <synapse sourceNeuronName = "2" targetNeuronName = "25" weight = "0.6143097161523123" />
    <synapse sourceNeuronName = "2" targetNeuronName = "26" weight = "-0.24840196816614424" />
    <synapse sourceNeuronName = "2" targetNeuronName = "27" weight = "-0.32319419160200624" />
    <synapse sourceNeuronName = "2" targetNeuronName = "28" weight = "-0.377065240404612" />
    <synapse sourceNeuronName = "2" targetNeuronName = "29" weight = "0.5994781166554073" />
    <synapse sourceNeuronName = "2" targetNeuronName = "30" weight = "0.9074705360216362" />
    <synapse sourceNeuronName = "2" targetNeuronName = "31" weight = "-0.9094415291302123" />
    <synapse sourceNeuronName = "2" targetNeuronName = "32" weight = "-0.2444917543497227" />
    <synapse sourceNeuronName = "2" targetNeuronName = "33" weight = "-0.37001156837708304" />
    <synapse sourceNeuronName = "2" targetNeuronName = "34" weight = "0.9761445202208743" />
    <synapse sourceNeuronName = "2" targetNeuronName = "35" weight = "0.3461556804601049" />
    <synapse sourceNeuronName = "2" targetNeuronName = "36" weight = "-0.7966755878629097" />
    <synapse sourceNeuronName = "2" targetNeuronName = "37" weight = "-0.11393025224362341" />
    <synapse sourceNeuronName = "2" targetNeuronName = "38" weight = "-0.01655488415707329" />
    <synapse sourceNeuronName = "3" targetNeuronName = "9" weight = "-0.45988597911659146" />
    <synapse sourceNeuronName = "3" targetNeuronName = "10" weight = "-0.008937224865976923" />
    <synapse sourceNeuronName = "3" targetNeuronName = "11" weight = "0.4677799387305155" />
    <synapse sourceNeuronName = "3" targetNeuronName = "12" weight = "0.3181764261587081" />
    <synapse sourceNeuronName = "3" targetNeuronName = "13" weight = "-0.1347702498116059" />
    <synapse sourceNeuronName = "3" targetNeuronName = "14" weight = "-0.5355672059608909" />
    <synapse sourceNeuronName = "3" targetNeuronName = "15" weight = "0.43331879476691726" />
    <synapse sourceNeuronName = "3" targetNeuronName = "16" weight = "-0.7540793108177981" />
    <synapse sourceNeuronName = "3" targetNeuronName = "17" weight = "-0.3459489585957327" />
    <synapse sourceNeuronName = "3" targetNeuronName = "18" weight = "-0.20903527778226527" />
    <synapse sourceNeuronName = "3" targetNeuronName = "19" weight = "0.172889023485431" />
    <synapse sourceNeuronName = "3" targetNeuronName = "20" weight = "-0.6431446355863897" />
    <synapse sourceNeuronName = "3" targetNeuronName = "21" weight = "0.8742056503237092" />
    <synapse sourceNeuronName = "3" targetNeuronName = "22" weight = "-0.8375929301489085" />
    <synapse sourceNeuronName = "3" targetNeuronName = "23" weight = "-0.5804192631313985" />
    <synapse sourceNeuronName = "3" targetNeuronName = "24" weight = "0.5413497086029735" />
    <synapse sourceNeuronName = "3" targetNeuronName = "25" weight = "0.3089053045875152" />
    <synapse sourceNeuronName = "3" targetNeuronName = "26" weight = "0.28621565166622265" />
    <synapse sourceNeuronName = "3" targetNeuronName = "27" weight = "-0.9618974259349251" />
    <synapse sourceNeuronName = "3" targetNeuronName = "28" weight = "0.2898136088264269" />
    <synapse sourceNeuronName = "3" targetNeuronName = "29" weight = "-0.8072546930856079" />
    <synapse sourceNeuronName = "3" targetNeuronName = "30" weight = "-0.7550319819201967" />
    <synapse sourceNeuronName = "3" targetNeuronName = "31" weight = "0.940221237974632" />
    <synapse sourceNeuronName = "3" targetNeuronName = "32" weight = "0.9119207631477508" />
    <synapse sourceNeuronName = "3" targetNeuronName = "33" weight = "0.5993435548086818" />
    <synapse sourceNeuronName = "3" targetNeuronName = "34" weight = "0.172094334424453" />
    <synapse sourceNeuronName = "3" targetNeuronName = "35" weight = "-0.06622379523607225" />
    <synapse sourceNeuronName = "3" targetNeuronName = "36" weight = "0.980074252252747" />
    <synapse sourceNeuronName = "3" targetNeuronName = "37" weight = "-0.9083613377949109" />
    <synapse sourceNeuronName = "3" targetNeuronName = "38" weight = "-0.25025048809295236" />
    <synapse sourceNeuronName = "4" targetNeuronName = "9" weight = "-0.6754865105509362" />
    <synapse sourceNeuronName = "4" targetNeuronName = "10" weight = "0.37315687507263373" />
    <synapse sourceNeuronName = "4" targetNeuronName = "11" weight = "-0.13521930231589852" />
    <synapse sourceNeuronName = "4" targetNeuronName = "12" weight = "0.15712241484950362" />
    <synapse sourceNeuronName = "4" targetNeuronName = "13" weight = "0.16594242251189928" />
    <synapse sourceNeuronName = "4" targetNeuronName = "14" weight = "0.12904734211880742" />
    <synapse sourceNeuronName = "4" targetNeuronName = "15" weight = "0.4894922555752148" />
    <synapse sourceNeuronName = "4" targetNeuronName = "16" weight = "0.3170766370236995" />
    <synapse sourceNeuronName = "4" targetNeuronName = "17" weight = "0.8342285560604412" />
    <synapse sourceNeuronName = "4" targetNeuronName = "18" weight = "-0.6918864922006394" />
    <synapse sourceNeuronName = "4" targetNeuronName = "19" weight = "0.1004265638168933" />
    <synapse sourceNeuronName = "4" targetNeuronName = "20" weight = "-0.8767303520866978" />
    <synapse sourceNeuronName = "4" targetNeuronName = "21" weight = "-0.5864170381593687" />
    <synapse sourceNeuronName = "4" targetNeuronName = "22" weight = "-0.8112843594877548" />
    <synapse sourceNeuronName = "4" targetNeuronName = "23" weight = "0.8671541325391343" />
    <synapse sourceNeuronName = "4" targetNeuronName = "24" weight = "-0.4954332750202288" />
    <synapse sourceNeuronName = "4" targetNeuronName = "25" weight = "-0.07517587948045024" />
    <synapse sourceNeuronName = "4" targetNeuronName = "26" weight = "-0.1862885915804222" />
    <synapse sourceNeuronName = "4" targetNeuronName = "27" weight = "0.5578159306373602" />
    <synapse sourceNeuronName = "4" targetNeuronName = "28" weight = "0.6540936573332319" />
    <synapse sourceNeuronName = "4" targetNeuronName = "29" weight = "0.446114862521656" />
    <synapse sourceNeuronName = "4" targetNeuronName = "30" weight = "-0.7519582280682584" />
    <synapse sourceNeuronName = "4" targetNeuronName = "31" weight = "0.19869983608035802" />
    <synapse sourceNeuronName = "4" targetNeuronName = "32" weight = "-0.6256503958144746" />
    <synapse sourceNeuronName = "4" targetNeuronName = "33" weight = "-0.3612223449833325" />
    <synapse sourceNeuronName = "4" targetNeuronName = "34" weight = "0.6136998083222045" />
    <synapse sourceNeuronName = "4" targetNeuronName = "35" weight = "-0.036946483531183905" />
    <synapse sourceNeuronName = "4" targetNeuronName = "36" weight = "-0.6632785125149443" />
    <synapse sourceNeuronName = "4" targetNeuronName = "37" weight = "-0.4074387172705123" />
    <synapse sourceNeuronName = "4" targetNeuronName = "38" weight = "0.9456881693877945" />
    <synapse sourceNeuronName = "5" targetNeuronName = "9" weight = "0.9200974124506394" />
    <synapse sourceNeuronName = "5" targetNeuronName = "10" weight = "0.48547453041416877" />
    <synapse sourceNeuronName = "5" targetNeuronName = "11" weight = "0.23543242900723027" />
    <synapse sourceNeuronName = "5" targetNeuronName = "12" weight = "0.9309339521857376" />
    <synapse sourceNeuronName = "5" targetNeuronName = "13" weight = "-0.35320812630179454" />
    <synapse sourceNeuronName = "5" targetNeuronName = "14" weight = "0.11688966375615495" />
    <synapse sourceNeuronName = "5" targetNeuronName = "15" weight = "-0.17127816683911212" />
    <synapse sourceNeuronName = "5" targetNeuronName = "16" weight = "-0.8220350625689001" />
    <synapse sourceNeuronName = "5" targetNeuronName = "17" weight = "0.4542620057995588" />
    <synapse sourceNeuronName = "5" targetNeuronName = "18" weight = "-0.5674543849052642" />
    <synapse sourceNeuronName = "5" targetNeuronName = "19" weight = "0.8644000046861646" />
    <synapse sourceNeuronName = "5" targetNeuronName = "20" weight = "0.980608263716604" />
    <synapse sourceNeuronName = "5" targetNeuronName = "21" weight = "0.18554192281568027" />
    <synapse sourceNeuronName = "5" targetNeuronName = "22" weight = "0.8303274228394917" />
    <synapse sourceNeuronName = "5" targetNeuronName = "23" weight = "0.288494106210317" />
    <synapse sourceNeuronName = "5" targetNeuronName = "24" weight = "0.5771554768188691" />
    <synapse sourceNeuronName = "5" targetNeuronName = "25" weight = "0.4245922297223992" />
    <synapse sourceNeuronName = "5" targetNeuronName = "26" weight = "0.8921809351308396" />
    <synapse sourceNeuronName = "5" targetNeuronName = "27" weight = "-0.2502229850865185" />
    <synapse sourceNeuronName = "5" targetNeuronName = "28" weight = "-0.3334034521822866" />
    <synapse sourceNeuronName = "5" targetNeuronName = "29" weight = "0.4505104364115631" />
    <synapse sourceNeuronName = "5" targetNeuronName = "30" weight = "0.30119268093119467" />
    <synapse sourceNeuronName = "5" targetNeuronName = "31" weight = "0.8859223301060124" />
    <synapse sourceNeuronName = "5" targetNeuronName = "32" weight = "-0.10488253669666547" />
    <synapse sourceNeuronName = "5" targetNeuronName = "33" weight = "-0.226688555606253" />
    <synapse sourceNeuronName = "5" targetNeuronName = "34" weight = "-0.05949541914009937" />
    <synapse sourceNeuronName = "5" targetNeuronName = "35" weight = "0.15569428968566235" />
    <synapse sourceNeuronName = "5" targetNeuronName = "36" weight = "0.8073947250648004" />
    <synapse sourceNeuronName = "5" targetNeuronName = "37" weight = "0.4603031526981223" />
    <synapse sourceNeuronName = "5" targetNeuronName = "38" weight = "-0.5993431125041251" />
    <synapse sourceNeuronName = "6" targetNeuronName = "9" weight = "0.38342189835586327" />
    <synapse sourceNeuronName = "6" targetNeuronName = "10" weight = "-0.548745522565464" />
    <synapse sourceNeuronName = "6" targetNeuronName = "11" weight = "-0.8424492406971733" />
    <synapse sourceNeuronName = "6" targetNeuronName = "12" weight = "-0.5969844161982907" />
    <synapse sourceNeuronName = "6" targetNeuronName = "13" weight = "-0.8103740022456716" />
    <synapse sourceNeuronName = "6" targetNeuronName = "14" weight = "0.7317720609615497" />
    <synapse sourceNeuronName = "6" targetNeuronName = "15" weight = "0.21036645658079323" />
    <synapse sourceNeuronName = "6" targetNeuronName = "16" weight = "-0.8059580553905619" />
    <synapse sourceNeuronName = "6" targetNeuronName = "17" weight = "-0.8389425676273508" />
    <synapse sourceNeuronName = "6" targetNeuronName = "18" weight = "-0.32260913697123894" />
    <synapse sourceNeuronName = "6" targetNeuronName = "19" weight = "0.8501855769539515" />
    <synapse sourceNeuronName = "6" targetNeuronName = "20" weight = "0.696271875882825" />
    <synapse sourceNeuronName = "6" targetNeuronName = "21" weight = "0.6811605443446449" />
    <synapse sourceNeuronName = "6" targetNeuronName = "22" weight = "-0.9761048090842035" />
    <synapse sourceNeuronName = "6" targetNeuronName = "23" weight = "-0.2019321728008847" />
    <synapse sourceNeuronName = "6" targetNeuronName = "24" weight = "0.9641908365182712" />
    <synapse sourceNeuronName = "6" targetNeuronName = "25" weight = "-0.8111222844017798" />
    <synapse sourceNeuronName = "6" targetNeuronName = "26" weight = "-0.4171599710114955" />
    <synapse sourceNeuronName = "6" targetNeuronName = "27" weight = "0.7034763021534556" />
    <synapse sourceNeuronName = "6" targetNeuronName = "28" weight = "-0.4927703021358598" />
    <synapse sourceNeuronName = "6" targetNeuronName = "29" weight = "-0.05102470148793126" />
    <synapse sourceNeuronName = "6" targetNeuronName = "30" weight = "0.14850789032200495" />
    <synapse sourceNeuronName = "6" targetNeuronName = "31" weight = "0.16042048353827076" />
    <synapse sourceNeuronName = "6" targetNeuronName = "32" weight = "0.2691117196424697" />
    <synapse sourceNeuronName = "6" targetNeuronName = "33" weight = "-0.661056188802188" />
    <synapse sourceNeuronName = "6" targetNeuronName = "34" weight = "-0.344267088865303" />
    <synapse sourceNeuronName = "6" targetNeuronName = "35" weight = "0.23205629765063618" />
    <synapse sourceNeuronName = "6" targetNeuronName = "36" weight = "0.29493389790875146" />
    <synapse sourceNeuronName = "6" targetNeuronName = "37" weight = "0.5698901606049562" />
    <synapse sourceNeuronName = "6" targetNeuronName = "38" weight = "-0.7382549664747489" />
    <synapse sourceNeuronName = "7" targetNeuronName = "9" weight = "-0.07077140627407319" />
    <synapse sourceNeuronName = "7" targetNeuronName = "10" weight = "0.9243752576719839" />
    <synapse sourceNeuronName = "7" targetNeuronName = "11" weight = "-0.1541015225759883" />
    <synapse sourceNeuronName = "7" targetNeuronName = "12" weight = "-0.7060281938198454" />
    <synapse sourceNeuronName = "7" targetNeuronName = "13" weight = "-0.47053389890366404" />
    <synapse sourceNeuronName = "7" targetNeuronName = "14" weight = "0.19713646315039113" />
    <synapse sourceNeuronName = "7" targetNeuronName = "15" weight = "0.9124555427512993" />
    <synapse sourceNeuronName = "7" targetNeuronName = "16" weight = "0.5981086914867255" />
    <synapse sourceNeuronName = "7" targetNeuronName = "17" weight = "0.49489131199835557" />
    <synapse sourceNeuronName = "7" targetNeuronName = "18" weight = "0.933042409379474" />
    <synapse sourceNeuronName = "7" targetNeuronName = "19" weight = "0.9736857187839101" />
    <synapse sourceNeuronName = "7" targetNeuronName = "20" weight = "-0.03158819499298149" />
    <synapse sourceNeuronName = "7" targetNeuronName = "21" weight = "0.8561528907665916" />
    <synapse sourceNeuronName = "7" targetNeuronName = "22" weight = "-0.19319695331782283" />
    <synapse sourceNeuronName = "7" targetNeuronName = "23" weight = "0.26734221969451943" />
    <synapse sourceNeuronName = "7" targetNeuronName = "24" weight = "0.8879288291362226" />
    <synapse sourceNeuronName = "7" targetNeuronName = "25" weight = "0.6239550124784452" />
    <synapse sourceNeuronName = "7" targetNeuronName = "26" weight = "-0.8597934720240974" />
    <synapse sourceNeuronName = "7" targetNeuronName = "27" weight = "-0.3245126239055467" />
    <synapse sourceNeuronName = "7" targetNeuronName = "28" weight = "-0.028601155155994373" />
    <synapse sourceNeuronName = "7" targetNeuronName = "29" weight = "-0.06391714279684235" />
    <synapse sourceNeuronName = "7" targetNeuronName = "30" weight = "-0.4165390669921285" />
    <synapse sourceNeuronName = "7" targetNeuronName = "31" weight = "-0.30246140482619643" />
    <synapse sourceNeuronName = "7" targetNeuronName = "32" weight = "-0.5396123639431254" />
    <synapse sourceNeuronName = "7" targetNeuronName = "33" weight = "0.7265761806776316" />
    <synapse sourceNeuronName = "7" targetNeuronName = "34" weight = "0.7701640419021596" />
    <synapse sourceNeuronName = "7" targetNeuronName = "35" weight = "-0.06641974852201837" />
    <synapse sourceNeuronName = "7" targetNeuronName = "36" weight = "-0.5254869706461072" />
    <synapse sourceNeuronName = "7" targetNeuronName = "37" weight = "-0.4034070823889251" />
    <synapse sourceNeuronName = "7" targetNeuronName = "38" weight = "0.5017551950275909" />
    <synapse sourceNeuronName = "8" targetNeuronName = "9" weight = "0.17417605429467575" />
    <synapse sourceNeuronName = "8" targetNeuronName = "10" weight = "0.45320956338990537" />
    <synapse sourceNeuronName = "8" targetNeuronName = "11" weight = "0.8349432444523872" />
    <synapse sourceNeuronName = "8" targetNeuronName = "12" weight = "-0.5925819698814174" />
    <synapse sourceNeuronName = "8" targetNeuronName = "13" weight = "-0.5272977273339672" />
    <synapse sourceNeuronName = "8" targetNeuronName = "14" weight = "0.615558644959566" />
    <synapse sourceNeuronName = "8" targetNeuronName = "15" weight = "0.9441865839649988" />
    <synapse sourceNeuronName = "8" targetNeuronName = "16" weight = "0.7152981544658408" />
    <synapse sourceNeuronName = "8" targetNeuronName = "17" weight = "-0.33965619604846764" />
    <synapse sourceNeuronName = "8" targetNeuronName = "18" weight = "0.8750251310767785" />
    <synapse sourceNeuronName = "8" targetNeuronName = "19" weight = "-0.8194552431177395" />
    <synapse sourceNeuronName = "8" targetNeuronName = "20" weight = "0.46418873680148365" />
    <synapse sourceNeuronName = "8" targetNeuronName = "21" weight = "-0.2211485700730491" />
    <synapse sourceNeuronName = "8" targetNeuronName = "22" weight = "-0.320795853923604" />
    <synapse sourceNeuronName = "8" targetNeuronName = "23" weight = "0.5238422219454386" />
    <synapse sourceNeuronName = "8" targetNeuronName = "24" weight = "0.44867342423652046" />
    <synapse sourceNeuronName = "8" targetNeuronName = "25" weight = "-0.3378929450283359" />
    <synapse sourceNeuronName = "8" targetNeuronName = "26" weight = "0.6639574635566714" />
    <synapse sourceNeuronName = "8" targetNeuronName = "27" weight = "-0.9401973613017427" />
    <synapse sourceNeuronName = "8" targetNeuronName = "28" weight = "0.3818696917375539" />
    <synapse sourceNeuronName = "8" targetNeuronName = "29" weight = "-0.2991815457955549" />
    <synapse sourceNeuronName = "8" targetNeuronName = "30" weight = "-0.6794365103570399" />
    <synapse sourceNeuronName = "8" targetNeuronName = "31" weight = "0.63240958383711" />
    <synapse sourceNeuronName = "8" targetNeuronName = "32" weight = "-0.8285836328395619" />
    <synapse sourceNeuronName = "8" targetNeuronName = "33" weight = "0.8321587708957401" />
    <synapse sourceNeuronName = "8" targetNeuronName = "34" weight = "-0.9947102351638959" />
    <synapse sourceNeuronName = "8" targetNeuronName = "35" weight = "-0.22439605899175374" />
    <synapse sourceNeuronName = "8" targetNeuronName = "36" weight = "-0.7941442340113676" />
    <synapse sourceNeuronName = "8" targetNeuronName = "37" weight = "-0.6967024294003166" />
    <synapse sourceNeuronName = "8" targetNeuronName = "38" weight = "-0.9429077214285562" />
</neuralNetwork>