<neuralNetwork>
    <neuron name = "0" type = "sensor" linkName = "Link2" />
    <neuron name = "1" type = "sensor" linkName = "Link5" />
    <neuron name = "2" type = "sensor" linkName = "Link6" />
    <neuron name = "3" type = "sensor" linkName = "Link8" />
    <neuron name = "4" type = "sensor" linkName = "Link9" />
    <neuron name = "5" type = "motor"  jointName = "Link0_Cube00" />
    <neuron name = "6" type = "motor"  jointName = "Cube00_Link1" />
    <neuron name = "7" type = "motor"  jointName = "Link0_Link2" />
    <neuron name = "8" type = "motor"  jointName = "Link0_Cube02" />
    <neuron name = "9" type = "motor"  jointName = "Cube02_Cube12" />
    <neuron name = "10" type = "motor"  jointName = "Cube12_Link3" />
    <neuron name = "11" type = "motor"  jointName = "Link2_Cube03" />
    <neuron name = "12" type = "motor"  jointName = "Cube03_Link4" />
    <neuron name = "13" type = "motor"  jointName = "Link3_Cube04" />
    <neuron name = "14" type = "motor"  jointName = "Cube04_Link5" />
    <neuron name = "15" type = "motor"  jointName = "Link2_Cube05" />
    <neuron name = "16" type = "motor"  jointName = "Cube05_Cube15" />
    <neuron name = "17" type = "motor"  jointName = "Cube15_Link6" />
    <neuron name = "18" type = "motor"  jointName = "Link0_Cube06" />
    <neuron name = "19" type = "motor"  jointName = "Cube06_Cube16" />
    <neuron name = "20" type = "motor"  jointName = "Cube16_Link7" />
    <neuron name = "21" type = "motor"  jointName = "Link5_Cube07" />
    <neuron name = "22" type = "motor"  jointName = "Cube07_Cube17" />
    <neuron name = "23" type = "motor"  jointName = "Cube17_Link8" />
    <neuron name = "24" type = "motor"  jointName = "Link2_Cube08" />
    <neuron name = "25" type = "motor"  jointName = "Cube08_Link9" />
    <synapse sourceNeuronName = "0" targetNeuronName = "5" weight = "0.7146340658158283" />
    <synapse sourceNeuronName = "0" targetNeuronName = "6" weight = "0.4654722359905601" />
    <synapse sourceNeuronName = "0" targetNeuronName = "7" weight = "-0.7633860556771785" />
    <synapse sourceNeuronName = "0" targetNeuronName = "8" weight = "0.4589732431846165" />
    <synapse sourceNeuronName = "0" targetNeuronName = "9" weight = "0.9042140841659212" />
    <synapse sourceNeuronName = "0" targetNeuronName = "10" weight = "0.12892613595838887" />
    <synapse sourceNeuronName = "0" targetNeuronName = "11" weight = "0.16787929055671946" />
    <synapse sourceNeuronName = "0" targetNeuronName = "12" weight = "-0.08099718237177744" />
    <synapse sourceNeuronName = "0" targetNeuronName = "13" weight = "-0.4901549631049533" />
    <synapse sourceNeuronName = "0" targetNeuronName = "14" weight = "-0.41838473112139773" />
    <synapse sourceNeuronName = "0" targetNeuronName = "15" weight = "0.05771079219803199" />
    <synapse sourceNeuronName = "0" targetNeuronName = "16" weight = "-0.31644002684105255" />
    <synapse sourceNeuronName = "0" targetNeuronName = "17" weight = "0.20934839711928888" />
    <synapse sourceNeuronName = "0" targetNeuronName = "18" weight = "0.3580882488728334" />
    <synapse sourceNeuronName = "0" targetNeuronName = "19" weight = "-0.7047689790967164" />
    <synapse sourceNeuronName = "0" targetNeuronName = "20" weight = "0.9458448741387822" />
    <synapse sourceNeuronName = "0" targetNeuronName = "21" weight = "0.7232514044572589" />
    <synapse sourceNeuronName = "0" targetNeuronName = "22" weight = "-0.13239651672872932" />
    <synapse sourceNeuronName = "0" targetNeuronName = "23" weight = "0.8916557252417967" />
    <synapse sourceNeuronName = "0" targetNeuronName = "24" weight = "-0.8742054346326247" />
    <synapse sourceNeuronName = "0" targetNeuronName = "25" weight = "-0.5091987204640189" />
    <synapse sourceNeuronName = "1" targetNeuronName = "5" weight = "0.2591253085368419" />
    <synapse sourceNeuronName = "1" targetNeuronName = "6" weight = "0.1331971963301224" />
    <synapse sourceNeuronName = "1" targetNeuronName = "7" weight = "-0.03221415024340435" />
    <synapse sourceNeuronName = "1" targetNeuronName = "8" weight = "-0.3620387962572311" />
    <synapse sourceNeuronName = "1" targetNeuronName = "9" weight = "0.3530376827904096" />
    <synapse sourceNeuronName = "1" targetNeuronName = "10" weight = "-0.7620572841049558" />
    <synapse sourceNeuronName = "1" targetNeuronName = "11" weight = "-0.40895499641829525" />
    <synapse sourceNeuronName = "1" targetNeuronName = "12" weight = "0.9957713397582215" />
    <synapse sourceNeuronName = "1" targetNeuronName = "13" weight = "-0.5597800213289157" />
    <synapse sourceNeuronName = "1" targetNeuronName = "14" weight = "-0.45475367012495127" />
    <synapse sourceNeuronName = "1" targetNeuronName = "15" weight = "-0.09010000139234453" />
    <synapse sourceNeuronName = "1" targetNeuronName = "16" weight = "0.49259215424861624" />
    <synapse sourceNeuronName = "1" targetNeuronName = "17" weight = "-0.5162461179015272" />
    <synapse sourceNeuronName = "1" targetNeuronName = "18" weight = "-0.408860879170178" />
    <synapse sourceNeuronName = "1" targetNeuronName = "19" weight = "-0.48873219239536314" />
    <synapse sourceNeuronName = "1" targetNeuronName = "20" weight = "-0.3080881554223722" />
    <synapse sourceNeuronName = "1" targetNeuronName = "21" weight = "0.2799983501451253" />
    <synapse sourceNeuronName = "1" targetNeuronName = "22" weight = "0.6215339466568823" />
    <synapse sourceNeuronName = "1" targetNeuronName = "23" weight = "-0.3110726897198226" />
    <synapse sourceNeuronName = "1" targetNeuronName = "24" weight = "-0.18721781959876505" />
    <synapse sourceNeuronName = "1" targetNeuronName = "25" weight = "0.6115119817987498" />
    <synapse sourceNeuronName = "2" targetNeuronName = "5" weight = "0.8845674950302707" />
    <synapse sourceNeuronName = "2" targetNeuronName = "6" weight = "0.7848240357054277" />
    <synapse sourceNeuronName = "2" targetNeuronName = "7" weight = "0.8114665544379871" />
    <synapse sourceNeuronName = "2" targetNeuronName = "8" weight = "-0.5184961948845126" />
    <synapse sourceNeuronName = "2" targetNeuronName = "9" weight = "0.7075652523905616" />
    <synapse sourceNeuronName = "2" targetNeuronName = "10" weight = "-0.17621856316438955" />
    <synapse sourceNeuronName = "2" targetNeuronName = "11" weight = "-0.8309198216355191" />
    <synapse sourceNeuronName = "2" targetNeuronName = "12" weight = "0.46979413641225265" />
    <synapse sourceNeuronName = "2" targetNeuronName = "13" weight = "-0.030421540087975263" />
    <synapse sourceNeuronName = "2" targetNeuronName = "14" weight = "-0.5757699976972601" />
    <synapse sourceNeuronName = "2" targetNeuronName = "15" weight = "-0.2729012984580206" />
    <synapse sourceNeuronName = "2" targetNeuronName = "16" weight = "-0.5588587589714562" />
    <synapse sourceNeuronName = "2" targetNeuronName = "17" weight = "0.3427780021304472" />
    <synapse sourceNeuronName = "2" targetNeuronName = "18" weight = "-0.2696704291031482" />
    <synapse sourceNeuronName = "2" targetNeuronName = "19" weight = "0.7012436809835143" />
    <synapse sourceNeuronName = "2" targetNeuronName = "20" weight = "0.4459641380531074" />
    <synapse sourceNeuronName = "2" targetNeuronName = "21" weight = "-0.6969319787646542" />
    <synapse sourceNeuronName = "2" targetNeuronName = "22" weight = "-0.21431193715019425" />
    <synapse sourceNeuronName = "2" targetNeuronName = "23" weight = "-0.730218981452315" />
    <synapse sourceNeuronName = "2" targetNeuronName = "24" weight = "-0.756778814221527" />
    <synapse sourceNeuronName = "2" targetNeuronName = "25" weight = "-0.8366247864762084" />
    <synapse sourceNeuronName = "3" targetNeuronName = "5" weight = "-0.6424788380760968" />
    <synapse sourceNeuronName = "3" targetNeuronName = "6" weight = "-0.6931198756256793" />
    <synapse sourceNeuronName = "3" targetNeuronName = "7" weight = "-0.11763661472857945" />
    <synapse sourceNeuronName = "3" targetNeuronName = "8" weight = "-0.6198279897288996" />
    <synapse sourceNeuronName = "3" targetNeuronName = "9" weight = "-0.9731970040608098" />
    <synapse sourceNeuronName = "3" targetNeuronName = "10" weight = "-0.4464127406241265" />
    <synapse sourceNeuronName = "3" targetNeuronName = "11" weight = "-0.883656221598021" />
    <synapse sourceNeuronName = "3" targetNeuronName = "12" weight = "0.9075377773278512" />
    <synapse sourceNeuronName = "3" targetNeuronName = "13" weight = "0.4831149568122428" />
    <synapse sourceNeuronName = "3" targetNeuronName = "14" weight = "-0.0463731505448024" />
    <synapse sourceNeuronName = "3" targetNeuronName = "15" weight = "-0.1787810942285455" />
    <synapse sourceNeuronName = "3" targetNeuronName = "16" weight = "-0.022956874232098023" />
    <synapse sourceNeuronName = "3" targetNeuronName = "17" weight = "-0.2720038154649411" />
    <synapse sourceNeuronName = "3" targetNeuronName = "18" weight = "0.045353077348200044" />
    <synapse sourceNeuronName = "3" targetNeuronName = "19" weight = "0.7626336785005616" />
    <synapse sourceNeuronName = "3" targetNeuronName = "20" weight = "0.3189230054385568" />
    <synapse sourceNeuronName = "3" targetNeuronName = "21" weight = "-0.8015223397196651" />
    <synapse sourceNeuronName = "3" targetNeuronName = "22" weight = "0.44385352088367735" />
    <synapse sourceNeuronName = "3" targetNeuronName = "23" weight = "0.2238080613862059" />
    <synapse sourceNeuronName = "3" targetNeuronName = "24" weight = "0.44097015923503124" />
    <synapse sourceNeuronName = "3" targetNeuronName = "25" weight = "0.33630967687008706" />
    <synapse sourceNeuronName = "4" targetNeuronName = "5" weight = "-0.4386860695238499" />
    <synapse sourceNeuronName = "4" targetNeuronName = "6" weight = "0.7099929874348445" />
    <synapse sourceNeuronName = "4" targetNeuronName = "7" weight = "-0.8339933120208596" />
    <synapse sourceNeuronName = "4" targetNeuronName = "8" weight = "-0.27282743736526127" />
    <synapse sourceNeuronName = "4" targetNeuronName = "9" weight = "0.26703306306251906" />
    <synapse sourceNeuronName = "4" targetNeuronName = "10" weight = "0.23434478350669274" />
    <synapse sourceNeuronName = "4" targetNeuronName = "11" weight = "0.9346860611651537" />
    <synapse sourceNeuronName = "4" targetNeuronName = "12" weight = "0.7944027749305844" />
    <synapse sourceNeuronName = "4" targetNeuronName = "13" weight = "0.04313330004352989" />
    <synapse sourceNeuronName = "4" targetNeuronName = "14" weight = "-0.6896553584887164" />
    <synapse sourceNeuronName = "4" targetNeuronName = "15" weight = "0.042089957671995304" />
    <synapse sourceNeuronName = "4" targetNeuronName = "16" weight = "0.07332573044214774" />
    <synapse sourceNeuronName = "4" targetNeuronName = "17" weight = "-0.5911148142902451" />
    <synapse sourceNeuronName = "4" targetNeuronName = "18" weight = "0.17200217674009677" />
    <synapse sourceNeuronName = "4" targetNeuronName = "19" weight = "-0.5547893590341457" />
    <synapse sourceNeuronName = "4" targetNeuronName = "20" weight = "-0.42465468133884987" />
    <synapse sourceNeuronName = "4" targetNeuronName = "21" weight = "-0.25780529409616637" />
    <synapse sourceNeuronName = "4" targetNeuronName = "22" weight = "-0.678046687212259" />
    <synapse sourceNeuronName = "4" targetNeuronName = "23" weight = "0.37347502895856" />
    <synapse sourceNeuronName = "4" targetNeuronName = "24" weight = "-0.3007213792244747" />
    <synapse sourceNeuronName = "4" targetNeuronName = "25" weight = "0.643086105818246" />
</neuralNetwork>