<neuralNetwork>
    <neuron name = "0" type = "sensor" linkName = "Link2" />
    <neuron name = "1" type = "sensor" linkName = "Link3" />
    <neuron name = "2" type = "sensor" linkName = "Link5" />
    <neuron name = "3" type = "sensor" linkName = "Link7" />
    <neuron name = "4" type = "motor"  jointName = "Link0_Cube00" />
    <neuron name = "5" type = "motor"  jointName = "Cube00_Link1" />
    <neuron name = "6" type = "motor"  jointName = "Link0_Link2" />
    <neuron name = "7" type = "motor"  jointName = "Link2_Cube02" />
    <neuron name = "8" type = "motor"  jointName = "Cube02_Cube12" />
    <neuron name = "9" type = "motor"  jointName = "Cube12_Link3" />
    <neuron name = "10" type = "motor"  jointName = "Link2_Cube03" />
    <neuron name = "11" type = "motor"  jointName = "Cube03_Link4" />
    <neuron name = "12" type = "motor"  jointName = "Link4_Link5" />
    <neuron name = "13" type = "motor"  jointName = "Link0_Link6" />
    <neuron name = "14" type = "motor"  jointName = "Link4_Cube06" />
    <neuron name = "15" type = "motor"  jointName = "Cube06_Link7" />
    <neuron name = "16" type = "motor"  jointName = "Link6_Cube07" />
    <neuron name = "17" type = "motor"  jointName = "Cube07_Link8" />
    <synapse sourceNeuronName = "0" targetNeuronName = "4" weight = "0.06606247855352576" />
    <synapse sourceNeuronName = "0" targetNeuronName = "5" weight = "-0.9344528664705032" />
    <synapse sourceNeuronName = "0" targetNeuronName = "6" weight = "-0.7845800038455084" />
    <synapse sourceNeuronName = "0" targetNeuronName = "7" weight = "0.867509250388822" />
    <synapse sourceNeuronName = "0" targetNeuronName = "8" weight = "0.2500900892017126" />
    <synapse sourceNeuronName = "0" targetNeuronName = "9" weight = "-0.37827012058659504" />
    <synapse sourceNeuronName = "0" targetNeuronName = "10" weight = "-0.3370206450023878" />
    <synapse sourceNeuronName = "0" targetNeuronName = "11" weight = "-0.41739003507280015" />
    <synapse sourceNeuronName = "0" targetNeuronName = "12" weight = "0.18077202331266773" />
    <synapse sourceNeuronName = "0" targetNeuronName = "13" weight = "-0.9564754413219398" />
    <synapse sourceNeuronName = "0" targetNeuronName = "14" weight = "0.6422263157295032" />
    <synapse sourceNeuronName = "0" targetNeuronName = "15" weight = "0.33092972194152837" />
    <synapse sourceNeuronName = "0" targetNeuronName = "16" weight = "-0.4411942206388584" />
    <synapse sourceNeuronName = "0" targetNeuronName = "17" weight = "0.699286418068449" />
    <synapse sourceNeuronName = "1" targetNeuronName = "4" weight = "-0.643961189241903" />
    <synapse sourceNeuronName = "1" targetNeuronName = "5" weight = "-0.25661005783595603" />
    <synapse sourceNeuronName = "1" targetNeuronName = "6" weight = "-0.9784707875865215" />
    <synapse sourceNeuronName = "1" targetNeuronName = "7" weight = "-0.13443688527112174" />
    <synapse sourceNeuronName = "1" targetNeuronName = "8" weight = "0.15860312945327903" />
    <synapse sourceNeuronName = "1" targetNeuronName = "9" weight = "0.2792231825158409" />
    <synapse sourceNeuronName = "1" targetNeuronName = "10" weight = "-0.5844223672633089" />
    <synapse sourceNeuronName = "1" targetNeuronName = "11" weight = "0.7533887471547194" />
    <synapse sourceNeuronName = "1" targetNeuronName = "12" weight = "0.4054530828434355" />
    <synapse sourceNeuronName = "1" targetNeuronName = "13" weight = "-0.29513118902132107" />
    <synapse sourceNeuronName = "1" targetNeuronName = "14" weight = "0.11386246563329538" />
    <synapse sourceNeuronName = "1" targetNeuronName = "15" weight = "-0.49015296076812276" />
    <synapse sourceNeuronName = "1" targetNeuronName = "16" weight = "0.9899207036667483" />
    <synapse sourceNeuronName = "1" targetNeuronName = "17" weight = "0.004882859598426048" />
    <synapse sourceNeuronName = "2" targetNeuronName = "4" weight = "0.33136510629593974" />
    <synapse sourceNeuronName = "2" targetNeuronName = "5" weight = "-0.5056176381955444" />
    <synapse sourceNeuronName = "2" targetNeuronName = "6" weight = "0.9323699576253845" />
    <synapse sourceNeuronName = "2" targetNeuronName = "7" weight = "-0.061029342743991855" />
    <synapse sourceNeuronName = "2" targetNeuronName = "8" weight = "-0.009200301725566629" />
    <synapse sourceNeuronName = "2" targetNeuronName = "9" weight = "0.9043179895677442" />
    <synapse sourceNeuronName = "2" targetNeuronName = "10" weight = "0.7886321292046801" />
    <synapse sourceNeuronName = "2" targetNeuronName = "11" weight = "-0.31390068410331473" />
    <synapse sourceNeuronName = "2" targetNeuronName = "12" weight = "0.35995562759564104" />
    <synapse sourceNeuronName = "2" targetNeuronName = "13" weight = "0.7867014246317008" />
    <synapse sourceNeuronName = "2" targetNeuronName = "14" weight = "-0.00013603338159118294" />
    <synapse sourceNeuronName = "2" targetNeuronName = "15" weight = "-0.4910291703358851" />
    <synapse sourceNeuronName = "2" targetNeuronName = "16" weight = "0.7707807991062934" />
    <synapse sourceNeuronName = "2" targetNeuronName = "17" weight = "0.9411542647086344" />
    <synapse sourceNeuronName = "3" targetNeuronName = "4" weight = "0.6943412841063141" />
    <synapse sourceNeuronName = "3" targetNeuronName = "5" weight = "0.5381137843621482" />
    <synapse sourceNeuronName = "3" targetNeuronName = "6" weight = "0.8629201819661194" />
    <synapse sourceNeuronName = "3" targetNeuronName = "7" weight = "-0.1673610101760521" />
    <synapse sourceNeuronName = "3" targetNeuronName = "8" weight = "0.9962669726655373" />
    <synapse sourceNeuronName = "3" targetNeuronName = "9" weight = "-0.31408255757334413" />
    <synapse sourceNeuronName = "3" targetNeuronName = "10" weight = "0.5119086821662455" />
    <synapse sourceNeuronName = "3" targetNeuronName = "11" weight = "-0.01931866294973905" />
    <synapse sourceNeuronName = "3" targetNeuronName = "12" weight = "-0.6276938699786103" />
    <synapse sourceNeuronName = "3" targetNeuronName = "13" weight = "-0.5791891288627316" />
    <synapse sourceNeuronName = "3" targetNeuronName = "14" weight = "-0.09770212361073538" />
    <synapse sourceNeuronName = "3" targetNeuronName = "15" weight = "-0.23257972258082593" />
    <synapse sourceNeuronName = "3" targetNeuronName = "16" weight = "-0.7693832226795667" />
    <synapse sourceNeuronName = "3" targetNeuronName = "17" weight = "-0.01991122594643535" />
</neuralNetwork>