<neuralNetwork>
    <neuron name = "0" type = "sensor" linkName = "Link2" />
    <neuron name = "1" type = "sensor" linkName = "Link3" />
    <neuron name = "2" type = "sensor" linkName = "Link5" />
    <neuron name = "3" type = "sensor" linkName = "Link7" />
    <neuron name = "4" type = "motor"  jointName = "Link0_Cube00" />
    <neuron name = "5" type = "motor"  jointName = "Cube00_Link1" />
    <neuron name = "6" type = "motor"  jointName = "Link0_Link2" />
    <neuron name = "7" type = "motor"  jointName = "Link2_Cube02" />
    <neuron name = "8" type = "motor"  jointName = "Cube02_Cube12" />
    <neuron name = "9" type = "motor"  jointName = "Cube12_Link3" />
    <neuron name = "10" type = "motor"  jointName = "Link2_Cube03" />
    <neuron name = "11" type = "motor"  jointName = "Cube03_Link4" />
    <neuron name = "12" type = "motor"  jointName = "Link4_Link5" />
    <neuron name = "13" type = "motor"  jointName = "Link0_Link6" />
    <neuron name = "14" type = "motor"  jointName = "Link4_Cube06" />
    <neuron name = "15" type = "motor"  jointName = "Cube06_Link7" />
    <neuron name = "16" type = "motor"  jointName = "Link6_Cube07" />
    <neuron name = "17" type = "motor"  jointName = "Cube07_Link8" />
    <synapse sourceNeuronName = "0" targetNeuronName = "4" weight = "-0.840254803936181" />
    <synapse sourceNeuronName = "0" targetNeuronName = "5" weight = "0.5243383455070711" />
    <synapse sourceNeuronName = "0" targetNeuronName = "6" weight = "0.8792777972971284" />
    <synapse sourceNeuronName = "0" targetNeuronName = "7" weight = "0.1968484682877687" />
    <synapse sourceNeuronName = "0" targetNeuronName = "8" weight = "-0.2265255891479636" />
    <synapse sourceNeuronName = "0" targetNeuronName = "9" weight = "-0.5250728360168182" />
    <synapse sourceNeuronName = "0" targetNeuronName = "10" weight = "-0.5070583309884673" />
    <synapse sourceNeuronName = "0" targetNeuronName = "11" weight = "0.6120154896392986" />
    <synapse sourceNeuronName = "0" targetNeuronName = "12" weight = "-0.02696203429488664" />
    <synapse sourceNeuronName = "0" targetNeuronName = "13" weight = "0.09161909379388877" />
    <synapse sourceNeuronName = "0" targetNeuronName = "14" weight = "-0.37989464519452354" />
    <synapse sourceNeuronName = "0" targetNeuronName = "15" weight = "-0.761006074081948" />
    <synapse sourceNeuronName = "0" targetNeuronName = "16" weight = "0.32238718303724956" />
    <synapse sourceNeuronName = "0" targetNeuronName = "17" weight = "-0.6254312422725854" />
    <synapse sourceNeuronName = "1" targetNeuronName = "4" weight = "-0.8544133460027759" />
    <synapse sourceNeuronName = "1" targetNeuronName = "5" weight = "-0.5104753406105713" />
    <synapse sourceNeuronName = "1" targetNeuronName = "6" weight = "-0.6298459143908395" />
    <synapse sourceNeuronName = "1" targetNeuronName = "7" weight = "-0.023673252486978935" />
    <synapse sourceNeuronName = "1" targetNeuronName = "8" weight = "-0.23470818222281786" />
    <synapse sourceNeuronName = "1" targetNeuronName = "9" weight = "-0.4164158010760375" />
    <synapse sourceNeuronName = "1" targetNeuronName = "10" weight = "-0.0076239937342266195" />
    <synapse sourceNeuronName = "1" targetNeuronName = "11" weight = "0.9818188648963797" />
    <synapse sourceNeuronName = "1" targetNeuronName = "12" weight = "-0.48312916988840526" />
    <synapse sourceNeuronName = "1" targetNeuronName = "13" weight = "-0.8059898272790975" />
    <synapse sourceNeuronName = "1" targetNeuronName = "14" weight = "-0.33087674393774646" />
    <synapse sourceNeuronName = "1" targetNeuronName = "15" weight = "-0.9516221806461969" />
    <synapse sourceNeuronName = "1" targetNeuronName = "16" weight = "-0.15854267051998527" />
    <synapse sourceNeuronName = "1" targetNeuronName = "17" weight = "-0.8314576555308506" />
    <synapse sourceNeuronName = "2" targetNeuronName = "4" weight = "-0.7851642460783335" />
    <synapse sourceNeuronName = "2" targetNeuronName = "5" weight = "-0.08305025070173233" />
    <synapse sourceNeuronName = "2" targetNeuronName = "6" weight = "0.4930241680510914" />
    <synapse sourceNeuronName = "2" targetNeuronName = "7" weight = "-0.5288595487167633" />
    <synapse sourceNeuronName = "2" targetNeuronName = "8" weight = "0.6024614914120474" />
    <synapse sourceNeuronName = "2" targetNeuronName = "9" weight = "-0.8369954124164933" />
    <synapse sourceNeuronName = "2" targetNeuronName = "10" weight = "0.8200942815237149" />
    <synapse sourceNeuronName = "2" targetNeuronName = "11" weight = "0.5272476664883785" />
    <synapse sourceNeuronName = "2" targetNeuronName = "12" weight = "-0.9073119514095984" />
    <synapse sourceNeuronName = "2" targetNeuronName = "13" weight = "0.7993336673072682" />
    <synapse sourceNeuronName = "2" targetNeuronName = "14" weight = "-0.3749108525028757" />
    <synapse sourceNeuronName = "2" targetNeuronName = "15" weight = "0.8559487184316001" />
    <synapse sourceNeuronName = "2" targetNeuronName = "16" weight = "-0.5435382710392571" />
    <synapse sourceNeuronName = "2" targetNeuronName = "17" weight = "0.4994782226565113" />
    <synapse sourceNeuronName = "3" targetNeuronName = "4" weight = "-0.0685037107766231" />
    <synapse sourceNeuronName = "3" targetNeuronName = "5" weight = "0.05868230980648326" />
    <synapse sourceNeuronName = "3" targetNeuronName = "6" weight = "-0.3020415353333341" />
    <synapse sourceNeuronName = "3" targetNeuronName = "7" weight = "-0.5734622248492893" />
    <synapse sourceNeuronName = "3" targetNeuronName = "8" weight = "0.14855896950063574" />
    <synapse sourceNeuronName = "3" targetNeuronName = "9" weight = "-0.5209294046014263" />
    <synapse sourceNeuronName = "3" targetNeuronName = "10" weight = "-0.9204538178748125" />
    <synapse sourceNeuronName = "3" targetNeuronName = "11" weight = "0.81885997122745" />
    <synapse sourceNeuronName = "3" targetNeuronName = "12" weight = "-0.396709606547869" />
    <synapse sourceNeuronName = "3" targetNeuronName = "13" weight = "-0.5275918977751912" />
    <synapse sourceNeuronName = "3" targetNeuronName = "14" weight = "0.24441926935941005" />
    <synapse sourceNeuronName = "3" targetNeuronName = "15" weight = "0.1654016779559444" />
    <synapse sourceNeuronName = "3" targetNeuronName = "16" weight = "0.3022198116067989" />
    <synapse sourceNeuronName = "3" targetNeuronName = "17" weight = "-0.13060832438475933" />
</neuralNetwork>