<neuralNetwork>
    <neuron name = "0" type = "sensor" linkName = "Link2" />
    <neuron name = "1" type = "sensor" linkName = "Link3" />
    <neuron name = "2" type = "sensor" linkName = "Link5" />
    <neuron name = "3" type = "sensor" linkName = "Link7" />
    <neuron name = "4" type = "motor"  jointName = "Link0_Cube00" />
    <neuron name = "5" type = "motor"  jointName = "Cube00_Link1" />
    <neuron name = "6" type = "motor"  jointName = "Link0_Link2" />
    <neuron name = "7" type = "motor"  jointName = "Link2_Cube02" />
    <neuron name = "8" type = "motor"  jointName = "Cube02_Cube12" />
    <neuron name = "9" type = "motor"  jointName = "Cube12_Link3" />
    <neuron name = "10" type = "motor"  jointName = "Link2_Cube03" />
    <neuron name = "11" type = "motor"  jointName = "Cube03_Link4" />
    <neuron name = "12" type = "motor"  jointName = "Link4_Link5" />
    <neuron name = "13" type = "motor"  jointName = "Link0_Link6" />
    <neuron name = "14" type = "motor"  jointName = "Link4_Cube06" />
    <neuron name = "15" type = "motor"  jointName = "Cube06_Link7" />
    <neuron name = "16" type = "motor"  jointName = "Link6_Cube07" />
    <neuron name = "17" type = "motor"  jointName = "Cube07_Link8" />
    <synapse sourceNeuronName = "0" targetNeuronName = "4" weight = "0.5432180304639225" />
    <synapse sourceNeuronName = "0" targetNeuronName = "5" weight = "-0.49383073769799113" />
    <synapse sourceNeuronName = "0" targetNeuronName = "6" weight = "0.7993097879464142" />
    <synapse sourceNeuronName = "0" targetNeuronName = "7" weight = "0.7513750827241641" />
    <synapse sourceNeuronName = "0" targetNeuronName = "8" weight = "-0.412775982445567" />
    <synapse sourceNeuronName = "0" targetNeuronName = "9" weight = "-0.7046490263617315" />
    <synapse sourceNeuronName = "0" targetNeuronName = "10" weight = "-0.972500068614327" />
    <synapse sourceNeuronName = "0" targetNeuronName = "11" weight = "0.481395682416754" />
    <synapse sourceNeuronName = "0" targetNeuronName = "12" weight = "0.9786316265734656" />
    <synapse sourceNeuronName = "0" targetNeuronName = "13" weight = "-0.033201859111999354" />
    <synapse sourceNeuronName = "0" targetNeuronName = "14" weight = "0.8956762204788078" />
    <synapse sourceNeuronName = "0" targetNeuronName = "15" weight = "0.5504178024117232" />
    <synapse sourceNeuronName = "0" targetNeuronName = "16" weight = "-0.4445277991247343" />
    <synapse sourceNeuronName = "0" targetNeuronName = "17" weight = "0.5580245699352768" />
    <synapse sourceNeuronName = "1" targetNeuronName = "4" weight = "-0.03820905751445003" />
    <synapse sourceNeuronName = "1" targetNeuronName = "5" weight = "-0.9230174180267676" />
    <synapse sourceNeuronName = "1" targetNeuronName = "6" weight = "-0.26732655163237173" />
    <synapse sourceNeuronName = "1" targetNeuronName = "7" weight = "-0.7913435490892646" />
    <synapse sourceNeuronName = "1" targetNeuronName = "8" weight = "-0.4863357004468243" />
    <synapse sourceNeuronName = "1" targetNeuronName = "9" weight = "-0.0006133209727814393" />
    <synapse sourceNeuronName = "1" targetNeuronName = "10" weight = "-0.4764643140176976" />
    <synapse sourceNeuronName = "1" targetNeuronName = "11" weight = "-0.20766600551869763" />
    <synapse sourceNeuronName = "1" targetNeuronName = "12" weight = "0.9518122982365691" />
    <synapse sourceNeuronName = "1" targetNeuronName = "13" weight = "-0.3234706773557461" />
    <synapse sourceNeuronName = "1" targetNeuronName = "14" weight = "-0.4323234903490334" />
    <synapse sourceNeuronName = "1" targetNeuronName = "15" weight = "0.7408772960437204" />
    <synapse sourceNeuronName = "1" targetNeuronName = "16" weight = "0.7165809416760252" />
    <synapse sourceNeuronName = "1" targetNeuronName = "17" weight = "0.29546617759889093" />
    <synapse sourceNeuronName = "2" targetNeuronName = "4" weight = "0.7884330304994729" />
    <synapse sourceNeuronName = "2" targetNeuronName = "5" weight = "-0.7240778713200076" />
    <synapse sourceNeuronName = "2" targetNeuronName = "6" weight = "0.7556061230897104" />
    <synapse sourceNeuronName = "2" targetNeuronName = "7" weight = "0.3954423878590885" />
    <synapse sourceNeuronName = "2" targetNeuronName = "8" weight = "-0.2713559087598809" />
    <synapse sourceNeuronName = "2" targetNeuronName = "9" weight = "0.23675027722257824" />
    <synapse sourceNeuronName = "2" targetNeuronName = "10" weight = "-0.08128533305815533" />
    <synapse sourceNeuronName = "2" targetNeuronName = "11" weight = "0.35094881725527194" />
    <synapse sourceNeuronName = "2" targetNeuronName = "12" weight = "0.1270564246778494" />
    <synapse sourceNeuronName = "2" targetNeuronName = "13" weight = "0.9008540986305482" />
    <synapse sourceNeuronName = "2" targetNeuronName = "14" weight = "0.4128633490512046" />
    <synapse sourceNeuronName = "2" targetNeuronName = "15" weight = "-0.3965721711659853" />
    <synapse sourceNeuronName = "2" targetNeuronName = "16" weight = "0.9265779523585775" />
    <synapse sourceNeuronName = "2" targetNeuronName = "17" weight = "-0.4694045246333731" />
    <synapse sourceNeuronName = "3" targetNeuronName = "4" weight = "-0.3021514303001531" />
    <synapse sourceNeuronName = "3" targetNeuronName = "5" weight = "-0.3164305125790101" />
    <synapse sourceNeuronName = "3" targetNeuronName = "6" weight = "0.062305596099153426" />
    <synapse sourceNeuronName = "3" targetNeuronName = "7" weight = "-0.633841837645057" />
    <synapse sourceNeuronName = "3" targetNeuronName = "8" weight = "0.3669010006719675" />
    <synapse sourceNeuronName = "3" targetNeuronName = "9" weight = "0.03627470106963959" />
    <synapse sourceNeuronName = "3" targetNeuronName = "10" weight = "-0.9477157741655304" />
    <synapse sourceNeuronName = "3" targetNeuronName = "11" weight = "-0.9438111443862247" />
    <synapse sourceNeuronName = "3" targetNeuronName = "12" weight = "0.874960960990335" />
    <synapse sourceNeuronName = "3" targetNeuronName = "13" weight = "0.15823982954549387" />
    <synapse sourceNeuronName = "3" targetNeuronName = "14" weight = "-0.8442687895423562" />
    <synapse sourceNeuronName = "3" targetNeuronName = "15" weight = "0.9073586392133337" />
    <synapse sourceNeuronName = "3" targetNeuronName = "16" weight = "0.6110992731633447" />
    <synapse sourceNeuronName = "3" targetNeuronName = "17" weight = "0.6497506640121842" />
</neuralNetwork>