<neuralNetwork>
    <neuron name = "0" type = "sensor" linkName = "Link2" />
    <neuron name = "1" type = "sensor" linkName = "Link3" />
    <neuron name = "2" type = "sensor" linkName = "Link5" />
    <neuron name = "3" type = "sensor" linkName = "Link7" />
    <neuron name = "4" type = "motor"  jointName = "Link0_Cube00" />
    <neuron name = "5" type = "motor"  jointName = "Cube00_Link1" />
    <neuron name = "6" type = "motor"  jointName = "Link0_Link2" />
    <neuron name = "7" type = "motor"  jointName = "Link2_Cube02" />
    <neuron name = "8" type = "motor"  jointName = "Cube02_Cube12" />
    <neuron name = "9" type = "motor"  jointName = "Cube12_Link3" />
    <neuron name = "10" type = "motor"  jointName = "Link2_Cube03" />
    <neuron name = "11" type = "motor"  jointName = "Cube03_Link4" />
    <neuron name = "12" type = "motor"  jointName = "Link4_Link5" />
    <neuron name = "13" type = "motor"  jointName = "Link0_Link6" />
    <neuron name = "14" type = "motor"  jointName = "Link4_Cube06" />
    <neuron name = "15" type = "motor"  jointName = "Cube06_Link7" />
    <neuron name = "16" type = "motor"  jointName = "Link6_Cube07" />
    <neuron name = "17" type = "motor"  jointName = "Cube07_Link8" />
    <synapse sourceNeuronName = "0" targetNeuronName = "4" weight = "-0.9066019693073983" />
    <synapse sourceNeuronName = "0" targetNeuronName = "5" weight = "-0.17507390749721585" />
    <synapse sourceNeuronName = "0" targetNeuronName = "6" weight = "0.34952779148230984" />
    <synapse sourceNeuronName = "0" targetNeuronName = "7" weight = "-0.2125087841612363" />
    <synapse sourceNeuronName = "0" targetNeuronName = "8" weight = "0.2260819152061695" />
    <synapse sourceNeuronName = "0" targetNeuronName = "9" weight = "0.7741042325412493" />
    <synapse sourceNeuronName = "0" targetNeuronName = "10" weight = "0.1858857376540135" />
    <synapse sourceNeuronName = "0" targetNeuronName = "11" weight = "0.5590634071160723" />
    <synapse sourceNeuronName = "0" targetNeuronName = "12" weight = "0.19189305326653328" />
    <synapse sourceNeuronName = "0" targetNeuronName = "13" weight = "0.9249217539705357" />
    <synapse sourceNeuronName = "0" targetNeuronName = "14" weight = "0.31296415593076987" />
    <synapse sourceNeuronName = "0" targetNeuronName = "15" weight = "0.3992634506412984" />
    <synapse sourceNeuronName = "0" targetNeuronName = "16" weight = "-0.1696039628619559" />
    <synapse sourceNeuronName = "0" targetNeuronName = "17" weight = "0.28094201077500713" />
    <synapse sourceNeuronName = "1" targetNeuronName = "4" weight = "0.3001482298400444" />
    <synapse sourceNeuronName = "1" targetNeuronName = "5" weight = "0.03151992319888608" />
    <synapse sourceNeuronName = "1" targetNeuronName = "6" weight = "-0.8039369529177398" />
    <synapse sourceNeuronName = "1" targetNeuronName = "7" weight = "0.38977611480107033" />
    <synapse sourceNeuronName = "1" targetNeuronName = "8" weight = "-0.10255355376991449" />
    <synapse sourceNeuronName = "1" targetNeuronName = "9" weight = "0.47098512618233546" />
    <synapse sourceNeuronName = "1" targetNeuronName = "10" weight = "0.031430776030708873" />
    <synapse sourceNeuronName = "1" targetNeuronName = "11" weight = "0.12209792718467427" />
    <synapse sourceNeuronName = "1" targetNeuronName = "12" weight = "0.1654189289641934" />
    <synapse sourceNeuronName = "1" targetNeuronName = "13" weight = "-0.9271741479095237" />
    <synapse sourceNeuronName = "1" targetNeuronName = "14" weight = "0.02591695055665011" />
    <synapse sourceNeuronName = "1" targetNeuronName = "15" weight = "0.8308037576536123" />
    <synapse sourceNeuronName = "1" targetNeuronName = "16" weight = "0.7877418541736072" />
    <synapse sourceNeuronName = "1" targetNeuronName = "17" weight = "-0.5793432720476814" />
    <synapse sourceNeuronName = "2" targetNeuronName = "4" weight = "-0.32715328027056123" />
    <synapse sourceNeuronName = "2" targetNeuronName = "5" weight = "0.6220686027692048" />
    <synapse sourceNeuronName = "2" targetNeuronName = "6" weight = "0.10692413031762227" />
    <synapse sourceNeuronName = "2" targetNeuronName = "7" weight = "0.32151128092298276" />
    <synapse sourceNeuronName = "2" targetNeuronName = "8" weight = "0.4389685086836872" />
    <synapse sourceNeuronName = "2" targetNeuronName = "9" weight = "0.9863496795710718" />
    <synapse sourceNeuronName = "2" targetNeuronName = "10" weight = "-0.8856232225550336" />
    <synapse sourceNeuronName = "2" targetNeuronName = "11" weight = "0.09334827330755302" />
    <synapse sourceNeuronName = "2" targetNeuronName = "12" weight = "-0.4296840907849242" />
    <synapse sourceNeuronName = "2" targetNeuronName = "13" weight = "0.9028657839348555" />
    <synapse sourceNeuronName = "2" targetNeuronName = "14" weight = "-0.11681755141822436" />
    <synapse sourceNeuronName = "2" targetNeuronName = "15" weight = "-0.3950076339428856" />
    <synapse sourceNeuronName = "2" targetNeuronName = "16" weight = "-0.0678243408563799" />
    <synapse sourceNeuronName = "2" targetNeuronName = "17" weight = "0.37648135606567545" />
    <synapse sourceNeuronName = "3" targetNeuronName = "4" weight = "-0.9702647945402456" />
    <synapse sourceNeuronName = "3" targetNeuronName = "5" weight = "0.6014681776058723" />
    <synapse sourceNeuronName = "3" targetNeuronName = "6" weight = "0.34486624154813184" />
    <synapse sourceNeuronName = "3" targetNeuronName = "7" weight = "0.5299805715326187" />
    <synapse sourceNeuronName = "3" targetNeuronName = "8" weight = "-0.9984377182347963" />
    <synapse sourceNeuronName = "3" targetNeuronName = "9" weight = "-0.6243302036957576" />
    <synapse sourceNeuronName = "3" targetNeuronName = "10" weight = "0.14386033974624635" />
    <synapse sourceNeuronName = "3" targetNeuronName = "11" weight = "-0.9920225079233267" />
    <synapse sourceNeuronName = "3" targetNeuronName = "12" weight = "-0.46351797141309903" />
    <synapse sourceNeuronName = "3" targetNeuronName = "13" weight = "0.07861427222015105" />
    <synapse sourceNeuronName = "3" targetNeuronName = "14" weight = "-0.06652567436837598" />
    <synapse sourceNeuronName = "3" targetNeuronName = "15" weight = "0.40030404828774646" />
    <synapse sourceNeuronName = "3" targetNeuronName = "16" weight = "-0.6701356644562007" />
    <synapse sourceNeuronName = "3" targetNeuronName = "17" weight = "0.9101402278940005" />
</neuralNetwork>