<neuralNetwork>
    <neuron name = "0" type = "sensor" linkName = "Link1" />
    <neuron name = "1" type = "sensor" linkName = "Link7" />
    <neuron name = "2" type = "motor"  jointName = "Link0_Cube00" />
    <neuron name = "3" type = "motor"  jointName = "Cube00_Cube10" />
    <neuron name = "4" type = "motor"  jointName = "Cube10_Link1" />
    <neuron name = "5" type = "motor"  jointName = "Link0_Cube01" />
    <neuron name = "6" type = "motor"  jointName = "Cube01_Link2" />
    <neuron name = "7" type = "motor"  jointName = "Link1_Cube02" />
    <neuron name = "8" type = "motor"  jointName = "Cube02_Link3" />
    <neuron name = "9" type = "motor"  jointName = "Link0_Cube03" />
    <neuron name = "10" type = "motor"  jointName = "Cube03_Cube13" />
    <neuron name = "11" type = "motor"  jointName = "Cube13_Link4" />
    <neuron name = "12" type = "motor"  jointName = "Link3_Link5" />
    <neuron name = "13" type = "motor"  jointName = "Link3_Link6" />
    <neuron name = "14" type = "motor"  jointName = "Link3_Cube06" />
    <neuron name = "15" type = "motor"  jointName = "Cube06_Link7" />
    <synapse sourceNeuronName = "0" targetNeuronName = "2" weight = "-0.678091000460419" />
    <synapse sourceNeuronName = "0" targetNeuronName = "3" weight = "-0.4085855844239541" />
    <synapse sourceNeuronName = "0" targetNeuronName = "4" weight = "-0.010726865346555758" />
    <synapse sourceNeuronName = "0" targetNeuronName = "5" weight = "-0.6375637541332551" />
    <synapse sourceNeuronName = "0" targetNeuronName = "6" weight = "0.2245270793404306" />
    <synapse sourceNeuronName = "0" targetNeuronName = "7" weight = "0.65961008426713" />
    <synapse sourceNeuronName = "0" targetNeuronName = "8" weight = "0.7992023545670877" />
    <synapse sourceNeuronName = "0" targetNeuronName = "9" weight = "-0.9624665645450112" />
    <synapse sourceNeuronName = "0" targetNeuronName = "10" weight = "-0.36186777051980545" />
    <synapse sourceNeuronName = "0" targetNeuronName = "11" weight = "-0.5542776354864911" />
    <synapse sourceNeuronName = "0" targetNeuronName = "12" weight = "-0.8759680479591694" />
    <synapse sourceNeuronName = "0" targetNeuronName = "13" weight = "0.3451645535187011" />
    <synapse sourceNeuronName = "0" targetNeuronName = "14" weight = "0.6023049428850311" />
    <synapse sourceNeuronName = "0" targetNeuronName = "15" weight = "0.6798623553770067" />
    <synapse sourceNeuronName = "1" targetNeuronName = "2" weight = "0.9577246325703339" />
    <synapse sourceNeuronName = "1" targetNeuronName = "3" weight = "-0.5960740539404799" />
    <synapse sourceNeuronName = "1" targetNeuronName = "4" weight = "0.42713410623401904" />
    <synapse sourceNeuronName = "1" targetNeuronName = "5" weight = "-0.7555241256929863" />
    <synapse sourceNeuronName = "1" targetNeuronName = "6" weight = "0.4612154143658467" />
    <synapse sourceNeuronName = "1" targetNeuronName = "7" weight = "-0.008134256248221394" />
    <synapse sourceNeuronName = "1" targetNeuronName = "8" weight = "-0.091780668634037" />
    <synapse sourceNeuronName = "1" targetNeuronName = "9" weight = "-0.41101157401687494" />
    <synapse sourceNeuronName = "1" targetNeuronName = "10" weight = "0.856422720420752" />
    <synapse sourceNeuronName = "1" targetNeuronName = "11" weight = "0.5817614222278653" />
    <synapse sourceNeuronName = "1" targetNeuronName = "12" weight = "0.028166605194227756" />
    <synapse sourceNeuronName = "1" targetNeuronName = "13" weight = "0.29743011249270346" />
    <synapse sourceNeuronName = "1" targetNeuronName = "14" weight = "0.7000984842284572" />
    <synapse sourceNeuronName = "1" targetNeuronName = "15" weight = "0.13728661081634774" />
</neuralNetwork>