<neuralNetwork>
    <neuron name = "0" type = "sensor" linkName = "Link0" />
    <neuron name = "1" type = "sensor" linkName = "Link1" />
    <neuron name = "2" type = "sensor" linkName = "Link4" />
    <neuron name = "3" type = "sensor" linkName = "Link7" />
    <neuron name = "4" type = "motor"  jointName = "Link0_Cube00" />
    <neuron name = "5" type = "motor"  jointName = "Cube00_Cube10" />
    <neuron name = "6" type = "motor"  jointName = "Cube10_Link1" />
    <neuron name = "7" type = "motor"  jointName = "Link0_Cube01" />
    <neuron name = "8" type = "motor"  jointName = "Cube01_Cube11" />
    <neuron name = "9" type = "motor"  jointName = "Cube11_Link2" />
    <neuron name = "10" type = "motor"  jointName = "Link2_Cube02" />
    <neuron name = "11" type = "motor"  jointName = "Cube02_Cube12" />
    <neuron name = "12" type = "motor"  jointName = "Cube12_Link3" />
    <neuron name = "13" type = "motor"  jointName = "Link1_Cube03" />
    <neuron name = "14" type = "motor"  jointName = "Cube03_Cube13" />
    <neuron name = "15" type = "motor"  jointName = "Cube13_Link4" />
    <neuron name = "16" type = "motor"  jointName = "Link2_Cube04" />
    <neuron name = "17" type = "motor"  jointName = "Cube04_Link5" />
    <neuron name = "18" type = "motor"  jointName = "Link3_Cube05" />
    <neuron name = "19" type = "motor"  jointName = "Cube05_Cube15" />
    <neuron name = "20" type = "motor"  jointName = "Cube15_Link6" />
    <neuron name = "21" type = "motor"  jointName = "Link2_Cube06" />
    <neuron name = "22" type = "motor"  jointName = "Cube06_Cube16" />
    <neuron name = "23" type = "motor"  jointName = "Cube16_Link7" />
    <synapse sourceNeuronName = "0" targetNeuronName = "4" weight = "-0.8769271928837035" />
    <synapse sourceNeuronName = "0" targetNeuronName = "5" weight = "0.647505353061707" />
    <synapse sourceNeuronName = "0" targetNeuronName = "6" weight = "0.7305732141997583" />
    <synapse sourceNeuronName = "0" targetNeuronName = "7" weight = "0.19760298168309332" />
    <synapse sourceNeuronName = "0" targetNeuronName = "8" weight = "0.9219033874015161" />
    <synapse sourceNeuronName = "0" targetNeuronName = "9" weight = "0.924503168528467" />
    <synapse sourceNeuronName = "0" targetNeuronName = "10" weight = "-0.17890700949832716" />
    <synapse sourceNeuronName = "0" targetNeuronName = "11" weight = "0.27159935153313675" />
    <synapse sourceNeuronName = "0" targetNeuronName = "12" weight = "-0.18970243469397485" />
    <synapse sourceNeuronName = "0" targetNeuronName = "13" weight = "-0.7958059044173575" />
    <synapse sourceNeuronName = "0" targetNeuronName = "14" weight = "0.4810402846792341" />
    <synapse sourceNeuronName = "0" targetNeuronName = "15" weight = "-0.839759076473048" />
    <synapse sourceNeuronName = "0" targetNeuronName = "16" weight = "0.43074358960495696" />
    <synapse sourceNeuronName = "0" targetNeuronName = "17" weight = "-0.5323580397020171" />
    <synapse sourceNeuronName = "0" targetNeuronName = "18" weight = "-0.7493064726701988" />
    <synapse sourceNeuronName = "0" targetNeuronName = "19" weight = "0.21283332452799186" />
    <synapse sourceNeuronName = "0" targetNeuronName = "20" weight = "0.9612667928250522" />
    <synapse sourceNeuronName = "0" targetNeuronName = "21" weight = "0.6602244508608652" />
    <synapse sourceNeuronName = "0" targetNeuronName = "22" weight = "0.2297939988408635" />
    <synapse sourceNeuronName = "0" targetNeuronName = "23" weight = "0.5354764301639883" />
    <synapse sourceNeuronName = "1" targetNeuronName = "4" weight = "0.23554322169330844" />
    <synapse sourceNeuronName = "1" targetNeuronName = "5" weight = "-0.7488636373148119" />
    <synapse sourceNeuronName = "1" targetNeuronName = "6" weight = "-0.04840710098027046" />
    <synapse sourceNeuronName = "1" targetNeuronName = "7" weight = "-0.8688546840674971" />
    <synapse sourceNeuronName = "1" targetNeuronName = "8" weight = "0.53865140424318" />
    <synapse sourceNeuronName = "1" targetNeuronName = "9" weight = "-0.12849471317859007" />
    <synapse sourceNeuronName = "1" targetNeuronName = "10" weight = "-0.8208003338581591" />
    <synapse sourceNeuronName = "1" targetNeuronName = "11" weight = "-0.9023490000370853" />
    <synapse sourceNeuronName = "1" targetNeuronName = "12" weight = "0.10248054496347514" />
    <synapse sourceNeuronName = "1" targetNeuronName = "13" weight = "0.7230752573333918" />
    <synapse sourceNeuronName = "1" targetNeuronName = "14" weight = "-0.13752387402331023" />
    <synapse sourceNeuronName = "1" targetNeuronName = "15" weight = "-0.24028703911618177" />
    <synapse sourceNeuronName = "1" targetNeuronName = "16" weight = "-0.37120481116482384" />
    <synapse sourceNeuronName = "1" targetNeuronName = "17" weight = "-0.26440572530837736" />
    <synapse sourceNeuronName = "1" targetNeuronName = "18" weight = "-0.5945161864463884" />
    <synapse sourceNeuronName = "1" targetNeuronName = "19" weight = "0.7170604233046747" />
    <synapse sourceNeuronName = "1" targetNeuronName = "20" weight = "-0.12212273688542519" />
    <synapse sourceNeuronName = "1" targetNeuronName = "21" weight = "0.07334847950393275" />
    <synapse sourceNeuronName = "1" targetNeuronName = "22" weight = "0.7219016708638766" />
    <synapse sourceNeuronName = "1" targetNeuronName = "23" weight = "-0.26302410059870573" />
    <synapse sourceNeuronName = "2" targetNeuronName = "4" weight = "0.3912453496730415" />
    <synapse sourceNeuronName = "2" targetNeuronName = "5" weight = "-0.39939975219154933" />
    <synapse sourceNeuronName = "2" targetNeuronName = "6" weight = "-0.3319386260121655" />
    <synapse sourceNeuronName = "2" targetNeuronName = "7" weight = "0.4167682278132885" />
    <synapse sourceNeuronName = "2" targetNeuronName = "8" weight = "0.3011564295951408" />
    <synapse sourceNeuronName = "2" targetNeuronName = "9" weight = "-0.9472161674287087" />
    <synapse sourceNeuronName = "2" targetNeuronName = "10" weight = "-0.9881184723784975" />
    <synapse sourceNeuronName = "2" targetNeuronName = "11" weight = "-0.9255252719324112" />
    <synapse sourceNeuronName = "2" targetNeuronName = "12" weight = "0.020163841026535012" />
    <synapse sourceNeuronName = "2" targetNeuronName = "13" weight = "-0.18352482679042592" />
    <synapse sourceNeuronName = "2" targetNeuronName = "14" weight = "0.07969015221148501" />
    <synapse sourceNeuronName = "2" targetNeuronName = "15" weight = "-0.7864334788749965" />
    <synapse sourceNeuronName = "2" targetNeuronName = "16" weight = "0.25688932166192013" />
    <synapse sourceNeuronName = "2" targetNeuronName = "17" weight = "-0.6831583895333893" />
    <synapse sourceNeuronName = "2" targetNeuronName = "18" weight = "0.5714420631575556" />
    <synapse sourceNeuronName = "2" targetNeuronName = "19" weight = "0.9936210141716866" />
    <synapse sourceNeuronName = "2" targetNeuronName = "20" weight = "0.42498007435602525" />
    <synapse sourceNeuronName = "2" targetNeuronName = "21" weight = "0.3781186675763557" />
    <synapse sourceNeuronName = "2" targetNeuronName = "22" weight = "0.33923467505875116" />
    <synapse sourceNeuronName = "2" targetNeuronName = "23" weight = "-0.993031615763952" />
    <synapse sourceNeuronName = "3" targetNeuronName = "4" weight = "-0.5315316967869037" />
    <synapse sourceNeuronName = "3" targetNeuronName = "5" weight = "0.26517533530757853" />
    <synapse sourceNeuronName = "3" targetNeuronName = "6" weight = "-0.04570966186669656" />
    <synapse sourceNeuronName = "3" targetNeuronName = "7" weight = "0.3402609603111191" />
    <synapse sourceNeuronName = "3" targetNeuronName = "8" weight = "0.827504935634892" />
    <synapse sourceNeuronName = "3" targetNeuronName = "9" weight = "0.3567393581196341" />
    <synapse sourceNeuronName = "3" targetNeuronName = "10" weight = "-0.3819538874153172" />
    <synapse sourceNeuronName = "3" targetNeuronName = "11" weight = "0.2594802830267602" />
    <synapse sourceNeuronName = "3" targetNeuronName = "12" weight = "-0.6155578879386872" />
    <synapse sourceNeuronName = "3" targetNeuronName = "13" weight = "-0.8024303258353331" />
    <synapse sourceNeuronName = "3" targetNeuronName = "14" weight = "-0.799947285178157" />
    <synapse sourceNeuronName = "3" targetNeuronName = "15" weight = "0.20914944840010286" />
    <synapse sourceNeuronName = "3" targetNeuronName = "16" weight = "-0.3560502401413601" />
    <synapse sourceNeuronName = "3" targetNeuronName = "17" weight = "-0.27161562703039266" />
    <synapse sourceNeuronName = "3" targetNeuronName = "18" weight = "-0.7603201129465478" />
    <synapse sourceNeuronName = "3" targetNeuronName = "19" weight = "-0.49479970707230425" />
    <synapse sourceNeuronName = "3" targetNeuronName = "20" weight = "0.687805083485848" />
    <synapse sourceNeuronName = "3" targetNeuronName = "21" weight = "-0.34532664940789903" />
    <synapse sourceNeuronName = "3" targetNeuronName = "22" weight = "-0.6288166662020711" />
    <synapse sourceNeuronName = "3" targetNeuronName = "23" weight = "0.4181452970431365" />
</neuralNetwork>