<neuralNetwork>
    <neuron name = "0" type = "sensor" linkName = "Link1" />
    <neuron name = "1" type = "sensor" linkName = "Link7" />
    <neuron name = "2" type = "motor"  jointName = "Link0_Cube00" />
    <neuron name = "3" type = "motor"  jointName = "Cube00_Cube10" />
    <neuron name = "4" type = "motor"  jointName = "Cube10_Link1" />
    <neuron name = "5" type = "motor"  jointName = "Link0_Cube01" />
    <neuron name = "6" type = "motor"  jointName = "Cube01_Link2" />
    <neuron name = "7" type = "motor"  jointName = "Link2_Cube02" />
    <neuron name = "8" type = "motor"  jointName = "Cube02_Link3" />
    <neuron name = "9" type = "motor"  jointName = "Link2_Cube03" />
    <neuron name = "10" type = "motor"  jointName = "Cube03_Cube13" />
    <neuron name = "11" type = "motor"  jointName = "Cube13_Link4" />
    <neuron name = "12" type = "motor"  jointName = "Link3_Link5" />
    <neuron name = "13" type = "motor"  jointName = "Link5_Link6" />
    <neuron name = "14" type = "motor"  jointName = "Link2_Cube06" />
    <neuron name = "15" type = "motor"  jointName = "Cube06_Link7" />
    <synapse sourceNeuronName = "0" targetNeuronName = "2" weight = "-0.8193284229709965" />
    <synapse sourceNeuronName = "0" targetNeuronName = "3" weight = "-0.13569502731454652" />
    <synapse sourceNeuronName = "0" targetNeuronName = "4" weight = "-0.7783953933440184" />
    <synapse sourceNeuronName = "0" targetNeuronName = "5" weight = "-0.5524902406172882" />
    <synapse sourceNeuronName = "0" targetNeuronName = "6" weight = "0.5872974310437673" />
    <synapse sourceNeuronName = "0" targetNeuronName = "7" weight = "0.8941499182012924" />
    <synapse sourceNeuronName = "0" targetNeuronName = "8" weight = "-0.13085721516383297" />
    <synapse sourceNeuronName = "0" targetNeuronName = "9" weight = "-0.05223608471021435" />
    <synapse sourceNeuronName = "0" targetNeuronName = "10" weight = "0.9659190814758825" />
    <synapse sourceNeuronName = "0" targetNeuronName = "11" weight = "-0.6463005500270369" />
    <synapse sourceNeuronName = "0" targetNeuronName = "12" weight = "0.6636864744949478" />
    <synapse sourceNeuronName = "0" targetNeuronName = "13" weight = "-0.3229098300696922" />
    <synapse sourceNeuronName = "0" targetNeuronName = "14" weight = "0.8721644461520097" />
    <synapse sourceNeuronName = "0" targetNeuronName = "15" weight = "-0.827160833926146" />
    <synapse sourceNeuronName = "1" targetNeuronName = "2" weight = "-0.5471673222763749" />
    <synapse sourceNeuronName = "1" targetNeuronName = "3" weight = "-0.9008943051154341" />
    <synapse sourceNeuronName = "1" targetNeuronName = "4" weight = "-0.09102704185349508" />
    <synapse sourceNeuronName = "1" targetNeuronName = "5" weight = "0.11578935541198732" />
    <synapse sourceNeuronName = "1" targetNeuronName = "6" weight = "0.24848496297953915" />
    <synapse sourceNeuronName = "1" targetNeuronName = "7" weight = "-0.8767161346826675" />
    <synapse sourceNeuronName = "1" targetNeuronName = "8" weight = "0.9958017089437161" />
    <synapse sourceNeuronName = "1" targetNeuronName = "9" weight = "0.47617743457045814" />
    <synapse sourceNeuronName = "1" targetNeuronName = "10" weight = "0.19856702881214816" />
    <synapse sourceNeuronName = "1" targetNeuronName = "11" weight = "-0.1331643500332036" />
    <synapse sourceNeuronName = "1" targetNeuronName = "12" weight = "0.8722351639034525" />
    <synapse sourceNeuronName = "1" targetNeuronName = "13" weight = "0.2676718590017477" />
    <synapse sourceNeuronName = "1" targetNeuronName = "14" weight = "-0.06587773951119158" />
    <synapse sourceNeuronName = "1" targetNeuronName = "15" weight = "-0.362975586031022" />
</neuralNetwork>