<neuralNetwork>
    <neuron name = "0" type = "sensor" linkName = "Link2" />
    <neuron name = "1" type = "sensor" linkName = "Link3" />
    <neuron name = "2" type = "sensor" linkName = "Link4" />
    <neuron name = "3" type = "sensor" linkName = "Link5" />
    <neuron name = "4" type = "sensor" linkName = "Link6" />
    <neuron name = "5" type = "motor"  jointName = "Link0_Link1" />
    <neuron name = "6" type = "motor"  jointName = "Link0_Link2" />
    <neuron name = "7" type = "motor"  jointName = "Link1_Link3" />
    <neuron name = "8" type = "motor"  jointName = "Link2_Cube03" />
    <neuron name = "9" type = "motor"  jointName = "Cube03_Link4" />
    <neuron name = "10" type = "motor"  jointName = "Link0_Cube04" />
    <neuron name = "11" type = "motor"  jointName = "Cube04_Link5" />
    <neuron name = "12" type = "motor"  jointName = "Link4_Cube05" />
    <neuron name = "13" type = "motor"  jointName = "Cube05_Cube15" />
    <neuron name = "14" type = "motor"  jointName = "Cube15_Link6" />
    <neuron name = "15" type = "motor"  jointName = "Link5_Cube06" />
    <neuron name = "16" type = "motor"  jointName = "Cube06_Link7" />
    <synapse sourceNeuronName = "0" targetNeuronName = "5" weight = "-0.657899802391247" />
    <synapse sourceNeuronName = "0" targetNeuronName = "6" weight = "0.25410411762578455" />
    <synapse sourceNeuronName = "0" targetNeuronName = "7" weight = "0.052462934302644815" />
    <synapse sourceNeuronName = "0" targetNeuronName = "8" weight = "-0.5970945299068249" />
    <synapse sourceNeuronName = "0" targetNeuronName = "9" weight = "0.08101517693393401" />
    <synapse sourceNeuronName = "0" targetNeuronName = "10" weight = "0.13391396497076857" />
    <synapse sourceNeuronName = "0" targetNeuronName = "11" weight = "0.23055540514389805" />
    <synapse sourceNeuronName = "0" targetNeuronName = "12" weight = "0.6023033936967186" />
    <synapse sourceNeuronName = "0" targetNeuronName = "13" weight = "0.5773480495099788" />
    <synapse sourceNeuronName = "0" targetNeuronName = "14" weight = "0.18512383586587622" />
    <synapse sourceNeuronName = "0" targetNeuronName = "15" weight = "0.5400679131527042" />
    <synapse sourceNeuronName = "0" targetNeuronName = "16" weight = "-0.8594325707290478" />
    <synapse sourceNeuronName = "1" targetNeuronName = "5" weight = "-0.795172719754633" />
    <synapse sourceNeuronName = "1" targetNeuronName = "6" weight = "0.2980967539286936" />
    <synapse sourceNeuronName = "1" targetNeuronName = "7" weight = "0.9766585981786828" />
    <synapse sourceNeuronName = "1" targetNeuronName = "8" weight = "0.1484691282609567" />
    <synapse sourceNeuronName = "1" targetNeuronName = "9" weight = "0.734834095065714" />
    <synapse sourceNeuronName = "1" targetNeuronName = "10" weight = "-0.6093698033760095" />
    <synapse sourceNeuronName = "1" targetNeuronName = "11" weight = "0.3946194103772023" />
    <synapse sourceNeuronName = "1" targetNeuronName = "12" weight = "0.2235672487473821" />
    <synapse sourceNeuronName = "1" targetNeuronName = "13" weight = "-0.7601277345231958" />
    <synapse sourceNeuronName = "1" targetNeuronName = "14" weight = "-0.3118176396337706" />
    <synapse sourceNeuronName = "1" targetNeuronName = "15" weight = "-0.27803478425134" />
    <synapse sourceNeuronName = "1" targetNeuronName = "16" weight = "-0.8882675099443291" />
    <synapse sourceNeuronName = "2" targetNeuronName = "5" weight = "-0.7873718665104801" />
    <synapse sourceNeuronName = "2" targetNeuronName = "6" weight = "0.08305517511496663" />
    <synapse sourceNeuronName = "2" targetNeuronName = "7" weight = "-0.05900965861649499" />
    <synapse sourceNeuronName = "2" targetNeuronName = "8" weight = "0.868875700528484" />
    <synapse sourceNeuronName = "2" targetNeuronName = "9" weight = "-0.5618816449264219" />
    <synapse sourceNeuronName = "2" targetNeuronName = "10" weight = "-0.009121886186041372" />
    <synapse sourceNeuronName = "2" targetNeuronName = "11" weight = "-0.6570933841697442" />
    <synapse sourceNeuronName = "2" targetNeuronName = "12" weight = "0.24062171194821613" />
    <synapse sourceNeuronName = "2" targetNeuronName = "13" weight = "0.4815651255099602" />
    <synapse sourceNeuronName = "2" targetNeuronName = "14" weight = "-0.4695311510081963" />
    <synapse sourceNeuronName = "2" targetNeuronName = "15" weight = "0.9005134074997188" />
    <synapse sourceNeuronName = "2" targetNeuronName = "16" weight = "0.28379000017822853" />
    <synapse sourceNeuronName = "3" targetNeuronName = "5" weight = "0.0646802941297786" />
    <synapse sourceNeuronName = "3" targetNeuronName = "6" weight = "0.021255758988520057" />
    <synapse sourceNeuronName = "3" targetNeuronName = "7" weight = "-0.038514976662380684" />
    <synapse sourceNeuronName = "3" targetNeuronName = "8" weight = "-0.18100536896341235" />
    <synapse sourceNeuronName = "3" targetNeuronName = "9" weight = "0.15203774766054834" />
    <synapse sourceNeuronName = "3" targetNeuronName = "10" weight = "-0.13993921615083127" />
    <synapse sourceNeuronName = "3" targetNeuronName = "11" weight = "-0.9684749804855459" />
    <synapse sourceNeuronName = "3" targetNeuronName = "12" weight = "-0.54109637666985" />
    <synapse sourceNeuronName = "3" targetNeuronName = "13" weight = "0.8108651144243684" />
    <synapse sourceNeuronName = "3" targetNeuronName = "14" weight = "-0.291042888803696" />
    <synapse sourceNeuronName = "3" targetNeuronName = "15" weight = "-0.3578841470176899" />
    <synapse sourceNeuronName = "3" targetNeuronName = "16" weight = "-0.8967545141418849" />
    <synapse sourceNeuronName = "4" targetNeuronName = "5" weight = "0.16516142036524473" />
    <synapse sourceNeuronName = "4" targetNeuronName = "6" weight = "-0.7600979013942288" />
    <synapse sourceNeuronName = "4" targetNeuronName = "7" weight = "-0.05944813197270671" />
    <synapse sourceNeuronName = "4" targetNeuronName = "8" weight = "0.4211956543354851" />
    <synapse sourceNeuronName = "4" targetNeuronName = "9" weight = "-0.7176933816244246" />
    <synapse sourceNeuronName = "4" targetNeuronName = "10" weight = "-0.7735367573340324" />
    <synapse sourceNeuronName = "4" targetNeuronName = "11" weight = "-0.2380357124492123" />
    <synapse sourceNeuronName = "4" targetNeuronName = "12" weight = "-0.9436566785166032" />
    <synapse sourceNeuronName = "4" targetNeuronName = "13" weight = "0.9294472928414201" />
    <synapse sourceNeuronName = "4" targetNeuronName = "14" weight = "-0.627563787957645" />
    <synapse sourceNeuronName = "4" targetNeuronName = "15" weight = "0.5964653309860655" />
    <synapse sourceNeuronName = "4" targetNeuronName = "16" weight = "-0.5491599495766568" />
</neuralNetwork>