<neuralNetwork>
    <neuron name = "0" type = "sensor" linkName = "Link0" />
    <neuron name = "1" type = "sensor" linkName = "Link1" />
    <neuron name = "2" type = "sensor" linkName = "Link2" />
    <neuron name = "3" type = "sensor" linkName = "Link4" />
    <neuron name = "4" type = "sensor" linkName = "Link5" />
    <neuron name = "5" type = "sensor" linkName = "Link6" />
    <neuron name = "6" type = "sensor" linkName = "Link7" />
    <neuron name = "7" type = "sensor" linkName = "Link9" />
    <neuron name = "8" type = "motor"  jointName = "Link0_Link1" />
    <neuron name = "9" type = "motor"  jointName = "Link0_Cube01" />
    <neuron name = "10" type = "motor"  jointName = "Cube01_Link2" />
    <neuron name = "11" type = "motor"  jointName = "Link0_Cube02" />
    <neuron name = "12" type = "motor"  jointName = "Cube02_Cube12" />
    <neuron name = "13" type = "motor"  jointName = "Cube12_Link3" />
    <neuron name = "14" type = "motor"  jointName = "Link0_Cube03" />
    <neuron name = "15" type = "motor"  jointName = "Cube03_Link4" />
    <neuron name = "16" type = "motor"  jointName = "Link3_Cube04" />
    <neuron name = "17" type = "motor"  jointName = "Cube04_Link5" />
    <neuron name = "18" type = "motor"  jointName = "Link3_Cube05" />
    <neuron name = "19" type = "motor"  jointName = "Cube05_Cube15" />
    <neuron name = "20" type = "motor"  jointName = "Cube15_Link6" />
    <neuron name = "21" type = "motor"  jointName = "Link3_Link7" />
    <neuron name = "22" type = "motor"  jointName = "Link4_Cube07" />
    <neuron name = "23" type = "motor"  jointName = "Cube07_Cube17" />
    <neuron name = "24" type = "motor"  jointName = "Cube17_Link8" />
    <neuron name = "25" type = "motor"  jointName = "Link0_Link9" />
    <neuron name = "26" type = "motor"  jointName = "Link0_Cube09" />
    <neuron name = "27" type = "motor"  jointName = "Cube09_Cube19" />
    <neuron name = "28" type = "motor"  jointName = "Cube19_Link10" />
    <neuron name = "29" type = "motor"  jointName = "Link1_Cube010" />
    <neuron name = "30" type = "motor"  jointName = "Cube010_Cube110" />
    <neuron name = "31" type = "motor"  jointName = "Cube110_Link11" />
    <synapse sourceNeuronName = "0" targetNeuronName = "8" weight = "-0.13677930075338085" />
    <synapse sourceNeuronName = "0" targetNeuronName = "9" weight = "-0.4230055571018334" />
    <synapse sourceNeuronName = "0" targetNeuronName = "10" weight = "-0.9557482733300204" />
    <synapse sourceNeuronName = "0" targetNeuronName = "11" weight = "0.3551344323849195" />
    <synapse sourceNeuronName = "0" targetNeuronName = "12" weight = "0.5844769901056754" />
    <synapse sourceNeuronName = "0" targetNeuronName = "13" weight = "0.47306339538079034" />
    <synapse sourceNeuronName = "0" targetNeuronName = "14" weight = "-0.12077919873338394" />
    <synapse sourceNeuronName = "0" targetNeuronName = "15" weight = "0.825617091582612" />
    <synapse sourceNeuronName = "0" targetNeuronName = "16" weight = "0.8895084929159207" />
    <synapse sourceNeuronName = "0" targetNeuronName = "17" weight = "-0.02481110001999176" />
    <synapse sourceNeuronName = "0" targetNeuronName = "18" weight = "-0.003203383527496495" />
    <synapse sourceNeuronName = "0" targetNeuronName = "19" weight = "-0.9872620914061381" />
    <synapse sourceNeuronName = "0" targetNeuronName = "20" weight = "0.7422457497303485" />
    <synapse sourceNeuronName = "0" targetNeuronName = "21" weight = "0.6463653235911269" />
    <synapse sourceNeuronName = "0" targetNeuronName = "22" weight = "-0.2806584442198663" />
    <synapse sourceNeuronName = "0" targetNeuronName = "23" weight = "-0.6305707576132678" />
    <synapse sourceNeuronName = "0" targetNeuronName = "24" weight = "0.7145362325003528" />
    <synapse sourceNeuronName = "0" targetNeuronName = "25" weight = "-0.5648536248408094" />
    <synapse sourceNeuronName = "0" targetNeuronName = "26" weight = "0.8276672505981286" />
    <synapse sourceNeuronName = "0" targetNeuronName = "27" weight = "-0.1552723747602447" />
    <synapse sourceNeuronName = "0" targetNeuronName = "28" weight = "-0.29064462392102386" />
    <synapse sourceNeuronName = "0" targetNeuronName = "29" weight = "0.1692662043731259" />
    <synapse sourceNeuronName = "0" targetNeuronName = "30" weight = "0.359196799378376" />
    <synapse sourceNeuronName = "0" targetNeuronName = "31" weight = "0.4011184573912676" />
    <synapse sourceNeuronName = "1" targetNeuronName = "8" weight = "0.6809197664140445" />
    <synapse sourceNeuronName = "1" targetNeuronName = "9" weight = "-0.8889373335713262" />
    <synapse sourceNeuronName = "1" targetNeuronName = "10" weight = "-0.4233384154491051" />
    <synapse sourceNeuronName = "1" targetNeuronName = "11" weight = "0.0476698081384046" />
    <synapse sourceNeuronName = "1" targetNeuronName = "12" weight = "-0.5714544737326506" />
    <synapse sourceNeuronName = "1" targetNeuronName = "13" weight = "-0.7249639115352684" />
    <synapse sourceNeuronName = "1" targetNeuronName = "14" weight = "0.23402283020619352" />
    <synapse sourceNeuronName = "1" targetNeuronName = "15" weight = "0.4770777394163719" />
    <synapse sourceNeuronName = "1" targetNeuronName = "16" weight = "-0.16592769486006298" />
    <synapse sourceNeuronName = "1" targetNeuronName = "17" weight = "-0.18983808344588526" />
    <synapse sourceNeuronName = "1" targetNeuronName = "18" weight = "0.9566148041613034" />
    <synapse sourceNeuronName = "1" targetNeuronName = "19" weight = "-0.26582250994616574" />
    <synapse sourceNeuronName = "1" targetNeuronName = "20" weight = "-0.260416607597616" />
    <synapse sourceNeuronName = "1" targetNeuronName = "21" weight = "0.5075085166873026" />
    <synapse sourceNeuronName = "1" targetNeuronName = "22" weight = "0.8609531589966835" />
    <synapse sourceNeuronName = "1" targetNeuronName = "23" weight = "-0.4403524106070358" />
    <synapse sourceNeuronName = "1" targetNeuronName = "24" weight = "-0.8175680443019582" />
    <synapse sourceNeuronName = "1" targetNeuronName = "25" weight = "0.44026897924015196" />
    <synapse sourceNeuronName = "1" targetNeuronName = "26" weight = "-0.8118903664885972" />
    <synapse sourceNeuronName = "1" targetNeuronName = "27" weight = "0.41003479925250375" />
    <synapse sourceNeuronName = "1" targetNeuronName = "28" weight = "0.002883844508268396" />
    <synapse sourceNeuronName = "1" targetNeuronName = "29" weight = "0.9753729191473237" />
    <synapse sourceNeuronName = "1" targetNeuronName = "30" weight = "0.597320559250198" />
    <synapse sourceNeuronName = "1" targetNeuronName = "31" weight = "-0.2906933286666791" />
    <synapse sourceNeuronName = "2" targetNeuronName = "8" weight = "-0.038287506104843994" />
    <synapse sourceNeuronName = "2" targetNeuronName = "9" weight = "0.5662912173562957" />
    <synapse sourceNeuronName = "2" targetNeuronName = "10" weight = "-0.7568141726714495" />
    <synapse sourceNeuronName = "2" targetNeuronName = "11" weight = "-0.6841227524822888" />
    <synapse sourceNeuronName = "2" targetNeuronName = "12" weight = "-0.6557279186584932" />
    <synapse sourceNeuronName = "2" targetNeuronName = "13" weight = "-0.5935249624260943" />
    <synapse sourceNeuronName = "2" targetNeuronName = "14" weight = "0.9196076447448087" />
    <synapse sourceNeuronName = "2" targetNeuronName = "15" weight = "0.3602311225478767" />
    <synapse sourceNeuronName = "2" targetNeuronName = "16" weight = "-0.6582051721148994" />
    <synapse sourceNeuronName = "2" targetNeuronName = "17" weight = "-0.882951944427703" />
    <synapse sourceNeuronName = "2" targetNeuronName = "18" weight = "0.9421308621023619" />
    <synapse sourceNeuronName = "2" targetNeuronName = "19" weight = "0.7420769263974962" />
    <synapse sourceNeuronName = "2" targetNeuronName = "20" weight = "-0.29280683918307204" />
    <synapse sourceNeuronName = "2" targetNeuronName = "21" weight = "-0.7557866686705705" />
    <synapse sourceNeuronName = "2" targetNeuronName = "22" weight = "0.8199075780367451" />
    <synapse sourceNeuronName = "2" targetNeuronName = "23" weight = "0.20669169175768176" />
    <synapse sourceNeuronName = "2" targetNeuronName = "24" weight = "0.5156222894000442" />
    <synapse sourceNeuronName = "2" targetNeuronName = "25" weight = "0.38555777115295675" />
    <synapse sourceNeuronName = "2" targetNeuronName = "26" weight = "-0.31314453815466314" />
    <synapse sourceNeuronName = "2" targetNeuronName = "27" weight = "-0.09706064317811403" />
    <synapse sourceNeuronName = "2" targetNeuronName = "28" weight = "0.5836035505463313" />
    <synapse sourceNeuronName = "2" targetNeuronName = "29" weight = "0.13558168335277165" />
    <synapse sourceNeuronName = "2" targetNeuronName = "30" weight = "-0.5680437527360724" />
    <synapse sourceNeuronName = "2" targetNeuronName = "31" weight = "0.41243307646550464" />
    <synapse sourceNeuronName = "3" targetNeuronName = "8" weight = "0.2568147087066701" />
    <synapse sourceNeuronName = "3" targetNeuronName = "9" weight = "-0.7461656125836906" />
    <synapse sourceNeuronName = "3" targetNeuronName = "10" weight = "-0.10421360140949654" />
    <synapse sourceNeuronName = "3" targetNeuronName = "11" weight = "-0.4042107920545248" />
    <synapse sourceNeuronName = "3" targetNeuronName = "12" weight = "0.41153892731862274" />
    <synapse sourceNeuronName = "3" targetNeuronName = "13" weight = "0.12687545886633744" />
    <synapse sourceNeuronName = "3" targetNeuronName = "14" weight = "0.7864500841718598" />
    <synapse sourceNeuronName = "3" targetNeuronName = "15" weight = "0.9350320782771355" />
    <synapse sourceNeuronName = "3" targetNeuronName = "16" weight = "-0.097833336561169" />
    <synapse sourceNeuronName = "3" targetNeuronName = "17" weight = "-0.9270101817832113" />
    <synapse sourceNeuronName = "3" targetNeuronName = "18" weight = "0.2469573814601027" />
    <synapse sourceNeuronName = "3" targetNeuronName = "19" weight = "0.4690412580214556" />
    <synapse sourceNeuronName = "3" targetNeuronName = "20" weight = "0.6447432562506306" />
    <synapse sourceNeuronName = "3" targetNeuronName = "21" weight = "-0.37385882040520535" />
    <synapse sourceNeuronName = "3" targetNeuronName = "22" weight = "0.8157250363571547" />
    <synapse sourceNeuronName = "3" targetNeuronName = "23" weight = "-0.738160931674184" />
    <synapse sourceNeuronName = "3" targetNeuronName = "24" weight = "0.9698659496402102" />
    <synapse sourceNeuronName = "3" targetNeuronName = "25" weight = "-0.3548870010960403" />
    <synapse sourceNeuronName = "3" targetNeuronName = "26" weight = "-0.9233335173263866" />
    <synapse sourceNeuronName = "3" targetNeuronName = "27" weight = "0.47976096540078905" />
    <synapse sourceNeuronName = "3" targetNeuronName = "28" weight = "0.07372946140124426" />
    <synapse sourceNeuronName = "3" targetNeuronName = "29" weight = "0.09223743994147604" />
    <synapse sourceNeuronName = "3" targetNeuronName = "30" weight = "0.6731789465076266" />
    <synapse sourceNeuronName = "3" targetNeuronName = "31" weight = "-0.6601259636406551" />
    <synapse sourceNeuronName = "4" targetNeuronName = "8" weight = "-0.2735426872258011" />
    <synapse sourceNeuronName = "4" targetNeuronName = "9" weight = "-0.2937236296057333" />
    <synapse sourceNeuronName = "4" targetNeuronName = "10" weight = "0.08366182417631673" />
    <synapse sourceNeuronName = "4" targetNeuronName = "11" weight = "-0.27827120678056727" />
    <synapse sourceNeuronName = "4" targetNeuronName = "12" weight = "0.12397780959551818" />
    <synapse sourceNeuronName = "4" targetNeuronName = "13" weight = "-0.8451349169557387" />
    <synapse sourceNeuronName = "4" targetNeuronName = "14" weight = "-0.27837712266966497" />
    <synapse sourceNeuronName = "4" targetNeuronName = "15" weight = "-0.8057060190169034" />
    <synapse sourceNeuronName = "4" targetNeuronName = "16" weight = "-0.6412050062543164" />
    <synapse sourceNeuronName = "4" targetNeuronName = "17" weight = "0.7092467967130922" />
    <synapse sourceNeuronName = "4" targetNeuronName = "18" weight = "0.45841698567561506" />
    <synapse sourceNeuronName = "4" targetNeuronName = "19" weight = "-0.014555657385404652" />
    <synapse sourceNeuronName = "4" targetNeuronName = "20" weight = "0.5797420308312475" />
    <synapse sourceNeuronName = "4" targetNeuronName = "21" weight = "-0.6433394371966044" />
    <synapse sourceNeuronName = "4" targetNeuronName = "22" weight = "-0.34381914293824845" />
    <synapse sourceNeuronName = "4" targetNeuronName = "23" weight = "-0.8315415642196582" />
    <synapse sourceNeuronName = "4" targetNeuronName = "24" weight = "0.339377398371836" />
    <synapse sourceNeuronName = "4" targetNeuronName = "25" weight = "0.6273341923445603" />
    <synapse sourceNeuronName = "4" targetNeuronName = "26" weight = "0.935844064620686" />
    <synapse sourceNeuronName = "4" targetNeuronName = "27" weight = "-0.41905034761254045" />
    <synapse sourceNeuronName = "4" targetNeuronName = "28" weight = "-0.6506099160062728" />
    <synapse sourceNeuronName = "4" targetNeuronName = "29" weight = "0.09033405458903632" />
    <synapse sourceNeuronName = "4" targetNeuronName = "30" weight = "0.3178897994542913" />
    <synapse sourceNeuronName = "4" targetNeuronName = "31" weight = "-0.5800498098362277" />
    <synapse sourceNeuronName = "5" targetNeuronName = "8" weight = "-0.1521476132836428" />
    <synapse sourceNeuronName = "5" targetNeuronName = "9" weight = "0.6054019361310745" />
    <synapse sourceNeuronName = "5" targetNeuronName = "10" weight = "0.10204193367163072" />
    <synapse sourceNeuronName = "5" targetNeuronName = "11" weight = "-0.6691916473068797" />
    <synapse sourceNeuronName = "5" targetNeuronName = "12" weight = "-0.190861932756081" />
    <synapse sourceNeuronName = "5" targetNeuronName = "13" weight = "-0.6231614399558296" />
    <synapse sourceNeuronName = "5" targetNeuronName = "14" weight = "-0.333623121696349" />
    <synapse sourceNeuronName = "5" targetNeuronName = "15" weight = "0.2639908175694947" />
    <synapse sourceNeuronName = "5" targetNeuronName = "16" weight = "-0.7151777696321873" />
    <synapse sourceNeuronName = "5" targetNeuronName = "17" weight = "-0.7544672158413241" />
    <synapse sourceNeuronName = "5" targetNeuronName = "18" weight = "-0.9940331438102068" />
    <synapse sourceNeuronName = "5" targetNeuronName = "19" weight = "-0.5733612885680897" />
    <synapse sourceNeuronName = "5" targetNeuronName = "20" weight = "0.8237862634820994" />
    <synapse sourceNeuronName = "5" targetNeuronName = "21" weight = "0.6027387756869291" />
    <synapse sourceNeuronName = "5" targetNeuronName = "22" weight = "-0.4125751513517777" />
    <synapse sourceNeuronName = "5" targetNeuronName = "23" weight = "-0.12304057843834437" />
    <synapse sourceNeuronName = "5" targetNeuronName = "24" weight = "0.450281678498764" />
    <synapse sourceNeuronName = "5" targetNeuronName = "25" weight = "0.7379352676312807" />
    <synapse sourceNeuronName = "5" targetNeuronName = "26" weight = "-0.1471382343781733" />
    <synapse sourceNeuronName = "5" targetNeuronName = "27" weight = "0.14922740322162453" />
    <synapse sourceNeuronName = "5" targetNeuronName = "28" weight = "-0.9795646003717366" />
    <synapse sourceNeuronName = "5" targetNeuronName = "29" weight = "-0.6952174033177345" />
    <synapse sourceNeuronName = "5" targetNeuronName = "30" weight = "-0.26933705365709826" />
    <synapse sourceNeuronName = "5" targetNeuronName = "31" weight = "0.767257768876773" />
    <synapse sourceNeuronName = "6" targetNeuronName = "8" weight = "0.9435575172535173" />
    <synapse sourceNeuronName = "6" targetNeuronName = "9" weight = "0.25231641612768274" />
    <synapse sourceNeuronName = "6" targetNeuronName = "10" weight = "-0.46720628365894745" />
    <synapse sourceNeuronName = "6" targetNeuronName = "11" weight = "-0.5355069648113129" />
    <synapse sourceNeuronName = "6" targetNeuronName = "12" weight = "0.10478495891479733" />
    <synapse sourceNeuronName = "6" targetNeuronName = "13" weight = "-0.996646632518374" />
    <synapse sourceNeuronName = "6" targetNeuronName = "14" weight = "-0.9422357427289052" />
    <synapse sourceNeuronName = "6" targetNeuronName = "15" weight = "0.3575264305175665" />
    <synapse sourceNeuronName = "6" targetNeuronName = "16" weight = "-0.13856579362892685" />
    <synapse sourceNeuronName = "6" targetNeuronName = "17" weight = "0.30637615172467547" />
    <synapse sourceNeuronName = "6" targetNeuronName = "18" weight = "-0.22665235284945018" />
    <synapse sourceNeuronName = "6" targetNeuronName = "19" weight = "0.7294699254479438" />
    <synapse sourceNeuronName = "6" targetNeuronName = "20" weight = "0.7735534740863699" />
    <synapse sourceNeuronName = "6" targetNeuronName = "21" weight = "-0.33253133479866315" />
    <synapse sourceNeuronName = "6" targetNeuronName = "22" weight = "-0.29060050704402873" />
    <synapse sourceNeuronName = "6" targetNeuronName = "23" weight = "-0.012069366243071977" />
    <synapse sourceNeuronName = "6" targetNeuronName = "24" weight = "0.8194973308022222" />
    <synapse sourceNeuronName = "6" targetNeuronName = "25" weight = "-0.4668409437060388" />
    <synapse sourceNeuronName = "6" targetNeuronName = "26" weight = "0.5715984680757229" />
    <synapse sourceNeuronName = "6" targetNeuronName = "27" weight = "-0.6037721454541025" />
    <synapse sourceNeuronName = "6" targetNeuronName = "28" weight = "0.009945638672414159" />
    <synapse sourceNeuronName = "6" targetNeuronName = "29" weight = "0.8709912874077268" />
    <synapse sourceNeuronName = "6" targetNeuronName = "30" weight = "-0.13522174858750713" />
    <synapse sourceNeuronName = "6" targetNeuronName = "31" weight = "-0.38822332715280194" />
    <synapse sourceNeuronName = "7" targetNeuronName = "8" weight = "-0.8493531228451854" />
    <synapse sourceNeuronName = "7" targetNeuronName = "9" weight = "0.4740829156704758" />
    <synapse sourceNeuronName = "7" targetNeuronName = "10" weight = "0.09989995805003682" />
    <synapse sourceNeuronName = "7" targetNeuronName = "11" weight = "0.5247668751837129" />
    <synapse sourceNeuronName = "7" targetNeuronName = "12" weight = "-0.7945056948443225" />
    <synapse sourceNeuronName = "7" targetNeuronName = "13" weight = "-0.9183458201143895" />
    <synapse sourceNeuronName = "7" targetNeuronName = "14" weight = "-0.2294604474114148" />
    <synapse sourceNeuronName = "7" targetNeuronName = "15" weight = "0.029473094907383368" />
    <synapse sourceNeuronName = "7" targetNeuronName = "16" weight = "-0.36300483608331935" />
    <synapse sourceNeuronName = "7" targetNeuronName = "17" weight = "0.38650168545240193" />
    <synapse sourceNeuronName = "7" targetNeuronName = "18" weight = "0.8534181462371613" />
    <synapse sourceNeuronName = "7" targetNeuronName = "19" weight = "-0.9575647342454532" />
    <synapse sourceNeuronName = "7" targetNeuronName = "20" weight = "0.7886194809327904" />
    <synapse sourceNeuronName = "7" targetNeuronName = "21" weight = "-0.0002537694575730498" />
    <synapse sourceNeuronName = "7" targetNeuronName = "22" weight = "-0.8792579892465073" />
    <synapse sourceNeuronName = "7" targetNeuronName = "23" weight = "-0.853166013349898" />
    <synapse sourceNeuronName = "7" targetNeuronName = "24" weight = "-0.604946614928157" />
    <synapse sourceNeuronName = "7" targetNeuronName = "25" weight = "-0.48202873928309264" />
    <synapse sourceNeuronName = "7" targetNeuronName = "26" weight = "-0.7019647368083124" />
    <synapse sourceNeuronName = "7" targetNeuronName = "27" weight = "-0.5768012771388682" />
    <synapse sourceNeuronName = "7" targetNeuronName = "28" weight = "-0.2982068645157383" />
    <synapse sourceNeuronName = "7" targetNeuronName = "29" weight = "0.4528841064736133" />
    <synapse sourceNeuronName = "7" targetNeuronName = "30" weight = "-0.07566053566850761" />
    <synapse sourceNeuronName = "7" targetNeuronName = "31" weight = "0.4421481737433781" />
</neuralNetwork>