<neuralNetwork>
    <neuron name = "0" type = "sensor" linkName = "Link1" />
    <neuron name = "1" type = "sensor" linkName = "Link2" />
    <neuron name = "2" type = "sensor" linkName = "Link4" />
    <neuron name = "3" type = "sensor" linkName = "Link5" />
    <neuron name = "4" type = "sensor" linkName = "Link7" />
    <neuron name = "5" type = "motor"  jointName = "Link0_Link1" />
    <neuron name = "6" type = "motor"  jointName = "Link0_Cube01" />
    <neuron name = "7" type = "motor"  jointName = "Cube01_Cube11" />
    <neuron name = "8" type = "motor"  jointName = "Cube11_Link2" />
    <neuron name = "9" type = "motor"  jointName = "Link0_Cube02" />
    <neuron name = "10" type = "motor"  jointName = "Cube02_Cube12" />
    <neuron name = "11" type = "motor"  jointName = "Cube12_Link3" />
    <neuron name = "12" type = "motor"  jointName = "Link2_Link4" />
    <neuron name = "13" type = "motor"  jointName = "Link0_Cube04" />
    <neuron name = "14" type = "motor"  jointName = "Cube04_Cube14" />
    <neuron name = "15" type = "motor"  jointName = "Cube14_Link5" />
    <neuron name = "16" type = "motor"  jointName = "Link5_Cube05" />
    <neuron name = "17" type = "motor"  jointName = "Cube05_Cube15" />
    <neuron name = "18" type = "motor"  jointName = "Cube15_Link6" />
    <neuron name = "19" type = "motor"  jointName = "Link2_Cube06" />
    <neuron name = "20" type = "motor"  jointName = "Cube06_Cube16" />
    <neuron name = "21" type = "motor"  jointName = "Cube16_Link7" />
    <neuron name = "22" type = "motor"  jointName = "Link0_Cube07" />
    <neuron name = "23" type = "motor"  jointName = "Cube07_Link8" />
    <neuron name = "24" type = "motor"  jointName = "Link8_Cube08" />
    <neuron name = "25" type = "motor"  jointName = "Cube08_Link9" />
    <synapse sourceNeuronName = "0" targetNeuronName = "5" weight = "-0.4282435230904531" />
    <synapse sourceNeuronName = "0" targetNeuronName = "6" weight = "0.6212289990996698" />
    <synapse sourceNeuronName = "0" targetNeuronName = "7" weight = "-0.6900073569806295" />
    <synapse sourceNeuronName = "0" targetNeuronName = "8" weight = "0.9353494914632778" />
    <synapse sourceNeuronName = "0" targetNeuronName = "9" weight = "0.34286987164848703" />
    <synapse sourceNeuronName = "0" targetNeuronName = "10" weight = "-0.8519486519677117" />
    <synapse sourceNeuronName = "0" targetNeuronName = "11" weight = "0.2858087929727504" />
    <synapse sourceNeuronName = "0" targetNeuronName = "12" weight = "0.5592251068820346" />
    <synapse sourceNeuronName = "0" targetNeuronName = "13" weight = "0.03496661109100074" />
    <synapse sourceNeuronName = "0" targetNeuronName = "14" weight = "0.721950195890452" />
    <synapse sourceNeuronName = "0" targetNeuronName = "15" weight = "0.13082737750241202" />
    <synapse sourceNeuronName = "0" targetNeuronName = "16" weight = "0.0633192011555972" />
    <synapse sourceNeuronName = "0" targetNeuronName = "17" weight = "-0.06514553700172043" />
    <synapse sourceNeuronName = "0" targetNeuronName = "18" weight = "0.058976309047027664" />
    <synapse sourceNeuronName = "0" targetNeuronName = "19" weight = "-0.8788977475332025" />
    <synapse sourceNeuronName = "0" targetNeuronName = "20" weight = "-0.7513050774399059" />
    <synapse sourceNeuronName = "0" targetNeuronName = "21" weight = "0.14000212033349713" />
    <synapse sourceNeuronName = "0" targetNeuronName = "22" weight = "0.8323121955363844" />
    <synapse sourceNeuronName = "0" targetNeuronName = "23" weight = "0.9909298436603287" />
    <synapse sourceNeuronName = "0" targetNeuronName = "24" weight = "-0.3333138514936371" />
    <synapse sourceNeuronName = "0" targetNeuronName = "25" weight = "0.4090400025002481" />
    <synapse sourceNeuronName = "1" targetNeuronName = "5" weight = "0.43398438783871773" />
    <synapse sourceNeuronName = "1" targetNeuronName = "6" weight = "-0.5433988906442089" />
    <synapse sourceNeuronName = "1" targetNeuronName = "7" weight = "-0.7811043596732274" />
    <synapse sourceNeuronName = "1" targetNeuronName = "8" weight = "-0.331537881440368" />
    <synapse sourceNeuronName = "1" targetNeuronName = "9" weight = "-0.8835547806035231" />
    <synapse sourceNeuronName = "1" targetNeuronName = "10" weight = "-0.35891530392070603" />
    <synapse sourceNeuronName = "1" targetNeuronName = "11" weight = "0.3720813011000932" />
    <synapse sourceNeuronName = "1" targetNeuronName = "12" weight = "0.7358810517073586" />
    <synapse sourceNeuronName = "1" targetNeuronName = "13" weight = "0.31378860356922167" />
    <synapse sourceNeuronName = "1" targetNeuronName = "14" weight = "-0.052267470008464656" />
    <synapse sourceNeuronName = "1" targetNeuronName = "15" weight = "0.013545754293803558" />
    <synapse sourceNeuronName = "1" targetNeuronName = "16" weight = "0.4363604525726912" />
    <synapse sourceNeuronName = "1" targetNeuronName = "17" weight = "0.4566859493378246" />
    <synapse sourceNeuronName = "1" targetNeuronName = "18" weight = "0.7110596220291194" />
    <synapse sourceNeuronName = "1" targetNeuronName = "19" weight = "0.15554414679096085" />
    <synapse sourceNeuronName = "1" targetNeuronName = "20" weight = "-0.7403644151348738" />
    <synapse sourceNeuronName = "1" targetNeuronName = "21" weight = "-0.8525819146722127" />
    <synapse sourceNeuronName = "1" targetNeuronName = "22" weight = "-0.6882247109953308" />
    <synapse sourceNeuronName = "1" targetNeuronName = "23" weight = "0.5040447917299264" />
    <synapse sourceNeuronName = "1" targetNeuronName = "24" weight = "-0.04937253304652911" />
    <synapse sourceNeuronName = "1" targetNeuronName = "25" weight = "0.18306185150086862" />
    <synapse sourceNeuronName = "2" targetNeuronName = "5" weight = "0.13045703907088835" />
    <synapse sourceNeuronName = "2" targetNeuronName = "6" weight = "0.9560088168921923" />
    <synapse sourceNeuronName = "2" targetNeuronName = "7" weight = "0.2922789220348265" />
    <synapse sourceNeuronName = "2" targetNeuronName = "8" weight = "-0.5436511524592191" />
    <synapse sourceNeuronName = "2" targetNeuronName = "9" weight = "0.5309109476948548" />
    <synapse sourceNeuronName = "2" targetNeuronName = "10" weight = "-0.48125253408498025" />
    <synapse sourceNeuronName = "2" targetNeuronName = "11" weight = "0.9571955035170066" />
    <synapse sourceNeuronName = "2" targetNeuronName = "12" weight = "-0.9935742397748086" />
    <synapse sourceNeuronName = "2" targetNeuronName = "13" weight = "0.21350863081765925" />
    <synapse sourceNeuronName = "2" targetNeuronName = "14" weight = "0.634066485905576" />
    <synapse sourceNeuronName = "2" targetNeuronName = "15" weight = "-0.5824224600763168" />
    <synapse sourceNeuronName = "2" targetNeuronName = "16" weight = "-0.9274681704491867" />
    <synapse sourceNeuronName = "2" targetNeuronName = "17" weight = "-0.0363474592823092" />
    <synapse sourceNeuronName = "2" targetNeuronName = "18" weight = "-0.4404980769616562" />
    <synapse sourceNeuronName = "2" targetNeuronName = "19" weight = "-0.634754025445742" />
    <synapse sourceNeuronName = "2" targetNeuronName = "20" weight = "-0.6536864235864579" />
    <synapse sourceNeuronName = "2" targetNeuronName = "21" weight = "-0.10852535515376949" />
    <synapse sourceNeuronName = "2" targetNeuronName = "22" weight = "-0.1994670650501842" />
    <synapse sourceNeuronName = "2" targetNeuronName = "23" weight = "0.4955001859996908" />
    <synapse sourceNeuronName = "2" targetNeuronName = "24" weight = "-0.5265437874728529" />
    <synapse sourceNeuronName = "2" targetNeuronName = "25" weight = "-0.04841517379135718" />
    <synapse sourceNeuronName = "3" targetNeuronName = "5" weight = "-0.6994284399675441" />
    <synapse sourceNeuronName = "3" targetNeuronName = "6" weight = "0.8160264002089781" />
    <synapse sourceNeuronName = "3" targetNeuronName = "7" weight = "0.9416954279261955" />
    <synapse sourceNeuronName = "3" targetNeuronName = "8" weight = "0.8127051983003866" />
    <synapse sourceNeuronName = "3" targetNeuronName = "9" weight = "0.5073050367655216" />
    <synapse sourceNeuronName = "3" targetNeuronName = "10" weight = "0.8589165684654005" />
    <synapse sourceNeuronName = "3" targetNeuronName = "11" weight = "-0.9589937636728292" />
    <synapse sourceNeuronName = "3" targetNeuronName = "12" weight = "-0.6967304763295523" />
    <synapse sourceNeuronName = "3" targetNeuronName = "13" weight = "-0.4506251357063462" />
    <synapse sourceNeuronName = "3" targetNeuronName = "14" weight = "-0.5217684202753541" />
    <synapse sourceNeuronName = "3" targetNeuronName = "15" weight = "0.9359511340965798" />
    <synapse sourceNeuronName = "3" targetNeuronName = "16" weight = "-0.9866677134784549" />
    <synapse sourceNeuronName = "3" targetNeuronName = "17" weight = "0.09330873624851987" />
    <synapse sourceNeuronName = "3" targetNeuronName = "18" weight = "0.7154347782946942" />
    <synapse sourceNeuronName = "3" targetNeuronName = "19" weight = "0.9676240935091633" />
    <synapse sourceNeuronName = "3" targetNeuronName = "20" weight = "0.34964404782847036" />
    <synapse sourceNeuronName = "3" targetNeuronName = "21" weight = "-0.5390635943424607" />
    <synapse sourceNeuronName = "3" targetNeuronName = "22" weight = "-0.5436358853510939" />
    <synapse sourceNeuronName = "3" targetNeuronName = "23" weight = "-0.06529704980894935" />
    <synapse sourceNeuronName = "3" targetNeuronName = "24" weight = "-0.14948976644447698" />
    <synapse sourceNeuronName = "3" targetNeuronName = "25" weight = "0.189848371294435" />
    <synapse sourceNeuronName = "4" targetNeuronName = "5" weight = "-0.45157582781181027" />
    <synapse sourceNeuronName = "4" targetNeuronName = "6" weight = "0.8312397623162007" />
    <synapse sourceNeuronName = "4" targetNeuronName = "7" weight = "0.6607113180729616" />
    <synapse sourceNeuronName = "4" targetNeuronName = "8" weight = "-0.5382896017635797" />
    <synapse sourceNeuronName = "4" targetNeuronName = "9" weight = "0.43151369477057844" />
    <synapse sourceNeuronName = "4" targetNeuronName = "10" weight = "-0.5991258989784529" />
    <synapse sourceNeuronName = "4" targetNeuronName = "11" weight = "-0.9783327606050074" />
    <synapse sourceNeuronName = "4" targetNeuronName = "12" weight = "-0.36964281719080927" />
    <synapse sourceNeuronName = "4" targetNeuronName = "13" weight = "0.07785257745838892" />
    <synapse sourceNeuronName = "4" targetNeuronName = "14" weight = "0.8837809231909735" />
    <synapse sourceNeuronName = "4" targetNeuronName = "15" weight = "-0.41955213333323726" />
    <synapse sourceNeuronName = "4" targetNeuronName = "16" weight = "0.3994978038711132" />
    <synapse sourceNeuronName = "4" targetNeuronName = "17" weight = "-0.5814776104150872" />
    <synapse sourceNeuronName = "4" targetNeuronName = "18" weight = "-0.6447808919514784" />
    <synapse sourceNeuronName = "4" targetNeuronName = "19" weight = "-0.5684081962529777" />
    <synapse sourceNeuronName = "4" targetNeuronName = "20" weight = "0.34383280435355035" />
    <synapse sourceNeuronName = "4" targetNeuronName = "21" weight = "-0.9419024206851914" />
    <synapse sourceNeuronName = "4" targetNeuronName = "22" weight = "-0.3286153680823296" />
    <synapse sourceNeuronName = "4" targetNeuronName = "23" weight = "-0.34736976357547067" />
    <synapse sourceNeuronName = "4" targetNeuronName = "24" weight = "0.36027932453899636" />
    <synapse sourceNeuronName = "4" targetNeuronName = "25" weight = "0.9266870980281892" />
</neuralNetwork>