<neuralNetwork>
    <neuron name = "0" type = "sensor" linkName = "Link0" />
    <neuron name = "1" type = "sensor" linkName = "Link1" />
    <neuron name = "2" type = "sensor" linkName = "Link2" />
    <neuron name = "3" type = "sensor" linkName = "Link3" />
    <neuron name = "4" type = "sensor" linkName = "Link6" />
    <neuron name = "5" type = "sensor" linkName = "Link7" />
    <neuron name = "6" type = "sensor" linkName = "Link8" />
    <neuron name = "7" type = "sensor" linkName = "Link10" />
    <neuron name = "8" type = "sensor" linkName = "Link12" />
    <neuron name = "9" type = "sensor" linkName = "Link13" />
    <neuron name = "10" type = "motor"  jointName = "Link0_Cube00" />
    <neuron name = "11" type = "motor"  jointName = "Cube00_Link1" />
    <neuron name = "12" type = "motor"  jointName = "Link1_Cube01" />
    <neuron name = "13" type = "motor"  jointName = "Cube01_Link2" />
    <neuron name = "14" type = "motor"  jointName = "Link0_Cube02" />
    <neuron name = "15" type = "motor"  jointName = "Cube02_Cube12" />
    <neuron name = "16" type = "motor"  jointName = "Cube12_Link3" />
    <neuron name = "17" type = "motor"  jointName = "Link3_Link4" />
    <neuron name = "18" type = "motor"  jointName = "Link2_Cube04" />
    <neuron name = "19" type = "motor"  jointName = "Cube04_Cube14" />
    <neuron name = "20" type = "motor"  jointName = "Cube14_Link5" />
    <neuron name = "21" type = "motor"  jointName = "Link3_Cube05" />
    <neuron name = "22" type = "motor"  jointName = "Cube05_Link6" />
    <neuron name = "23" type = "motor"  jointName = "Link3_Cube06" />
    <neuron name = "24" type = "motor"  jointName = "Cube06_Link7" />
    <neuron name = "25" type = "motor"  jointName = "Link1_Cube07" />
    <neuron name = "26" type = "motor"  jointName = "Cube07_Cube17" />
    <neuron name = "27" type = "motor"  jointName = "Cube17_Link8" />
    <neuron name = "28" type = "motor"  jointName = "Link8_Cube08" />
    <neuron name = "29" type = "motor"  jointName = "Cube08_Link9" />
    <neuron name = "30" type = "motor"  jointName = "Link0_Cube09" />
    <neuron name = "31" type = "motor"  jointName = "Cube09_Link10" />
    <neuron name = "32" type = "motor"  jointName = "Link9_Cube010" />
    <neuron name = "33" type = "motor"  jointName = "Cube010_Cube110" />
    <neuron name = "34" type = "motor"  jointName = "Cube110_Link11" />
    <neuron name = "35" type = "motor"  jointName = "Link8_Cube011" />
    <neuron name = "36" type = "motor"  jointName = "Cube011_Link12" />
    <neuron name = "37" type = "motor"  jointName = "Link8_Link13" />
    <neuron name = "38" type = "motor"  jointName = "Link7_Cube013" />
    <neuron name = "39" type = "motor"  jointName = "Cube013_Link14" />
    <neuron name = "40" type = "motor"  jointName = "Link3_Cube014" />
    <neuron name = "41" type = "motor"  jointName = "Cube014_Cube114" />
    <neuron name = "42" type = "motor"  jointName = "Cube114_Link15" />
    <neuron name = "43" type = "motor"  jointName = "Link11_Link16" />
    <synapse sourceNeuronName = "0" targetNeuronName = "10" weight = "0.04406844403274657" />
    <synapse sourceNeuronName = "0" targetNeuronName = "11" weight = "0.05694720246265961" />
    <synapse sourceNeuronName = "0" targetNeuronName = "12" weight = "-0.5875568897306731" />
    <synapse sourceNeuronName = "0" targetNeuronName = "13" weight = "-0.5053717530366477" />
    <synapse sourceNeuronName = "0" targetNeuronName = "14" weight = "-0.1853786427625499" />
    <synapse sourceNeuronName = "0" targetNeuronName = "15" weight = "-0.6667669394732814" />
    <synapse sourceNeuronName = "0" targetNeuronName = "16" weight = "0.1772053326225851" />
    <synapse sourceNeuronName = "0" targetNeuronName = "17" weight = "0.8870899516735442" />
    <synapse sourceNeuronName = "0" targetNeuronName = "18" weight = "-0.8386750414767081" />
    <synapse sourceNeuronName = "0" targetNeuronName = "19" weight = "0.7604012656137331" />
    <synapse sourceNeuronName = "0" targetNeuronName = "20" weight = "-0.0014679338332390657" />
    <synapse sourceNeuronName = "0" targetNeuronName = "21" weight = "-0.14841105183492487" />
    <synapse sourceNeuronName = "0" targetNeuronName = "22" weight = "0.2831444735813131" />
    <synapse sourceNeuronName = "0" targetNeuronName = "23" weight = "0.962023449013736" />
    <synapse sourceNeuronName = "0" targetNeuronName = "24" weight = "0.0660154461056972" />
    <synapse sourceNeuronName = "0" targetNeuronName = "25" weight = "-0.22241096834369278" />
    <synapse sourceNeuronName = "0" targetNeuronName = "26" weight = "-0.3134853282572725" />
    <synapse sourceNeuronName = "0" targetNeuronName = "27" weight = "-0.9113460435251508" />
    <synapse sourceNeuronName = "0" targetNeuronName = "28" weight = "0.8619912957064888" />
    <synapse sourceNeuronName = "0" targetNeuronName = "29" weight = "-0.49138592903290257" />
    <synapse sourceNeuronName = "0" targetNeuronName = "30" weight = "-0.5466776241775939" />
    <synapse sourceNeuronName = "0" targetNeuronName = "31" weight = "0.4542623139443942" />
    <synapse sourceNeuronName = "0" targetNeuronName = "32" weight = "-0.5108239232916785" />
    <synapse sourceNeuronName = "0" targetNeuronName = "33" weight = "-0.44164801232170814" />
    <synapse sourceNeuronName = "0" targetNeuronName = "34" weight = "0.1413441905545756" />
    <synapse sourceNeuronName = "0" targetNeuronName = "35" weight = "-0.3579378776280062" />
    <synapse sourceNeuronName = "0" targetNeuronName = "36" weight = "0.5594735662709214" />
    <synapse sourceNeuronName = "0" targetNeuronName = "37" weight = "-0.20190426989708388" />
    <synapse sourceNeuronName = "0" targetNeuronName = "38" weight = "0.3313950885791854" />
    <synapse sourceNeuronName = "0" targetNeuronName = "39" weight = "-0.6526708049449836" />
    <synapse sourceNeuronName = "0" targetNeuronName = "40" weight = "0.20960832385584482" />
    <synapse sourceNeuronName = "0" targetNeuronName = "41" weight = "-0.10825057170664087" />
    <synapse sourceNeuronName = "0" targetNeuronName = "42" weight = "-0.40267271685610284" />
    <synapse sourceNeuronName = "0" targetNeuronName = "43" weight = "0.12071444639605766" />
    <synapse sourceNeuronName = "1" targetNeuronName = "10" weight = "-0.14376381498635138" />
    <synapse sourceNeuronName = "1" targetNeuronName = "11" weight = "0.20828073004246694" />
    <synapse sourceNeuronName = "1" targetNeuronName = "12" weight = "-0.8192017326126149" />
    <synapse sourceNeuronName = "1" targetNeuronName = "13" weight = "0.8079060326248857" />
    <synapse sourceNeuronName = "1" targetNeuronName = "14" weight = "0.4059687155966374" />
    <synapse sourceNeuronName = "1" targetNeuronName = "15" weight = "-0.4900120220248181" />
    <synapse sourceNeuronName = "1" targetNeuronName = "16" weight = "0.9042313769351322" />
    <synapse sourceNeuronName = "1" targetNeuronName = "17" weight = "0.438101904454649" />
    <synapse sourceNeuronName = "1" targetNeuronName = "18" weight = "0.1558452707245579" />
    <synapse sourceNeuronName = "1" targetNeuronName = "19" weight = "-0.7866969385285945" />
    <synapse sourceNeuronName = "1" targetNeuronName = "20" weight = "-0.7513942660011848" />
    <synapse sourceNeuronName = "1" targetNeuronName = "21" weight = "-0.6130006677838782" />
    <synapse sourceNeuronName = "1" targetNeuronName = "22" weight = "0.27552344193832967" />
    <synapse sourceNeuronName = "1" targetNeuronName = "23" weight = "-0.30386971800241636" />
    <synapse sourceNeuronName = "1" targetNeuronName = "24" weight = "-0.6276606775188707" />
    <synapse sourceNeuronName = "1" targetNeuronName = "25" weight = "0.1550434044064628" />
    <synapse sourceNeuronName = "1" targetNeuronName = "26" weight = "-0.8172506411845855" />
    <synapse sourceNeuronName = "1" targetNeuronName = "27" weight = "0.9434725393535741" />
    <synapse sourceNeuronName = "1" targetNeuronName = "28" weight = "0.10535058356036453" />
    <synapse sourceNeuronName = "1" targetNeuronName = "29" weight = "-0.8359423938044315" />
    <synapse sourceNeuronName = "1" targetNeuronName = "30" weight = "0.562465069820071" />
    <synapse sourceNeuronName = "1" targetNeuronName = "31" weight = "-0.0375512977975192" />
    <synapse sourceNeuronName = "1" targetNeuronName = "32" weight = "0.011474187330003494" />
    <synapse sourceNeuronName = "1" targetNeuronName = "33" weight = "0.8314357044491338" />
    <synapse sourceNeuronName = "1" targetNeuronName = "34" weight = "0.5011141683727256" />
    <synapse sourceNeuronName = "1" targetNeuronName = "35" weight = "-0.024191270134632736" />
    <synapse sourceNeuronName = "1" targetNeuronName = "36" weight = "0.7959777647410489" />
    <synapse sourceNeuronName = "1" targetNeuronName = "37" weight = "0.28579154000829665" />
    <synapse sourceNeuronName = "1" targetNeuronName = "38" weight = "-0.2977227661635069" />
    <synapse sourceNeuronName = "1" targetNeuronName = "39" weight = "-0.060135987895578946" />
    <synapse sourceNeuronName = "1" targetNeuronName = "40" weight = "-0.4145301311506888" />
    <synapse sourceNeuronName = "1" targetNeuronName = "41" weight = "0.049958699432409714" />
    <synapse sourceNeuronName = "1" targetNeuronName = "42" weight = "-0.1984763422885636" />
    <synapse sourceNeuronName = "1" targetNeuronName = "43" weight = "0.6251551965922968" />
    <synapse sourceNeuronName = "2" targetNeuronName = "10" weight = "0.42065961459750567" />
    <synapse sourceNeuronName = "2" targetNeuronName = "11" weight = "-0.3227689381089631" />
    <synapse sourceNeuronName = "2" targetNeuronName = "12" weight = "-0.5803753309528927" />
    <synapse sourceNeuronName = "2" targetNeuronName = "13" weight = "-0.8281962445623574" />
    <synapse sourceNeuronName = "2" targetNeuronName = "14" weight = "-0.6252666060806742" />
    <synapse sourceNeuronName = "2" targetNeuronName = "15" weight = "0.31634226052508607" />
    <synapse sourceNeuronName = "2" targetNeuronName = "16" weight = "-0.8640809942327565" />
    <synapse sourceNeuronName = "2" targetNeuronName = "17" weight = "0.7296796084171013" />
    <synapse sourceNeuronName = "2" targetNeuronName = "18" weight = "-0.8133800059220626" />
    <synapse sourceNeuronName = "2" targetNeuronName = "19" weight = "0.07027958661999212" />
    <synapse sourceNeuronName = "2" targetNeuronName = "20" weight = "-0.7276568107189727" />
    <synapse sourceNeuronName = "2" targetNeuronName = "21" weight = "0.36858178425046684" />
    <synapse sourceNeuronName = "2" targetNeuronName = "22" weight = "-0.24311853053445143" />
    <synapse sourceNeuronName = "2" targetNeuronName = "23" weight = "0.7194868958375586" />
    <synapse sourceNeuronName = "2" targetNeuronName = "24" weight = "-0.013322333010661325" />
    <synapse sourceNeuronName = "2" targetNeuronName = "25" weight = "-0.06336671151155282" />
    <synapse sourceNeuronName = "2" targetNeuronName = "26" weight = "-0.8013670720207227" />
    <synapse sourceNeuronName = "2" targetNeuronName = "27" weight = "0.9473178271916443" />
    <synapse sourceNeuronName = "2" targetNeuronName = "28" weight = "-0.6325506549174136" />
    <synapse sourceNeuronName = "2" targetNeuronName = "29" weight = "0.29950183420670373" />
    <synapse sourceNeuronName = "2" targetNeuronName = "30" weight = "0.26066275186471" />
    <synapse sourceNeuronName = "2" targetNeuronName = "31" weight = "0.07780684551355521" />
    <synapse sourceNeuronName = "2" targetNeuronName = "32" weight = "0.2793673073858236" />
    <synapse sourceNeuronName = "2" targetNeuronName = "33" weight = "-0.2765606507318057" />
    <synapse sourceNeuronName = "2" targetNeuronName = "34" weight = "-0.7619894995840766" />
    <synapse sourceNeuronName = "2" targetNeuronName = "35" weight = "-0.5907204767377954" />
    <synapse sourceNeuronName = "2" targetNeuronName = "36" weight = "-0.09663910120867714" />
    <synapse sourceNeuronName = "2" targetNeuronName = "37" weight = "0.7177078362570073" />
    <synapse sourceNeuronName = "2" targetNeuronName = "38" weight = "-0.31155274257686205" />
    <synapse sourceNeuronName = "2" targetNeuronName = "39" weight = "-0.5591511860740679" />
    <synapse sourceNeuronName = "2" targetNeuronName = "40" weight = "0.48463329463459726" />
    <synapse sourceNeuronName = "2" targetNeuronName = "41" weight = "-0.5365775016800534" />
    <synapse sourceNeuronName = "2" targetNeuronName = "42" weight = "-0.49881419081957956" />
    <synapse sourceNeuronName = "2" targetNeuronName = "43" weight = "0.4750587270273723" />
    <synapse sourceNeuronName = "3" targetNeuronName = "10" weight = "-0.9082608217410453" />
    <synapse sourceNeuronName = "3" targetNeuronName = "11" weight = "-0.042009089351177975" />
    <synapse sourceNeuronName = "3" targetNeuronName = "12" weight = "0.2630828402638212" />
    <synapse sourceNeuronName = "3" targetNeuronName = "13" weight = "-0.31352373805934475" />
    <synapse sourceNeuronName = "3" targetNeuronName = "14" weight = "-0.724178148511732" />
    <synapse sourceNeuronName = "3" targetNeuronName = "15" weight = "-0.7307529230422711" />
    <synapse sourceNeuronName = "3" targetNeuronName = "16" weight = "-0.02794558884659204" />
    <synapse sourceNeuronName = "3" targetNeuronName = "17" weight = "0.4593010518964167" />
    <synapse sourceNeuronName = "3" targetNeuronName = "18" weight = "0.9643853784265306" />
    <synapse sourceNeuronName = "3" targetNeuronName = "19" weight = "-0.7103053684548826" />
    <synapse sourceNeuronName = "3" targetNeuronName = "20" weight = "0.4482507560286426" />
    <synapse sourceNeuronName = "3" targetNeuronName = "21" weight = "-0.889794249911003" />
    <synapse sourceNeuronName = "3" targetNeuronName = "22" weight = "-0.6743242242581917" />
    <synapse sourceNeuronName = "3" targetNeuronName = "23" weight = "-0.565877989808065" />
    <synapse sourceNeuronName = "3" targetNeuronName = "24" weight = "-0.5965468656173807" />
    <synapse sourceNeuronName = "3" targetNeuronName = "25" weight = "-0.7320036313201292" />
    <synapse sourceNeuronName = "3" targetNeuronName = "26" weight = "-0.13958734646841786" />
    <synapse sourceNeuronName = "3" targetNeuronName = "27" weight = "0.19336393904730942" />
    <synapse sourceNeuronName = "3" targetNeuronName = "28" weight = "0.2809363213750631" />
    <synapse sourceNeuronName = "3" targetNeuronName = "29" weight = "0.18004464501990336" />
    <synapse sourceNeuronName = "3" targetNeuronName = "30" weight = "-0.3486304654726067" />
    <synapse sourceNeuronName = "3" targetNeuronName = "31" weight = "-0.18025163862884086" />
    <synapse sourceNeuronName = "3" targetNeuronName = "32" weight = "0.7619447534383288" />
    <synapse sourceNeuronName = "3" targetNeuronName = "33" weight = "0.06850429524205115" />
    <synapse sourceNeuronName = "3" targetNeuronName = "34" weight = "0.2949295774524687" />
    <synapse sourceNeuronName = "3" targetNeuronName = "35" weight = "-0.9518365884813642" />
    <synapse sourceNeuronName = "3" targetNeuronName = "36" weight = "0.6550540303107102" />
    <synapse sourceNeuronName = "3" targetNeuronName = "37" weight = "-0.8459215768837396" />
    <synapse sourceNeuronName = "3" targetNeuronName = "38" weight = "-0.0056050917586445426" />
    <synapse sourceNeuronName = "3" targetNeuronName = "39" weight = "-0.29499089928938527" />
    <synapse sourceNeuronName = "3" targetNeuronName = "40" weight = "0.8041075053299527" />
    <synapse sourceNeuronName = "3" targetNeuronName = "41" weight = "0.39430881411267604" />
    <synapse sourceNeuronName = "3" targetNeuronName = "42" weight = "-0.8137434712954013" />
    <synapse sourceNeuronName = "3" targetNeuronName = "43" weight = "-0.8380309883798733" />
    <synapse sourceNeuronName = "4" targetNeuronName = "10" weight = "-0.22640923933612078" />
    <synapse sourceNeuronName = "4" targetNeuronName = "11" weight = "0.8004045020544803" />
    <synapse sourceNeuronName = "4" targetNeuronName = "12" weight = "-0.2333591708393674" />
    <synapse sourceNeuronName = "4" targetNeuronName = "13" weight = "0.3284624829573992" />
    <synapse sourceNeuronName = "4" targetNeuronName = "14" weight = "0.743358920855909" />
    <synapse sourceNeuronName = "4" targetNeuronName = "15" weight = "0.5618553892095941" />
    <synapse sourceNeuronName = "4" targetNeuronName = "16" weight = "-0.31164819583399694" />
    <synapse sourceNeuronName = "4" targetNeuronName = "17" weight = "0.38788224364213697" />
    <synapse sourceNeuronName = "4" targetNeuronName = "18" weight = "0.9440199508139602" />
    <synapse sourceNeuronName = "4" targetNeuronName = "19" weight = "0.3590226698579393" />
    <synapse sourceNeuronName = "4" targetNeuronName = "20" weight = "0.8017295693908151" />
    <synapse sourceNeuronName = "4" targetNeuronName = "21" weight = "-0.011761965880615843" />
    <synapse sourceNeuronName = "4" targetNeuronName = "22" weight = "-0.49424816687163786" />
    <synapse sourceNeuronName = "4" targetNeuronName = "23" weight = "0.20226718379610698" />
    <synapse sourceNeuronName = "4" targetNeuronName = "24" weight = "-0.0914194491042355" />
    <synapse sourceNeuronName = "4" targetNeuronName = "25" weight = "-0.14387875800599104" />
    <synapse sourceNeuronName = "4" targetNeuronName = "26" weight = "-0.5965309043805838" />
    <synapse sourceNeuronName = "4" targetNeuronName = "27" weight = "-0.03512913149401209" />
    <synapse sourceNeuronName = "4" targetNeuronName = "28" weight = "-0.7101443900851272" />
    <synapse sourceNeuronName = "4" targetNeuronName = "29" weight = "-0.22791888185086506" />
    <synapse sourceNeuronName = "4" targetNeuronName = "30" weight = "-0.37988944740499164" />
    <synapse sourceNeuronName = "4" targetNeuronName = "31" weight = "-0.6980596696443211" />
    <synapse sourceNeuronName = "4" targetNeuronName = "32" weight = "-0.7654011773566163" />
    <synapse sourceNeuronName = "4" targetNeuronName = "33" weight = "0.9338285112249121" />
    <synapse sourceNeuronName = "4" targetNeuronName = "34" weight = "0.5014201107428806" />
    <synapse sourceNeuronName = "4" targetNeuronName = "35" weight = "-0.7286932414122731" />
    <synapse sourceNeuronName = "4" targetNeuronName = "36" weight = "0.29759709678673407" />
    <synapse sourceNeuronName = "4" targetNeuronName = "37" weight = "-0.2558885336149561" />
    <synapse sourceNeuronName = "4" targetNeuronName = "38" weight = "-0.27661817949222756" />
    <synapse sourceNeuronName = "4" targetNeuronName = "39" weight = "-0.5303130807506398" />
    <synapse sourceNeuronName = "4" targetNeuronName = "40" weight = "-0.08157692941677963" />
    <synapse sourceNeuronName = "4" targetNeuronName = "41" weight = "-0.41111980640199297" />
    <synapse sourceNeuronName = "4" targetNeuronName = "42" weight = "0.613777101147337" />
    <synapse sourceNeuronName = "4" targetNeuronName = "43" weight = "0.5660585110946652" />
    <synapse sourceNeuronName = "5" targetNeuronName = "10" weight = "-0.21135245552441462" />
    <synapse sourceNeuronName = "5" targetNeuronName = "11" weight = "0.4787701376657474" />
    <synapse sourceNeuronName = "5" targetNeuronName = "12" weight = "-0.7108448976380668" />
    <synapse sourceNeuronName = "5" targetNeuronName = "13" weight = "0.0795375389854005" />
    <synapse sourceNeuronName = "5" targetNeuronName = "14" weight = "-0.2593192521817562" />
    <synapse sourceNeuronName = "5" targetNeuronName = "15" weight = "0.6829422697281045" />
    <synapse sourceNeuronName = "5" targetNeuronName = "16" weight = "-0.09570494880070424" />
    <synapse sourceNeuronName = "5" targetNeuronName = "17" weight = "-0.6507680653422387" />
    <synapse sourceNeuronName = "5" targetNeuronName = "18" weight = "0.5469766316195652" />
    <synapse sourceNeuronName = "5" targetNeuronName = "19" weight = "-0.1972536402401408" />
    <synapse sourceNeuronName = "5" targetNeuronName = "20" weight = "0.3737867475250449" />
    <synapse sourceNeuronName = "5" targetNeuronName = "21" weight = "0.08790059044650222" />
    <synapse sourceNeuronName = "5" targetNeuronName = "22" weight = "-0.6278044717201277" />
    <synapse sourceNeuronName = "5" targetNeuronName = "23" weight = "0.9831751810427742" />
    <synapse sourceNeuronName = "5" targetNeuronName = "24" weight = "-0.11155193370792671" />
    <synapse sourceNeuronName = "5" targetNeuronName = "25" weight = "0.8857651726184119" />
    <synapse sourceNeuronName = "5" targetNeuronName = "26" weight = "-0.23369178840563887" />
    <synapse sourceNeuronName = "5" targetNeuronName = "27" weight = "-0.7695021725557822" />
    <synapse sourceNeuronName = "5" targetNeuronName = "28" weight = "0.1381727067886287" />
    <synapse sourceNeuronName = "5" targetNeuronName = "29" weight = "-0.5491553017003672" />
    <synapse sourceNeuronName = "5" targetNeuronName = "30" weight = "-0.4807700791542737" />
    <synapse sourceNeuronName = "5" targetNeuronName = "31" weight = "0.46546450843490383" />
    <synapse sourceNeuronName = "5" targetNeuronName = "32" weight = "0.23760588891391787" />
    <synapse sourceNeuronName = "5" targetNeuronName = "33" weight = "-0.646223230696241" />
    <synapse sourceNeuronName = "5" targetNeuronName = "34" weight = "0.7085210479106006" />
    <synapse sourceNeuronName = "5" targetNeuronName = "35" weight = "0.9349156903622398" />
    <synapse sourceNeuronName = "5" targetNeuronName = "36" weight = "0.5869917432311498" />
    <synapse sourceNeuronName = "5" targetNeuronName = "37" weight = "-0.14163985132941082" />
    <synapse sourceNeuronName = "5" targetNeuronName = "38" weight = "-0.8129352179335261" />
    <synapse sourceNeuronName = "5" targetNeuronName = "39" weight = "0.5649313216396838" />
    <synapse sourceNeuronName = "5" targetNeuronName = "40" weight = "-0.7455482670795275" />
    <synapse sourceNeuronName = "5" targetNeuronName = "41" weight = "-0.4803663830667759" />
    <synapse sourceNeuronName = "5" targetNeuronName = "42" weight = "0.3171923740197682" />
    <synapse sourceNeuronName = "5" targetNeuronName = "43" weight = "-0.7414491187150787" />
    <synapse sourceNeuronName = "6" targetNeuronName = "10" weight = "0.3242901531663738" />
    <synapse sourceNeuronName = "6" targetNeuronName = "11" weight = "0.3894745906006136" />
    <synapse sourceNeuronName = "6" targetNeuronName = "12" weight = "0.9701534659461111" />
    <synapse sourceNeuronName = "6" targetNeuronName = "13" weight = "-0.44223440492508836" />
    <synapse sourceNeuronName = "6" targetNeuronName = "14" weight = "-0.42832135643586433" />
    <synapse sourceNeuronName = "6" targetNeuronName = "15" weight = "0.21944781184029094" />
    <synapse sourceNeuronName = "6" targetNeuronName = "16" weight = "-0.31519177877916515" />
    <synapse sourceNeuronName = "6" targetNeuronName = "17" weight = "-0.4393182546677068" />
    <synapse sourceNeuronName = "6" targetNeuronName = "18" weight = "-0.024939460528967228" />
    <synapse sourceNeuronName = "6" targetNeuronName = "19" weight = "0.6660593604007288" />
    <synapse sourceNeuronName = "6" targetNeuronName = "20" weight = "-0.7720495469866357" />
    <synapse sourceNeuronName = "6" targetNeuronName = "21" weight = "0.5653172701046885" />
    <synapse sourceNeuronName = "6" targetNeuronName = "22" weight = "0.22984226836734578" />
    <synapse sourceNeuronName = "6" targetNeuronName = "23" weight = "0.09187043771944903" />
    <synapse sourceNeuronName = "6" targetNeuronName = "24" weight = "-0.021948865812479568" />
    <synapse sourceNeuronName = "6" targetNeuronName = "25" weight = "0.6380852296108912" />
    <synapse sourceNeuronName = "6" targetNeuronName = "26" weight = "0.906436828276356" />
    <synapse sourceNeuronName = "6" targetNeuronName = "27" weight = "-0.5549912832908253" />
    <synapse sourceNeuronName = "6" targetNeuronName = "28" weight = "0.747532042050896" />
    <synapse sourceNeuronName = "6" targetNeuronName = "29" weight = "0.4885883960436377" />
    <synapse sourceNeuronName = "6" targetNeuronName = "30" weight = "0.6491057379085854" />
    <synapse sourceNeuronName = "6" targetNeuronName = "31" weight = "-0.7255091400705356" />
    <synapse sourceNeuronName = "6" targetNeuronName = "32" weight = "-0.902834103296438" />
    <synapse sourceNeuronName = "6" targetNeuronName = "33" weight = "0.5401412789306692" />
    <synapse sourceNeuronName = "6" targetNeuronName = "34" weight = "-0.06211261734191775" />
    <synapse sourceNeuronName = "6" targetNeuronName = "35" weight = "-0.2646812472052451" />
    <synapse sourceNeuronName = "6" targetNeuronName = "36" weight = "-0.7165072424110259" />
    <synapse sourceNeuronName = "6" targetNeuronName = "37" weight = "0.17370246398365152" />
    <synapse sourceNeuronName = "6" targetNeuronName = "38" weight = "0.9946233416560608" />
    <synapse sourceNeuronName = "6" targetNeuronName = "39" weight = "0.3901697641511186" />
    <synapse sourceNeuronName = "6" targetNeuronName = "40" weight = "-0.0688580767725071" />
    <synapse sourceNeuronName = "6" targetNeuronName = "41" weight = "0.09580694825491731" />
    <synapse sourceNeuronName = "6" targetNeuronName = "42" weight = "-0.7097554160629203" />
    <synapse sourceNeuronName = "6" targetNeuronName = "43" weight = "-0.4465024714769863" />
    <synapse sourceNeuronName = "7" targetNeuronName = "10" weight = "0.7487301613798576" />
    <synapse sourceNeuronName = "7" targetNeuronName = "11" weight = "-0.17750308361006484" />
    <synapse sourceNeuronName = "7" targetNeuronName = "12" weight = "-0.2370303282081725" />
    <synapse sourceNeuronName = "7" targetNeuronName = "13" weight = "0.4332376923762462" />
    <synapse sourceNeuronName = "7" targetNeuronName = "14" weight = "0.6575587967619159" />
    <synapse sourceNeuronName = "7" targetNeuronName = "15" weight = "-0.3645262429217828" />
    <synapse sourceNeuronName = "7" targetNeuronName = "16" weight = "0.5595845016148644" />
    <synapse sourceNeuronName = "7" targetNeuronName = "17" weight = "-0.6270506494953649" />
    <synapse sourceNeuronName = "7" targetNeuronName = "18" weight = "-0.2395699160387461" />
    <synapse sourceNeuronName = "7" targetNeuronName = "19" weight = "-0.07108314021872197" />
    <synapse sourceNeuronName = "7" targetNeuronName = "20" weight = "-0.3932299900909466" />
    <synapse sourceNeuronName = "7" targetNeuronName = "21" weight = "0.09663018244592214" />
    <synapse sourceNeuronName = "7" targetNeuronName = "22" weight = "0.8963080020714711" />
    <synapse sourceNeuronName = "7" targetNeuronName = "23" weight = "-0.15046638766541376" />
    <synapse sourceNeuronName = "7" targetNeuronName = "24" weight = "-0.7084662104946078" />
    <synapse sourceNeuronName = "7" targetNeuronName = "25" weight = "0.9837104401480647" />
    <synapse sourceNeuronName = "7" targetNeuronName = "26" weight = "-0.9097006083300485" />
    <synapse sourceNeuronName = "7" targetNeuronName = "27" weight = "0.557480241151816" />
    <synapse sourceNeuronName = "7" targetNeuronName = "28" weight = "-0.5698565664657336" />
    <synapse sourceNeuronName = "7" targetNeuronName = "29" weight = "0.3789659549527238" />
    <synapse sourceNeuronName = "7" targetNeuronName = "30" weight = "0.3418866047132392" />
    <synapse sourceNeuronName = "7" targetNeuronName = "31" weight = "-0.9980333363225677" />
    <synapse sourceNeuronName = "7" targetNeuronName = "32" weight = "0.8597662944803546" />
    <synapse sourceNeuronName = "7" targetNeuronName = "33" weight = "-0.11286795573850372" />
    <synapse sourceNeuronName = "7" targetNeuronName = "34" weight = "0.575522749376264" />
    <synapse sourceNeuronName = "7" targetNeuronName = "35" weight = "-0.41565423737486507" />
    <synapse sourceNeuronName = "7" targetNeuronName = "36" weight = "-0.5979145571333422" />
    <synapse sourceNeuronName = "7" targetNeuronName = "37" weight = "-0.21334089032175174" />
    <synapse sourceNeuronName = "7" targetNeuronName = "38" weight = "0.613137341518456" />
    <synapse sourceNeuronName = "7" targetNeuronName = "39" weight = "0.49937954567040843" />
    <synapse sourceNeuronName = "7" targetNeuronName = "40" weight = "-0.006364360634946609" />
    <synapse sourceNeuronName = "7" targetNeuronName = "41" weight = "0.17551542017837973" />
    <synapse sourceNeuronName = "7" targetNeuronName = "42" weight = "0.7290222074177828" />
    <synapse sourceNeuronName = "7" targetNeuronName = "43" weight = "-0.2288856658047529" />
    <synapse sourceNeuronName = "8" targetNeuronName = "10" weight = "-0.008194718559170866" />
    <synapse sourceNeuronName = "8" targetNeuronName = "11" weight = "-0.19689009014696812" />
    <synapse sourceNeuronName = "8" targetNeuronName = "12" weight = "0.26176855920928666" />
    <synapse sourceNeuronName = "8" targetNeuronName = "13" weight = "0.6888279810506057" />
    <synapse sourceNeuronName = "8" targetNeuronName = "14" weight = "-0.06408167863807379" />
    <synapse sourceNeuronName = "8" targetNeuronName = "15" weight = "0.6984890989426684" />
    <synapse sourceNeuronName = "8" targetNeuronName = "16" weight = "0.939088653566476" />
    <synapse sourceNeuronName = "8" targetNeuronName = "17" weight = "0.2509767941536696" />
    <synapse sourceNeuronName = "8" targetNeuronName = "18" weight = "0.18806317286914598" />
    <synapse sourceNeuronName = "8" targetNeuronName = "19" weight = "-0.06748838587119055" />
    <synapse sourceNeuronName = "8" targetNeuronName = "20" weight = "0.9950427788018827" />
    <synapse sourceNeuronName = "8" targetNeuronName = "21" weight = "0.4835511471213425" />
    <synapse sourceNeuronName = "8" targetNeuronName = "22" weight = "0.05299886942631615" />
    <synapse sourceNeuronName = "8" targetNeuronName = "23" weight = "0.37485860081885236" />
    <synapse sourceNeuronName = "8" targetNeuronName = "24" weight = "-0.021856114036235885" />
    <synapse sourceNeuronName = "8" targetNeuronName = "25" weight = "-0.9245469826493735" />
    <synapse sourceNeuronName = "8" targetNeuronName = "26" weight = "0.5238512673644116" />
    <synapse sourceNeuronName = "8" targetNeuronName = "27" weight = "-0.23411146041640918" />
    <synapse sourceNeuronName = "8" targetNeuronName = "28" weight = "-0.3012710142074695" />
    <synapse sourceNeuronName = "8" targetNeuronName = "29" weight = "0.3393080370415795" />
    <synapse sourceNeuronName = "8" targetNeuronName = "30" weight = "-0.647502979118646" />
    <synapse sourceNeuronName = "8" targetNeuronName = "31" weight = "-0.5391026018122413" />
    <synapse sourceNeuronName = "8" targetNeuronName = "32" weight = "-0.7658542365266754" />
    <synapse sourceNeuronName = "8" targetNeuronName = "33" weight = "-0.42633148330711057" />
    <synapse sourceNeuronName = "8" targetNeuronName = "34" weight = "-0.47005442417220156" />
    <synapse sourceNeuronName = "8" targetNeuronName = "35" weight = "0.17003587617078497" />
    <synapse sourceNeuronName = "8" targetNeuronName = "36" weight = "-0.6083112835301487" />
    <synapse sourceNeuronName = "8" targetNeuronName = "37" weight = "0.2196248639954943" />
    <synapse sourceNeuronName = "8" targetNeuronName = "38" weight = "0.5271558898190785" />
    <synapse sourceNeuronName = "8" targetNeuronName = "39" weight = "0.4502927050523655" />
    <synapse sourceNeuronName = "8" targetNeuronName = "40" weight = "-0.06809186725215177" />
    <synapse sourceNeuronName = "8" targetNeuronName = "41" weight = "0.7947740296377019" />
    <synapse sourceNeuronName = "8" targetNeuronName = "42" weight = "-0.11658932624788898" />
    <synapse sourceNeuronName = "8" targetNeuronName = "43" weight = "-0.731304506898993" />
    <synapse sourceNeuronName = "9" targetNeuronName = "10" weight = "-0.38579982081999686" />
    <synapse sourceNeuronName = "9" targetNeuronName = "11" weight = "0.6127956698731418" />
    <synapse sourceNeuronName = "9" targetNeuronName = "12" weight = "-0.9670744594886866" />
    <synapse sourceNeuronName = "9" targetNeuronName = "13" weight = "-0.6634566540424225" />
    <synapse sourceNeuronName = "9" targetNeuronName = "14" weight = "0.4090897127038988" />
    <synapse sourceNeuronName = "9" targetNeuronName = "15" weight = "-0.21232511371771623" />
    <synapse sourceNeuronName = "9" targetNeuronName = "16" weight = "-0.4389218738119016" />
    <synapse sourceNeuronName = "9" targetNeuronName = "17" weight = "-0.19055314529652745" />
    <synapse sourceNeuronName = "9" targetNeuronName = "18" weight = "-0.19572223192352656" />
    <synapse sourceNeuronName = "9" targetNeuronName = "19" weight = "-0.37820895511748387" />
    <synapse sourceNeuronName = "9" targetNeuronName = "20" weight = "0.1810915465035028" />
    <synapse sourceNeuronName = "9" targetNeuronName = "21" weight = "-0.9484137061366595" />
    <synapse sourceNeuronName = "9" targetNeuronName = "22" weight = "-0.878169141421502" />
    <synapse sourceNeuronName = "9" targetNeuronName = "23" weight = "-0.34479163630092224" />
    <synapse sourceNeuronName = "9" targetNeuronName = "24" weight = "-0.5895721805880973" />
    <synapse sourceNeuronName = "9" targetNeuronName = "25" weight = "-0.4939240065083479" />
    <synapse sourceNeuronName = "9" targetNeuronName = "26" weight = "0.6059718962236045" />
    <synapse sourceNeuronName = "9" targetNeuronName = "27" weight = "-0.1994119819416751" />
    <synapse sourceNeuronName = "9" targetNeuronName = "28" weight = "-0.6668422389978081" />
    <synapse sourceNeuronName = "9" targetNeuronName = "29" weight = "-0.0616101118637582" />
    <synapse sourceNeuronName = "9" targetNeuronName = "30" weight = "-0.4344416254450527" />
    <synapse sourceNeuronName = "9" targetNeuronName = "31" weight = "0.6132198812183367" />
    <synapse sourceNeuronName = "9" targetNeuronName = "32" weight = "0.9475950808584028" />
    <synapse sourceNeuronName = "9" targetNeuronName = "33" weight = "-0.005812982573081049" />
    <synapse sourceNeuronName = "9" targetNeuronName = "34" weight = "0.11473893302136817" />
    <synapse sourceNeuronName = "9" targetNeuronName = "35" weight = "0.8040973604346118" />
    <synapse sourceNeuronName = "9" targetNeuronName = "36" weight = "0.36337212524480145" />
    <synapse sourceNeuronName = "9" targetNeuronName = "37" weight = "-0.8685744557932982" />
    <synapse sourceNeuronName = "9" targetNeuronName = "38" weight = "-0.9305825896958495" />
    <synapse sourceNeuronName = "9" targetNeuronName = "39" weight = "-0.8796251553197925" />
    <synapse sourceNeuronName = "9" targetNeuronName = "40" weight = "-0.3292014588982761" />
    <synapse sourceNeuronName = "9" targetNeuronName = "41" weight = "0.7738212292918507" />
    <synapse sourceNeuronName = "9" targetNeuronName = "42" weight = "0.12758577385171588" />
    <synapse sourceNeuronName = "9" targetNeuronName = "43" weight = "0.1722862541907808" />
</neuralNetwork>