<neuralNetwork>
    <neuron name = "0" type = "sensor" linkName = "Link2" />
    <neuron name = "1" type = "sensor" linkName = "Link4" />
    <neuron name = "2" type = "sensor" linkName = "Link7" />
    <neuron name = "3" type = "motor"  jointName = "Link0_Cube00" />
    <neuron name = "4" type = "motor"  jointName = "Cube00_Cube10" />
    <neuron name = "5" type = "motor"  jointName = "Cube10_Link1" />
    <neuron name = "6" type = "motor"  jointName = "Link0_Cube01" />
    <neuron name = "7" type = "motor"  jointName = "Cube01_Link2" />
    <neuron name = "8" type = "motor"  jointName = "Link2_Cube02" />
    <neuron name = "9" type = "motor"  jointName = "Cube02_Cube12" />
    <neuron name = "10" type = "motor"  jointName = "Cube12_Link3" />
    <neuron name = "11" type = "motor"  jointName = "Link2_Cube03" />
    <neuron name = "12" type = "motor"  jointName = "Cube03_Link4" />
    <neuron name = "13" type = "motor"  jointName = "Link4_Cube04" />
    <neuron name = "14" type = "motor"  jointName = "Cube04_Cube14" />
    <neuron name = "15" type = "motor"  jointName = "Cube14_Link5" />
    <neuron name = "16" type = "motor"  jointName = "Link2_Cube05" />
    <neuron name = "17" type = "motor"  jointName = "Cube05_Link6" />
    <neuron name = "18" type = "motor"  jointName = "Link6_Cube06" />
    <neuron name = "19" type = "motor"  jointName = "Cube06_Cube16" />
    <neuron name = "20" type = "motor"  jointName = "Cube16_Link7" />
    <neuron name = "21" type = "motor"  jointName = "Link2_Link8" />
    <neuron name = "22" type = "motor"  jointName = "Link2_Cube08" />
    <neuron name = "23" type = "motor"  jointName = "Cube08_Cube18" />
    <neuron name = "24" type = "motor"  jointName = "Cube18_Link9" />
    <synapse sourceNeuronName = "0" targetNeuronName = "3" weight = "0.9929451117248711" />
    <synapse sourceNeuronName = "0" targetNeuronName = "4" weight = "0.1214671523038231" />
    <synapse sourceNeuronName = "0" targetNeuronName = "5" weight = "-0.0264410284306682" />
    <synapse sourceNeuronName = "0" targetNeuronName = "6" weight = "0.7683380244538294" />
    <synapse sourceNeuronName = "0" targetNeuronName = "7" weight = "0.8043847190713347" />
    <synapse sourceNeuronName = "0" targetNeuronName = "8" weight = "-0.3013428025441329" />
    <synapse sourceNeuronName = "0" targetNeuronName = "9" weight = "-0.6717901690310535" />
    <synapse sourceNeuronName = "0" targetNeuronName = "10" weight = "0.6632842137022958" />
    <synapse sourceNeuronName = "0" targetNeuronName = "11" weight = "-0.1285401420193597" />
    <synapse sourceNeuronName = "0" targetNeuronName = "12" weight = "-0.25131118683929965" />
    <synapse sourceNeuronName = "0" targetNeuronName = "13" weight = "-0.23790935349708642" />
    <synapse sourceNeuronName = "0" targetNeuronName = "14" weight = "-0.7306009290413935" />
    <synapse sourceNeuronName = "0" targetNeuronName = "15" weight = "-0.2910748500365443" />
    <synapse sourceNeuronName = "0" targetNeuronName = "16" weight = "-0.7776882547777428" />
    <synapse sourceNeuronName = "0" targetNeuronName = "17" weight = "-0.8695738130344135" />
    <synapse sourceNeuronName = "0" targetNeuronName = "18" weight = "-0.8674955479184834" />
    <synapse sourceNeuronName = "0" targetNeuronName = "19" weight = "0.9893898294963899" />
    <synapse sourceNeuronName = "0" targetNeuronName = "20" weight = "0.29880954866441134" />
    <synapse sourceNeuronName = "0" targetNeuronName = "21" weight = "0.28512233724855873" />
    <synapse sourceNeuronName = "0" targetNeuronName = "22" weight = "-0.30637835507291" />
    <synapse sourceNeuronName = "0" targetNeuronName = "23" weight = "-0.5870023328481297" />
    <synapse sourceNeuronName = "0" targetNeuronName = "24" weight = "0.18932066249174095" />
    <synapse sourceNeuronName = "1" targetNeuronName = "3" weight = "0.8190770208500315" />
    <synapse sourceNeuronName = "1" targetNeuronName = "4" weight = "-0.5397489636287465" />
    <synapse sourceNeuronName = "1" targetNeuronName = "5" weight = "0.8433231640101011" />
    <synapse sourceNeuronName = "1" targetNeuronName = "6" weight = "0.7577935669033093" />
    <synapse sourceNeuronName = "1" targetNeuronName = "7" weight = "-0.2578822153903726" />
    <synapse sourceNeuronName = "1" targetNeuronName = "8" weight = "-0.9523211300987695" />
    <synapse sourceNeuronName = "1" targetNeuronName = "9" weight = "0.4600882784814708" />
    <synapse sourceNeuronName = "1" targetNeuronName = "10" weight = "0.9763956556810998" />
    <synapse sourceNeuronName = "1" targetNeuronName = "11" weight = "0.3184850779534987" />
    <synapse sourceNeuronName = "1" targetNeuronName = "12" weight = "0.023402822196441297" />
    <synapse sourceNeuronName = "1" targetNeuronName = "13" weight = "-0.5215691810266598" />
    <synapse sourceNeuronName = "1" targetNeuronName = "14" weight = "-0.8234021071328481" />
    <synapse sourceNeuronName = "1" targetNeuronName = "15" weight = "0.11783870631550752" />
    <synapse sourceNeuronName = "1" targetNeuronName = "16" weight = "0.2200529460389189" />
    <synapse sourceNeuronName = "1" targetNeuronName = "17" weight = "-0.5824895042832314" />
    <synapse sourceNeuronName = "1" targetNeuronName = "18" weight = "0.812227288580283" />
    <synapse sourceNeuronName = "1" targetNeuronName = "19" weight = "-0.5671024447108464" />
    <synapse sourceNeuronName = "1" targetNeuronName = "20" weight = "0.18037528182212603" />
    <synapse sourceNeuronName = "1" targetNeuronName = "21" weight = "0.7423684201882419" />
    <synapse sourceNeuronName = "1" targetNeuronName = "22" weight = "-0.22170582548838036" />
    <synapse sourceNeuronName = "1" targetNeuronName = "23" weight = "0.08476087762729922" />
    <synapse sourceNeuronName = "1" targetNeuronName = "24" weight = "0.5272350551057259" />
    <synapse sourceNeuronName = "2" targetNeuronName = "3" weight = "0.6764722389544713" />
    <synapse sourceNeuronName = "2" targetNeuronName = "4" weight = "-0.6730776109173087" />
    <synapse sourceNeuronName = "2" targetNeuronName = "5" weight = "-0.6715268070658695" />
    <synapse sourceNeuronName = "2" targetNeuronName = "6" weight = "0.6102248851558834" />
    <synapse sourceNeuronName = "2" targetNeuronName = "7" weight = "0.7374511994843562" />
    <synapse sourceNeuronName = "2" targetNeuronName = "8" weight = "0.9196269605528262" />
    <synapse sourceNeuronName = "2" targetNeuronName = "9" weight = "0.9665357365536815" />
    <synapse sourceNeuronName = "2" targetNeuronName = "10" weight = "0.7226459749271479" />
    <synapse sourceNeuronName = "2" targetNeuronName = "11" weight = "0.7929634361363411" />
    <synapse sourceNeuronName = "2" targetNeuronName = "12" weight = "-0.33138073013957015" />
    <synapse sourceNeuronName = "2" targetNeuronName = "13" weight = "0.5713003218781378" />
    <synapse sourceNeuronName = "2" targetNeuronName = "14" weight = "-0.8343702920933656" />
    <synapse sourceNeuronName = "2" targetNeuronName = "15" weight = "0.3319845391971399" />
    <synapse sourceNeuronName = "2" targetNeuronName = "16" weight = "-0.7945049556140844" />
    <synapse sourceNeuronName = "2" targetNeuronName = "17" weight = "0.4303544500273626" />
    <synapse sourceNeuronName = "2" targetNeuronName = "18" weight = "0.03581062741546792" />
    <synapse sourceNeuronName = "2" targetNeuronName = "19" weight = "0.47824314795533596" />
    <synapse sourceNeuronName = "2" targetNeuronName = "20" weight = "-0.9765247037776703" />
    <synapse sourceNeuronName = "2" targetNeuronName = "21" weight = "0.7582748533875188" />
    <synapse sourceNeuronName = "2" targetNeuronName = "22" weight = "-0.7566537968958915" />
    <synapse sourceNeuronName = "2" targetNeuronName = "23" weight = "-0.04848846319333222" />
    <synapse sourceNeuronName = "2" targetNeuronName = "24" weight = "0.7832289895854119" />
</neuralNetwork>