<neuralNetwork>
    <neuron name = "0" type = "sensor" linkName = "Link1" />
    <neuron name = "1" type = "sensor" linkName = "Link2" />
    <neuron name = "2" type = "sensor" linkName = "Link4" />
    <neuron name = "3" type = "sensor" linkName = "Link5" />
    <neuron name = "4" type = "sensor" linkName = "Link7" />
    <neuron name = "5" type = "motor"  jointName = "Link0_Link1" />
    <neuron name = "6" type = "motor"  jointName = "Link0_Cube01" />
    <neuron name = "7" type = "motor"  jointName = "Cube01_Cube11" />
    <neuron name = "8" type = "motor"  jointName = "Cube11_Link2" />
    <neuron name = "9" type = "motor"  jointName = "Link0_Cube02" />
    <neuron name = "10" type = "motor"  jointName = "Cube02_Cube12" />
    <neuron name = "11" type = "motor"  jointName = "Cube12_Link3" />
    <neuron name = "12" type = "motor"  jointName = "Link2_Link4" />
    <neuron name = "13" type = "motor"  jointName = "Link0_Cube04" />
    <neuron name = "14" type = "motor"  jointName = "Cube04_Cube14" />
    <neuron name = "15" type = "motor"  jointName = "Cube14_Link5" />
    <neuron name = "16" type = "motor"  jointName = "Link5_Cube05" />
    <neuron name = "17" type = "motor"  jointName = "Cube05_Cube15" />
    <neuron name = "18" type = "motor"  jointName = "Cube15_Link6" />
    <neuron name = "19" type = "motor"  jointName = "Link2_Cube06" />
    <neuron name = "20" type = "motor"  jointName = "Cube06_Cube16" />
    <neuron name = "21" type = "motor"  jointName = "Cube16_Link7" />
    <neuron name = "22" type = "motor"  jointName = "Link0_Cube07" />
    <neuron name = "23" type = "motor"  jointName = "Cube07_Link8" />
    <neuron name = "24" type = "motor"  jointName = "Link8_Cube08" />
    <neuron name = "25" type = "motor"  jointName = "Cube08_Link9" />
    <synapse sourceNeuronName = "0" targetNeuronName = "5" weight = "0.2389477433243381" />
    <synapse sourceNeuronName = "0" targetNeuronName = "6" weight = "-0.08686051107738035" />
    <synapse sourceNeuronName = "0" targetNeuronName = "7" weight = "-0.27831267052949227" />
    <synapse sourceNeuronName = "0" targetNeuronName = "8" weight = "0.2580816296585271" />
    <synapse sourceNeuronName = "0" targetNeuronName = "9" weight = "-0.7955433988988376" />
    <synapse sourceNeuronName = "0" targetNeuronName = "10" weight = "0.9335722706097289" />
    <synapse sourceNeuronName = "0" targetNeuronName = "11" weight = "0.9311187271596455" />
    <synapse sourceNeuronName = "0" targetNeuronName = "12" weight = "-0.02165128691090601" />
    <synapse sourceNeuronName = "0" targetNeuronName = "13" weight = "-0.3178691041256645" />
    <synapse sourceNeuronName = "0" targetNeuronName = "14" weight = "0.25283418046491235" />
    <synapse sourceNeuronName = "0" targetNeuronName = "15" weight = "0.4279798972523663" />
    <synapse sourceNeuronName = "0" targetNeuronName = "16" weight = "0.3863297018688556" />
    <synapse sourceNeuronName = "0" targetNeuronName = "17" weight = "-0.8906491058538828" />
    <synapse sourceNeuronName = "0" targetNeuronName = "18" weight = "0.776763374357893" />
    <synapse sourceNeuronName = "0" targetNeuronName = "19" weight = "-0.8378919110633574" />
    <synapse sourceNeuronName = "0" targetNeuronName = "20" weight = "-0.8140908746603959" />
    <synapse sourceNeuronName = "0" targetNeuronName = "21" weight = "0.5410060933000711" />
    <synapse sourceNeuronName = "0" targetNeuronName = "22" weight = "0.786603563688727" />
    <synapse sourceNeuronName = "0" targetNeuronName = "23" weight = "-0.8472163427328909" />
    <synapse sourceNeuronName = "0" targetNeuronName = "24" weight = "0.6497995895641124" />
    <synapse sourceNeuronName = "0" targetNeuronName = "25" weight = "-0.5610765842321441" />
    <synapse sourceNeuronName = "1" targetNeuronName = "5" weight = "0.3406877419589289" />
    <synapse sourceNeuronName = "1" targetNeuronName = "6" weight = "0.6985081553777184" />
    <synapse sourceNeuronName = "1" targetNeuronName = "7" weight = "-0.7947593302684768" />
    <synapse sourceNeuronName = "1" targetNeuronName = "8" weight = "0.18750422433796032" />
    <synapse sourceNeuronName = "1" targetNeuronName = "9" weight = "0.9975268458405109" />
    <synapse sourceNeuronName = "1" targetNeuronName = "10" weight = "0.18017271653039435" />
    <synapse sourceNeuronName = "1" targetNeuronName = "11" weight = "0.7042398953984346" />
    <synapse sourceNeuronName = "1" targetNeuronName = "12" weight = "0.38919355853653403" />
    <synapse sourceNeuronName = "1" targetNeuronName = "13" weight = "-0.10461805297275628" />
    <synapse sourceNeuronName = "1" targetNeuronName = "14" weight = "0.3084191777018628" />
    <synapse sourceNeuronName = "1" targetNeuronName = "15" weight = "-0.220356010765409" />
    <synapse sourceNeuronName = "1" targetNeuronName = "16" weight = "0.5008071858016752" />
    <synapse sourceNeuronName = "1" targetNeuronName = "17" weight = "0.16097821358734987" />
    <synapse sourceNeuronName = "1" targetNeuronName = "18" weight = "0.8847720881001415" />
    <synapse sourceNeuronName = "1" targetNeuronName = "19" weight = "-0.9165903840760634" />
    <synapse sourceNeuronName = "1" targetNeuronName = "20" weight = "0.07168618612485345" />
    <synapse sourceNeuronName = "1" targetNeuronName = "21" weight = "-0.8182673993890095" />
    <synapse sourceNeuronName = "1" targetNeuronName = "22" weight = "0.8392802793432161" />
    <synapse sourceNeuronName = "1" targetNeuronName = "23" weight = "-0.6042020513449267" />
    <synapse sourceNeuronName = "1" targetNeuronName = "24" weight = "-0.33999540365981895" />
    <synapse sourceNeuronName = "1" targetNeuronName = "25" weight = "-0.1158904700330925" />
    <synapse sourceNeuronName = "2" targetNeuronName = "5" weight = "-0.004985626450942027" />
    <synapse sourceNeuronName = "2" targetNeuronName = "6" weight = "-0.6997276829502566" />
    <synapse sourceNeuronName = "2" targetNeuronName = "7" weight = "-0.03630146429494152" />
    <synapse sourceNeuronName = "2" targetNeuronName = "8" weight = "0.7025389750392974" />
    <synapse sourceNeuronName = "2" targetNeuronName = "9" weight = "-0.34338653994366175" />
    <synapse sourceNeuronName = "2" targetNeuronName = "10" weight = "-0.9674114876646294" />
    <synapse sourceNeuronName = "2" targetNeuronName = "11" weight = "0.023386859542594785" />
    <synapse sourceNeuronName = "2" targetNeuronName = "12" weight = "0.867957689316148" />
    <synapse sourceNeuronName = "2" targetNeuronName = "13" weight = "0.46275700257313024" />
    <synapse sourceNeuronName = "2" targetNeuronName = "14" weight = "0.9397499188955845" />
    <synapse sourceNeuronName = "2" targetNeuronName = "15" weight = "0.739520097498588" />
    <synapse sourceNeuronName = "2" targetNeuronName = "16" weight = "0.5966813652890042" />
    <synapse sourceNeuronName = "2" targetNeuronName = "17" weight = "0.18742791328670383" />
    <synapse sourceNeuronName = "2" targetNeuronName = "18" weight = "0.2119844209191588" />
    <synapse sourceNeuronName = "2" targetNeuronName = "19" weight = "0.868020912693044" />
    <synapse sourceNeuronName = "2" targetNeuronName = "20" weight = "0.598747034692076" />
    <synapse sourceNeuronName = "2" targetNeuronName = "21" weight = "0.4209551308175201" />
    <synapse sourceNeuronName = "2" targetNeuronName = "22" weight = "-0.3626975609427714" />
    <synapse sourceNeuronName = "2" targetNeuronName = "23" weight = "0.42976467321148903" />
    <synapse sourceNeuronName = "2" targetNeuronName = "24" weight = "0.014483802747228491" />
    <synapse sourceNeuronName = "2" targetNeuronName = "25" weight = "-0.09903608316295442" />
    <synapse sourceNeuronName = "3" targetNeuronName = "5" weight = "0.17366922013527275" />
    <synapse sourceNeuronName = "3" targetNeuronName = "6" weight = "0.17265281856512904" />
    <synapse sourceNeuronName = "3" targetNeuronName = "7" weight = "0.001822465541107432" />
    <synapse sourceNeuronName = "3" targetNeuronName = "8" weight = "-0.06657275038870103" />
    <synapse sourceNeuronName = "3" targetNeuronName = "9" weight = "0.2424749333016043" />
    <synapse sourceNeuronName = "3" targetNeuronName = "10" weight = "0.21437352529147846" />
    <synapse sourceNeuronName = "3" targetNeuronName = "11" weight = "-0.14101727987156276" />
    <synapse sourceNeuronName = "3" targetNeuronName = "12" weight = "0.34990953875799713" />
    <synapse sourceNeuronName = "3" targetNeuronName = "13" weight = "0.19442196436245895" />
    <synapse sourceNeuronName = "3" targetNeuronName = "14" weight = "0.8024197663859469" />
    <synapse sourceNeuronName = "3" targetNeuronName = "15" weight = "0.14380332971788246" />
    <synapse sourceNeuronName = "3" targetNeuronName = "16" weight = "-0.372085727610145" />
    <synapse sourceNeuronName = "3" targetNeuronName = "17" weight = "-0.8890675116790163" />
    <synapse sourceNeuronName = "3" targetNeuronName = "18" weight = "0.12134187790379669" />
    <synapse sourceNeuronName = "3" targetNeuronName = "19" weight = "0.46199857122805565" />
    <synapse sourceNeuronName = "3" targetNeuronName = "20" weight = "0.7582003578131473" />
    <synapse sourceNeuronName = "3" targetNeuronName = "21" weight = "-0.2013142236635881" />
    <synapse sourceNeuronName = "3" targetNeuronName = "22" weight = "-0.21238022852146354" />
    <synapse sourceNeuronName = "3" targetNeuronName = "23" weight = "-0.25785907535972874" />
    <synapse sourceNeuronName = "3" targetNeuronName = "24" weight = "-0.5717000445825677" />
    <synapse sourceNeuronName = "3" targetNeuronName = "25" weight = "-0.6521961773752847" />
    <synapse sourceNeuronName = "4" targetNeuronName = "5" weight = "-0.6346872718610703" />
    <synapse sourceNeuronName = "4" targetNeuronName = "6" weight = "0.22163643315803605" />
    <synapse sourceNeuronName = "4" targetNeuronName = "7" weight = "0.08485488641077987" />
    <synapse sourceNeuronName = "4" targetNeuronName = "8" weight = "-0.8687598620137156" />
    <synapse sourceNeuronName = "4" targetNeuronName = "9" weight = "0.23827693722699617" />
    <synapse sourceNeuronName = "4" targetNeuronName = "10" weight = "-0.06905909286352263" />
    <synapse sourceNeuronName = "4" targetNeuronName = "11" weight = "-0.8169298053485337" />
    <synapse sourceNeuronName = "4" targetNeuronName = "12" weight = "-0.45422851627341077" />
    <synapse sourceNeuronName = "4" targetNeuronName = "13" weight = "-0.8649887683872328" />
    <synapse sourceNeuronName = "4" targetNeuronName = "14" weight = "-0.8606936482144671" />
    <synapse sourceNeuronName = "4" targetNeuronName = "15" weight = "0.8300638427683686" />
    <synapse sourceNeuronName = "4" targetNeuronName = "16" weight = "-0.9607088206743806" />
    <synapse sourceNeuronName = "4" targetNeuronName = "17" weight = "-0.36020879432866804" />
    <synapse sourceNeuronName = "4" targetNeuronName = "18" weight = "0.33925145364403697" />
    <synapse sourceNeuronName = "4" targetNeuronName = "19" weight = "0.7546873114170798" />
    <synapse sourceNeuronName = "4" targetNeuronName = "20" weight = "-0.46138258072226623" />
    <synapse sourceNeuronName = "4" targetNeuronName = "21" weight = "0.3914015810489264" />
    <synapse sourceNeuronName = "4" targetNeuronName = "22" weight = "-0.9894863197396171" />
    <synapse sourceNeuronName = "4" targetNeuronName = "23" weight = "0.7449885248244033" />
    <synapse sourceNeuronName = "4" targetNeuronName = "24" weight = "0.995052917300506" />
    <synapse sourceNeuronName = "4" targetNeuronName = "25" weight = "-0.6698211368934162" />
</neuralNetwork>