<neuralNetwork>
    <neuron name = "0" type = "sensor" linkName = "Link0" />
    <neuron name = "1" type = "sensor" linkName = "Link3" />
    <neuron name = "2" type = "motor"  jointName = "Link0_Cube00" />
    <neuron name = "3" type = "motor"  jointName = "Cube00_Cube10" />
    <neuron name = "4" type = "motor"  jointName = "Cube10_Link1" />
    <neuron name = "5" type = "motor"  jointName = "Link0_Cube01" />
    <neuron name = "6" type = "motor"  jointName = "Cube01_Cube11" />
    <neuron name = "7" type = "motor"  jointName = "Cube11_Link2" />
    <neuron name = "8" type = "motor"  jointName = "Link1_Cube02" />
    <neuron name = "9" type = "motor"  jointName = "Cube02_Cube12" />
    <neuron name = "10" type = "motor"  jointName = "Cube12_Link3" />
    <neuron name = "11" type = "motor"  jointName = "Link0_Cube03" />
    <neuron name = "12" type = "motor"  jointName = "Cube03_Cube13" />
    <neuron name = "13" type = "motor"  jointName = "Cube13_Link4" />
    <neuron name = "14" type = "motor"  jointName = "Link2_Cube04" />
    <neuron name = "15" type = "motor"  jointName = "Cube04_Link5" />
    <neuron name = "16" type = "motor"  jointName = "Link2_Cube05" />
    <neuron name = "17" type = "motor"  jointName = "Cube05_Cube15" />
    <neuron name = "18" type = "motor"  jointName = "Cube15_Link6" />
    <neuron name = "19" type = "motor"  jointName = "Link0_Link7" />
    <synapse sourceNeuronName = "0" targetNeuronName = "2" weight = "-0.8814255832159068" />
    <synapse sourceNeuronName = "0" targetNeuronName = "3" weight = "-0.31693995558587496" />
    <synapse sourceNeuronName = "0" targetNeuronName = "4" weight = "0.5600980718550099" />
    <synapse sourceNeuronName = "0" targetNeuronName = "5" weight = "-0.4679050918742338" />
    <synapse sourceNeuronName = "0" targetNeuronName = "6" weight = "-0.0774314264386855" />
    <synapse sourceNeuronName = "0" targetNeuronName = "7" weight = "-0.495934091928826" />
    <synapse sourceNeuronName = "0" targetNeuronName = "8" weight = "0.3776840321158417" />
    <synapse sourceNeuronName = "0" targetNeuronName = "9" weight = "0.6823361886742576" />
    <synapse sourceNeuronName = "0" targetNeuronName = "10" weight = "0.18155937233813169" />
    <synapse sourceNeuronName = "0" targetNeuronName = "11" weight = "0.8682618127436041" />
    <synapse sourceNeuronName = "0" targetNeuronName = "12" weight = "0.5878370440909246" />
    <synapse sourceNeuronName = "0" targetNeuronName = "13" weight = "-0.8044307218759723" />
    <synapse sourceNeuronName = "0" targetNeuronName = "14" weight = "0.9880911409966981" />
    <synapse sourceNeuronName = "0" targetNeuronName = "15" weight = "-0.5357648714343106" />
    <synapse sourceNeuronName = "0" targetNeuronName = "16" weight = "-0.10781940963096814" />
    <synapse sourceNeuronName = "0" targetNeuronName = "17" weight = "-0.6977628917610561" />
    <synapse sourceNeuronName = "0" targetNeuronName = "18" weight = "-0.8542056330776584" />
    <synapse sourceNeuronName = "0" targetNeuronName = "19" weight = "-0.15491577044578753" />
    <synapse sourceNeuronName = "1" targetNeuronName = "2" weight = "-0.27733038943857324" />
    <synapse sourceNeuronName = "1" targetNeuronName = "3" weight = "-0.3301588670710358" />
    <synapse sourceNeuronName = "1" targetNeuronName = "4" weight = "0.7468036564998439" />
    <synapse sourceNeuronName = "1" targetNeuronName = "5" weight = "-0.9801350331377054" />
    <synapse sourceNeuronName = "1" targetNeuronName = "6" weight = "0.9757963094341715" />
    <synapse sourceNeuronName = "1" targetNeuronName = "7" weight = "0.2832772966913153" />
    <synapse sourceNeuronName = "1" targetNeuronName = "8" weight = "-0.9021571042643612" />
    <synapse sourceNeuronName = "1" targetNeuronName = "9" weight = "-0.47442846978853126" />
    <synapse sourceNeuronName = "1" targetNeuronName = "10" weight = "-0.5417135186280053" />
    <synapse sourceNeuronName = "1" targetNeuronName = "11" weight = "-0.0021913108753761623" />
    <synapse sourceNeuronName = "1" targetNeuronName = "12" weight = "-0.9885816763375106" />
    <synapse sourceNeuronName = "1" targetNeuronName = "13" weight = "-0.18256705692781572" />
    <synapse sourceNeuronName = "1" targetNeuronName = "14" weight = "0.884885852273972" />
    <synapse sourceNeuronName = "1" targetNeuronName = "15" weight = "-0.7042367362450153" />
    <synapse sourceNeuronName = "1" targetNeuronName = "16" weight = "-0.9209983933859891" />
    <synapse sourceNeuronName = "1" targetNeuronName = "17" weight = "0.956173169360981" />
    <synapse sourceNeuronName = "1" targetNeuronName = "18" weight = "-0.23021967038220326" />
    <synapse sourceNeuronName = "1" targetNeuronName = "19" weight = "0.5884630997116291" />
</neuralNetwork>