<neuralNetwork>
    <neuron name = "0" type = "sensor" linkName = "Link1" />
    <neuron name = "1" type = "sensor" linkName = "Link7" />
    <neuron name = "2" type = "motor"  jointName = "Link0_Cube00" />
    <neuron name = "3" type = "motor"  jointName = "Cube00_Cube10" />
    <neuron name = "4" type = "motor"  jointName = "Cube10_Link1" />
    <neuron name = "5" type = "motor"  jointName = "Link0_Cube01" />
    <neuron name = "6" type = "motor"  jointName = "Cube01_Link2" />
    <neuron name = "7" type = "motor"  jointName = "Link2_Cube02" />
    <neuron name = "8" type = "motor"  jointName = "Cube02_Link3" />
    <neuron name = "9" type = "motor"  jointName = "Link2_Cube03" />
    <neuron name = "10" type = "motor"  jointName = "Cube03_Cube13" />
    <neuron name = "11" type = "motor"  jointName = "Cube13_Link4" />
    <neuron name = "12" type = "motor"  jointName = "Link3_Link5" />
    <neuron name = "13" type = "motor"  jointName = "Link5_Link6" />
    <neuron name = "14" type = "motor"  jointName = "Link2_Cube06" />
    <neuron name = "15" type = "motor"  jointName = "Cube06_Link7" />
    <synapse sourceNeuronName = "0" targetNeuronName = "2" weight = "-0.6919113394963818" />
    <synapse sourceNeuronName = "0" targetNeuronName = "3" weight = "0.8490610937504601" />
    <synapse sourceNeuronName = "0" targetNeuronName = "4" weight = "-0.3226993685773982" />
    <synapse sourceNeuronName = "0" targetNeuronName = "5" weight = "0.9169466070789603" />
    <synapse sourceNeuronName = "0" targetNeuronName = "6" weight = "0.3305008871275672" />
    <synapse sourceNeuronName = "0" targetNeuronName = "7" weight = "-0.007323734629509193" />
    <synapse sourceNeuronName = "0" targetNeuronName = "8" weight = "-0.37927318037359004" />
    <synapse sourceNeuronName = "0" targetNeuronName = "9" weight = "0.9330725462578227" />
    <synapse sourceNeuronName = "0" targetNeuronName = "10" weight = "0.8130229065065828" />
    <synapse sourceNeuronName = "0" targetNeuronName = "11" weight = "-0.1319546914848022" />
    <synapse sourceNeuronName = "0" targetNeuronName = "12" weight = "0.010558918194089717" />
    <synapse sourceNeuronName = "0" targetNeuronName = "13" weight = "0.08161846739578849" />
    <synapse sourceNeuronName = "0" targetNeuronName = "14" weight = "0.9923207137663224" />
    <synapse sourceNeuronName = "0" targetNeuronName = "15" weight = "0.36965469054793987" />
    <synapse sourceNeuronName = "1" targetNeuronName = "2" weight = "-0.9334028793472078" />
    <synapse sourceNeuronName = "1" targetNeuronName = "3" weight = "-0.7238753314724429" />
    <synapse sourceNeuronName = "1" targetNeuronName = "4" weight = "0.22711295405949405" />
    <synapse sourceNeuronName = "1" targetNeuronName = "5" weight = "0.22784340051191387" />
    <synapse sourceNeuronName = "1" targetNeuronName = "6" weight = "-0.4426462825172892" />
    <synapse sourceNeuronName = "1" targetNeuronName = "7" weight = "-0.9204854560996256" />
    <synapse sourceNeuronName = "1" targetNeuronName = "8" weight = "0.9869648830532647" />
    <synapse sourceNeuronName = "1" targetNeuronName = "9" weight = "-0.5705919352278541" />
    <synapse sourceNeuronName = "1" targetNeuronName = "10" weight = "0.846844470783573" />
    <synapse sourceNeuronName = "1" targetNeuronName = "11" weight = "0.8857287763090333" />
    <synapse sourceNeuronName = "1" targetNeuronName = "12" weight = "-0.35630322478240717" />
    <synapse sourceNeuronName = "1" targetNeuronName = "13" weight = "0.5445129414698302" />
    <synapse sourceNeuronName = "1" targetNeuronName = "14" weight = "0.582957757842699" />
    <synapse sourceNeuronName = "1" targetNeuronName = "15" weight = "0.27460037243874247" />
</neuralNetwork>