<neuralNetwork>
    <neuron name = "0" type = "sensor" linkName = "Link1" />
    <neuron name = "1" type = "sensor" linkName = "Link7" />
    <neuron name = "2" type = "motor"  jointName = "Link0_Cube00" />
    <neuron name = "3" type = "motor"  jointName = "Cube00_Cube10" />
    <neuron name = "4" type = "motor"  jointName = "Cube10_Link1" />
    <neuron name = "5" type = "motor"  jointName = "Link0_Cube01" />
    <neuron name = "6" type = "motor"  jointName = "Cube01_Link2" />
    <neuron name = "7" type = "motor"  jointName = "Link2_Cube02" />
    <neuron name = "8" type = "motor"  jointName = "Cube02_Link3" />
    <neuron name = "9" type = "motor"  jointName = "Link2_Cube03" />
    <neuron name = "10" type = "motor"  jointName = "Cube03_Cube13" />
    <neuron name = "11" type = "motor"  jointName = "Cube13_Link4" />
    <neuron name = "12" type = "motor"  jointName = "Link3_Link5" />
    <neuron name = "13" type = "motor"  jointName = "Link5_Link6" />
    <neuron name = "14" type = "motor"  jointName = "Link2_Cube06" />
    <neuron name = "15" type = "motor"  jointName = "Cube06_Link7" />
    <synapse sourceNeuronName = "0" targetNeuronName = "2" weight = "0.6774970625044563" />
    <synapse sourceNeuronName = "0" targetNeuronName = "3" weight = "0.3538458314661841" />
    <synapse sourceNeuronName = "0" targetNeuronName = "4" weight = "0.31327918523510845" />
    <synapse sourceNeuronName = "0" targetNeuronName = "5" weight = "-0.12104631631882001" />
    <synapse sourceNeuronName = "0" targetNeuronName = "6" weight = "-0.3371892140460726" />
    <synapse sourceNeuronName = "0" targetNeuronName = "7" weight = "0.9849128806437975" />
    <synapse sourceNeuronName = "0" targetNeuronName = "8" weight = "-0.3419005972460025" />
    <synapse sourceNeuronName = "0" targetNeuronName = "9" weight = "-0.9715550416437468" />
    <synapse sourceNeuronName = "0" targetNeuronName = "10" weight = "-0.4290815486320694" />
    <synapse sourceNeuronName = "0" targetNeuronName = "11" weight = "-0.709760191263747" />
    <synapse sourceNeuronName = "0" targetNeuronName = "12" weight = "-0.6112407275153764" />
    <synapse sourceNeuronName = "0" targetNeuronName = "13" weight = "-0.45053499640931305" />
    <synapse sourceNeuronName = "0" targetNeuronName = "14" weight = "0.7651945042978778" />
    <synapse sourceNeuronName = "0" targetNeuronName = "15" weight = "0.2702774138491315" />
    <synapse sourceNeuronName = "1" targetNeuronName = "2" weight = "-0.6890881675561045" />
    <synapse sourceNeuronName = "1" targetNeuronName = "3" weight = "0.9879154990981482" />
    <synapse sourceNeuronName = "1" targetNeuronName = "4" weight = "0.11039812503265733" />
    <synapse sourceNeuronName = "1" targetNeuronName = "5" weight = "0.5853456561612409" />
    <synapse sourceNeuronName = "1" targetNeuronName = "6" weight = "-0.3895768288497585" />
    <synapse sourceNeuronName = "1" targetNeuronName = "7" weight = "-0.6516468368808719" />
    <synapse sourceNeuronName = "1" targetNeuronName = "8" weight = "0.7002792056563711" />
    <synapse sourceNeuronName = "1" targetNeuronName = "9" weight = "-0.9981001076918297" />
    <synapse sourceNeuronName = "1" targetNeuronName = "10" weight = "-0.012003849462844718" />
    <synapse sourceNeuronName = "1" targetNeuronName = "11" weight = "-0.8062621921880719" />
    <synapse sourceNeuronName = "1" targetNeuronName = "12" weight = "-0.8158291523098176" />
    <synapse sourceNeuronName = "1" targetNeuronName = "13" weight = "-0.4706789317740663" />
    <synapse sourceNeuronName = "1" targetNeuronName = "14" weight = "-0.5101720057636074" />
    <synapse sourceNeuronName = "1" targetNeuronName = "15" weight = "0.36369094678772385" />
</neuralNetwork>