<neuralNetwork>
    <neuron name = "0" type = "sensor" linkName = "Link2" />
    <neuron name = "1" type = "sensor" linkName = "Link3" />
    <neuron name = "2" type = "sensor" linkName = "Link5" />
    <neuron name = "3" type = "sensor" linkName = "Link7" />
    <neuron name = "4" type = "motor"  jointName = "Link0_Cube00" />
    <neuron name = "5" type = "motor"  jointName = "Cube00_Link1" />
    <neuron name = "6" type = "motor"  jointName = "Link0_Link2" />
    <neuron name = "7" type = "motor"  jointName = "Link2_Cube02" />
    <neuron name = "8" type = "motor"  jointName = "Cube02_Cube12" />
    <neuron name = "9" type = "motor"  jointName = "Cube12_Link3" />
    <neuron name = "10" type = "motor"  jointName = "Link2_Cube03" />
    <neuron name = "11" type = "motor"  jointName = "Cube03_Link4" />
    <neuron name = "12" type = "motor"  jointName = "Link4_Link5" />
    <neuron name = "13" type = "motor"  jointName = "Link0_Link6" />
    <neuron name = "14" type = "motor"  jointName = "Link4_Cube06" />
    <neuron name = "15" type = "motor"  jointName = "Cube06_Link7" />
    <neuron name = "16" type = "motor"  jointName = "Link6_Cube07" />
    <neuron name = "17" type = "motor"  jointName = "Cube07_Link8" />
    <synapse sourceNeuronName = "0" targetNeuronName = "4" weight = "0.16059582704578945" />
    <synapse sourceNeuronName = "0" targetNeuronName = "5" weight = "-0.48217093060282723" />
    <synapse sourceNeuronName = "0" targetNeuronName = "6" weight = "-0.8574873277871016" />
    <synapse sourceNeuronName = "0" targetNeuronName = "7" weight = "0.9974594183777152" />
    <synapse sourceNeuronName = "0" targetNeuronName = "8" weight = "0.7291793046441206" />
    <synapse sourceNeuronName = "0" targetNeuronName = "9" weight = "-0.617961320641476" />
    <synapse sourceNeuronName = "0" targetNeuronName = "10" weight = "-0.7646969055859527" />
    <synapse sourceNeuronName = "0" targetNeuronName = "11" weight = "-0.04032564878222655" />
    <synapse sourceNeuronName = "0" targetNeuronName = "12" weight = "0.0592082051149998" />
    <synapse sourceNeuronName = "0" targetNeuronName = "13" weight = "-0.24473158574983667" />
    <synapse sourceNeuronName = "0" targetNeuronName = "14" weight = "0.7875403358989099" />
    <synapse sourceNeuronName = "0" targetNeuronName = "15" weight = "-0.16278868336270103" />
    <synapse sourceNeuronName = "0" targetNeuronName = "16" weight = "0.4454533270950449" />
    <synapse sourceNeuronName = "0" targetNeuronName = "17" weight = "0.2273246018851307" />
    <synapse sourceNeuronName = "1" targetNeuronName = "4" weight = "-0.2667976280031139" />
    <synapse sourceNeuronName = "1" targetNeuronName = "5" weight = "0.7630660273396337" />
    <synapse sourceNeuronName = "1" targetNeuronName = "6" weight = "-0.18255667648351737" />
    <synapse sourceNeuronName = "1" targetNeuronName = "7" weight = "-0.12209472165282143" />
    <synapse sourceNeuronName = "1" targetNeuronName = "8" weight = "-0.1812890919207002" />
    <synapse sourceNeuronName = "1" targetNeuronName = "9" weight = "0.7605785224438284" />
    <synapse sourceNeuronName = "1" targetNeuronName = "10" weight = "0.6926941169591272" />
    <synapse sourceNeuronName = "1" targetNeuronName = "11" weight = "-0.8170535968117241" />
    <synapse sourceNeuronName = "1" targetNeuronName = "12" weight = "-0.7535557832415423" />
    <synapse sourceNeuronName = "1" targetNeuronName = "13" weight = "0.0024201597151756182" />
    <synapse sourceNeuronName = "1" targetNeuronName = "14" weight = "-0.6548371284915189" />
    <synapse sourceNeuronName = "1" targetNeuronName = "15" weight = "0.8239500618451325" />
    <synapse sourceNeuronName = "1" targetNeuronName = "16" weight = "-0.8519842070811747" />
    <synapse sourceNeuronName = "1" targetNeuronName = "17" weight = "-0.019850510378853103" />
    <synapse sourceNeuronName = "2" targetNeuronName = "4" weight = "0.18038532705656585" />
    <synapse sourceNeuronName = "2" targetNeuronName = "5" weight = "0.8868584095681553" />
    <synapse sourceNeuronName = "2" targetNeuronName = "6" weight = "0.3545140597266041" />
    <synapse sourceNeuronName = "2" targetNeuronName = "7" weight = "0.7317527230049521" />
    <synapse sourceNeuronName = "2" targetNeuronName = "8" weight = "-0.8215719473898389" />
    <synapse sourceNeuronName = "2" targetNeuronName = "9" weight = "-0.5532436577008057" />
    <synapse sourceNeuronName = "2" targetNeuronName = "10" weight = "0.39811351014187824" />
    <synapse sourceNeuronName = "2" targetNeuronName = "11" weight = "0.838811680711691" />
    <synapse sourceNeuronName = "2" targetNeuronName = "12" weight = "-0.24070993494454496" />
    <synapse sourceNeuronName = "2" targetNeuronName = "13" weight = "0.044486162980218014" />
    <synapse sourceNeuronName = "2" targetNeuronName = "14" weight = "0.774524120209805" />
    <synapse sourceNeuronName = "2" targetNeuronName = "15" weight = "-0.4882932631446637" />
    <synapse sourceNeuronName = "2" targetNeuronName = "16" weight = "-0.7291846358453575" />
    <synapse sourceNeuronName = "2" targetNeuronName = "17" weight = "0.8807584467566338" />
    <synapse sourceNeuronName = "3" targetNeuronName = "4" weight = "0.823944253230346" />
    <synapse sourceNeuronName = "3" targetNeuronName = "5" weight = "0.8285428615407737" />
    <synapse sourceNeuronName = "3" targetNeuronName = "6" weight = "0.3790228675742835" />
    <synapse sourceNeuronName = "3" targetNeuronName = "7" weight = "-0.9469558810921062" />
    <synapse sourceNeuronName = "3" targetNeuronName = "8" weight = "-0.41401028547819574" />
    <synapse sourceNeuronName = "3" targetNeuronName = "9" weight = "-0.7927026593262545" />
    <synapse sourceNeuronName = "3" targetNeuronName = "10" weight = "-0.3650691338135106" />
    <synapse sourceNeuronName = "3" targetNeuronName = "11" weight = "0.8241562629340093" />
    <synapse sourceNeuronName = "3" targetNeuronName = "12" weight = "-0.756322588495826" />
    <synapse sourceNeuronName = "3" targetNeuronName = "13" weight = "0.6973941617646517" />
    <synapse sourceNeuronName = "3" targetNeuronName = "14" weight = "0.38603258882135516" />
    <synapse sourceNeuronName = "3" targetNeuronName = "15" weight = "-0.4177558456826407" />
    <synapse sourceNeuronName = "3" targetNeuronName = "16" weight = "-0.8406127683228979" />
    <synapse sourceNeuronName = "3" targetNeuronName = "17" weight = "0.36125462177469236" />
</neuralNetwork>