<neuralNetwork>
    <neuron name = "0" type = "sensor" linkName = "Link1" />
    <neuron name = "1" type = "sensor" linkName = "Link2" />
    <neuron name = "2" type = "sensor" linkName = "Link4" />
    <neuron name = "3" type = "sensor" linkName = "Link5" />
    <neuron name = "4" type = "sensor" linkName = "Link7" />
    <neuron name = "5" type = "motor"  jointName = "Link0_Link1" />
    <neuron name = "6" type = "motor"  jointName = "Link0_Cube01" />
    <neuron name = "7" type = "motor"  jointName = "Cube01_Cube11" />
    <neuron name = "8" type = "motor"  jointName = "Cube11_Link2" />
    <neuron name = "9" type = "motor"  jointName = "Link2_Cube02" />
    <neuron name = "10" type = "motor"  jointName = "Cube02_Cube12" />
    <neuron name = "11" type = "motor"  jointName = "Cube12_Link3" />
    <neuron name = "12" type = "motor"  jointName = "Link2_Link4" />
    <neuron name = "13" type = "motor"  jointName = "Link0_Cube04" />
    <neuron name = "14" type = "motor"  jointName = "Cube04_Cube14" />
    <neuron name = "15" type = "motor"  jointName = "Cube14_Link5" />
    <neuron name = "16" type = "motor"  jointName = "Link5_Cube05" />
    <neuron name = "17" type = "motor"  jointName = "Cube05_Cube15" />
    <neuron name = "18" type = "motor"  jointName = "Cube15_Link6" />
    <neuron name = "19" type = "motor"  jointName = "Link5_Cube06" />
    <neuron name = "20" type = "motor"  jointName = "Cube06_Cube16" />
    <neuron name = "21" type = "motor"  jointName = "Cube16_Link7" />
    <neuron name = "22" type = "motor"  jointName = "Link7_Cube07" />
    <neuron name = "23" type = "motor"  jointName = "Cube07_Link8" />
    <neuron name = "24" type = "motor"  jointName = "Link5_Cube08" />
    <neuron name = "25" type = "motor"  jointName = "Cube08_Link9" />
    <synapse sourceNeuronName = "0" targetNeuronName = "5" weight = "0.18522856222552964" />
    <synapse sourceNeuronName = "0" targetNeuronName = "6" weight = "0.08747126284535867" />
    <synapse sourceNeuronName = "0" targetNeuronName = "7" weight = "0.5844028074782559" />
    <synapse sourceNeuronName = "0" targetNeuronName = "8" weight = "0.19738066361206097" />
    <synapse sourceNeuronName = "0" targetNeuronName = "9" weight = "0.3364260527017533" />
    <synapse sourceNeuronName = "0" targetNeuronName = "10" weight = "0.5222224378492679" />
    <synapse sourceNeuronName = "0" targetNeuronName = "11" weight = "0.14911163984224984" />
    <synapse sourceNeuronName = "0" targetNeuronName = "12" weight = "0.07168783264633727" />
    <synapse sourceNeuronName = "0" targetNeuronName = "13" weight = "0.887640240211164" />
    <synapse sourceNeuronName = "0" targetNeuronName = "14" weight = "0.9423772454160675" />
    <synapse sourceNeuronName = "0" targetNeuronName = "15" weight = "0.3830821337822037" />
    <synapse sourceNeuronName = "0" targetNeuronName = "16" weight = "0.10703412183071048" />
    <synapse sourceNeuronName = "0" targetNeuronName = "17" weight = "0.7942273801399573" />
    <synapse sourceNeuronName = "0" targetNeuronName = "18" weight = "-0.28607245468840636" />
    <synapse sourceNeuronName = "0" targetNeuronName = "19" weight = "0.14060176815783976" />
    <synapse sourceNeuronName = "0" targetNeuronName = "20" weight = "0.16112442644093128" />
    <synapse sourceNeuronName = "0" targetNeuronName = "21" weight = "-0.09861429715671899" />
    <synapse sourceNeuronName = "0" targetNeuronName = "22" weight = "-0.03614733076707077" />
    <synapse sourceNeuronName = "0" targetNeuronName = "23" weight = "-0.12926894812426126" />
    <synapse sourceNeuronName = "0" targetNeuronName = "24" weight = "-0.2657031443455604" />
    <synapse sourceNeuronName = "0" targetNeuronName = "25" weight = "0.13156832132246543" />
    <synapse sourceNeuronName = "1" targetNeuronName = "5" weight = "-0.5266425324815633" />
    <synapse sourceNeuronName = "1" targetNeuronName = "6" weight = "-0.3377511017714794" />
    <synapse sourceNeuronName = "1" targetNeuronName = "7" weight = "-0.8255181933946163" />
    <synapse sourceNeuronName = "1" targetNeuronName = "8" weight = "-0.3921848662398226" />
    <synapse sourceNeuronName = "1" targetNeuronName = "9" weight = "0.2036856742267763" />
    <synapse sourceNeuronName = "1" targetNeuronName = "10" weight = "-0.05661915269022999" />
    <synapse sourceNeuronName = "1" targetNeuronName = "11" weight = "0.25297885265524545" />
    <synapse sourceNeuronName = "1" targetNeuronName = "12" weight = "-0.4522748087256254" />
    <synapse sourceNeuronName = "1" targetNeuronName = "13" weight = "-0.023293476257851387" />
    <synapse sourceNeuronName = "1" targetNeuronName = "14" weight = "0.23226371823112402" />
    <synapse sourceNeuronName = "1" targetNeuronName = "15" weight = "0.6712120193569537" />
    <synapse sourceNeuronName = "1" targetNeuronName = "16" weight = "0.3792712672835199" />
    <synapse sourceNeuronName = "1" targetNeuronName = "17" weight = "-0.661413528820034" />
    <synapse sourceNeuronName = "1" targetNeuronName = "18" weight = "0.00900792525056815" />
    <synapse sourceNeuronName = "1" targetNeuronName = "19" weight = "0.5908235371896886" />
    <synapse sourceNeuronName = "1" targetNeuronName = "20" weight = "-0.4063313446628882" />
    <synapse sourceNeuronName = "1" targetNeuronName = "21" weight = "-0.07330297386094542" />
    <synapse sourceNeuronName = "1" targetNeuronName = "22" weight = "-0.19767225367470975" />
    <synapse sourceNeuronName = "1" targetNeuronName = "23" weight = "-0.35535037780074763" />
    <synapse sourceNeuronName = "1" targetNeuronName = "24" weight = "0.9537149166722814" />
    <synapse sourceNeuronName = "1" targetNeuronName = "25" weight = "0.6976993781328704" />
    <synapse sourceNeuronName = "2" targetNeuronName = "5" weight = "0.9271519117336069" />
    <synapse sourceNeuronName = "2" targetNeuronName = "6" weight = "0.28950493802650334" />
    <synapse sourceNeuronName = "2" targetNeuronName = "7" weight = "0.2886214754832237" />
    <synapse sourceNeuronName = "2" targetNeuronName = "8" weight = "-0.22568852010818752" />
    <synapse sourceNeuronName = "2" targetNeuronName = "9" weight = "-0.8224145656692057" />
    <synapse sourceNeuronName = "2" targetNeuronName = "10" weight = "0.09883845338937602" />
    <synapse sourceNeuronName = "2" targetNeuronName = "11" weight = "-0.0988310223682971" />
    <synapse sourceNeuronName = "2" targetNeuronName = "12" weight = "-0.3774965951705558" />
    <synapse sourceNeuronName = "2" targetNeuronName = "13" weight = "0.753892929705783" />
    <synapse sourceNeuronName = "2" targetNeuronName = "14" weight = "0.18865502809969703" />
    <synapse sourceNeuronName = "2" targetNeuronName = "15" weight = "-0.29254474450790724" />
    <synapse sourceNeuronName = "2" targetNeuronName = "16" weight = "0.046892752119875425" />
    <synapse sourceNeuronName = "2" targetNeuronName = "17" weight = "0.7641011827389947" />
    <synapse sourceNeuronName = "2" targetNeuronName = "18" weight = "0.8445974741892872" />
    <synapse sourceNeuronName = "2" targetNeuronName = "19" weight = "0.5351031162839195" />
    <synapse sourceNeuronName = "2" targetNeuronName = "20" weight = "-0.8874737948509064" />
    <synapse sourceNeuronName = "2" targetNeuronName = "21" weight = "-0.7190307303601688" />
    <synapse sourceNeuronName = "2" targetNeuronName = "22" weight = "0.2936523198315226" />
    <synapse sourceNeuronName = "2" targetNeuronName = "23" weight = "-0.39667939269650576" />
    <synapse sourceNeuronName = "2" targetNeuronName = "24" weight = "0.22541605827106515" />
    <synapse sourceNeuronName = "2" targetNeuronName = "25" weight = "-0.1253340637250624" />
    <synapse sourceNeuronName = "3" targetNeuronName = "5" weight = "0.9505694524519095" />
    <synapse sourceNeuronName = "3" targetNeuronName = "6" weight = "-0.20228286648703375" />
    <synapse sourceNeuronName = "3" targetNeuronName = "7" weight = "-0.9987041184464103" />
    <synapse sourceNeuronName = "3" targetNeuronName = "8" weight = "0.9523859290139658" />
    <synapse sourceNeuronName = "3" targetNeuronName = "9" weight = "0.30908885386898666" />
    <synapse sourceNeuronName = "3" targetNeuronName = "10" weight = "-0.5776319781445869" />
    <synapse sourceNeuronName = "3" targetNeuronName = "11" weight = "0.8905144264011702" />
    <synapse sourceNeuronName = "3" targetNeuronName = "12" weight = "-0.07012267045653986" />
    <synapse sourceNeuronName = "3" targetNeuronName = "13" weight = "0.3734063237342371" />
    <synapse sourceNeuronName = "3" targetNeuronName = "14" weight = "-0.32621443027694297" />
    <synapse sourceNeuronName = "3" targetNeuronName = "15" weight = "0.6474832403233717" />
    <synapse sourceNeuronName = "3" targetNeuronName = "16" weight = "0.26553981207199073" />
    <synapse sourceNeuronName = "3" targetNeuronName = "17" weight = "-0.36208982624617625" />
    <synapse sourceNeuronName = "3" targetNeuronName = "18" weight = "-0.5642969164548928" />
    <synapse sourceNeuronName = "3" targetNeuronName = "19" weight = "0.34476990587737655" />
    <synapse sourceNeuronName = "3" targetNeuronName = "20" weight = "0.6654463990969539" />
    <synapse sourceNeuronName = "3" targetNeuronName = "21" weight = "0.4421173954197304" />
    <synapse sourceNeuronName = "3" targetNeuronName = "22" weight = "-0.9072302894372117" />
    <synapse sourceNeuronName = "3" targetNeuronName = "23" weight = "-0.43082219390291754" />
    <synapse sourceNeuronName = "3" targetNeuronName = "24" weight = "-0.3421489439088783" />
    <synapse sourceNeuronName = "3" targetNeuronName = "25" weight = "0.8405810792082031" />
    <synapse sourceNeuronName = "4" targetNeuronName = "5" weight = "-0.3950892123956464" />
    <synapse sourceNeuronName = "4" targetNeuronName = "6" weight = "0.514007868431289" />
    <synapse sourceNeuronName = "4" targetNeuronName = "7" weight = "0.2619544815603112" />
    <synapse sourceNeuronName = "4" targetNeuronName = "8" weight = "-0.536599749414151" />
    <synapse sourceNeuronName = "4" targetNeuronName = "9" weight = "-0.0456793852321935" />
    <synapse sourceNeuronName = "4" targetNeuronName = "10" weight = "-0.7238096671511776" />
    <synapse sourceNeuronName = "4" targetNeuronName = "11" weight = "0.4876658145236681" />
    <synapse sourceNeuronName = "4" targetNeuronName = "12" weight = "-0.11281714630700623" />
    <synapse sourceNeuronName = "4" targetNeuronName = "13" weight = "0.9597815172097972" />
    <synapse sourceNeuronName = "4" targetNeuronName = "14" weight = "0.8658278036326423" />
    <synapse sourceNeuronName = "4" targetNeuronName = "15" weight = "0.4022616088463633" />
    <synapse sourceNeuronName = "4" targetNeuronName = "16" weight = "0.20991114071428685" />
    <synapse sourceNeuronName = "4" targetNeuronName = "17" weight = "0.5141805615945911" />
    <synapse sourceNeuronName = "4" targetNeuronName = "18" weight = "0.18419747728342806" />
    <synapse sourceNeuronName = "4" targetNeuronName = "19" weight = "-0.9521632251831262" />
    <synapse sourceNeuronName = "4" targetNeuronName = "20" weight = "-0.7489064214998384" />
    <synapse sourceNeuronName = "4" targetNeuronName = "21" weight = "0.82472023774753" />
    <synapse sourceNeuronName = "4" targetNeuronName = "22" weight = "-0.6696662676455241" />
    <synapse sourceNeuronName = "4" targetNeuronName = "23" weight = "-0.8172103237606796" />
    <synapse sourceNeuronName = "4" targetNeuronName = "24" weight = "0.5425337794472269" />
    <synapse sourceNeuronName = "4" targetNeuronName = "25" weight = "0.9854965203216766" />
</neuralNetwork>