<neuralNetwork>
    <neuron name = "0" type = "sensor" linkName = "Link0" />
    <neuron name = "1" type = "sensor" linkName = "Link2" />
    <neuron name = "2" type = "sensor" linkName = "Link3" />
    <neuron name = "3" type = "sensor" linkName = "Link5" />
    <neuron name = "4" type = "motor"  jointName = "Link0_Cube00" />
    <neuron name = "5" type = "motor"  jointName = "Cube00_Link1" />
    <neuron name = "6" type = "motor"  jointName = "Link0_Cube01" />
    <neuron name = "7" type = "motor"  jointName = "Cube01_Cube11" />
    <neuron name = "8" type = "motor"  jointName = "Cube11_Link2" />
    <neuron name = "9" type = "motor"  jointName = "Link0_Cube02" />
    <neuron name = "10" type = "motor"  jointName = "Cube02_Link3" />
    <neuron name = "11" type = "motor"  jointName = "Link0_Cube03" />
    <neuron name = "12" type = "motor"  jointName = "Cube03_Link4" />
    <neuron name = "13" type = "motor"  jointName = "Link2_Cube04" />
    <neuron name = "14" type = "motor"  jointName = "Cube04_Link5" />
    <synapse sourceNeuronName = "0" targetNeuronName = "4" weight = "0.09493591541443203" />
    <synapse sourceNeuronName = "0" targetNeuronName = "5" weight = "0.2750046081166915" />
    <synapse sourceNeuronName = "0" targetNeuronName = "6" weight = "0.9765441172427258" />
    <synapse sourceNeuronName = "0" targetNeuronName = "7" weight = "-0.9458909979480112" />
    <synapse sourceNeuronName = "0" targetNeuronName = "8" weight = "0.7714520849676911" />
    <synapse sourceNeuronName = "0" targetNeuronName = "9" weight = "0.9218027301278162" />
    <synapse sourceNeuronName = "0" targetNeuronName = "10" weight = "-0.28931939211793356" />
    <synapse sourceNeuronName = "0" targetNeuronName = "11" weight = "-0.6212821436169784" />
    <synapse sourceNeuronName = "0" targetNeuronName = "12" weight = "0.09137398464635793" />
    <synapse sourceNeuronName = "0" targetNeuronName = "13" weight = "-0.23562186298221688" />
    <synapse sourceNeuronName = "0" targetNeuronName = "14" weight = "0.8727133522811683" />
    <synapse sourceNeuronName = "1" targetNeuronName = "4" weight = "0.5912998244295204" />
    <synapse sourceNeuronName = "1" targetNeuronName = "5" weight = "-0.19513883088123563" />
    <synapse sourceNeuronName = "1" targetNeuronName = "6" weight = "-0.7683325828619616" />
    <synapse sourceNeuronName = "1" targetNeuronName = "7" weight = "-0.8172160937615787" />
    <synapse sourceNeuronName = "1" targetNeuronName = "8" weight = "0.24833134611039132" />
    <synapse sourceNeuronName = "1" targetNeuronName = "9" weight = "-0.3449076432899476" />
    <synapse sourceNeuronName = "1" targetNeuronName = "10" weight = "0.8720434837561484" />
    <synapse sourceNeuronName = "1" targetNeuronName = "11" weight = "0.8295875657798368" />
    <synapse sourceNeuronName = "1" targetNeuronName = "12" weight = "-0.4526686569229912" />
    <synapse sourceNeuronName = "1" targetNeuronName = "13" weight = "-0.4475245953971614" />
    <synapse sourceNeuronName = "1" targetNeuronName = "14" weight = "0.08812904807061628" />
    <synapse sourceNeuronName = "2" targetNeuronName = "4" weight = "0.3464879815293631" />
    <synapse sourceNeuronName = "2" targetNeuronName = "5" weight = "-0.6600564323503975" />
    <synapse sourceNeuronName = "2" targetNeuronName = "6" weight = "-0.56702611734911" />
    <synapse sourceNeuronName = "2" targetNeuronName = "7" weight = "-0.48383413960068977" />
    <synapse sourceNeuronName = "2" targetNeuronName = "8" weight = "-0.3326061180030888" />
    <synapse sourceNeuronName = "2" targetNeuronName = "9" weight = "0.9961440899529774" />
    <synapse sourceNeuronName = "2" targetNeuronName = "10" weight = "0.4538707153882793" />
    <synapse sourceNeuronName = "2" targetNeuronName = "11" weight = "0.08192890129027353" />
    <synapse sourceNeuronName = "2" targetNeuronName = "12" weight = "-0.893128015572141" />
    <synapse sourceNeuronName = "2" targetNeuronName = "13" weight = "0.6302484575940417" />
    <synapse sourceNeuronName = "2" targetNeuronName = "14" weight = "-0.8505286317103788" />
    <synapse sourceNeuronName = "3" targetNeuronName = "4" weight = "0.7434097981720844" />
    <synapse sourceNeuronName = "3" targetNeuronName = "5" weight = "-0.4052069352190184" />
    <synapse sourceNeuronName = "3" targetNeuronName = "6" weight = "0.07584237834055862" />
    <synapse sourceNeuronName = "3" targetNeuronName = "7" weight = "-0.6941382076055564" />
    <synapse sourceNeuronName = "3" targetNeuronName = "8" weight = "0.32533050455936774" />
    <synapse sourceNeuronName = "3" targetNeuronName = "9" weight = "-0.5850049263449133" />
    <synapse sourceNeuronName = "3" targetNeuronName = "10" weight = "0.08512892007047146" />
    <synapse sourceNeuronName = "3" targetNeuronName = "11" weight = "0.8766992617185931" />
    <synapse sourceNeuronName = "3" targetNeuronName = "12" weight = "-0.7147975337032151" />
    <synapse sourceNeuronName = "3" targetNeuronName = "13" weight = "-0.44225159214108234" />
    <synapse sourceNeuronName = "3" targetNeuronName = "14" weight = "0.8184926757622173" />
</neuralNetwork>