<neuralNetwork>
    <neuron name = "0" type = "sensor" linkName = "Link1" />
    <neuron name = "1" type = "sensor" linkName = "Link2" />
    <neuron name = "2" type = "sensor" linkName = "Link5" />
    <neuron name = "3" type = "sensor" linkName = "Link7" />
    <neuron name = "4" type = "sensor" linkName = "Link9" />
    <neuron name = "5" type = "motor"  jointName = "Link0_Cube00" />
    <neuron name = "6" type = "motor"  jointName = "Cube00_Cube10" />
    <neuron name = "7" type = "motor"  jointName = "Cube10_Link1" />
    <neuron name = "8" type = "motor"  jointName = "Link0_Link2" />
    <neuron name = "9" type = "motor"  jointName = "Link0_Cube02" />
    <neuron name = "10" type = "motor"  jointName = "Cube02_Link3" />
    <neuron name = "11" type = "motor"  jointName = "Link0_Cube03" />
    <neuron name = "12" type = "motor"  jointName = "Cube03_Cube13" />
    <neuron name = "13" type = "motor"  jointName = "Cube13_Link4" />
    <neuron name = "14" type = "motor"  jointName = "Link4_Cube04" />
    <neuron name = "15" type = "motor"  jointName = "Cube04_Cube14" />
    <neuron name = "16" type = "motor"  jointName = "Cube14_Link5" />
    <neuron name = "17" type = "motor"  jointName = "Link3_Cube05" />
    <neuron name = "18" type = "motor"  jointName = "Cube05_Cube15" />
    <neuron name = "19" type = "motor"  jointName = "Cube15_Link6" />
    <neuron name = "20" type = "motor"  jointName = "Link1_Link7" />
    <neuron name = "21" type = "motor"  jointName = "Link0_Cube07" />
    <neuron name = "22" type = "motor"  jointName = "Cube07_Link8" />
    <neuron name = "23" type = "motor"  jointName = "Link0_Link9" />
    <synapse sourceNeuronName = "0" targetNeuronName = "5" weight = "0.7920242461696163" />
    <synapse sourceNeuronName = "0" targetNeuronName = "6" weight = "-0.6519524858866381" />
    <synapse sourceNeuronName = "0" targetNeuronName = "7" weight = "-0.8737018093364495" />
    <synapse sourceNeuronName = "0" targetNeuronName = "8" weight = "-0.9257553562879086" />
    <synapse sourceNeuronName = "0" targetNeuronName = "9" weight = "-0.9780108916905776" />
    <synapse sourceNeuronName = "0" targetNeuronName = "10" weight = "0.8856134924141839" />
    <synapse sourceNeuronName = "0" targetNeuronName = "11" weight = "0.8075855236571226" />
    <synapse sourceNeuronName = "0" targetNeuronName = "12" weight = "0.7887302818561539" />
    <synapse sourceNeuronName = "0" targetNeuronName = "13" weight = "0.5518158960962549" />
    <synapse sourceNeuronName = "0" targetNeuronName = "14" weight = "-0.3897878309999312" />
    <synapse sourceNeuronName = "0" targetNeuronName = "15" weight = "0.22575646132527072" />
    <synapse sourceNeuronName = "0" targetNeuronName = "16" weight = "-0.16795744310108085" />
    <synapse sourceNeuronName = "0" targetNeuronName = "17" weight = "-0.8006725489268194" />
    <synapse sourceNeuronName = "0" targetNeuronName = "18" weight = "-0.6299024106697309" />
    <synapse sourceNeuronName = "0" targetNeuronName = "19" weight = "0.8674089264231892" />
    <synapse sourceNeuronName = "0" targetNeuronName = "20" weight = "0.3824568940209385" />
    <synapse sourceNeuronName = "0" targetNeuronName = "21" weight = "-0.9332949360082721" />
    <synapse sourceNeuronName = "0" targetNeuronName = "22" weight = "-0.897319658648168" />
    <synapse sourceNeuronName = "0" targetNeuronName = "23" weight = "-0.0029030013652828757" />
    <synapse sourceNeuronName = "1" targetNeuronName = "5" weight = "-0.10024580925686477" />
    <synapse sourceNeuronName = "1" targetNeuronName = "6" weight = "0.16225115029715131" />
    <synapse sourceNeuronName = "1" targetNeuronName = "7" weight = "-0.6029383739097463" />
    <synapse sourceNeuronName = "1" targetNeuronName = "8" weight = "0.38520155660775357" />
    <synapse sourceNeuronName = "1" targetNeuronName = "9" weight = "0.5014571809947581" />
    <synapse sourceNeuronName = "1" targetNeuronName = "10" weight = "0.7925092718406892" />
    <synapse sourceNeuronName = "1" targetNeuronName = "11" weight = "-0.261508491264441" />
    <synapse sourceNeuronName = "1" targetNeuronName = "12" weight = "-0.8713973135641471" />
    <synapse sourceNeuronName = "1" targetNeuronName = "13" weight = "0.6612402751807058" />
    <synapse sourceNeuronName = "1" targetNeuronName = "14" weight = "0.3395708338167591" />
    <synapse sourceNeuronName = "1" targetNeuronName = "15" weight = "-0.8203388379394647" />
    <synapse sourceNeuronName = "1" targetNeuronName = "16" weight = "-0.8318780639855219" />
    <synapse sourceNeuronName = "1" targetNeuronName = "17" weight = "0.4080717133510472" />
    <synapse sourceNeuronName = "1" targetNeuronName = "18" weight = "-0.6528092958748584" />
    <synapse sourceNeuronName = "1" targetNeuronName = "19" weight = "-0.5916269609774674" />
    <synapse sourceNeuronName = "1" targetNeuronName = "20" weight = "0.33226520151849703" />
    <synapse sourceNeuronName = "1" targetNeuronName = "21" weight = "0.9039118993544009" />
    <synapse sourceNeuronName = "1" targetNeuronName = "22" weight = "-0.3559496686127621" />
    <synapse sourceNeuronName = "1" targetNeuronName = "23" weight = "-0.04741405254655251" />
    <synapse sourceNeuronName = "2" targetNeuronName = "5" weight = "-0.28184272133907107" />
    <synapse sourceNeuronName = "2" targetNeuronName = "6" weight = "0.23419064631786735" />
    <synapse sourceNeuronName = "2" targetNeuronName = "7" weight = "-0.8229837753555711" />
    <synapse sourceNeuronName = "2" targetNeuronName = "8" weight = "-0.08854133436508627" />
    <synapse sourceNeuronName = "2" targetNeuronName = "9" weight = "-0.8976737038082101" />
    <synapse sourceNeuronName = "2" targetNeuronName = "10" weight = "-0.6696231054390338" />
    <synapse sourceNeuronName = "2" targetNeuronName = "11" weight = "0.8619401577065253" />
    <synapse sourceNeuronName = "2" targetNeuronName = "12" weight = "0.30874267726756077" />
    <synapse sourceNeuronName = "2" targetNeuronName = "13" weight = "-0.9540344991528618" />
    <synapse sourceNeuronName = "2" targetNeuronName = "14" weight = "-0.9090597150210231" />
    <synapse sourceNeuronName = "2" targetNeuronName = "15" weight = "0.3221794338922779" />
    <synapse sourceNeuronName = "2" targetNeuronName = "16" weight = "-0.7004809460517873" />
    <synapse sourceNeuronName = "2" targetNeuronName = "17" weight = "-0.2650882454222203" />
    <synapse sourceNeuronName = "2" targetNeuronName = "18" weight = "-0.7170975354119578" />
    <synapse sourceNeuronName = "2" targetNeuronName = "19" weight = "-0.35583221385722585" />
    <synapse sourceNeuronName = "2" targetNeuronName = "20" weight = "-0.6253070812178103" />
    <synapse sourceNeuronName = "2" targetNeuronName = "21" weight = "-0.24644095743837635" />
    <synapse sourceNeuronName = "2" targetNeuronName = "22" weight = "0.8410977258197772" />
    <synapse sourceNeuronName = "2" targetNeuronName = "23" weight = "-0.25833821664606105" />
    <synapse sourceNeuronName = "3" targetNeuronName = "5" weight = "-0.12750490976779982" />
    <synapse sourceNeuronName = "3" targetNeuronName = "6" weight = "-0.3251267169706289" />
    <synapse sourceNeuronName = "3" targetNeuronName = "7" weight = "-0.9365122412115048" />
    <synapse sourceNeuronName = "3" targetNeuronName = "8" weight = "0.23582512548106194" />
    <synapse sourceNeuronName = "3" targetNeuronName = "9" weight = "0.5308949524170565" />
    <synapse sourceNeuronName = "3" targetNeuronName = "10" weight = "-0.41253958065579943" />
    <synapse sourceNeuronName = "3" targetNeuronName = "11" weight = "-0.3420493641889444" />
    <synapse sourceNeuronName = "3" targetNeuronName = "12" weight = "-0.5197369967421963" />
    <synapse sourceNeuronName = "3" targetNeuronName = "13" weight = "0.5850351057972187" />
    <synapse sourceNeuronName = "3" targetNeuronName = "14" weight = "0.08169410162114854" />
    <synapse sourceNeuronName = "3" targetNeuronName = "15" weight = "0.7366133295819477" />
    <synapse sourceNeuronName = "3" targetNeuronName = "16" weight = "0.3651508143693081" />
    <synapse sourceNeuronName = "3" targetNeuronName = "17" weight = "0.6958813381816937" />
    <synapse sourceNeuronName = "3" targetNeuronName = "18" weight = "-0.5315250843168815" />
    <synapse sourceNeuronName = "3" targetNeuronName = "19" weight = "-0.1344231173513517" />
    <synapse sourceNeuronName = "3" targetNeuronName = "20" weight = "-0.398547369402112" />
    <synapse sourceNeuronName = "3" targetNeuronName = "21" weight = "-0.7946299856095742" />
    <synapse sourceNeuronName = "3" targetNeuronName = "22" weight = "0.464570368971444" />
    <synapse sourceNeuronName = "3" targetNeuronName = "23" weight = "-0.2518753821308306" />
    <synapse sourceNeuronName = "4" targetNeuronName = "5" weight = "0.4667865406226046" />
    <synapse sourceNeuronName = "4" targetNeuronName = "6" weight = "0.3352289648347573" />
    <synapse sourceNeuronName = "4" targetNeuronName = "7" weight = "-0.357449412612143" />
    <synapse sourceNeuronName = "4" targetNeuronName = "8" weight = "-0.3725723671923211" />
    <synapse sourceNeuronName = "4" targetNeuronName = "9" weight = "-0.048834520559038364" />
    <synapse sourceNeuronName = "4" targetNeuronName = "10" weight = "-0.6704865789789289" />
    <synapse sourceNeuronName = "4" targetNeuronName = "11" weight = "0.1579979198644348" />
    <synapse sourceNeuronName = "4" targetNeuronName = "12" weight = "0.7569364209207152" />
    <synapse sourceNeuronName = "4" targetNeuronName = "13" weight = "0.6931024477048295" />
    <synapse sourceNeuronName = "4" targetNeuronName = "14" weight = "-0.9993632238707073" />
    <synapse sourceNeuronName = "4" targetNeuronName = "15" weight = "0.047349684889378185" />
    <synapse sourceNeuronName = "4" targetNeuronName = "16" weight = "-0.9512597093816659" />
    <synapse sourceNeuronName = "4" targetNeuronName = "17" weight = "0.29928989880948853" />
    <synapse sourceNeuronName = "4" targetNeuronName = "18" weight = "-0.8491044242877248" />
    <synapse sourceNeuronName = "4" targetNeuronName = "19" weight = "0.6940629409772019" />
    <synapse sourceNeuronName = "4" targetNeuronName = "20" weight = "0.7672834346942636" />
    <synapse sourceNeuronName = "4" targetNeuronName = "21" weight = "0.8719455388108295" />
    <synapse sourceNeuronName = "4" targetNeuronName = "22" weight = "-0.19663459923756998" />
    <synapse sourceNeuronName = "4" targetNeuronName = "23" weight = "-0.8368231647900746" />
</neuralNetwork>