<neuralNetwork>
    <neuron name = "0" type = "sensor" linkName = "Link5" />
    <neuron name = "1" type = "sensor" linkName = "Link6" />
    <neuron name = "2" type = "sensor" linkName = "Link8" />
    <neuron name = "3" type = "sensor" linkName = "Link9" />
    <neuron name = "4" type = "sensor" linkName = "Link11" />
    <neuron name = "5" type = "sensor" linkName = "Link14" />
    <neuron name = "6" type = "sensor" linkName = "Link15" />
    <neuron name = "7" type = "sensor" linkName = "Link16" />
    <neuron name = "8" type = "motor"  jointName = "Link0_Link1" />
    <neuron name = "9" type = "motor"  jointName = "Link0_Cube01" />
    <neuron name = "10" type = "motor"  jointName = "Cube01_Cube11" />
    <neuron name = "11" type = "motor"  jointName = "Cube11_Link2" />
    <neuron name = "12" type = "motor"  jointName = "Link2_Cube02" />
    <neuron name = "13" type = "motor"  jointName = "Cube02_Link3" />
    <neuron name = "14" type = "motor"  jointName = "Link1_Link4" />
    <neuron name = "15" type = "motor"  jointName = "Link1_Link5" />
    <neuron name = "16" type = "motor"  jointName = "Link5_Cube05" />
    <neuron name = "17" type = "motor"  jointName = "Cube05_Link6" />
    <neuron name = "18" type = "motor"  jointName = "Link3_Cube06" />
    <neuron name = "19" type = "motor"  jointName = "Cube06_Link7" />
    <neuron name = "20" type = "motor"  jointName = "Link2_Cube07" />
    <neuron name = "21" type = "motor"  jointName = "Cube07_Cube17" />
    <neuron name = "22" type = "motor"  jointName = "Cube17_Link8" />
    <neuron name = "23" type = "motor"  jointName = "Link0_Cube08" />
    <neuron name = "24" type = "motor"  jointName = "Cube08_Link9" />
    <neuron name = "25" type = "motor"  jointName = "Link2_Cube09" />
    <neuron name = "26" type = "motor"  jointName = "Cube09_Link10" />
    <neuron name = "27" type = "motor"  jointName = "Link1_Cube010" />
    <neuron name = "28" type = "motor"  jointName = "Cube010_Link11" />
    <neuron name = "29" type = "motor"  jointName = "Link4_Cube011" />
    <neuron name = "30" type = "motor"  jointName = "Cube011_Cube111" />
    <neuron name = "31" type = "motor"  jointName = "Cube111_Link12" />
    <neuron name = "32" type = "motor"  jointName = "Link2_Cube012" />
    <neuron name = "33" type = "motor"  jointName = "Cube012_Link13" />
    <neuron name = "34" type = "motor"  jointName = "Link12_Link14" />
    <neuron name = "35" type = "motor"  jointName = "Link0_Link15" />
    <neuron name = "36" type = "motor"  jointName = "Link2_Link16" />
    <neuron name = "37" type = "motor"  jointName = "Link8_Cube016" />
    <neuron name = "38" type = "motor"  jointName = "Cube016_Link17" />
    <synapse sourceNeuronName = "0" targetNeuronName = "8" weight = "-0.420462054956545" />
    <synapse sourceNeuronName = "0" targetNeuronName = "9" weight = "0.7425303319838943" />
    <synapse sourceNeuronName = "0" targetNeuronName = "10" weight = "-0.6718471073172705" />
    <synapse sourceNeuronName = "0" targetNeuronName = "11" weight = "-0.19577782258378296" />
    <synapse sourceNeuronName = "0" targetNeuronName = "12" weight = "0.8213049534990418" />
    <synapse sourceNeuronName = "0" targetNeuronName = "13" weight = "0.4635539143392242" />
    <synapse sourceNeuronName = "0" targetNeuronName = "14" weight = "0.8692532601961589" />
    <synapse sourceNeuronName = "0" targetNeuronName = "15" weight = "-0.0034599242420720877" />
    <synapse sourceNeuronName = "0" targetNeuronName = "16" weight = "0.5716314556964417" />
    <synapse sourceNeuronName = "0" targetNeuronName = "17" weight = "-0.8502339393477707" />
    <synapse sourceNeuronName = "0" targetNeuronName = "18" weight = "0.09913879615303434" />
    <synapse sourceNeuronName = "0" targetNeuronName = "19" weight = "0.9805029445887556" />
    <synapse sourceNeuronName = "0" targetNeuronName = "20" weight = "0.5146926639616274" />
    <synapse sourceNeuronName = "0" targetNeuronName = "21" weight = "-0.08710397580132989" />
    <synapse sourceNeuronName = "0" targetNeuronName = "22" weight = "-0.35024535047948957" />
    <synapse sourceNeuronName = "0" targetNeuronName = "23" weight = "0.7150076470003164" />
    <synapse sourceNeuronName = "0" targetNeuronName = "24" weight = "0.5623900033838463" />
    <synapse sourceNeuronName = "0" targetNeuronName = "25" weight = "-0.76888453731265" />
    <synapse sourceNeuronName = "0" targetNeuronName = "26" weight = "-0.9958939283396606" />
    <synapse sourceNeuronName = "0" targetNeuronName = "27" weight = "-0.8779669209649676" />
    <synapse sourceNeuronName = "0" targetNeuronName = "28" weight = "-0.9134546272616912" />
    <synapse sourceNeuronName = "0" targetNeuronName = "29" weight = "0.024961205199645065" />
    <synapse sourceNeuronName = "0" targetNeuronName = "30" weight = "0.6912622582798542" />
    <synapse sourceNeuronName = "0" targetNeuronName = "31" weight = "-0.7504455889654784" />
    <synapse sourceNeuronName = "0" targetNeuronName = "32" weight = "0.7132700759320181" />
    <synapse sourceNeuronName = "0" targetNeuronName = "33" weight = "0.19129135758546245" />
    <synapse sourceNeuronName = "0" targetNeuronName = "34" weight = "-0.6527485274560592" />
    <synapse sourceNeuronName = "0" targetNeuronName = "35" weight = "0.5503525462572536" />
    <synapse sourceNeuronName = "0" targetNeuronName = "36" weight = "-0.8752129232649959" />
    <synapse sourceNeuronName = "0" targetNeuronName = "37" weight = "0.37896821744103826" />
    <synapse sourceNeuronName = "0" targetNeuronName = "38" weight = "0.961775725784155" />
    <synapse sourceNeuronName = "1" targetNeuronName = "8" weight = "-0.4682471897345297" />
    <synapse sourceNeuronName = "1" targetNeuronName = "9" weight = "-0.1118451696553433" />
    <synapse sourceNeuronName = "1" targetNeuronName = "10" weight = "0.6843676488801571" />
    <synapse sourceNeuronName = "1" targetNeuronName = "11" weight = "0.18455045636654677" />
    <synapse sourceNeuronName = "1" targetNeuronName = "12" weight = "0.6733917501633904" />
    <synapse sourceNeuronName = "1" targetNeuronName = "13" weight = "-0.6381859870859943" />
    <synapse sourceNeuronName = "1" targetNeuronName = "14" weight = "0.9344796541308691" />
    <synapse sourceNeuronName = "1" targetNeuronName = "15" weight = "-0.8070079585286762" />
    <synapse sourceNeuronName = "1" targetNeuronName = "16" weight = "0.8280896177764687" />
    <synapse sourceNeuronName = "1" targetNeuronName = "17" weight = "0.17704517866612024" />
    <synapse sourceNeuronName = "1" targetNeuronName = "18" weight = "-0.8631901044788131" />
    <synapse sourceNeuronName = "1" targetNeuronName = "19" weight = "0.4261567350918243" />
    <synapse sourceNeuronName = "1" targetNeuronName = "20" weight = "0.42352750453152166" />
    <synapse sourceNeuronName = "1" targetNeuronName = "21" weight = "0.6321409109993927" />
    <synapse sourceNeuronName = "1" targetNeuronName = "22" weight = "-0.9122325095775061" />
    <synapse sourceNeuronName = "1" targetNeuronName = "23" weight = "0.34063371224749384" />
    <synapse sourceNeuronName = "1" targetNeuronName = "24" weight = "-0.359919219631023" />
    <synapse sourceNeuronName = "1" targetNeuronName = "25" weight = "0.09326460140851234" />
    <synapse sourceNeuronName = "1" targetNeuronName = "26" weight = "0.006022479996911523" />
    <synapse sourceNeuronName = "1" targetNeuronName = "27" weight = "-0.6583132956637376" />
    <synapse sourceNeuronName = "1" targetNeuronName = "28" weight = "-0.8642388442666955" />
    <synapse sourceNeuronName = "1" targetNeuronName = "29" weight = "0.6819240150314412" />
    <synapse sourceNeuronName = "1" targetNeuronName = "30" weight = "-0.643754291880221" />
    <synapse sourceNeuronName = "1" targetNeuronName = "31" weight = "-0.6786093029808344" />
    <synapse sourceNeuronName = "1" targetNeuronName = "32" weight = "-0.017246883809838298" />
    <synapse sourceNeuronName = "1" targetNeuronName = "33" weight = "0.9081772732459208" />
    <synapse sourceNeuronName = "1" targetNeuronName = "34" weight = "-0.19088601522041104" />
    <synapse sourceNeuronName = "1" targetNeuronName = "35" weight = "-0.9271890514247385" />
    <synapse sourceNeuronName = "1" targetNeuronName = "36" weight = "0.09702594094081807" />
    <synapse sourceNeuronName = "1" targetNeuronName = "37" weight = "0.20490823772355493" />
    <synapse sourceNeuronName = "1" targetNeuronName = "38" weight = "0.9167417311395496" />
    <synapse sourceNeuronName = "2" targetNeuronName = "8" weight = "0.7676636663893952" />
    <synapse sourceNeuronName = "2" targetNeuronName = "9" weight = "0.30126940450772266" />
    <synapse sourceNeuronName = "2" targetNeuronName = "10" weight = "0.8823958452170308" />
    <synapse sourceNeuronName = "2" targetNeuronName = "11" weight = "-0.42863271468370545" />
    <synapse sourceNeuronName = "2" targetNeuronName = "12" weight = "-0.1984741481941774" />
    <synapse sourceNeuronName = "2" targetNeuronName = "13" weight = "0.6618368092823199" />
    <synapse sourceNeuronName = "2" targetNeuronName = "14" weight = "-0.9580848887938334" />
    <synapse sourceNeuronName = "2" targetNeuronName = "15" weight = "-0.34835097726503084" />
    <synapse sourceNeuronName = "2" targetNeuronName = "16" weight = "0.9043349153448428" />
    <synapse sourceNeuronName = "2" targetNeuronName = "17" weight = "0.11181786679871775" />
    <synapse sourceNeuronName = "2" targetNeuronName = "18" weight = "0.44251323923962005" />
    <synapse sourceNeuronName = "2" targetNeuronName = "19" weight = "-0.3021415589054133" />
    <synapse sourceNeuronName = "2" targetNeuronName = "20" weight = "0.19702427475085482" />
    <synapse sourceNeuronName = "2" targetNeuronName = "21" weight = "0.20313908125866953" />
    <synapse sourceNeuronName = "2" targetNeuronName = "22" weight = "0.921921187294346" />
    <synapse sourceNeuronName = "2" targetNeuronName = "23" weight = "-0.5190165572691168" />
    <synapse sourceNeuronName = "2" targetNeuronName = "24" weight = "0.8696942568857169" />
    <synapse sourceNeuronName = "2" targetNeuronName = "25" weight = "0.2963820916178892" />
    <synapse sourceNeuronName = "2" targetNeuronName = "26" weight = "-0.6160532420853793" />
    <synapse sourceNeuronName = "2" targetNeuronName = "27" weight = "0.4784003987894525" />
    <synapse sourceNeuronName = "2" targetNeuronName = "28" weight = "0.47546613891552303" />
    <synapse sourceNeuronName = "2" targetNeuronName = "29" weight = "-0.3587033112816791" />
    <synapse sourceNeuronName = "2" targetNeuronName = "30" weight = "-0.3206277597917062" />
    <synapse sourceNeuronName = "2" targetNeuronName = "31" weight = "-0.5514744562656939" />
    <synapse sourceNeuronName = "2" targetNeuronName = "32" weight = "-0.9450539857019093" />
    <synapse sourceNeuronName = "2" targetNeuronName = "33" weight = "0.6653595589122512" />
    <synapse sourceNeuronName = "2" targetNeuronName = "34" weight = "0.028836390619038754" />
    <synapse sourceNeuronName = "2" targetNeuronName = "35" weight = "0.7362518972077654" />
    <synapse sourceNeuronName = "2" targetNeuronName = "36" weight = "0.31081280126293453" />
    <synapse sourceNeuronName = "2" targetNeuronName = "37" weight = "0.6981254068703853" />
    <synapse sourceNeuronName = "2" targetNeuronName = "38" weight = "0.33637877931303684" />
    <synapse sourceNeuronName = "3" targetNeuronName = "8" weight = "0.9755850149449246" />
    <synapse sourceNeuronName = "3" targetNeuronName = "9" weight = "0.02398542299193629" />
    <synapse sourceNeuronName = "3" targetNeuronName = "10" weight = "-0.41699833394271546" />
    <synapse sourceNeuronName = "3" targetNeuronName = "11" weight = "0.13520675400804527" />
    <synapse sourceNeuronName = "3" targetNeuronName = "12" weight = "0.5596609296498185" />
    <synapse sourceNeuronName = "3" targetNeuronName = "13" weight = "0.870023745671862" />
    <synapse sourceNeuronName = "3" targetNeuronName = "14" weight = "-0.4079906911510247" />
    <synapse sourceNeuronName = "3" targetNeuronName = "15" weight = "-0.031371276774361245" />
    <synapse sourceNeuronName = "3" targetNeuronName = "16" weight = "0.5257152283591391" />
    <synapse sourceNeuronName = "3" targetNeuronName = "17" weight = "-0.1380737150192517" />
    <synapse sourceNeuronName = "3" targetNeuronName = "18" weight = "0.3397233145442857" />
    <synapse sourceNeuronName = "3" targetNeuronName = "19" weight = "0.03861273902234186" />
    <synapse sourceNeuronName = "3" targetNeuronName = "20" weight = "-0.8674187346125248" />
    <synapse sourceNeuronName = "3" targetNeuronName = "21" weight = "0.5638123502231245" />
    <synapse sourceNeuronName = "3" targetNeuronName = "22" weight = "0.7969618063091075" />
    <synapse sourceNeuronName = "3" targetNeuronName = "23" weight = "0.4140316677623781" />
    <synapse sourceNeuronName = "3" targetNeuronName = "24" weight = "0.2705700412615537" />
    <synapse sourceNeuronName = "3" targetNeuronName = "25" weight = "0.12055033230721368" />
    <synapse sourceNeuronName = "3" targetNeuronName = "26" weight = "-0.3369029774469061" />
    <synapse sourceNeuronName = "3" targetNeuronName = "27" weight = "-0.17248435111061622" />
    <synapse sourceNeuronName = "3" targetNeuronName = "28" weight = "0.23040608514346772" />
    <synapse sourceNeuronName = "3" targetNeuronName = "29" weight = "0.9265710887792686" />
    <synapse sourceNeuronName = "3" targetNeuronName = "30" weight = "0.5865690659614089" />
    <synapse sourceNeuronName = "3" targetNeuronName = "31" weight = "0.5796722671326466" />
    <synapse sourceNeuronName = "3" targetNeuronName = "32" weight = "0.8932053592976135" />
    <synapse sourceNeuronName = "3" targetNeuronName = "33" weight = "-0.15879737282561868" />
    <synapse sourceNeuronName = "3" targetNeuronName = "34" weight = "-0.7360713633878258" />
    <synapse sourceNeuronName = "3" targetNeuronName = "35" weight = "0.39355751889843926" />
    <synapse sourceNeuronName = "3" targetNeuronName = "36" weight = "-0.19721828731749724" />
    <synapse sourceNeuronName = "3" targetNeuronName = "37" weight = "0.08399655217407864" />
    <synapse sourceNeuronName = "3" targetNeuronName = "38" weight = "0.17107190871529698" />
    <synapse sourceNeuronName = "4" targetNeuronName = "8" weight = "0.032898103184644034" />
    <synapse sourceNeuronName = "4" targetNeuronName = "9" weight = "-0.6456403263167851" />
    <synapse sourceNeuronName = "4" targetNeuronName = "10" weight = "-0.6223973696953202" />
    <synapse sourceNeuronName = "4" targetNeuronName = "11" weight = "-0.76653778327222" />
    <synapse sourceNeuronName = "4" targetNeuronName = "12" weight = "-0.913969443684642" />
    <synapse sourceNeuronName = "4" targetNeuronName = "13" weight = "0.3575773836623981" />
    <synapse sourceNeuronName = "4" targetNeuronName = "14" weight = "0.5356919126605619" />
    <synapse sourceNeuronName = "4" targetNeuronName = "15" weight = "0.41960255918163103" />
    <synapse sourceNeuronName = "4" targetNeuronName = "16" weight = "0.8892155546684191" />
    <synapse sourceNeuronName = "4" targetNeuronName = "17" weight = "0.6907501268713887" />
    <synapse sourceNeuronName = "4" targetNeuronName = "18" weight = "0.36115712855530946" />
    <synapse sourceNeuronName = "4" targetNeuronName = "19" weight = "-0.6934783375749645" />
    <synapse sourceNeuronName = "4" targetNeuronName = "20" weight = "0.7267578791832021" />
    <synapse sourceNeuronName = "4" targetNeuronName = "21" weight = "-0.9057814880919357" />
    <synapse sourceNeuronName = "4" targetNeuronName = "22" weight = "-0.5045587294594265" />
    <synapse sourceNeuronName = "4" targetNeuronName = "23" weight = "0.5546719309407242" />
    <synapse sourceNeuronName = "4" targetNeuronName = "24" weight = "-0.7330852424405012" />
    <synapse sourceNeuronName = "4" targetNeuronName = "25" weight = "-0.25481245985467416" />
    <synapse sourceNeuronName = "4" targetNeuronName = "26" weight = "0.592445473941799" />
    <synapse sourceNeuronName = "4" targetNeuronName = "27" weight = "0.19949487396682297" />
    <synapse sourceNeuronName = "4" targetNeuronName = "28" weight = "-0.0001635470701313313" />
    <synapse sourceNeuronName = "4" targetNeuronName = "29" weight = "-0.7414810448311799" />
    <synapse sourceNeuronName = "4" targetNeuronName = "30" weight = "-0.6724090605714315" />
    <synapse sourceNeuronName = "4" targetNeuronName = "31" weight = "0.740614294472097" />
    <synapse sourceNeuronName = "4" targetNeuronName = "32" weight = "-0.9000615395001346" />
    <synapse sourceNeuronName = "4" targetNeuronName = "33" weight = "0.8554235803176875" />
    <synapse sourceNeuronName = "4" targetNeuronName = "34" weight = "0.8831144230367034" />
    <synapse sourceNeuronName = "4" targetNeuronName = "35" weight = "0.9572520913627585" />
    <synapse sourceNeuronName = "4" targetNeuronName = "36" weight = "-0.9218884392196229" />
    <synapse sourceNeuronName = "4" targetNeuronName = "37" weight = "-0.8123174757275433" />
    <synapse sourceNeuronName = "4" targetNeuronName = "38" weight = "0.7005608601013664" />
    <synapse sourceNeuronName = "5" targetNeuronName = "8" weight = "-0.711443012526221" />
    <synapse sourceNeuronName = "5" targetNeuronName = "9" weight = "-0.30884671222206506" />
    <synapse sourceNeuronName = "5" targetNeuronName = "10" weight = "-0.21254616809471538" />
    <synapse sourceNeuronName = "5" targetNeuronName = "11" weight = "-0.8089505199663514" />
    <synapse sourceNeuronName = "5" targetNeuronName = "12" weight = "-0.7086015794421965" />
    <synapse sourceNeuronName = "5" targetNeuronName = "13" weight = "-0.9327206276497941" />
    <synapse sourceNeuronName = "5" targetNeuronName = "14" weight = "0.3047712817314594" />
    <synapse sourceNeuronName = "5" targetNeuronName = "15" weight = "0.45025387344340184" />
    <synapse sourceNeuronName = "5" targetNeuronName = "16" weight = "0.20015936260752265" />
    <synapse sourceNeuronName = "5" targetNeuronName = "17" weight = "0.5007548996538176" />
    <synapse sourceNeuronName = "5" targetNeuronName = "18" weight = "0.2059549676480914" />
    <synapse sourceNeuronName = "5" targetNeuronName = "19" weight = "-0.36538117335991727" />
    <synapse sourceNeuronName = "5" targetNeuronName = "20" weight = "0.08666198086648635" />
    <synapse sourceNeuronName = "5" targetNeuronName = "21" weight = "0.5538630760519103" />
    <synapse sourceNeuronName = "5" targetNeuronName = "22" weight = "0.43258280553753026" />
    <synapse sourceNeuronName = "5" targetNeuronName = "23" weight = "-0.26235832385872104" />
    <synapse sourceNeuronName = "5" targetNeuronName = "24" weight = "-0.7744989584917756" />
    <synapse sourceNeuronName = "5" targetNeuronName = "25" weight = "-0.15512240154660484" />
    <synapse sourceNeuronName = "5" targetNeuronName = "26" weight = "0.4658644709740354" />
    <synapse sourceNeuronName = "5" targetNeuronName = "27" weight = "0.648084013394455" />
    <synapse sourceNeuronName = "5" targetNeuronName = "28" weight = "0.8392475333090272" />
    <synapse sourceNeuronName = "5" targetNeuronName = "29" weight = "-0.698518406314588" />
    <synapse sourceNeuronName = "5" targetNeuronName = "30" weight = "0.1266810560089271" />
    <synapse sourceNeuronName = "5" targetNeuronName = "31" weight = "-0.12150308950673949" />
    <synapse sourceNeuronName = "5" targetNeuronName = "32" weight = "0.18881394130352813" />
    <synapse sourceNeuronName = "5" targetNeuronName = "33" weight = "-0.13179639942000088" />
    <synapse sourceNeuronName = "5" targetNeuronName = "34" weight = "0.8722899696191899" />
    <synapse sourceNeuronName = "5" targetNeuronName = "35" weight = "-0.6888101394247221" />
    <synapse sourceNeuronName = "5" targetNeuronName = "36" weight = "-0.8946535607763111" />
    <synapse sourceNeuronName = "5" targetNeuronName = "37" weight = "-0.5115395856055434" />
    <synapse sourceNeuronName = "5" targetNeuronName = "38" weight = "-0.2660708611430773" />
    <synapse sourceNeuronName = "6" targetNeuronName = "8" weight = "0.023858017008722587" />
    <synapse sourceNeuronName = "6" targetNeuronName = "9" weight = "-0.920112124439284" />
    <synapse sourceNeuronName = "6" targetNeuronName = "10" weight = "0.8430207531603175" />
    <synapse sourceNeuronName = "6" targetNeuronName = "11" weight = "-0.20367907558538256" />
    <synapse sourceNeuronName = "6" targetNeuronName = "12" weight = "-0.20667681853616382" />
    <synapse sourceNeuronName = "6" targetNeuronName = "13" weight = "-0.5923988593313123" />
    <synapse sourceNeuronName = "6" targetNeuronName = "14" weight = "-0.2520221616733773" />
    <synapse sourceNeuronName = "6" targetNeuronName = "15" weight = "0.3314186107743269" />
    <synapse sourceNeuronName = "6" targetNeuronName = "16" weight = "0.15870590067036194" />
    <synapse sourceNeuronName = "6" targetNeuronName = "17" weight = "0.27111804613575385" />
    <synapse sourceNeuronName = "6" targetNeuronName = "18" weight = "0.5051583826732802" />
    <synapse sourceNeuronName = "6" targetNeuronName = "19" weight = "0.28152327764860496" />
    <synapse sourceNeuronName = "6" targetNeuronName = "20" weight = "0.5184224302261768" />
    <synapse sourceNeuronName = "6" targetNeuronName = "21" weight = "0.8279511374087982" />
    <synapse sourceNeuronName = "6" targetNeuronName = "22" weight = "-0.28880460643404127" />
    <synapse sourceNeuronName = "6" targetNeuronName = "23" weight = "-0.42349759762597516" />
    <synapse sourceNeuronName = "6" targetNeuronName = "24" weight = "0.3971507464452608" />
    <synapse sourceNeuronName = "6" targetNeuronName = "25" weight = "0.5998682421222166" />
    <synapse sourceNeuronName = "6" targetNeuronName = "26" weight = "0.5318640380227462" />
    <synapse sourceNeuronName = "6" targetNeuronName = "27" weight = "-0.9294743394170317" />
    <synapse sourceNeuronName = "6" targetNeuronName = "28" weight = "0.9773359719504413" />
    <synapse sourceNeuronName = "6" targetNeuronName = "29" weight = "0.12073795425156608" />
    <synapse sourceNeuronName = "6" targetNeuronName = "30" weight = "-0.651418260196273" />
    <synapse sourceNeuronName = "6" targetNeuronName = "31" weight = "0.17520515406076131" />
    <synapse sourceNeuronName = "6" targetNeuronName = "32" weight = "0.7754679586055655" />
    <synapse sourceNeuronName = "6" targetNeuronName = "33" weight = "-0.6870125736717796" />
    <synapse sourceNeuronName = "6" targetNeuronName = "34" weight = "0.1719280451645162" />
    <synapse sourceNeuronName = "6" targetNeuronName = "35" weight = "0.8758484390763313" />
    <synapse sourceNeuronName = "6" targetNeuronName = "36" weight = "-0.39337181590086656" />
    <synapse sourceNeuronName = "6" targetNeuronName = "37" weight = "0.3752740833359287" />
    <synapse sourceNeuronName = "6" targetNeuronName = "38" weight = "-0.6130612415458163" />
    <synapse sourceNeuronName = "7" targetNeuronName = "8" weight = "0.9141701012343633" />
    <synapse sourceNeuronName = "7" targetNeuronName = "9" weight = "-0.23428145331797467" />
    <synapse sourceNeuronName = "7" targetNeuronName = "10" weight = "-0.07493547046671067" />
    <synapse sourceNeuronName = "7" targetNeuronName = "11" weight = "-0.015001967493968982" />
    <synapse sourceNeuronName = "7" targetNeuronName = "12" weight = "-0.38340372331280226" />
    <synapse sourceNeuronName = "7" targetNeuronName = "13" weight = "-0.5560936260056815" />
    <synapse sourceNeuronName = "7" targetNeuronName = "14" weight = "0.4027864265756469" />
    <synapse sourceNeuronName = "7" targetNeuronName = "15" weight = "0.831227535171635" />
    <synapse sourceNeuronName = "7" targetNeuronName = "16" weight = "0.14709035414991778" />
    <synapse sourceNeuronName = "7" targetNeuronName = "17" weight = "0.42090539313324626" />
    <synapse sourceNeuronName = "7" targetNeuronName = "18" weight = "-0.6849545366958611" />
    <synapse sourceNeuronName = "7" targetNeuronName = "19" weight = "-0.695489512738267" />
    <synapse sourceNeuronName = "7" targetNeuronName = "20" weight = "-0.0249012197601024" />
    <synapse sourceNeuronName = "7" targetNeuronName = "21" weight = "-0.10261346226990486" />
    <synapse sourceNeuronName = "7" targetNeuronName = "22" weight = "0.48367884568425246" />
    <synapse sourceNeuronName = "7" targetNeuronName = "23" weight = "0.8311596001255597" />
    <synapse sourceNeuronName = "7" targetNeuronName = "24" weight = "-0.5327925849409005" />
    <synapse sourceNeuronName = "7" targetNeuronName = "25" weight = "-0.19261279179309332" />
    <synapse sourceNeuronName = "7" targetNeuronName = "26" weight = "-0.43927229579946303" />
    <synapse sourceNeuronName = "7" targetNeuronName = "27" weight = "-0.6165720099806251" />
    <synapse sourceNeuronName = "7" targetNeuronName = "28" weight = "-0.44558057720376887" />
    <synapse sourceNeuronName = "7" targetNeuronName = "29" weight = "0.4470949937472868" />
    <synapse sourceNeuronName = "7" targetNeuronName = "30" weight = "-0.7376736950508049" />
    <synapse sourceNeuronName = "7" targetNeuronName = "31" weight = "-0.2243093620188017" />
    <synapse sourceNeuronName = "7" targetNeuronName = "32" weight = "0.25255860271024533" />
    <synapse sourceNeuronName = "7" targetNeuronName = "33" weight = "-0.8701984758041981" />
    <synapse sourceNeuronName = "7" targetNeuronName = "34" weight = "-0.7010354270487131" />
    <synapse sourceNeuronName = "7" targetNeuronName = "35" weight = "0.905719375036931" />
    <synapse sourceNeuronName = "7" targetNeuronName = "36" weight = "-0.21734630630393803" />
    <synapse sourceNeuronName = "7" targetNeuronName = "37" weight = "0.518724650090266" />
    <synapse sourceNeuronName = "7" targetNeuronName = "38" weight = "-0.8551437968486741" />
</neuralNetwork>