<neuralNetwork>
    <neuron name = "0" type = "sensor" linkName = "Link1" />
    <neuron name = "1" type = "sensor" linkName = "Link7" />
    <neuron name = "2" type = "motor"  jointName = "Link0_Cube00" />
    <neuron name = "3" type = "motor"  jointName = "Cube00_Cube10" />
    <neuron name = "4" type = "motor"  jointName = "Cube10_Link1" />
    <neuron name = "5" type = "motor"  jointName = "Link0_Cube01" />
    <neuron name = "6" type = "motor"  jointName = "Cube01_Link2" />
    <neuron name = "7" type = "motor"  jointName = "Link2_Cube02" />
    <neuron name = "8" type = "motor"  jointName = "Cube02_Link3" />
    <neuron name = "9" type = "motor"  jointName = "Link2_Cube03" />
    <neuron name = "10" type = "motor"  jointName = "Cube03_Cube13" />
    <neuron name = "11" type = "motor"  jointName = "Cube13_Link4" />
    <neuron name = "12" type = "motor"  jointName = "Link3_Link5" />
    <neuron name = "13" type = "motor"  jointName = "Link5_Link6" />
    <neuron name = "14" type = "motor"  jointName = "Link2_Cube06" />
    <neuron name = "15" type = "motor"  jointName = "Cube06_Link7" />
    <synapse sourceNeuronName = "0" targetNeuronName = "2" weight = "0.5112588563135052" />
    <synapse sourceNeuronName = "0" targetNeuronName = "3" weight = "-0.5351643915942663" />
    <synapse sourceNeuronName = "0" targetNeuronName = "4" weight = "0.9111480927893345" />
    <synapse sourceNeuronName = "0" targetNeuronName = "5" weight = "-0.6497645378183665" />
    <synapse sourceNeuronName = "0" targetNeuronName = "6" weight = "-0.5850738938575177" />
    <synapse sourceNeuronName = "0" targetNeuronName = "7" weight = "-0.7457509435695082" />
    <synapse sourceNeuronName = "0" targetNeuronName = "8" weight = "-0.09039602838220206" />
    <synapse sourceNeuronName = "0" targetNeuronName = "9" weight = "0.9139094022870007" />
    <synapse sourceNeuronName = "0" targetNeuronName = "10" weight = "0.6886772161522674" />
    <synapse sourceNeuronName = "0" targetNeuronName = "11" weight = "0.06284474402616458" />
    <synapse sourceNeuronName = "0" targetNeuronName = "12" weight = "-0.3463949961984827" />
    <synapse sourceNeuronName = "0" targetNeuronName = "13" weight = "0.2882229714438944" />
    <synapse sourceNeuronName = "0" targetNeuronName = "14" weight = "-0.4446322905652591" />
    <synapse sourceNeuronName = "0" targetNeuronName = "15" weight = "0.4242973152886196" />
    <synapse sourceNeuronName = "1" targetNeuronName = "2" weight = "-0.9773272434397291" />
    <synapse sourceNeuronName = "1" targetNeuronName = "3" weight = "-0.9727004732787918" />
    <synapse sourceNeuronName = "1" targetNeuronName = "4" weight = "0.6107733783310139" />
    <synapse sourceNeuronName = "1" targetNeuronName = "5" weight = "0.17901991112491844" />
    <synapse sourceNeuronName = "1" targetNeuronName = "6" weight = "-0.7821442044016877" />
    <synapse sourceNeuronName = "1" targetNeuronName = "7" weight = "-0.9121557733270955" />
    <synapse sourceNeuronName = "1" targetNeuronName = "8" weight = "0.928657252650468" />
    <synapse sourceNeuronName = "1" targetNeuronName = "9" weight = "0.8602192901783052" />
    <synapse sourceNeuronName = "1" targetNeuronName = "10" weight = "-0.10715174590779641" />
    <synapse sourceNeuronName = "1" targetNeuronName = "11" weight = "0.28349756360279676" />
    <synapse sourceNeuronName = "1" targetNeuronName = "12" weight = "0.25994246559516965" />
    <synapse sourceNeuronName = "1" targetNeuronName = "13" weight = "-0.2589925243918656" />
    <synapse sourceNeuronName = "1" targetNeuronName = "14" weight = "-0.8685260017882663" />
    <synapse sourceNeuronName = "1" targetNeuronName = "15" weight = "-0.6567495462173454" />
</neuralNetwork>