<neuralNetwork>
    <neuron name = "0" type = "sensor" linkName = "Link0" />
    <neuron name = "1" type = "sensor" linkName = "Link2" />
    <neuron name = "2" type = "sensor" linkName = "Link3" />
    <neuron name = "3" type = "sensor" linkName = "Link5" />
    <neuron name = "4" type = "motor"  jointName = "Link0_Cube00" />
    <neuron name = "5" type = "motor"  jointName = "Cube00_Link1" />
    <neuron name = "6" type = "motor"  jointName = "Link0_Cube01" />
    <neuron name = "7" type = "motor"  jointName = "Cube01_Cube11" />
    <neuron name = "8" type = "motor"  jointName = "Cube11_Link2" />
    <neuron name = "9" type = "motor"  jointName = "Link0_Cube02" />
    <neuron name = "10" type = "motor"  jointName = "Cube02_Link3" />
    <neuron name = "11" type = "motor"  jointName = "Link0_Cube03" />
    <neuron name = "12" type = "motor"  jointName = "Cube03_Link4" />
    <neuron name = "13" type = "motor"  jointName = "Link2_Cube04" />
    <neuron name = "14" type = "motor"  jointName = "Cube04_Link5" />
    <synapse sourceNeuronName = "0" targetNeuronName = "4" weight = "-0.6406754290987906" />
    <synapse sourceNeuronName = "0" targetNeuronName = "5" weight = "0.921141669651788" />
    <synapse sourceNeuronName = "0" targetNeuronName = "6" weight = "-0.6899920072032744" />
    <synapse sourceNeuronName = "0" targetNeuronName = "7" weight = "-0.07184735265517195" />
    <synapse sourceNeuronName = "0" targetNeuronName = "8" weight = "0.8716791530230956" />
    <synapse sourceNeuronName = "0" targetNeuronName = "9" weight = "0.20569064255539415" />
    <synapse sourceNeuronName = "0" targetNeuronName = "10" weight = "0.7619374989034156" />
    <synapse sourceNeuronName = "0" targetNeuronName = "11" weight = "0.5201682437746669" />
    <synapse sourceNeuronName = "0" targetNeuronName = "12" weight = "-0.7624179669943647" />
    <synapse sourceNeuronName = "0" targetNeuronName = "13" weight = "-0.028232190481393804" />
    <synapse sourceNeuronName = "0" targetNeuronName = "14" weight = "0.5371511490233214" />
    <synapse sourceNeuronName = "1" targetNeuronName = "4" weight = "0.1878723923801402" />
    <synapse sourceNeuronName = "1" targetNeuronName = "5" weight = "0.20311625134826583" />
    <synapse sourceNeuronName = "1" targetNeuronName = "6" weight = "-0.9993245916461411" />
    <synapse sourceNeuronName = "1" targetNeuronName = "7" weight = "-0.9220936523679717" />
    <synapse sourceNeuronName = "1" targetNeuronName = "8" weight = "-0.55017428001422" />
    <synapse sourceNeuronName = "1" targetNeuronName = "9" weight = "0.7344670658962433" />
    <synapse sourceNeuronName = "1" targetNeuronName = "10" weight = "0.40195522664019334" />
    <synapse sourceNeuronName = "1" targetNeuronName = "11" weight = "-0.8963072069574016" />
    <synapse sourceNeuronName = "1" targetNeuronName = "12" weight = "-0.48724897921237087" />
    <synapse sourceNeuronName = "1" targetNeuronName = "13" weight = "0.21422293678278348" />
    <synapse sourceNeuronName = "1" targetNeuronName = "14" weight = "-0.1093675739557769" />
    <synapse sourceNeuronName = "2" targetNeuronName = "4" weight = "0.44354683062402556" />
    <synapse sourceNeuronName = "2" targetNeuronName = "5" weight = "0.7302128900245239" />
    <synapse sourceNeuronName = "2" targetNeuronName = "6" weight = "-0.14637500482139032" />
    <synapse sourceNeuronName = "2" targetNeuronName = "7" weight = "0.8259962864884731" />
    <synapse sourceNeuronName = "2" targetNeuronName = "8" weight = "-0.21932116307986416" />
    <synapse sourceNeuronName = "2" targetNeuronName = "9" weight = "-0.9194820260473544" />
    <synapse sourceNeuronName = "2" targetNeuronName = "10" weight = "-0.8978513072671361" />
    <synapse sourceNeuronName = "2" targetNeuronName = "11" weight = "-0.3203146382783648" />
    <synapse sourceNeuronName = "2" targetNeuronName = "12" weight = "-0.7375689916216945" />
    <synapse sourceNeuronName = "2" targetNeuronName = "13" weight = "0.5697073835948172" />
    <synapse sourceNeuronName = "2" targetNeuronName = "14" weight = "-0.3143966533969913" />
    <synapse sourceNeuronName = "3" targetNeuronName = "4" weight = "0.6372212597236881" />
    <synapse sourceNeuronName = "3" targetNeuronName = "5" weight = "-0.999722625675356" />
    <synapse sourceNeuronName = "3" targetNeuronName = "6" weight = "-0.4115111416029382" />
    <synapse sourceNeuronName = "3" targetNeuronName = "7" weight = "0.2913305811349205" />
    <synapse sourceNeuronName = "3" targetNeuronName = "8" weight = "-0.5722026491550345" />
    <synapse sourceNeuronName = "3" targetNeuronName = "9" weight = "-0.06836812200676445" />
    <synapse sourceNeuronName = "3" targetNeuronName = "10" weight = "-0.674243958773616" />
    <synapse sourceNeuronName = "3" targetNeuronName = "11" weight = "0.2527658075414576" />
    <synapse sourceNeuronName = "3" targetNeuronName = "12" weight = "0.39039833356542464" />
    <synapse sourceNeuronName = "3" targetNeuronName = "13" weight = "0.6831679213126358" />
    <synapse sourceNeuronName = "3" targetNeuronName = "14" weight = "0.7923666395814595" />
</neuralNetwork>