<neuralNetwork>
    <neuron name = "0" type = "sensor" linkName = "Link2" />
    <neuron name = "1" type = "sensor" linkName = "Link3" />
    <neuron name = "2" type = "sensor" linkName = "Link5" />
    <neuron name = "3" type = "sensor" linkName = "Link7" />
    <neuron name = "4" type = "motor"  jointName = "Link0_Cube00" />
    <neuron name = "5" type = "motor"  jointName = "Cube00_Link1" />
    <neuron name = "6" type = "motor"  jointName = "Link0_Link2" />
    <neuron name = "7" type = "motor"  jointName = "Link2_Cube02" />
    <neuron name = "8" type = "motor"  jointName = "Cube02_Cube12" />
    <neuron name = "9" type = "motor"  jointName = "Cube12_Link3" />
    <neuron name = "10" type = "motor"  jointName = "Link2_Cube03" />
    <neuron name = "11" type = "motor"  jointName = "Cube03_Link4" />
    <neuron name = "12" type = "motor"  jointName = "Link4_Link5" />
    <neuron name = "13" type = "motor"  jointName = "Link0_Link6" />
    <neuron name = "14" type = "motor"  jointName = "Link4_Cube06" />
    <neuron name = "15" type = "motor"  jointName = "Cube06_Link7" />
    <neuron name = "16" type = "motor"  jointName = "Link6_Cube07" />
    <neuron name = "17" type = "motor"  jointName = "Cube07_Link8" />
    <synapse sourceNeuronName = "0" targetNeuronName = "4" weight = "0.5664639544246883" />
    <synapse sourceNeuronName = "0" targetNeuronName = "5" weight = "0.3163260107758954" />
    <synapse sourceNeuronName = "0" targetNeuronName = "6" weight = "-0.3624248858003001" />
    <synapse sourceNeuronName = "0" targetNeuronName = "7" weight = "0.25452436152962243" />
    <synapse sourceNeuronName = "0" targetNeuronName = "8" weight = "-0.06204345267884581" />
    <synapse sourceNeuronName = "0" targetNeuronName = "9" weight = "0.578644386461473" />
    <synapse sourceNeuronName = "0" targetNeuronName = "10" weight = "0.9450793185191726" />
    <synapse sourceNeuronName = "0" targetNeuronName = "11" weight = "0.08730680508011823" />
    <synapse sourceNeuronName = "0" targetNeuronName = "12" weight = "-0.8386486828016531" />
    <synapse sourceNeuronName = "0" targetNeuronName = "13" weight = "-0.6211385874221542" />
    <synapse sourceNeuronName = "0" targetNeuronName = "14" weight = "-0.38791279105494736" />
    <synapse sourceNeuronName = "0" targetNeuronName = "15" weight = "0.31321850062164414" />
    <synapse sourceNeuronName = "0" targetNeuronName = "16" weight = "0.4290974630475155" />
    <synapse sourceNeuronName = "0" targetNeuronName = "17" weight = "-0.35194624378578676" />
    <synapse sourceNeuronName = "1" targetNeuronName = "4" weight = "-0.4444127390991661" />
    <synapse sourceNeuronName = "1" targetNeuronName = "5" weight = "-0.6780492431425595" />
    <synapse sourceNeuronName = "1" targetNeuronName = "6" weight = "0.46404022822163293" />
    <synapse sourceNeuronName = "1" targetNeuronName = "7" weight = "0.7128115831915043" />
    <synapse sourceNeuronName = "1" targetNeuronName = "8" weight = "-0.9666189794953499" />
    <synapse sourceNeuronName = "1" targetNeuronName = "9" weight = "0.3189528351555828" />
    <synapse sourceNeuronName = "1" targetNeuronName = "10" weight = "-0.3116546580885844" />
    <synapse sourceNeuronName = "1" targetNeuronName = "11" weight = "0.2582360552718199" />
    <synapse sourceNeuronName = "1" targetNeuronName = "12" weight = "-0.8123551698415881" />
    <synapse sourceNeuronName = "1" targetNeuronName = "13" weight = "-0.5147455106375032" />
    <synapse sourceNeuronName = "1" targetNeuronName = "14" weight = "-0.38734271955625243" />
    <synapse sourceNeuronName = "1" targetNeuronName = "15" weight = "0.7819096385715683" />
    <synapse sourceNeuronName = "1" targetNeuronName = "16" weight = "-0.7613600122022657" />
    <synapse sourceNeuronName = "1" targetNeuronName = "17" weight = "-0.7793736331910193" />
    <synapse sourceNeuronName = "2" targetNeuronName = "4" weight = "0.7388494207876808" />
    <synapse sourceNeuronName = "2" targetNeuronName = "5" weight = "-0.8701626972229701" />
    <synapse sourceNeuronName = "2" targetNeuronName = "6" weight = "0.4123513905387912" />
    <synapse sourceNeuronName = "2" targetNeuronName = "7" weight = "0.889410316848553" />
    <synapse sourceNeuronName = "2" targetNeuronName = "8" weight = "-0.43853241016712863" />
    <synapse sourceNeuronName = "2" targetNeuronName = "9" weight = "0.1873957640449897" />
    <synapse sourceNeuronName = "2" targetNeuronName = "10" weight = "0.15738907697245752" />
    <synapse sourceNeuronName = "2" targetNeuronName = "11" weight = "-0.3299796183569832" />
    <synapse sourceNeuronName = "2" targetNeuronName = "12" weight = "0.36137482869273474" />
    <synapse sourceNeuronName = "2" targetNeuronName = "13" weight = "0.3879914756853533" />
    <synapse sourceNeuronName = "2" targetNeuronName = "14" weight = "0.3434571196537093" />
    <synapse sourceNeuronName = "2" targetNeuronName = "15" weight = "0.48057703737556046" />
    <synapse sourceNeuronName = "2" targetNeuronName = "16" weight = "-0.9190807483095003" />
    <synapse sourceNeuronName = "2" targetNeuronName = "17" weight = "-0.1793505257269299" />
    <synapse sourceNeuronName = "3" targetNeuronName = "4" weight = "0.7515951316520899" />
    <synapse sourceNeuronName = "3" targetNeuronName = "5" weight = "-0.09001146914045832" />
    <synapse sourceNeuronName = "3" targetNeuronName = "6" weight = "-0.7712413383482206" />
    <synapse sourceNeuronName = "3" targetNeuronName = "7" weight = "0.3733945606164557" />
    <synapse sourceNeuronName = "3" targetNeuronName = "8" weight = "-0.31284753247312613" />
    <synapse sourceNeuronName = "3" targetNeuronName = "9" weight = "-0.37049504269204636" />
    <synapse sourceNeuronName = "3" targetNeuronName = "10" weight = "0.6778702878224343" />
    <synapse sourceNeuronName = "3" targetNeuronName = "11" weight = "0.08344496627626397" />
    <synapse sourceNeuronName = "3" targetNeuronName = "12" weight = "-0.28454706745361924" />
    <synapse sourceNeuronName = "3" targetNeuronName = "13" weight = "-0.15385929711542756" />
    <synapse sourceNeuronName = "3" targetNeuronName = "14" weight = "-0.22821801902261662" />
    <synapse sourceNeuronName = "3" targetNeuronName = "15" weight = "-0.800455627890605" />
    <synapse sourceNeuronName = "3" targetNeuronName = "16" weight = "0.08454012872783312" />
    <synapse sourceNeuronName = "3" targetNeuronName = "17" weight = "-0.8435179148701681" />
</neuralNetwork>