<neuralNetwork>
    <neuron name = "0" type = "sensor" linkName = "Link0" />
    <neuron name = "1" type = "sensor" linkName = "Link2" />
    <neuron name = "2" type = "sensor" linkName = "Link3" />
    <neuron name = "3" type = "sensor" linkName = "Link5" />
    <neuron name = "4" type = "motor"  jointName = "Link0_Cube00" />
    <neuron name = "5" type = "motor"  jointName = "Cube00_Link1" />
    <neuron name = "6" type = "motor"  jointName = "Link0_Cube01" />
    <neuron name = "7" type = "motor"  jointName = "Cube01_Cube11" />
    <neuron name = "8" type = "motor"  jointName = "Cube11_Link2" />
    <neuron name = "9" type = "motor"  jointName = "Link0_Cube02" />
    <neuron name = "10" type = "motor"  jointName = "Cube02_Link3" />
    <neuron name = "11" type = "motor"  jointName = "Link0_Cube03" />
    <neuron name = "12" type = "motor"  jointName = "Cube03_Link4" />
    <neuron name = "13" type = "motor"  jointName = "Link1_Cube04" />
    <neuron name = "14" type = "motor"  jointName = "Cube04_Link5" />
    <synapse sourceNeuronName = "0" targetNeuronName = "4" weight = "0.743508344217368" />
    <synapse sourceNeuronName = "0" targetNeuronName = "5" weight = "0.4099821757661477" />
    <synapse sourceNeuronName = "0" targetNeuronName = "6" weight = "0.1541226858471414" />
    <synapse sourceNeuronName = "0" targetNeuronName = "7" weight = "0.47424133693667136" />
    <synapse sourceNeuronName = "0" targetNeuronName = "8" weight = "-0.9206925879497603" />
    <synapse sourceNeuronName = "0" targetNeuronName = "9" weight = "-0.17755885451563724" />
    <synapse sourceNeuronName = "0" targetNeuronName = "10" weight = "-0.809169943733397" />
    <synapse sourceNeuronName = "0" targetNeuronName = "11" weight = "-0.5085873877922806" />
    <synapse sourceNeuronName = "0" targetNeuronName = "12" weight = "0.6016014520311612" />
    <synapse sourceNeuronName = "0" targetNeuronName = "13" weight = "-0.1420323836232007" />
    <synapse sourceNeuronName = "0" targetNeuronName = "14" weight = "-0.9327183495372171" />
    <synapse sourceNeuronName = "1" targetNeuronName = "4" weight = "0.9971276090536525" />
    <synapse sourceNeuronName = "1" targetNeuronName = "5" weight = "-0.778765642137021" />
    <synapse sourceNeuronName = "1" targetNeuronName = "6" weight = "-0.8414699571704187" />
    <synapse sourceNeuronName = "1" targetNeuronName = "7" weight = "0.8317564353759535" />
    <synapse sourceNeuronName = "1" targetNeuronName = "8" weight = "0.4638994623819632" />
    <synapse sourceNeuronName = "1" targetNeuronName = "9" weight = "-0.5963985459953378" />
    <synapse sourceNeuronName = "1" targetNeuronName = "10" weight = "-0.26842367675330103" />
    <synapse sourceNeuronName = "1" targetNeuronName = "11" weight = "0.3134134702548643" />
    <synapse sourceNeuronName = "1" targetNeuronName = "12" weight = "0.4759513998149929" />
    <synapse sourceNeuronName = "1" targetNeuronName = "13" weight = "-0.9659522054861698" />
    <synapse sourceNeuronName = "1" targetNeuronName = "14" weight = "0.6794912932548738" />
    <synapse sourceNeuronName = "2" targetNeuronName = "4" weight = "0.8140560611975352" />
    <synapse sourceNeuronName = "2" targetNeuronName = "5" weight = "0.8669718760041913" />
    <synapse sourceNeuronName = "2" targetNeuronName = "6" weight = "-0.17310692634011482" />
    <synapse sourceNeuronName = "2" targetNeuronName = "7" weight = "-0.5537776824468914" />
    <synapse sourceNeuronName = "2" targetNeuronName = "8" weight = "-0.14333818038787216" />
    <synapse sourceNeuronName = "2" targetNeuronName = "9" weight = "0.25316170357762213" />
    <synapse sourceNeuronName = "2" targetNeuronName = "10" weight = "0.5389790507338565" />
    <synapse sourceNeuronName = "2" targetNeuronName = "11" weight = "-0.898561163105732" />
    <synapse sourceNeuronName = "2" targetNeuronName = "12" weight = "-0.13745434893667863" />
    <synapse sourceNeuronName = "2" targetNeuronName = "13" weight = "0.08060746332434121" />
    <synapse sourceNeuronName = "2" targetNeuronName = "14" weight = "0.45320583834367345" />
    <synapse sourceNeuronName = "3" targetNeuronName = "4" weight = "-0.9128915220908145" />
    <synapse sourceNeuronName = "3" targetNeuronName = "5" weight = "-0.11377782809370007" />
    <synapse sourceNeuronName = "3" targetNeuronName = "6" weight = "0.9187649369926725" />
    <synapse sourceNeuronName = "3" targetNeuronName = "7" weight = "0.832687106728947" />
    <synapse sourceNeuronName = "3" targetNeuronName = "8" weight = "0.29519055005153816" />
    <synapse sourceNeuronName = "3" targetNeuronName = "9" weight = "-0.8778408199431544" />
    <synapse sourceNeuronName = "3" targetNeuronName = "10" weight = "-0.14311570795331252" />
    <synapse sourceNeuronName = "3" targetNeuronName = "11" weight = "0.15181378380702548" />
    <synapse sourceNeuronName = "3" targetNeuronName = "12" weight = "0.3145762918141455" />
    <synapse sourceNeuronName = "3" targetNeuronName = "13" weight = "0.3765617078380272" />
    <synapse sourceNeuronName = "3" targetNeuronName = "14" weight = "0.45936753496914573" />
</neuralNetwork>