<neuralNetwork>
    <neuron name = "0" type = "sensor" linkName = "Link0" />
    <neuron name = "1" type = "sensor" linkName = "Link2" />
    <neuron name = "2" type = "sensor" linkName = "Link3" />
    <neuron name = "3" type = "sensor" linkName = "Link5" />
    <neuron name = "4" type = "motor"  jointName = "Link0_Cube00" />
    <neuron name = "5" type = "motor"  jointName = "Cube00_Link1" />
    <neuron name = "6" type = "motor"  jointName = "Link0_Cube01" />
    <neuron name = "7" type = "motor"  jointName = "Cube01_Cube11" />
    <neuron name = "8" type = "motor"  jointName = "Cube11_Link2" />
    <neuron name = "9" type = "motor"  jointName = "Link0_Cube02" />
    <neuron name = "10" type = "motor"  jointName = "Cube02_Link3" />
    <neuron name = "11" type = "motor"  jointName = "Link0_Cube03" />
    <neuron name = "12" type = "motor"  jointName = "Cube03_Link4" />
    <neuron name = "13" type = "motor"  jointName = "Link2_Cube04" />
    <neuron name = "14" type = "motor"  jointName = "Cube04_Link5" />
    <synapse sourceNeuronName = "0" targetNeuronName = "4" weight = "-0.0801490981588382" />
    <synapse sourceNeuronName = "0" targetNeuronName = "5" weight = "-0.7826918926212718" />
    <synapse sourceNeuronName = "0" targetNeuronName = "6" weight = "-0.12711968203542767" />
    <synapse sourceNeuronName = "0" targetNeuronName = "7" weight = "-0.7983715588044806" />
    <synapse sourceNeuronName = "0" targetNeuronName = "8" weight = "-0.7928858409753086" />
    <synapse sourceNeuronName = "0" targetNeuronName = "9" weight = "-0.813484598899475" />
    <synapse sourceNeuronName = "0" targetNeuronName = "10" weight = "0.24342663793884434" />
    <synapse sourceNeuronName = "0" targetNeuronName = "11" weight = "-0.15942652582474803" />
    <synapse sourceNeuronName = "0" targetNeuronName = "12" weight = "0.8638699346195393" />
    <synapse sourceNeuronName = "0" targetNeuronName = "13" weight = "-0.6808026402504235" />
    <synapse sourceNeuronName = "0" targetNeuronName = "14" weight = "0.846393097291301" />
    <synapse sourceNeuronName = "1" targetNeuronName = "4" weight = "0.15693064742137675" />
    <synapse sourceNeuronName = "1" targetNeuronName = "5" weight = "-0.6967262781949819" />
    <synapse sourceNeuronName = "1" targetNeuronName = "6" weight = "0.11527583271003294" />
    <synapse sourceNeuronName = "1" targetNeuronName = "7" weight = "0.7237586891391172" />
    <synapse sourceNeuronName = "1" targetNeuronName = "8" weight = "0.2682842553708049" />
    <synapse sourceNeuronName = "1" targetNeuronName = "9" weight = "-0.8752396004892942" />
    <synapse sourceNeuronName = "1" targetNeuronName = "10" weight = "-0.6637523135738701" />
    <synapse sourceNeuronName = "1" targetNeuronName = "11" weight = "0.33689544489986334" />
    <synapse sourceNeuronName = "1" targetNeuronName = "12" weight = "0.40886699851153363" />
    <synapse sourceNeuronName = "1" targetNeuronName = "13" weight = "0.22037806232792456" />
    <synapse sourceNeuronName = "1" targetNeuronName = "14" weight = "0.11504790686309496" />
    <synapse sourceNeuronName = "2" targetNeuronName = "4" weight = "0.2163036963426892" />
    <synapse sourceNeuronName = "2" targetNeuronName = "5" weight = "0.5048682503877686" />
    <synapse sourceNeuronName = "2" targetNeuronName = "6" weight = "-0.5708842893984689" />
    <synapse sourceNeuronName = "2" targetNeuronName = "7" weight = "-0.07869672319121612" />
    <synapse sourceNeuronName = "2" targetNeuronName = "8" weight = "0.9731470650012182" />
    <synapse sourceNeuronName = "2" targetNeuronName = "9" weight = "-0.26040532632503766" />
    <synapse sourceNeuronName = "2" targetNeuronName = "10" weight = "0.6395956502038223" />
    <synapse sourceNeuronName = "2" targetNeuronName = "11" weight = "0.3809394718070578" />
    <synapse sourceNeuronName = "2" targetNeuronName = "12" weight = "-0.3698975111483189" />
    <synapse sourceNeuronName = "2" targetNeuronName = "13" weight = "-0.9549306388544705" />
    <synapse sourceNeuronName = "2" targetNeuronName = "14" weight = "0.3785541487515216" />
    <synapse sourceNeuronName = "3" targetNeuronName = "4" weight = "0.4475945135417967" />
    <synapse sourceNeuronName = "3" targetNeuronName = "5" weight = "0.04910650594819277" />
    <synapse sourceNeuronName = "3" targetNeuronName = "6" weight = "-0.34365326063578827" />
    <synapse sourceNeuronName = "3" targetNeuronName = "7" weight = "0.9791830989284258" />
    <synapse sourceNeuronName = "3" targetNeuronName = "8" weight = "-0.3144077819457589" />
    <synapse sourceNeuronName = "3" targetNeuronName = "9" weight = "-0.6733922146025331" />
    <synapse sourceNeuronName = "3" targetNeuronName = "10" weight = "-0.43443871513191334" />
    <synapse sourceNeuronName = "3" targetNeuronName = "11" weight = "0.38758499568010807" />
    <synapse sourceNeuronName = "3" targetNeuronName = "12" weight = "0.5310044676775365" />
    <synapse sourceNeuronName = "3" targetNeuronName = "13" weight = "-0.066623698170857" />
    <synapse sourceNeuronName = "3" targetNeuronName = "14" weight = "-0.628013183894583" />
</neuralNetwork>