<neuralNetwork>
    <neuron name = "0" type = "sensor" linkName = "Link2" />
    <neuron name = "1" type = "sensor" linkName = "Link3" />
    <neuron name = "2" type = "sensor" linkName = "Link5" />
    <neuron name = "3" type = "sensor" linkName = "Link7" />
    <neuron name = "4" type = "motor"  jointName = "Link0_Cube00" />
    <neuron name = "5" type = "motor"  jointName = "Cube00_Link1" />
    <neuron name = "6" type = "motor"  jointName = "Link0_Link2" />
    <neuron name = "7" type = "motor"  jointName = "Link2_Cube02" />
    <neuron name = "8" type = "motor"  jointName = "Cube02_Cube12" />
    <neuron name = "9" type = "motor"  jointName = "Cube12_Link3" />
    <neuron name = "10" type = "motor"  jointName = "Link2_Cube03" />
    <neuron name = "11" type = "motor"  jointName = "Cube03_Link4" />
    <neuron name = "12" type = "motor"  jointName = "Link4_Link5" />
    <neuron name = "13" type = "motor"  jointName = "Link0_Link6" />
    <neuron name = "14" type = "motor"  jointName = "Link4_Cube06" />
    <neuron name = "15" type = "motor"  jointName = "Cube06_Link7" />
    <neuron name = "16" type = "motor"  jointName = "Link6_Cube07" />
    <neuron name = "17" type = "motor"  jointName = "Cube07_Link8" />
    <synapse sourceNeuronName = "0" targetNeuronName = "4" weight = "-0.12303609155416351" />
    <synapse sourceNeuronName = "0" targetNeuronName = "5" weight = "0.560576776504246" />
    <synapse sourceNeuronName = "0" targetNeuronName = "6" weight = "-0.8323152093861899" />
    <synapse sourceNeuronName = "0" targetNeuronName = "7" weight = "-0.2832423971649496" />
    <synapse sourceNeuronName = "0" targetNeuronName = "8" weight = "-0.23318455815171757" />
    <synapse sourceNeuronName = "0" targetNeuronName = "9" weight = "0.7133501575482044" />
    <synapse sourceNeuronName = "0" targetNeuronName = "10" weight = "-0.34598643693282827" />
    <synapse sourceNeuronName = "0" targetNeuronName = "11" weight = "-0.9248517192319474" />
    <synapse sourceNeuronName = "0" targetNeuronName = "12" weight = "0.7512883506527526" />
    <synapse sourceNeuronName = "0" targetNeuronName = "13" weight = "0.716203489571622" />
    <synapse sourceNeuronName = "0" targetNeuronName = "14" weight = "-0.5993238194561352" />
    <synapse sourceNeuronName = "0" targetNeuronName = "15" weight = "0.7163902218238742" />
    <synapse sourceNeuronName = "0" targetNeuronName = "16" weight = "-0.7220164824213957" />
    <synapse sourceNeuronName = "0" targetNeuronName = "17" weight = "0.37070576623950924" />
    <synapse sourceNeuronName = "1" targetNeuronName = "4" weight = "-0.42112328774092345" />
    <synapse sourceNeuronName = "1" targetNeuronName = "5" weight = "-0.1441275435920193" />
    <synapse sourceNeuronName = "1" targetNeuronName = "6" weight = "-0.6170721875648864" />
    <synapse sourceNeuronName = "1" targetNeuronName = "7" weight = "0.7118980515310767" />
    <synapse sourceNeuronName = "1" targetNeuronName = "8" weight = "-0.16674027342641762" />
    <synapse sourceNeuronName = "1" targetNeuronName = "9" weight = "-0.813238362878036" />
    <synapse sourceNeuronName = "1" targetNeuronName = "10" weight = "-0.6469014434537421" />
    <synapse sourceNeuronName = "1" targetNeuronName = "11" weight = "0.35134838515435685" />
    <synapse sourceNeuronName = "1" targetNeuronName = "12" weight = "-0.8601775711661923" />
    <synapse sourceNeuronName = "1" targetNeuronName = "13" weight = "0.022315145079628618" />
    <synapse sourceNeuronName = "1" targetNeuronName = "14" weight = "0.25200790717641075" />
    <synapse sourceNeuronName = "1" targetNeuronName = "15" weight = "0.05513725371416145" />
    <synapse sourceNeuronName = "1" targetNeuronName = "16" weight = "-0.4729436987311044" />
    <synapse sourceNeuronName = "1" targetNeuronName = "17" weight = "0.8397729109298062" />
    <synapse sourceNeuronName = "2" targetNeuronName = "4" weight = "-0.8229046567685585" />
    <synapse sourceNeuronName = "2" targetNeuronName = "5" weight = "0.20642088756465204" />
    <synapse sourceNeuronName = "2" targetNeuronName = "6" weight = "-0.712321177685397" />
    <synapse sourceNeuronName = "2" targetNeuronName = "7" weight = "-0.6797007921756257" />
    <synapse sourceNeuronName = "2" targetNeuronName = "8" weight = "-0.6180770160219979" />
    <synapse sourceNeuronName = "2" targetNeuronName = "9" weight = "-0.29196167528169514" />
    <synapse sourceNeuronName = "2" targetNeuronName = "10" weight = "0.7168641054969804" />
    <synapse sourceNeuronName = "2" targetNeuronName = "11" weight = "-0.8009327489878002" />
    <synapse sourceNeuronName = "2" targetNeuronName = "12" weight = "0.4449046040558171" />
    <synapse sourceNeuronName = "2" targetNeuronName = "13" weight = "0.9334881844365079" />
    <synapse sourceNeuronName = "2" targetNeuronName = "14" weight = "-0.6614945828510461" />
    <synapse sourceNeuronName = "2" targetNeuronName = "15" weight = "-0.6927244357447582" />
    <synapse sourceNeuronName = "2" targetNeuronName = "16" weight = "0.3907146721586727" />
    <synapse sourceNeuronName = "2" targetNeuronName = "17" weight = "-0.3013166412646624" />
    <synapse sourceNeuronName = "3" targetNeuronName = "4" weight = "-0.4342962800676251" />
    <synapse sourceNeuronName = "3" targetNeuronName = "5" weight = "-0.959236594167409" />
    <synapse sourceNeuronName = "3" targetNeuronName = "6" weight = "-0.2566142663708302" />
    <synapse sourceNeuronName = "3" targetNeuronName = "7" weight = "-0.9657871678174608" />
    <synapse sourceNeuronName = "3" targetNeuronName = "8" weight = "-0.44320872568484404" />
    <synapse sourceNeuronName = "3" targetNeuronName = "9" weight = "-0.4003003417077655" />
    <synapse sourceNeuronName = "3" targetNeuronName = "10" weight = "0.45662097174957816" />
    <synapse sourceNeuronName = "3" targetNeuronName = "11" weight = "0.7974994568315816" />
    <synapse sourceNeuronName = "3" targetNeuronName = "12" weight = "-0.6073676529636598" />
    <synapse sourceNeuronName = "3" targetNeuronName = "13" weight = "0.496060372697559" />
    <synapse sourceNeuronName = "3" targetNeuronName = "14" weight = "0.2208804519809815" />
    <synapse sourceNeuronName = "3" targetNeuronName = "15" weight = "-0.20071128969354834" />
    <synapse sourceNeuronName = "3" targetNeuronName = "16" weight = "0.22594693669831623" />
    <synapse sourceNeuronName = "3" targetNeuronName = "17" weight = "0.2672810910116803" />
</neuralNetwork>