<neuralNetwork>
    <neuron name = "0" type = "sensor" linkName = "Link2" />
    <neuron name = "1" type = "sensor" linkName = "Link3" />
    <neuron name = "2" type = "sensor" linkName = "Link4" />
    <neuron name = "3" type = "sensor" linkName = "Link5" />
    <neuron name = "4" type = "sensor" linkName = "Link6" />
    <neuron name = "5" type = "motor"  jointName = "Link0_Link1" />
    <neuron name = "6" type = "motor"  jointName = "Link0_Link2" />
    <neuron name = "7" type = "motor"  jointName = "Link1_Link3" />
    <neuron name = "8" type = "motor"  jointName = "Link2_Cube03" />
    <neuron name = "9" type = "motor"  jointName = "Cube03_Link4" />
    <neuron name = "10" type = "motor"  jointName = "Link0_Cube04" />
    <neuron name = "11" type = "motor"  jointName = "Cube04_Link5" />
    <neuron name = "12" type = "motor"  jointName = "Link4_Cube05" />
    <neuron name = "13" type = "motor"  jointName = "Cube05_Cube15" />
    <neuron name = "14" type = "motor"  jointName = "Cube15_Link6" />
    <neuron name = "15" type = "motor"  jointName = "Link5_Cube06" />
    <neuron name = "16" type = "motor"  jointName = "Cube06_Link7" />
    <synapse sourceNeuronName = "0" targetNeuronName = "5" weight = "0.10955695040709501" />
    <synapse sourceNeuronName = "0" targetNeuronName = "6" weight = "0.5068824141874444" />
    <synapse sourceNeuronName = "0" targetNeuronName = "7" weight = "0.4398740830757013" />
    <synapse sourceNeuronName = "0" targetNeuronName = "8" weight = "0.30496505583568334" />
    <synapse sourceNeuronName = "0" targetNeuronName = "9" weight = "-0.3537585435562307" />
    <synapse sourceNeuronName = "0" targetNeuronName = "10" weight = "-0.40631940060102534" />
    <synapse sourceNeuronName = "0" targetNeuronName = "11" weight = "0.24198866483753778" />
    <synapse sourceNeuronName = "0" targetNeuronName = "12" weight = "0.5014189053409874" />
    <synapse sourceNeuronName = "0" targetNeuronName = "13" weight = "0.15778712128075356" />
    <synapse sourceNeuronName = "0" targetNeuronName = "14" weight = "0.22740745139135443" />
    <synapse sourceNeuronName = "0" targetNeuronName = "15" weight = "0.1149194687987678" />
    <synapse sourceNeuronName = "0" targetNeuronName = "16" weight = "0.439194943861819" />
    <synapse sourceNeuronName = "1" targetNeuronName = "5" weight = "-0.3358308954097666" />
    <synapse sourceNeuronName = "1" targetNeuronName = "6" weight = "0.4828761150276435" />
    <synapse sourceNeuronName = "1" targetNeuronName = "7" weight = "0.7847584424208451" />
    <synapse sourceNeuronName = "1" targetNeuronName = "8" weight = "-0.1273861291552454" />
    <synapse sourceNeuronName = "1" targetNeuronName = "9" weight = "0.5879686855130544" />
    <synapse sourceNeuronName = "1" targetNeuronName = "10" weight = "0.502151242441969" />
    <synapse sourceNeuronName = "1" targetNeuronName = "11" weight = "-0.12181957080922357" />
    <synapse sourceNeuronName = "1" targetNeuronName = "12" weight = "-0.21159709403310045" />
    <synapse sourceNeuronName = "1" targetNeuronName = "13" weight = "-0.6452258010888636" />
    <synapse sourceNeuronName = "1" targetNeuronName = "14" weight = "-0.25616395222949184" />
    <synapse sourceNeuronName = "1" targetNeuronName = "15" weight = "-0.18768945624056932" />
    <synapse sourceNeuronName = "1" targetNeuronName = "16" weight = "-0.8549945806202852" />
    <synapse sourceNeuronName = "2" targetNeuronName = "5" weight = "-0.5529912494925773" />
    <synapse sourceNeuronName = "2" targetNeuronName = "6" weight = "0.4799247298431508" />
    <synapse sourceNeuronName = "2" targetNeuronName = "7" weight = "0.7885335883763573" />
    <synapse sourceNeuronName = "2" targetNeuronName = "8" weight = "0.13945422058948087" />
    <synapse sourceNeuronName = "2" targetNeuronName = "9" weight = "-0.5430097624123469" />
    <synapse sourceNeuronName = "2" targetNeuronName = "10" weight = "0.16115635567217668" />
    <synapse sourceNeuronName = "2" targetNeuronName = "11" weight = "0.6222408085023112" />
    <synapse sourceNeuronName = "2" targetNeuronName = "12" weight = "0.08452256033575578" />
    <synapse sourceNeuronName = "2" targetNeuronName = "13" weight = "-0.9802281494011031" />
    <synapse sourceNeuronName = "2" targetNeuronName = "14" weight = "0.7302780752452096" />
    <synapse sourceNeuronName = "2" targetNeuronName = "15" weight = "0.1780761542291831" />
    <synapse sourceNeuronName = "2" targetNeuronName = "16" weight = "0.03312673553776868" />
    <synapse sourceNeuronName = "3" targetNeuronName = "5" weight = "0.7117592860900761" />
    <synapse sourceNeuronName = "3" targetNeuronName = "6" weight = "-0.15684550106159145" />
    <synapse sourceNeuronName = "3" targetNeuronName = "7" weight = "0.8845502823872973" />
    <synapse sourceNeuronName = "3" targetNeuronName = "8" weight = "0.391268751130998" />
    <synapse sourceNeuronName = "3" targetNeuronName = "9" weight = "0.08106046248465115" />
    <synapse sourceNeuronName = "3" targetNeuronName = "10" weight = "0.16490386563239845" />
    <synapse sourceNeuronName = "3" targetNeuronName = "11" weight = "0.9101184127124575" />
    <synapse sourceNeuronName = "3" targetNeuronName = "12" weight = "0.8780636952566978" />
    <synapse sourceNeuronName = "3" targetNeuronName = "13" weight = "0.012825656199435542" />
    <synapse sourceNeuronName = "3" targetNeuronName = "14" weight = "-0.6079976190684642" />
    <synapse sourceNeuronName = "3" targetNeuronName = "15" weight = "0.07132013889627364" />
    <synapse sourceNeuronName = "3" targetNeuronName = "16" weight = "0.7759514408543462" />
    <synapse sourceNeuronName = "4" targetNeuronName = "5" weight = "0.7025086422323632" />
    <synapse sourceNeuronName = "4" targetNeuronName = "6" weight = "0.3747416376468746" />
    <synapse sourceNeuronName = "4" targetNeuronName = "7" weight = "-0.03826785501148966" />
    <synapse sourceNeuronName = "4" targetNeuronName = "8" weight = "-0.9281478765116189" />
    <synapse sourceNeuronName = "4" targetNeuronName = "9" weight = "-0.9407190951196585" />
    <synapse sourceNeuronName = "4" targetNeuronName = "10" weight = "-0.8274575319114692" />
    <synapse sourceNeuronName = "4" targetNeuronName = "11" weight = "0.5168488574630496" />
    <synapse sourceNeuronName = "4" targetNeuronName = "12" weight = "0.7189095868903621" />
    <synapse sourceNeuronName = "4" targetNeuronName = "13" weight = "-0.6014718120916815" />
    <synapse sourceNeuronName = "4" targetNeuronName = "14" weight = "0.3688848351063172" />
    <synapse sourceNeuronName = "4" targetNeuronName = "15" weight = "-0.68601416106185" />
    <synapse sourceNeuronName = "4" targetNeuronName = "16" weight = "-0.519452824181398" />
</neuralNetwork>