<neuralNetwork>
    <neuron name = "0" type = "sensor" linkName = "Link1" />
    <neuron name = "1" type = "sensor" linkName = "Link2" />
    <neuron name = "2" type = "sensor" linkName = "Link4" />
    <neuron name = "3" type = "sensor" linkName = "Link5" />
    <neuron name = "4" type = "sensor" linkName = "Link7" />
    <neuron name = "5" type = "motor"  jointName = "Link0_Link1" />
    <neuron name = "6" type = "motor"  jointName = "Link0_Cube01" />
    <neuron name = "7" type = "motor"  jointName = "Cube01_Cube11" />
    <neuron name = "8" type = "motor"  jointName = "Cube11_Link2" />
    <neuron name = "9" type = "motor"  jointName = "Link0_Cube02" />
    <neuron name = "10" type = "motor"  jointName = "Cube02_Cube12" />
    <neuron name = "11" type = "motor"  jointName = "Cube12_Link3" />
    <neuron name = "12" type = "motor"  jointName = "Link2_Link4" />
    <neuron name = "13" type = "motor"  jointName = "Link0_Cube04" />
    <neuron name = "14" type = "motor"  jointName = "Cube04_Cube14" />
    <neuron name = "15" type = "motor"  jointName = "Cube14_Link5" />
    <neuron name = "16" type = "motor"  jointName = "Link5_Cube05" />
    <neuron name = "17" type = "motor"  jointName = "Cube05_Cube15" />
    <neuron name = "18" type = "motor"  jointName = "Cube15_Link6" />
    <neuron name = "19" type = "motor"  jointName = "Link2_Cube06" />
    <neuron name = "20" type = "motor"  jointName = "Cube06_Cube16" />
    <neuron name = "21" type = "motor"  jointName = "Cube16_Link7" />
    <neuron name = "22" type = "motor"  jointName = "Link0_Cube07" />
    <neuron name = "23" type = "motor"  jointName = "Cube07_Link8" />
    <neuron name = "24" type = "motor"  jointName = "Link8_Cube08" />
    <neuron name = "25" type = "motor"  jointName = "Cube08_Link9" />
    <synapse sourceNeuronName = "0" targetNeuronName = "5" weight = "-0.3250164442935566" />
    <synapse sourceNeuronName = "0" targetNeuronName = "6" weight = "0.7727979144034776" />
    <synapse sourceNeuronName = "0" targetNeuronName = "7" weight = "0.04886711390262222" />
    <synapse sourceNeuronName = "0" targetNeuronName = "8" weight = "0.9905743955592647" />
    <synapse sourceNeuronName = "0" targetNeuronName = "9" weight = "0.25692278143576885" />
    <synapse sourceNeuronName = "0" targetNeuronName = "10" weight = "0.31908698799134716" />
    <synapse sourceNeuronName = "0" targetNeuronName = "11" weight = "-0.2896861083252056" />
    <synapse sourceNeuronName = "0" targetNeuronName = "12" weight = "0.33824478946646996" />
    <synapse sourceNeuronName = "0" targetNeuronName = "13" weight = "-0.9816343783652977" />
    <synapse sourceNeuronName = "0" targetNeuronName = "14" weight = "0.48438081231996644" />
    <synapse sourceNeuronName = "0" targetNeuronName = "15" weight = "0.5703835473290688" />
    <synapse sourceNeuronName = "0" targetNeuronName = "16" weight = "-0.6107661395344544" />
    <synapse sourceNeuronName = "0" targetNeuronName = "17" weight = "-0.69480626310171" />
    <synapse sourceNeuronName = "0" targetNeuronName = "18" weight = "0.9550629990851534" />
    <synapse sourceNeuronName = "0" targetNeuronName = "19" weight = "0.4448905533797205" />
    <synapse sourceNeuronName = "0" targetNeuronName = "20" weight = "0.49612169073091517" />
    <synapse sourceNeuronName = "0" targetNeuronName = "21" weight = "0.9709761860103618" />
    <synapse sourceNeuronName = "0" targetNeuronName = "22" weight = "-0.8906203716132115" />
    <synapse sourceNeuronName = "0" targetNeuronName = "23" weight = "-0.704965977102123" />
    <synapse sourceNeuronName = "0" targetNeuronName = "24" weight = "0.3252965879235463" />
    <synapse sourceNeuronName = "0" targetNeuronName = "25" weight = "0.9404589603403155" />
    <synapse sourceNeuronName = "1" targetNeuronName = "5" weight = "-0.29895832655241183" />
    <synapse sourceNeuronName = "1" targetNeuronName = "6" weight = "0.6368633183988386" />
    <synapse sourceNeuronName = "1" targetNeuronName = "7" weight = "-0.36678179670572986" />
    <synapse sourceNeuronName = "1" targetNeuronName = "8" weight = "0.34863366928195494" />
    <synapse sourceNeuronName = "1" targetNeuronName = "9" weight = "0.5443570216312306" />
    <synapse sourceNeuronName = "1" targetNeuronName = "10" weight = "0.6886523517541103" />
    <synapse sourceNeuronName = "1" targetNeuronName = "11" weight = "-0.24335912622391898" />
    <synapse sourceNeuronName = "1" targetNeuronName = "12" weight = "0.011500589770873537" />
    <synapse sourceNeuronName = "1" targetNeuronName = "13" weight = "-0.05325257417675666" />
    <synapse sourceNeuronName = "1" targetNeuronName = "14" weight = "0.36848439019967993" />
    <synapse sourceNeuronName = "1" targetNeuronName = "15" weight = "-0.9454478622113465" />
    <synapse sourceNeuronName = "1" targetNeuronName = "16" weight = "0.2860540285500277" />
    <synapse sourceNeuronName = "1" targetNeuronName = "17" weight = "-0.2367996035035611" />
    <synapse sourceNeuronName = "1" targetNeuronName = "18" weight = "0.7714748329027783" />
    <synapse sourceNeuronName = "1" targetNeuronName = "19" weight = "0.5145194889279225" />
    <synapse sourceNeuronName = "1" targetNeuronName = "20" weight = "0.8696724036693433" />
    <synapse sourceNeuronName = "1" targetNeuronName = "21" weight = "-0.6307981274435106" />
    <synapse sourceNeuronName = "1" targetNeuronName = "22" weight = "-0.23975455852759664" />
    <synapse sourceNeuronName = "1" targetNeuronName = "23" weight = "0.6729008805615493" />
    <synapse sourceNeuronName = "1" targetNeuronName = "24" weight = "-0.6932915630071881" />
    <synapse sourceNeuronName = "1" targetNeuronName = "25" weight = "0.0021275439990935396" />
    <synapse sourceNeuronName = "2" targetNeuronName = "5" weight = "-0.3935515145885988" />
    <synapse sourceNeuronName = "2" targetNeuronName = "6" weight = "0.9432207257686904" />
    <synapse sourceNeuronName = "2" targetNeuronName = "7" weight = "0.5186529205879311" />
    <synapse sourceNeuronName = "2" targetNeuronName = "8" weight = "-0.07745343083551637" />
    <synapse sourceNeuronName = "2" targetNeuronName = "9" weight = "-0.4148560358360205" />
    <synapse sourceNeuronName = "2" targetNeuronName = "10" weight = "-0.23709389214811583" />
    <synapse sourceNeuronName = "2" targetNeuronName = "11" weight = "0.8892067294997321" />
    <synapse sourceNeuronName = "2" targetNeuronName = "12" weight = "0.5097217641065006" />
    <synapse sourceNeuronName = "2" targetNeuronName = "13" weight = "-0.4287115989325516" />
    <synapse sourceNeuronName = "2" targetNeuronName = "14" weight = "0.9943756717630035" />
    <synapse sourceNeuronName = "2" targetNeuronName = "15" weight = "-0.9265607971933081" />
    <synapse sourceNeuronName = "2" targetNeuronName = "16" weight = "-0.4256121318222412" />
    <synapse sourceNeuronName = "2" targetNeuronName = "17" weight = "0.4547210024308057" />
    <synapse sourceNeuronName = "2" targetNeuronName = "18" weight = "-0.8437937633385328" />
    <synapse sourceNeuronName = "2" targetNeuronName = "19" weight = "-0.983145842987428" />
    <synapse sourceNeuronName = "2" targetNeuronName = "20" weight = "-0.5921302532347386" />
    <synapse sourceNeuronName = "2" targetNeuronName = "21" weight = "-0.21914727008572554" />
    <synapse sourceNeuronName = "2" targetNeuronName = "22" weight = "-0.41225606946477344" />
    <synapse sourceNeuronName = "2" targetNeuronName = "23" weight = "0.5903132107930746" />
    <synapse sourceNeuronName = "2" targetNeuronName = "24" weight = "-0.2189427011652869" />
    <synapse sourceNeuronName = "2" targetNeuronName = "25" weight = "-0.8044300925729906" />
    <synapse sourceNeuronName = "3" targetNeuronName = "5" weight = "0.8210210267595457" />
    <synapse sourceNeuronName = "3" targetNeuronName = "6" weight = "-0.15074714873015727" />
    <synapse sourceNeuronName = "3" targetNeuronName = "7" weight = "0.3634970765642185" />
    <synapse sourceNeuronName = "3" targetNeuronName = "8" weight = "-0.9412254654272825" />
    <synapse sourceNeuronName = "3" targetNeuronName = "9" weight = "0.09304046874953253" />
    <synapse sourceNeuronName = "3" targetNeuronName = "10" weight = "-0.4822266454514812" />
    <synapse sourceNeuronName = "3" targetNeuronName = "11" weight = "-0.28027828936836263" />
    <synapse sourceNeuronName = "3" targetNeuronName = "12" weight = "0.6820344751482457" />
    <synapse sourceNeuronName = "3" targetNeuronName = "13" weight = "0.6370929654763013" />
    <synapse sourceNeuronName = "3" targetNeuronName = "14" weight = "0.7872977848506704" />
    <synapse sourceNeuronName = "3" targetNeuronName = "15" weight = "0.5208847675250996" />
    <synapse sourceNeuronName = "3" targetNeuronName = "16" weight = "0.7944062763618465" />
    <synapse sourceNeuronName = "3" targetNeuronName = "17" weight = "-0.8812454890644119" />
    <synapse sourceNeuronName = "3" targetNeuronName = "18" weight = "0.4944020216211462" />
    <synapse sourceNeuronName = "3" targetNeuronName = "19" weight = "0.11321330683605746" />
    <synapse sourceNeuronName = "3" targetNeuronName = "20" weight = "-0.44688340417502537" />
    <synapse sourceNeuronName = "3" targetNeuronName = "21" weight = "0.46986230889169356" />
    <synapse sourceNeuronName = "3" targetNeuronName = "22" weight = "-0.29309273734405283" />
    <synapse sourceNeuronName = "3" targetNeuronName = "23" weight = "0.4641720205501094" />
    <synapse sourceNeuronName = "3" targetNeuronName = "24" weight = "-0.4123849397503476" />
    <synapse sourceNeuronName = "3" targetNeuronName = "25" weight = "-0.7590831090696293" />
    <synapse sourceNeuronName = "4" targetNeuronName = "5" weight = "0.04993644270737185" />
    <synapse sourceNeuronName = "4" targetNeuronName = "6" weight = "0.3642151063841641" />
    <synapse sourceNeuronName = "4" targetNeuronName = "7" weight = "-0.33974279464240476" />
    <synapse sourceNeuronName = "4" targetNeuronName = "8" weight = "0.8523517955475834" />
    <synapse sourceNeuronName = "4" targetNeuronName = "9" weight = "-0.18453769834622946" />
    <synapse sourceNeuronName = "4" targetNeuronName = "10" weight = "0.6869290905908971" />
    <synapse sourceNeuronName = "4" targetNeuronName = "11" weight = "-0.2990839306896167" />
    <synapse sourceNeuronName = "4" targetNeuronName = "12" weight = "0.9697838653374702" />
    <synapse sourceNeuronName = "4" targetNeuronName = "13" weight = "-0.8059322181369866" />
    <synapse sourceNeuronName = "4" targetNeuronName = "14" weight = "-0.7245488738779757" />
    <synapse sourceNeuronName = "4" targetNeuronName = "15" weight = "0.5210705317591542" />
    <synapse sourceNeuronName = "4" targetNeuronName = "16" weight = "0.040312086414416415" />
    <synapse sourceNeuronName = "4" targetNeuronName = "17" weight = "-0.6050924771566575" />
    <synapse sourceNeuronName = "4" targetNeuronName = "18" weight = "0.413572122980973" />
    <synapse sourceNeuronName = "4" targetNeuronName = "19" weight = "-0.7812785931077944" />
    <synapse sourceNeuronName = "4" targetNeuronName = "20" weight = "0.5196344818922207" />
    <synapse sourceNeuronName = "4" targetNeuronName = "21" weight = "-0.34743968951370596" />
    <synapse sourceNeuronName = "4" targetNeuronName = "22" weight = "0.10987671026525758" />
    <synapse sourceNeuronName = "4" targetNeuronName = "23" weight = "0.727971916233074" />
    <synapse sourceNeuronName = "4" targetNeuronName = "24" weight = "-0.6383014477479383" />
    <synapse sourceNeuronName = "4" targetNeuronName = "25" weight = "-0.15763903585565475" />
</neuralNetwork>