<neuralNetwork>
    <neuron name = "0" type = "sensor" linkName = "Link1" />
    <neuron name = "1" type = "sensor" linkName = "Link2" />
    <neuron name = "2" type = "sensor" linkName = "Link4" />
    <neuron name = "3" type = "sensor" linkName = "Link5" />
    <neuron name = "4" type = "sensor" linkName = "Link7" />
    <neuron name = "5" type = "motor"  jointName = "Link0_Link1" />
    <neuron name = "6" type = "motor"  jointName = "Link0_Cube01" />
    <neuron name = "7" type = "motor"  jointName = "Cube01_Cube11" />
    <neuron name = "8" type = "motor"  jointName = "Cube11_Link2" />
    <neuron name = "9" type = "motor"  jointName = "Link0_Cube02" />
    <neuron name = "10" type = "motor"  jointName = "Cube02_Cube12" />
    <neuron name = "11" type = "motor"  jointName = "Cube12_Link3" />
    <neuron name = "12" type = "motor"  jointName = "Link2_Link4" />
    <neuron name = "13" type = "motor"  jointName = "Link0_Cube04" />
    <neuron name = "14" type = "motor"  jointName = "Cube04_Cube14" />
    <neuron name = "15" type = "motor"  jointName = "Cube14_Link5" />
    <neuron name = "16" type = "motor"  jointName = "Link5_Cube05" />
    <neuron name = "17" type = "motor"  jointName = "Cube05_Cube15" />
    <neuron name = "18" type = "motor"  jointName = "Cube15_Link6" />
    <neuron name = "19" type = "motor"  jointName = "Link2_Cube06" />
    <neuron name = "20" type = "motor"  jointName = "Cube06_Cube16" />
    <neuron name = "21" type = "motor"  jointName = "Cube16_Link7" />
    <neuron name = "22" type = "motor"  jointName = "Link0_Cube07" />
    <neuron name = "23" type = "motor"  jointName = "Cube07_Link8" />
    <neuron name = "24" type = "motor"  jointName = "Link8_Cube08" />
    <neuron name = "25" type = "motor"  jointName = "Cube08_Link9" />
    <synapse sourceNeuronName = "0" targetNeuronName = "5" weight = "-0.3752503143812327" />
    <synapse sourceNeuronName = "0" targetNeuronName = "6" weight = "-0.9814847518240106" />
    <synapse sourceNeuronName = "0" targetNeuronName = "7" weight = "0.5321140936266642" />
    <synapse sourceNeuronName = "0" targetNeuronName = "8" weight = "0.4703178374055761" />
    <synapse sourceNeuronName = "0" targetNeuronName = "9" weight = "-0.6001814012549642" />
    <synapse sourceNeuronName = "0" targetNeuronName = "10" weight = "-0.12467920972455238" />
    <synapse sourceNeuronName = "0" targetNeuronName = "11" weight = "-0.14587430613620467" />
    <synapse sourceNeuronName = "0" targetNeuronName = "12" weight = "0.0909815137841492" />
    <synapse sourceNeuronName = "0" targetNeuronName = "13" weight = "-0.16563233667405375" />
    <synapse sourceNeuronName = "0" targetNeuronName = "14" weight = "-0.824672352853185" />
    <synapse sourceNeuronName = "0" targetNeuronName = "15" weight = "-0.7325274505122354" />
    <synapse sourceNeuronName = "0" targetNeuronName = "16" weight = "-0.5741199441913953" />
    <synapse sourceNeuronName = "0" targetNeuronName = "17" weight = "0.39432353421803423" />
    <synapse sourceNeuronName = "0" targetNeuronName = "18" weight = "-0.21109918840726216" />
    <synapse sourceNeuronName = "0" targetNeuronName = "19" weight = "0.8620899489747271" />
    <synapse sourceNeuronName = "0" targetNeuronName = "20" weight = "-0.44865333467848423" />
    <synapse sourceNeuronName = "0" targetNeuronName = "21" weight = "-0.9990806140707593" />
    <synapse sourceNeuronName = "0" targetNeuronName = "22" weight = "0.9584223415212632" />
    <synapse sourceNeuronName = "0" targetNeuronName = "23" weight = "0.9812216110647385" />
    <synapse sourceNeuronName = "0" targetNeuronName = "24" weight = "-0.44154437940247604" />
    <synapse sourceNeuronName = "0" targetNeuronName = "25" weight = "0.9487698884751639" />
    <synapse sourceNeuronName = "1" targetNeuronName = "5" weight = "-0.9141252537418567" />
    <synapse sourceNeuronName = "1" targetNeuronName = "6" weight = "-0.4187522890270734" />
    <synapse sourceNeuronName = "1" targetNeuronName = "7" weight = "0.8590769457212195" />
    <synapse sourceNeuronName = "1" targetNeuronName = "8" weight = "0.07641709965312438" />
    <synapse sourceNeuronName = "1" targetNeuronName = "9" weight = "0.8211763626217801" />
    <synapse sourceNeuronName = "1" targetNeuronName = "10" weight = "-0.8097584656887076" />
    <synapse sourceNeuronName = "1" targetNeuronName = "11" weight = "-0.0868069288662141" />
    <synapse sourceNeuronName = "1" targetNeuronName = "12" weight = "-0.24467089396781216" />
    <synapse sourceNeuronName = "1" targetNeuronName = "13" weight = "0.3522318057844076" />
    <synapse sourceNeuronName = "1" targetNeuronName = "14" weight = "-0.9663371584624811" />
    <synapse sourceNeuronName = "1" targetNeuronName = "15" weight = "0.37791595313098925" />
    <synapse sourceNeuronName = "1" targetNeuronName = "16" weight = "-0.18203938595200064" />
    <synapse sourceNeuronName = "1" targetNeuronName = "17" weight = "-0.3577260848589561" />
    <synapse sourceNeuronName = "1" targetNeuronName = "18" weight = "-0.25725202958776694" />
    <synapse sourceNeuronName = "1" targetNeuronName = "19" weight = "0.9539870327184801" />
    <synapse sourceNeuronName = "1" targetNeuronName = "20" weight = "0.9704509720949683" />
    <synapse sourceNeuronName = "1" targetNeuronName = "21" weight = "0.6246534801304275" />
    <synapse sourceNeuronName = "1" targetNeuronName = "22" weight = "-0.4665021631271542" />
    <synapse sourceNeuronName = "1" targetNeuronName = "23" weight = "0.3794868826564093" />
    <synapse sourceNeuronName = "1" targetNeuronName = "24" weight = "-0.18512931887887274" />
    <synapse sourceNeuronName = "1" targetNeuronName = "25" weight = "0.3308678945864343" />
    <synapse sourceNeuronName = "2" targetNeuronName = "5" weight = "-0.28267029330472604" />
    <synapse sourceNeuronName = "2" targetNeuronName = "6" weight = "-0.0633453662278134" />
    <synapse sourceNeuronName = "2" targetNeuronName = "7" weight = "-0.06080831706274581" />
    <synapse sourceNeuronName = "2" targetNeuronName = "8" weight = "0.4367754048113994" />
    <synapse sourceNeuronName = "2" targetNeuronName = "9" weight = "-0.7735854706710794" />
    <synapse sourceNeuronName = "2" targetNeuronName = "10" weight = "-0.7771259040409435" />
    <synapse sourceNeuronName = "2" targetNeuronName = "11" weight = "0.5266025243656423" />
    <synapse sourceNeuronName = "2" targetNeuronName = "12" weight = "-0.23053953158870288" />
    <synapse sourceNeuronName = "2" targetNeuronName = "13" weight = "0.6561589786704234" />
    <synapse sourceNeuronName = "2" targetNeuronName = "14" weight = "0.01946976167289871" />
    <synapse sourceNeuronName = "2" targetNeuronName = "15" weight = "0.5557318585838529" />
    <synapse sourceNeuronName = "2" targetNeuronName = "16" weight = "-0.6458491200239385" />
    <synapse sourceNeuronName = "2" targetNeuronName = "17" weight = "0.413511874011286" />
    <synapse sourceNeuronName = "2" targetNeuronName = "18" weight = "0.7774613310456717" />
    <synapse sourceNeuronName = "2" targetNeuronName = "19" weight = "-0.9467201594754224" />
    <synapse sourceNeuronName = "2" targetNeuronName = "20" weight = "0.6751819082463433" />
    <synapse sourceNeuronName = "2" targetNeuronName = "21" weight = "-0.462395402171879" />
    <synapse sourceNeuronName = "2" targetNeuronName = "22" weight = "-0.6382836494675816" />
    <synapse sourceNeuronName = "2" targetNeuronName = "23" weight = "0.8894967678008392" />
    <synapse sourceNeuronName = "2" targetNeuronName = "24" weight = "-0.4816348115303073" />
    <synapse sourceNeuronName = "2" targetNeuronName = "25" weight = "-0.8681463947740935" />
    <synapse sourceNeuronName = "3" targetNeuronName = "5" weight = "-0.7856134070329075" />
    <synapse sourceNeuronName = "3" targetNeuronName = "6" weight = "-0.3737338631384173" />
    <synapse sourceNeuronName = "3" targetNeuronName = "7" weight = "-0.8130833792882726" />
    <synapse sourceNeuronName = "3" targetNeuronName = "8" weight = "-0.2659220390674284" />
    <synapse sourceNeuronName = "3" targetNeuronName = "9" weight = "-0.76489499701312" />
    <synapse sourceNeuronName = "3" targetNeuronName = "10" weight = "-0.6185050885131838" />
    <synapse sourceNeuronName = "3" targetNeuronName = "11" weight = "-0.2849397498523347" />
    <synapse sourceNeuronName = "3" targetNeuronName = "12" weight = "-0.8001940980636262" />
    <synapse sourceNeuronName = "3" targetNeuronName = "13" weight = "0.8896902429681808" />
    <synapse sourceNeuronName = "3" targetNeuronName = "14" weight = "-0.3889495100898721" />
    <synapse sourceNeuronName = "3" targetNeuronName = "15" weight = "0.6891829560658753" />
    <synapse sourceNeuronName = "3" targetNeuronName = "16" weight = "-0.907092465969882" />
    <synapse sourceNeuronName = "3" targetNeuronName = "17" weight = "0.3176964276333982" />
    <synapse sourceNeuronName = "3" targetNeuronName = "18" weight = "0.13281075434574063" />
    <synapse sourceNeuronName = "3" targetNeuronName = "19" weight = "0.9457430040748416" />
    <synapse sourceNeuronName = "3" targetNeuronName = "20" weight = "-0.4819667862066308" />
    <synapse sourceNeuronName = "3" targetNeuronName = "21" weight = "-0.467587964227526" />
    <synapse sourceNeuronName = "3" targetNeuronName = "22" weight = "-0.6202021717397488" />
    <synapse sourceNeuronName = "3" targetNeuronName = "23" weight = "-0.026055644331789418" />
    <synapse sourceNeuronName = "3" targetNeuronName = "24" weight = "0.30892638255772353" />
    <synapse sourceNeuronName = "3" targetNeuronName = "25" weight = "0.8318851303349779" />
    <synapse sourceNeuronName = "4" targetNeuronName = "5" weight = "-0.9227085294336888" />
    <synapse sourceNeuronName = "4" targetNeuronName = "6" weight = "-0.9302298090175045" />
    <synapse sourceNeuronName = "4" targetNeuronName = "7" weight = "-0.6539649478756591" />
    <synapse sourceNeuronName = "4" targetNeuronName = "8" weight = "-0.28396222238531044" />
    <synapse sourceNeuronName = "4" targetNeuronName = "9" weight = "-0.006974310772793091" />
    <synapse sourceNeuronName = "4" targetNeuronName = "10" weight = "-0.2786978210179827" />
    <synapse sourceNeuronName = "4" targetNeuronName = "11" weight = "0.06599185895166815" />
    <synapse sourceNeuronName = "4" targetNeuronName = "12" weight = "-0.9240284904543612" />
    <synapse sourceNeuronName = "4" targetNeuronName = "13" weight = "-0.7922295053174737" />
    <synapse sourceNeuronName = "4" targetNeuronName = "14" weight = "0.1824930102980702" />
    <synapse sourceNeuronName = "4" targetNeuronName = "15" weight = "0.07226448492682147" />
    <synapse sourceNeuronName = "4" targetNeuronName = "16" weight = "-0.003427757184651714" />
    <synapse sourceNeuronName = "4" targetNeuronName = "17" weight = "0.2706817247468747" />
    <synapse sourceNeuronName = "4" targetNeuronName = "18" weight = "0.18305574270321046" />
    <synapse sourceNeuronName = "4" targetNeuronName = "19" weight = "0.9755419485243948" />
    <synapse sourceNeuronName = "4" targetNeuronName = "20" weight = "0.5044746187267781" />
    <synapse sourceNeuronName = "4" targetNeuronName = "21" weight = "0.8285920520257137" />
    <synapse sourceNeuronName = "4" targetNeuronName = "22" weight = "0.9981679617149188" />
    <synapse sourceNeuronName = "4" targetNeuronName = "23" weight = "0.9158742156631308" />
    <synapse sourceNeuronName = "4" targetNeuronName = "24" weight = "0.7290475819680575" />
    <synapse sourceNeuronName = "4" targetNeuronName = "25" weight = "-0.28633795863182177" />
</neuralNetwork>