<neuralNetwork>
    <neuron name = "0" type = "sensor" linkName = "Link0" />
    <neuron name = "1" type = "sensor" linkName = "Link2" />
    <neuron name = "2" type = "sensor" linkName = "Link3" />
    <neuron name = "3" type = "sensor" linkName = "Link5" />
    <neuron name = "4" type = "motor"  jointName = "Link0_Cube00" />
    <neuron name = "5" type = "motor"  jointName = "Cube00_Link1" />
    <neuron name = "6" type = "motor"  jointName = "Link1_Cube01" />
    <neuron name = "7" type = "motor"  jointName = "Cube01_Cube11" />
    <neuron name = "8" type = "motor"  jointName = "Cube11_Link2" />
    <neuron name = "9" type = "motor"  jointName = "Link2_Cube02" />
    <neuron name = "10" type = "motor"  jointName = "Cube02_Link3" />
    <neuron name = "11" type = "motor"  jointName = "Link0_Cube03" />
    <neuron name = "12" type = "motor"  jointName = "Cube03_Link4" />
    <neuron name = "13" type = "motor"  jointName = "Link0_Cube04" />
    <neuron name = "14" type = "motor"  jointName = "Cube04_Link5" />
    <synapse sourceNeuronName = "0" targetNeuronName = "4" weight = "-0.12812992120521005" />
    <synapse sourceNeuronName = "0" targetNeuronName = "5" weight = "-0.49928001817756296" />
    <synapse sourceNeuronName = "0" targetNeuronName = "6" weight = "0.7146865018063713" />
    <synapse sourceNeuronName = "0" targetNeuronName = "7" weight = "0.2675028653755358" />
    <synapse sourceNeuronName = "0" targetNeuronName = "8" weight = "-0.8938167908549413" />
    <synapse sourceNeuronName = "0" targetNeuronName = "9" weight = "0.2704025521526565" />
    <synapse sourceNeuronName = "0" targetNeuronName = "10" weight = "-0.5668784701384055" />
    <synapse sourceNeuronName = "0" targetNeuronName = "11" weight = "0.5572908286679297" />
    <synapse sourceNeuronName = "0" targetNeuronName = "12" weight = "-0.11579321311496216" />
    <synapse sourceNeuronName = "0" targetNeuronName = "13" weight = "-0.8816568524464969" />
    <synapse sourceNeuronName = "0" targetNeuronName = "14" weight = "-0.4206159820157436" />
    <synapse sourceNeuronName = "1" targetNeuronName = "4" weight = "-0.918053343474537" />
    <synapse sourceNeuronName = "1" targetNeuronName = "5" weight = "-0.2324507541288956" />
    <synapse sourceNeuronName = "1" targetNeuronName = "6" weight = "0.7891678722163495" />
    <synapse sourceNeuronName = "1" targetNeuronName = "7" weight = "0.36246857998289395" />
    <synapse sourceNeuronName = "1" targetNeuronName = "8" weight = "0.9259694484374692" />
    <synapse sourceNeuronName = "1" targetNeuronName = "9" weight = "0.19739736585202805" />
    <synapse sourceNeuronName = "1" targetNeuronName = "10" weight = "-0.8262907123033227" />
    <synapse sourceNeuronName = "1" targetNeuronName = "11" weight = "-0.3595307881278207" />
    <synapse sourceNeuronName = "1" targetNeuronName = "12" weight = "-0.7564886028819624" />
    <synapse sourceNeuronName = "1" targetNeuronName = "13" weight = "-0.47165356437394435" />
    <synapse sourceNeuronName = "1" targetNeuronName = "14" weight = "-0.8311249191227383" />
    <synapse sourceNeuronName = "2" targetNeuronName = "4" weight = "-0.003788830997401016" />
    <synapse sourceNeuronName = "2" targetNeuronName = "5" weight = "-0.13703514848965748" />
    <synapse sourceNeuronName = "2" targetNeuronName = "6" weight = "-0.695736898229409" />
    <synapse sourceNeuronName = "2" targetNeuronName = "7" weight = "-0.5315384853370575" />
    <synapse sourceNeuronName = "2" targetNeuronName = "8" weight = "-0.03568654016550221" />
    <synapse sourceNeuronName = "2" targetNeuronName = "9" weight = "-0.7141775011230393" />
    <synapse sourceNeuronName = "2" targetNeuronName = "10" weight = "0.1967047462809699" />
    <synapse sourceNeuronName = "2" targetNeuronName = "11" weight = "-0.4297247320589408" />
    <synapse sourceNeuronName = "2" targetNeuronName = "12" weight = "0.2222347273410319" />
    <synapse sourceNeuronName = "2" targetNeuronName = "13" weight = "-0.5621621215065526" />
    <synapse sourceNeuronName = "2" targetNeuronName = "14" weight = "0.045687896777941495" />
    <synapse sourceNeuronName = "3" targetNeuronName = "4" weight = "0.2506344107108065" />
    <synapse sourceNeuronName = "3" targetNeuronName = "5" weight = "-0.30428434231079104" />
    <synapse sourceNeuronName = "3" targetNeuronName = "6" weight = "0.0555045092332207" />
    <synapse sourceNeuronName = "3" targetNeuronName = "7" weight = "0.3823395081694583" />
    <synapse sourceNeuronName = "3" targetNeuronName = "8" weight = "-0.250060346932661" />
    <synapse sourceNeuronName = "3" targetNeuronName = "9" weight = "-0.3377111724610602" />
    <synapse sourceNeuronName = "3" targetNeuronName = "10" weight = "0.23677974880726427" />
    <synapse sourceNeuronName = "3" targetNeuronName = "11" weight = "-0.8814362727570721" />
    <synapse sourceNeuronName = "3" targetNeuronName = "12" weight = "0.2666459072680383" />
    <synapse sourceNeuronName = "3" targetNeuronName = "13" weight = "-0.11316313935384348" />
    <synapse sourceNeuronName = "3" targetNeuronName = "14" weight = "-0.93405966384251" />
</neuralNetwork>