<neuralNetwork>
    <neuron name = "0" type = "sensor" linkName = "Link1" />
    <neuron name = "1" type = "sensor" linkName = "Link3" />
    <neuron name = "2" type = "sensor" linkName = "Link4" />
    <neuron name = "3" type = "sensor" linkName = "Link8" />
    <neuron name = "4" type = "sensor" linkName = "Link9" />
    <neuron name = "5" type = "sensor" linkName = "Link10" />
    <neuron name = "6" type = "sensor" linkName = "Link11" />
    <neuron name = "7" type = "sensor" linkName = "Link13" />
    <neuron name = "8" type = "sensor" linkName = "Link15" />
    <neuron name = "9" type = "sensor" linkName = "Link17" />
    <neuron name = "10" type = "sensor" linkName = "Link18" />
    <neuron name = "11" type = "sensor" linkName = "Link19" />
    <neuron name = "12" type = "motor"  jointName = "Link0_Cube00" />
    <neuron name = "13" type = "motor"  jointName = "Cube00_Cube10" />
    <neuron name = "14" type = "motor"  jointName = "Cube10_Link1" />
    <neuron name = "15" type = "motor"  jointName = "Link0_Cube01" />
    <neuron name = "16" type = "motor"  jointName = "Cube01_Link2" />
    <neuron name = "17" type = "motor"  jointName = "Link1_Cube02" />
    <neuron name = "18" type = "motor"  jointName = "Cube02_Cube12" />
    <neuron name = "19" type = "motor"  jointName = "Cube12_Link3" />
    <neuron name = "20" type = "motor"  jointName = "Link2_Cube03" />
    <neuron name = "21" type = "motor"  jointName = "Cube03_Cube13" />
    <neuron name = "22" type = "motor"  jointName = "Cube13_Link4" />
    <neuron name = "23" type = "motor"  jointName = "Link4_Link5" />
    <neuron name = "24" type = "motor"  jointName = "Link4_Cube05" />
    <neuron name = "25" type = "motor"  jointName = "Cube05_Link6" />
    <neuron name = "26" type = "motor"  jointName = "Link1_Link7" />
    <neuron name = "27" type = "motor"  jointName = "Link7_Link8" />
    <neuron name = "28" type = "motor"  jointName = "Link1_Cube08" />
    <neuron name = "29" type = "motor"  jointName = "Cube08_Link9" />
    <neuron name = "30" type = "motor"  jointName = "Link8_Cube09" />
    <neuron name = "31" type = "motor"  jointName = "Cube09_Cube19" />
    <neuron name = "32" type = "motor"  jointName = "Cube19_Link10" />
    <neuron name = "33" type = "motor"  jointName = "Link7_Link11" />
    <neuron name = "34" type = "motor"  jointName = "Link1_Cube011" />
    <neuron name = "35" type = "motor"  jointName = "Cube011_Link12" />
    <neuron name = "36" type = "motor"  jointName = "Link5_Cube012" />
    <neuron name = "37" type = "motor"  jointName = "Cube012_Link13" />
    <neuron name = "38" type = "motor"  jointName = "Link3_Cube013" />
    <neuron name = "39" type = "motor"  jointName = "Cube013_Cube113" />
    <neuron name = "40" type = "motor"  jointName = "Cube113_Link14" />
    <neuron name = "41" type = "motor"  jointName = "Link1_Link15" />
    <neuron name = "42" type = "motor"  jointName = "Link6_Cube015" />
    <neuron name = "43" type = "motor"  jointName = "Cube015_Link16" />
    <neuron name = "44" type = "motor"  jointName = "Link14_Cube016" />
    <neuron name = "45" type = "motor"  jointName = "Cube016_Cube116" />
    <neuron name = "46" type = "motor"  jointName = "Cube116_Link17" />
    <neuron name = "47" type = "motor"  jointName = "Link15_Cube017" />
    <neuron name = "48" type = "motor"  jointName = "Cube017_Link18" />
    <neuron name = "49" type = "motor"  jointName = "Link6_Cube018" />
    <neuron name = "50" type = "motor"  jointName = "Cube018_Cube118" />
    <neuron name = "51" type = "motor"  jointName = "Cube118_Link19" />
    <synapse sourceNeuronName = "0" targetNeuronName = "12" weight = "0.27768083868620796" />
    <synapse sourceNeuronName = "0" targetNeuronName = "13" weight = "0.9167018255819117" />
    <synapse sourceNeuronName = "0" targetNeuronName = "14" weight = "-0.5716300477361949" />
    <synapse sourceNeuronName = "0" targetNeuronName = "15" weight = "-0.1439143811658281" />
    <synapse sourceNeuronName = "0" targetNeuronName = "16" weight = "0.47899475196424524" />
    <synapse sourceNeuronName = "0" targetNeuronName = "17" weight = "-0.3340531726293643" />
    <synapse sourceNeuronName = "0" targetNeuronName = "18" weight = "0.20125167338688454" />
    <synapse sourceNeuronName = "0" targetNeuronName = "19" weight = "-0.01360689827613304" />
    <synapse sourceNeuronName = "0" targetNeuronName = "20" weight = "-0.6220256237134929" />
    <synapse sourceNeuronName = "0" targetNeuronName = "21" weight = "0.37834969625381154" />
    <synapse sourceNeuronName = "0" targetNeuronName = "22" weight = "-0.7809429908469507" />
    <synapse sourceNeuronName = "0" targetNeuronName = "23" weight = "0.8016380620322425" />
    <synapse sourceNeuronName = "0" targetNeuronName = "24" weight = "-0.43808083150306976" />
    <synapse sourceNeuronName = "0" targetNeuronName = "25" weight = "0.6924857309940471" />
    <synapse sourceNeuronName = "0" targetNeuronName = "26" weight = "-0.5412152729789803" />
    <synapse sourceNeuronName = "0" targetNeuronName = "27" weight = "-0.545366761084146" />
    <synapse sourceNeuronName = "0" targetNeuronName = "28" weight = "-0.05797793865669676" />
    <synapse sourceNeuronName = "0" targetNeuronName = "29" weight = "-0.5409270418177021" />
    <synapse sourceNeuronName = "0" targetNeuronName = "30" weight = "0.4142525153841061" />
    <synapse sourceNeuronName = "0" targetNeuronName = "31" weight = "0.24037330155463832" />
    <synapse sourceNeuronName = "0" targetNeuronName = "32" weight = "0.2929453961476145" />
    <synapse sourceNeuronName = "0" targetNeuronName = "33" weight = "0.23304247472034878" />
    <synapse sourceNeuronName = "0" targetNeuronName = "34" weight = "-0.9829405273030867" />
    <synapse sourceNeuronName = "0" targetNeuronName = "35" weight = "-0.812628190047485" />
    <synapse sourceNeuronName = "0" targetNeuronName = "36" weight = "-0.9733255270042338" />
    <synapse sourceNeuronName = "0" targetNeuronName = "37" weight = "-0.2922986324548611" />
    <synapse sourceNeuronName = "0" targetNeuronName = "38" weight = "-0.1792756018608559" />
    <synapse sourceNeuronName = "0" targetNeuronName = "39" weight = "-0.7960690492649793" />
    <synapse sourceNeuronName = "0" targetNeuronName = "40" weight = "0.6596365641655519" />
    <synapse sourceNeuronName = "0" targetNeuronName = "41" weight = "0.8482404863487114" />
    <synapse sourceNeuronName = "0" targetNeuronName = "42" weight = "-0.5738171528968223" />
    <synapse sourceNeuronName = "0" targetNeuronName = "43" weight = "0.3717653510421097" />
    <synapse sourceNeuronName = "0" targetNeuronName = "44" weight = "0.2412873289030535" />
    <synapse sourceNeuronName = "0" targetNeuronName = "45" weight = "0.8125478495592959" />
    <synapse sourceNeuronName = "0" targetNeuronName = "46" weight = "0.11679071508429328" />
    <synapse sourceNeuronName = "0" targetNeuronName = "47" weight = "-0.24838815406524528" />
    <synapse sourceNeuronName = "0" targetNeuronName = "48" weight = "0.4019292590046988" />
    <synapse sourceNeuronName = "0" targetNeuronName = "49" weight = "0.24412984007607186" />
    <synapse sourceNeuronName = "0" targetNeuronName = "50" weight = "0.8192080213035677" />
    <synapse sourceNeuronName = "0" targetNeuronName = "51" weight = "0.05731458131743539" />
    <synapse sourceNeuronName = "1" targetNeuronName = "12" weight = "-0.26745954402906746" />
    <synapse sourceNeuronName = "1" targetNeuronName = "13" weight = "0.6899801567672246" />
    <synapse sourceNeuronName = "1" targetNeuronName = "14" weight = "0.045753754329983076" />
    <synapse sourceNeuronName = "1" targetNeuronName = "15" weight = "0.16741488594626186" />
    <synapse sourceNeuronName = "1" targetNeuronName = "16" weight = "-0.4196633857669987" />
    <synapse sourceNeuronName = "1" targetNeuronName = "17" weight = "0.5803749921190129" />
    <synapse sourceNeuronName = "1" targetNeuronName = "18" weight = "0.0662919066566845" />
    <synapse sourceNeuronName = "1" targetNeuronName = "19" weight = "0.9750021151453452" />
    <synapse sourceNeuronName = "1" targetNeuronName = "20" weight = "0.13834270592899633" />
    <synapse sourceNeuronName = "1" targetNeuronName = "21" weight = "0.1233701896314674" />
    <synapse sourceNeuronName = "1" targetNeuronName = "22" weight = "0.23021300310809578" />
    <synapse sourceNeuronName = "1" targetNeuronName = "23" weight = "-0.08430325229810554" />
    <synapse sourceNeuronName = "1" targetNeuronName = "24" weight = "-0.08454394962890155" />
    <synapse sourceNeuronName = "1" targetNeuronName = "25" weight = "0.7112752007411289" />
    <synapse sourceNeuronName = "1" targetNeuronName = "26" weight = "-0.9909241270702334" />
    <synapse sourceNeuronName = "1" targetNeuronName = "27" weight = "0.3385103976327348" />
    <synapse sourceNeuronName = "1" targetNeuronName = "28" weight = "0.07731252025881252" />
    <synapse sourceNeuronName = "1" targetNeuronName = "29" weight = "0.03810675714859468" />
    <synapse sourceNeuronName = "1" targetNeuronName = "30" weight = "0.3037343093665119" />
    <synapse sourceNeuronName = "1" targetNeuronName = "31" weight = "0.44838065493264634" />
    <synapse sourceNeuronName = "1" targetNeuronName = "32" weight = "-0.7119474289689984" />
    <synapse sourceNeuronName = "1" targetNeuronName = "33" weight = "0.6504667372500854" />
    <synapse sourceNeuronName = "1" targetNeuronName = "34" weight = "-0.3881282206944099" />
    <synapse sourceNeuronName = "1" targetNeuronName = "35" weight = "0.13293383253506086" />
    <synapse sourceNeuronName = "1" targetNeuronName = "36" weight = "-0.4908442330806493" />
    <synapse sourceNeuronName = "1" targetNeuronName = "37" weight = "0.6528839458224291" />
    <synapse sourceNeuronName = "1" targetNeuronName = "38" weight = "0.914793783978034" />
    <synapse sourceNeuronName = "1" targetNeuronName = "39" weight = "-0.8660831030130289" />
    <synapse sourceNeuronName = "1" targetNeuronName = "40" weight = "0.2288322513675527" />
    <synapse sourceNeuronName = "1" targetNeuronName = "41" weight = "0.06210328399815901" />
    <synapse sourceNeuronName = "1" targetNeuronName = "42" weight = "0.3454506789110947" />
    <synapse sourceNeuronName = "1" targetNeuronName = "43" weight = "0.49269775580596487" />
    <synapse sourceNeuronName = "1" targetNeuronName = "44" weight = "0.22946944238883948" />
    <synapse sourceNeuronName = "1" targetNeuronName = "45" weight = "0.2236712380467012" />
    <synapse sourceNeuronName = "1" targetNeuronName = "46" weight = "-0.5117933402054486" />
    <synapse sourceNeuronName = "1" targetNeuronName = "47" weight = "0.9017768245287228" />
    <synapse sourceNeuronName = "1" targetNeuronName = "48" weight = "0.08709678309571767" />
    <synapse sourceNeuronName = "1" targetNeuronName = "49" weight = "-0.21760263770310906" />
    <synapse sourceNeuronName = "1" targetNeuronName = "50" weight = "0.4780747729657353" />
    <synapse sourceNeuronName = "1" targetNeuronName = "51" weight = "-0.9826090724539285" />
    <synapse sourceNeuronName = "2" targetNeuronName = "12" weight = "-0.2687389387414414" />
    <synapse sourceNeuronName = "2" targetNeuronName = "13" weight = "0.9432516606804171" />
    <synapse sourceNeuronName = "2" targetNeuronName = "14" weight = "-0.7368329951119286" />
    <synapse sourceNeuronName = "2" targetNeuronName = "15" weight = "-0.059285955963411574" />
    <synapse sourceNeuronName = "2" targetNeuronName = "16" weight = "-0.28925613731440447" />
    <synapse sourceNeuronName = "2" targetNeuronName = "17" weight = "0.1860126795869521" />
    <synapse sourceNeuronName = "2" targetNeuronName = "18" weight = "-0.35551287523749386" />
    <synapse sourceNeuronName = "2" targetNeuronName = "19" weight = "-0.7643536699660813" />
    <synapse sourceNeuronName = "2" targetNeuronName = "20" weight = "0.6385128335923203" />
    <synapse sourceNeuronName = "2" targetNeuronName = "21" weight = "-0.08989233149597209" />
    <synapse sourceNeuronName = "2" targetNeuronName = "22" weight = "0.8900284205256301" />
    <synapse sourceNeuronName = "2" targetNeuronName = "23" weight = "0.8594669637817982" />
    <synapse sourceNeuronName = "2" targetNeuronName = "24" weight = "-0.9123744478566937" />
    <synapse sourceNeuronName = "2" targetNeuronName = "25" weight = "0.8168672932035179" />
    <synapse sourceNeuronName = "2" targetNeuronName = "26" weight = "0.42301881986784395" />
    <synapse sourceNeuronName = "2" targetNeuronName = "27" weight = "0.6221600825264146" />
    <synapse sourceNeuronName = "2" targetNeuronName = "28" weight = "0.5611756804485253" />
    <synapse sourceNeuronName = "2" targetNeuronName = "29" weight = "-0.9714677936500995" />
    <synapse sourceNeuronName = "2" targetNeuronName = "30" weight = "0.20172719198767886" />
    <synapse sourceNeuronName = "2" targetNeuronName = "31" weight = "-0.5607109777765047" />
    <synapse sourceNeuronName = "2" targetNeuronName = "32" weight = "-0.32381518220276573" />
    <synapse sourceNeuronName = "2" targetNeuronName = "33" weight = "0.8369611210715833" />
    <synapse sourceNeuronName = "2" targetNeuronName = "34" weight = "-0.7417075753006457" />
    <synapse sourceNeuronName = "2" targetNeuronName = "35" weight = "0.7070963172319686" />
    <synapse sourceNeuronName = "2" targetNeuronName = "36" weight = "-0.0455275891716338" />
    <synapse sourceNeuronName = "2" targetNeuronName = "37" weight = "0.7049086618502418" />
    <synapse sourceNeuronName = "2" targetNeuronName = "38" weight = "-0.7613705472893295" />
    <synapse sourceNeuronName = "2" targetNeuronName = "39" weight = "0.5183652812590904" />
    <synapse sourceNeuronName = "2" targetNeuronName = "40" weight = "-0.5451151761617867" />
    <synapse sourceNeuronName = "2" targetNeuronName = "41" weight = "-0.048443973713599764" />
    <synapse sourceNeuronName = "2" targetNeuronName = "42" weight = "0.6867031793985376" />
    <synapse sourceNeuronName = "2" targetNeuronName = "43" weight = "0.3192663851509727" />
    <synapse sourceNeuronName = "2" targetNeuronName = "44" weight = "0.6894045477137609" />
    <synapse sourceNeuronName = "2" targetNeuronName = "45" weight = "-0.10680381361983726" />
    <synapse sourceNeuronName = "2" targetNeuronName = "46" weight = "-0.9997961413013576" />
    <synapse sourceNeuronName = "2" targetNeuronName = "47" weight = "-0.8970158045422292" />
    <synapse sourceNeuronName = "2" targetNeuronName = "48" weight = "0.8826739718512322" />
    <synapse sourceNeuronName = "2" targetNeuronName = "49" weight = "0.6504169724846669" />
    <synapse sourceNeuronName = "2" targetNeuronName = "50" weight = "-0.4441301163182847" />
    <synapse sourceNeuronName = "2" targetNeuronName = "51" weight = "-0.6305541052084962" />
    <synapse sourceNeuronName = "3" targetNeuronName = "12" weight = "0.010644063924442282" />
    <synapse sourceNeuronName = "3" targetNeuronName = "13" weight = "-0.8032701614592059" />
    <synapse sourceNeuronName = "3" targetNeuronName = "14" weight = "0.9762921983854118" />
    <synapse sourceNeuronName = "3" targetNeuronName = "15" weight = "0.8602272270263318" />
    <synapse sourceNeuronName = "3" targetNeuronName = "16" weight = "0.2664450576720663" />
    <synapse sourceNeuronName = "3" targetNeuronName = "17" weight = "-0.17073495844382336" />
    <synapse sourceNeuronName = "3" targetNeuronName = "18" weight = "0.5468123629758892" />
    <synapse sourceNeuronName = "3" targetNeuronName = "19" weight = "-0.9754079596537562" />
    <synapse sourceNeuronName = "3" targetNeuronName = "20" weight = "0.5832908744492917" />
    <synapse sourceNeuronName = "3" targetNeuronName = "21" weight = "-0.10214997040687335" />
    <synapse sourceNeuronName = "3" targetNeuronName = "22" weight = "-0.515764352769501" />
    <synapse sourceNeuronName = "3" targetNeuronName = "23" weight = "-0.8292474482398899" />
    <synapse sourceNeuronName = "3" targetNeuronName = "24" weight = "-0.1962981033251292" />
    <synapse sourceNeuronName = "3" targetNeuronName = "25" weight = "-0.3671853194312462" />
    <synapse sourceNeuronName = "3" targetNeuronName = "26" weight = "-0.8937667643386027" />
    <synapse sourceNeuronName = "3" targetNeuronName = "27" weight = "-0.7894893800292351" />
    <synapse sourceNeuronName = "3" targetNeuronName = "28" weight = "0.013188429774355415" />
    <synapse sourceNeuronName = "3" targetNeuronName = "29" weight = "-0.6136980350226238" />
    <synapse sourceNeuronName = "3" targetNeuronName = "30" weight = "0.32046038869689863" />
    <synapse sourceNeuronName = "3" targetNeuronName = "31" weight = "0.11011117087252487" />
    <synapse sourceNeuronName = "3" targetNeuronName = "32" weight = "-0.25973949258003515" />
    <synapse sourceNeuronName = "3" targetNeuronName = "33" weight = "0.5055498336252533" />
    <synapse sourceNeuronName = "3" targetNeuronName = "34" weight = "-0.5274776013755487" />
    <synapse sourceNeuronName = "3" targetNeuronName = "35" weight = "0.06078698375987379" />
    <synapse sourceNeuronName = "3" targetNeuronName = "36" weight = "0.8184202988299478" />
    <synapse sourceNeuronName = "3" targetNeuronName = "37" weight = "-0.8385858363593908" />
    <synapse sourceNeuronName = "3" targetNeuronName = "38" weight = "-0.46131543422496035" />
    <synapse sourceNeuronName = "3" targetNeuronName = "39" weight = "-0.6860767834473678" />
    <synapse sourceNeuronName = "3" targetNeuronName = "40" weight = "0.3415023844628553" />
    <synapse sourceNeuronName = "3" targetNeuronName = "41" weight = "-0.5088719804530069" />
    <synapse sourceNeuronName = "3" targetNeuronName = "42" weight = "-0.721608123296545" />
    <synapse sourceNeuronName = "3" targetNeuronName = "43" weight = "-0.17481959381993373" />
    <synapse sourceNeuronName = "3" targetNeuronName = "44" weight = "0.6519528763947098" />
    <synapse sourceNeuronName = "3" targetNeuronName = "45" weight = "0.7992525557149068" />
    <synapse sourceNeuronName = "3" targetNeuronName = "46" weight = "-0.72894025951231" />
    <synapse sourceNeuronName = "3" targetNeuronName = "47" weight = "0.6964151145332076" />
    <synapse sourceNeuronName = "3" targetNeuronName = "48" weight = "-0.6877084075111106" />
    <synapse sourceNeuronName = "3" targetNeuronName = "49" weight = "0.3865062664994088" />
    <synapse sourceNeuronName = "3" targetNeuronName = "50" weight = "0.02937507727662836" />
    <synapse sourceNeuronName = "3" targetNeuronName = "51" weight = "-0.5537239714708988" />
    <synapse sourceNeuronName = "4" targetNeuronName = "12" weight = "-0.8836564236503934" />
    <synapse sourceNeuronName = "4" targetNeuronName = "13" weight = "0.9935796849225254" />
    <synapse sourceNeuronName = "4" targetNeuronName = "14" weight = "-0.1527677740380271" />
    <synapse sourceNeuronName = "4" targetNeuronName = "15" weight = "-0.8477038837927247" />
    <synapse sourceNeuronName = "4" targetNeuronName = "16" weight = "0.10252209332544093" />
    <synapse sourceNeuronName = "4" targetNeuronName = "17" weight = "-0.490305213271957" />
    <synapse sourceNeuronName = "4" targetNeuronName = "18" weight = "0.28122090596723237" />
    <synapse sourceNeuronName = "4" targetNeuronName = "19" weight = "0.16108562224315492" />
    <synapse sourceNeuronName = "4" targetNeuronName = "20" weight = "0.011112993759585743" />
    <synapse sourceNeuronName = "4" targetNeuronName = "21" weight = "0.3708911761147302" />
    <synapse sourceNeuronName = "4" targetNeuronName = "22" weight = "0.6727946910139548" />
    <synapse sourceNeuronName = "4" targetNeuronName = "23" weight = "0.7906347037986257" />
    <synapse sourceNeuronName = "4" targetNeuronName = "24" weight = "-0.0705852252392476" />
    <synapse sourceNeuronName = "4" targetNeuronName = "25" weight = "0.2424374790050614" />
    <synapse sourceNeuronName = "4" targetNeuronName = "26" weight = "-0.3265113549205614" />
    <synapse sourceNeuronName = "4" targetNeuronName = "27" weight = "-0.9135564259869398" />
    <synapse sourceNeuronName = "4" targetNeuronName = "28" weight = "-0.7820294192293162" />
    <synapse sourceNeuronName = "4" targetNeuronName = "29" weight = "-0.2559916462177625" />
    <synapse sourceNeuronName = "4" targetNeuronName = "30" weight = "-0.15635461639868464" />
    <synapse sourceNeuronName = "4" targetNeuronName = "31" weight = "-0.7487742820977485" />
    <synapse sourceNeuronName = "4" targetNeuronName = "32" weight = "0.1002615148254431" />
    <synapse sourceNeuronName = "4" targetNeuronName = "33" weight = "0.9611458421785841" />
    <synapse sourceNeuronName = "4" targetNeuronName = "34" weight = "-0.8006319694189017" />
    <synapse sourceNeuronName = "4" targetNeuronName = "35" weight = "0.6812832609654398" />
    <synapse sourceNeuronName = "4" targetNeuronName = "36" weight = "0.6921187815756644" />
    <synapse sourceNeuronName = "4" targetNeuronName = "37" weight = "-0.46622588002532317" />
    <synapse sourceNeuronName = "4" targetNeuronName = "38" weight = "-0.1932723026476948" />
    <synapse sourceNeuronName = "4" targetNeuronName = "39" weight = "0.7857107413091724" />
    <synapse sourceNeuronName = "4" targetNeuronName = "40" weight = "0.4400103502123909" />
    <synapse sourceNeuronName = "4" targetNeuronName = "41" weight = "0.46304440885045683" />
    <synapse sourceNeuronName = "4" targetNeuronName = "42" weight = "-0.41912132825879356" />
    <synapse sourceNeuronName = "4" targetNeuronName = "43" weight = "-0.030680293284540472" />
    <synapse sourceNeuronName = "4" targetNeuronName = "44" weight = "0.3472975571887722" />
    <synapse sourceNeuronName = "4" targetNeuronName = "45" weight = "-0.2554034523850406" />
    <synapse sourceNeuronName = "4" targetNeuronName = "46" weight = "-0.5068680435239483" />
    <synapse sourceNeuronName = "4" targetNeuronName = "47" weight = "0.7923680965611004" />
    <synapse sourceNeuronName = "4" targetNeuronName = "48" weight = "-0.8881838961540272" />
    <synapse sourceNeuronName = "4" targetNeuronName = "49" weight = "0.5978627555083909" />
    <synapse sourceNeuronName = "4" targetNeuronName = "50" weight = "-0.3425444059116207" />
    <synapse sourceNeuronName = "4" targetNeuronName = "51" weight = "0.2982342821197397" />
    <synapse sourceNeuronName = "5" targetNeuronName = "12" weight = "-0.3533214463220251" />
    <synapse sourceNeuronName = "5" targetNeuronName = "13" weight = "0.09000211050369411" />
    <synapse sourceNeuronName = "5" targetNeuronName = "14" weight = "-0.12446338072106089" />
    <synapse sourceNeuronName = "5" targetNeuronName = "15" weight = "0.2797957473838364" />
    <synapse sourceNeuronName = "5" targetNeuronName = "16" weight = "-0.7943172019625415" />
    <synapse sourceNeuronName = "5" targetNeuronName = "17" weight = "-0.1190510843462591" />
    <synapse sourceNeuronName = "5" targetNeuronName = "18" weight = "0.049653450534828725" />
    <synapse sourceNeuronName = "5" targetNeuronName = "19" weight = "0.2630416479733664" />
    <synapse sourceNeuronName = "5" targetNeuronName = "20" weight = "-0.6696987213480032" />
    <synapse sourceNeuronName = "5" targetNeuronName = "21" weight = "0.8420330245669188" />
    <synapse sourceNeuronName = "5" targetNeuronName = "22" weight = "0.6245172247772237" />
    <synapse sourceNeuronName = "5" targetNeuronName = "23" weight = "-0.3020676395383297" />
    <synapse sourceNeuronName = "5" targetNeuronName = "24" weight = "-0.578100706227145" />
    <synapse sourceNeuronName = "5" targetNeuronName = "25" weight = "0.6069327605294987" />
    <synapse sourceNeuronName = "5" targetNeuronName = "26" weight = "0.887219056728568" />
    <synapse sourceNeuronName = "5" targetNeuronName = "27" weight = "-0.24164033161501863" />
    <synapse sourceNeuronName = "5" targetNeuronName = "28" weight = "0.4202189449666853" />
    <synapse sourceNeuronName = "5" targetNeuronName = "29" weight = "-0.9482936120182777" />
    <synapse sourceNeuronName = "5" targetNeuronName = "30" weight = "-0.1668696043628335" />
    <synapse sourceNeuronName = "5" targetNeuronName = "31" weight = "-0.8099354261603968" />
    <synapse sourceNeuronName = "5" targetNeuronName = "32" weight = "0.20726284151484364" />
    <synapse sourceNeuronName = "5" targetNeuronName = "33" weight = "0.27238608952332966" />
    <synapse sourceNeuronName = "5" targetNeuronName = "34" weight = "-0.6489936865833839" />
    <synapse sourceNeuronName = "5" targetNeuronName = "35" weight = "-0.17736260088339084" />
    <synapse sourceNeuronName = "5" targetNeuronName = "36" weight = "0.616454543743693" />
    <synapse sourceNeuronName = "5" targetNeuronName = "37" weight = "-0.0025835631002473214" />
    <synapse sourceNeuronName = "5" targetNeuronName = "38" weight = "0.8167732501066904" />
    <synapse sourceNeuronName = "5" targetNeuronName = "39" weight = "0.5567051101776068" />
    <synapse sourceNeuronName = "5" targetNeuronName = "40" weight = "-0.15923938660936354" />
    <synapse sourceNeuronName = "5" targetNeuronName = "41" weight = "-0.8837251238187849" />
    <synapse sourceNeuronName = "5" targetNeuronName = "42" weight = "-0.1569011053221574" />
    <synapse sourceNeuronName = "5" targetNeuronName = "43" weight = "0.799733976831815" />
    <synapse sourceNeuronName = "5" targetNeuronName = "44" weight = "-0.7096010633120597" />
    <synapse sourceNeuronName = "5" targetNeuronName = "45" weight = "0.5189976785879926" />
    <synapse sourceNeuronName = "5" targetNeuronName = "46" weight = "0.8798686374762965" />
    <synapse sourceNeuronName = "5" targetNeuronName = "47" weight = "0.7868381236052397" />
    <synapse sourceNeuronName = "5" targetNeuronName = "48" weight = "0.3970221393512401" />
    <synapse sourceNeuronName = "5" targetNeuronName = "49" weight = "-0.12506272024529652" />
    <synapse sourceNeuronName = "5" targetNeuronName = "50" weight = "0.5187736852480744" />
    <synapse sourceNeuronName = "5" targetNeuronName = "51" weight = "-0.39029611432568045" />
    <synapse sourceNeuronName = "6" targetNeuronName = "12" weight = "0.952200859471058" />
    <synapse sourceNeuronName = "6" targetNeuronName = "13" weight = "0.7336003248495317" />
    <synapse sourceNeuronName = "6" targetNeuronName = "14" weight = "0.8530318194980084" />
    <synapse sourceNeuronName = "6" targetNeuronName = "15" weight = "-0.41689103128838445" />
    <synapse sourceNeuronName = "6" targetNeuronName = "16" weight = "0.22256267292246346" />
    <synapse sourceNeuronName = "6" targetNeuronName = "17" weight = "0.786755456296736" />
    <synapse sourceNeuronName = "6" targetNeuronName = "18" weight = "0.9092339979150086" />
    <synapse sourceNeuronName = "6" targetNeuronName = "19" weight = "0.7966050078161617" />
    <synapse sourceNeuronName = "6" targetNeuronName = "20" weight = "-0.9411902894698705" />
    <synapse sourceNeuronName = "6" targetNeuronName = "21" weight = "0.8718149211332071" />
    <synapse sourceNeuronName = "6" targetNeuronName = "22" weight = "0.8369814301983061" />
    <synapse sourceNeuronName = "6" targetNeuronName = "23" weight = "0.9431936880407623" />
    <synapse sourceNeuronName = "6" targetNeuronName = "24" weight = "-0.33418248751365365" />
    <synapse sourceNeuronName = "6" targetNeuronName = "25" weight = "-0.8757842179801287" />
    <synapse sourceNeuronName = "6" targetNeuronName = "26" weight = "-0.40269624169469864" />
    <synapse sourceNeuronName = "6" targetNeuronName = "27" weight = "0.8101376782967178" />
    <synapse sourceNeuronName = "6" targetNeuronName = "28" weight = "-0.8947055629391454" />
    <synapse sourceNeuronName = "6" targetNeuronName = "29" weight = "0.5561373334122259" />
    <synapse sourceNeuronName = "6" targetNeuronName = "30" weight = "0.2770648997453411" />
    <synapse sourceNeuronName = "6" targetNeuronName = "31" weight = "0.5586467623983371" />
    <synapse sourceNeuronName = "6" targetNeuronName = "32" weight = "0.7951421465556185" />
    <synapse sourceNeuronName = "6" targetNeuronName = "33" weight = "-0.7231630589791633" />
    <synapse sourceNeuronName = "6" targetNeuronName = "34" weight = "-0.7077419519638519" />
    <synapse sourceNeuronName = "6" targetNeuronName = "35" weight = "0.06504472833419417" />
    <synapse sourceNeuronName = "6" targetNeuronName = "36" weight = "-0.35783194930662554" />
    <synapse sourceNeuronName = "6" targetNeuronName = "37" weight = "0.46179205908413223" />
    <synapse sourceNeuronName = "6" targetNeuronName = "38" weight = "0.9671035971872517" />
    <synapse sourceNeuronName = "6" targetNeuronName = "39" weight = "-0.38806926623746674" />
    <synapse sourceNeuronName = "6" targetNeuronName = "40" weight = "-0.3444952244079649" />
    <synapse sourceNeuronName = "6" targetNeuronName = "41" weight = "0.8655201222316353" />
    <synapse sourceNeuronName = "6" targetNeuronName = "42" weight = "0.7164731580848838" />
    <synapse sourceNeuronName = "6" targetNeuronName = "43" weight = "0.10768492470982283" />
    <synapse sourceNeuronName = "6" targetNeuronName = "44" weight = "0.3596097606238524" />
    <synapse sourceNeuronName = "6" targetNeuronName = "45" weight = "0.6628822727205617" />
    <synapse sourceNeuronName = "6" targetNeuronName = "46" weight = "-0.27346161253859713" />
    <synapse sourceNeuronName = "6" targetNeuronName = "47" weight = "0.1394789221897068" />
    <synapse sourceNeuronName = "6" targetNeuronName = "48" weight = "-0.35136530102032104" />
    <synapse sourceNeuronName = "6" targetNeuronName = "49" weight = "0.39207787608834566" />
    <synapse sourceNeuronName = "6" targetNeuronName = "50" weight = "0.2007884815565235" />
    <synapse sourceNeuronName = "6" targetNeuronName = "51" weight = "0.08951754609004037" />
    <synapse sourceNeuronName = "7" targetNeuronName = "12" weight = "-0.6864704827505035" />
    <synapse sourceNeuronName = "7" targetNeuronName = "13" weight = "0.14621125482989905" />
    <synapse sourceNeuronName = "7" targetNeuronName = "14" weight = "-0.59622757707897" />
    <synapse sourceNeuronName = "7" targetNeuronName = "15" weight = "0.4846176637882613" />
    <synapse sourceNeuronName = "7" targetNeuronName = "16" weight = "0.5239749954728985" />
    <synapse sourceNeuronName = "7" targetNeuronName = "17" weight = "0.008509313766705828" />
    <synapse sourceNeuronName = "7" targetNeuronName = "18" weight = "-0.744389626961228" />
    <synapse sourceNeuronName = "7" targetNeuronName = "19" weight = "-0.6108707076458249" />
    <synapse sourceNeuronName = "7" targetNeuronName = "20" weight = "0.8057562389244775" />
    <synapse sourceNeuronName = "7" targetNeuronName = "21" weight = "-0.301805829482628" />
    <synapse sourceNeuronName = "7" targetNeuronName = "22" weight = "-0.47195454879201115" />
    <synapse sourceNeuronName = "7" targetNeuronName = "23" weight = "-0.7304134498350794" />
    <synapse sourceNeuronName = "7" targetNeuronName = "24" weight = "-0.20796840677966344" />
    <synapse sourceNeuronName = "7" targetNeuronName = "25" weight = "-0.09284449669773598" />
    <synapse sourceNeuronName = "7" targetNeuronName = "26" weight = "0.6042878925292483" />
    <synapse sourceNeuronName = "7" targetNeuronName = "27" weight = "0.9052471830204238" />
    <synapse sourceNeuronName = "7" targetNeuronName = "28" weight = "0.6353702657198896" />
    <synapse sourceNeuronName = "7" targetNeuronName = "29" weight = "0.42490447639399176" />
    <synapse sourceNeuronName = "7" targetNeuronName = "30" weight = "-0.02012212803290292" />
    <synapse sourceNeuronName = "7" targetNeuronName = "31" weight = "-0.15768778296584118" />
    <synapse sourceNeuronName = "7" targetNeuronName = "32" weight = "0.6929281484273966" />
    <synapse sourceNeuronName = "7" targetNeuronName = "33" weight = "-0.15448346423970394" />
    <synapse sourceNeuronName = "7" targetNeuronName = "34" weight = "-0.17266692683698248" />
    <synapse sourceNeuronName = "7" targetNeuronName = "35" weight = "0.5183363893300279" />
    <synapse sourceNeuronName = "7" targetNeuronName = "36" weight = "-0.40309158246840826" />
    <synapse sourceNeuronName = "7" targetNeuronName = "37" weight = "0.43786812913089346" />
    <synapse sourceNeuronName = "7" targetNeuronName = "38" weight = "0.41570989615280185" />
    <synapse sourceNeuronName = "7" targetNeuronName = "39" weight = "-0.44377285898291907" />
    <synapse sourceNeuronName = "7" targetNeuronName = "40" weight = "0.9684255984891146" />
    <synapse sourceNeuronName = "7" targetNeuronName = "41" weight = "-0.35262857301403994" />
    <synapse sourceNeuronName = "7" targetNeuronName = "42" weight = "-0.1658446476864801" />
    <synapse sourceNeuronName = "7" targetNeuronName = "43" weight = "-0.3612776638223558" />
    <synapse sourceNeuronName = "7" targetNeuronName = "44" weight = "-0.894265744892712" />
    <synapse sourceNeuronName = "7" targetNeuronName = "45" weight = "-0.2643684973989424" />
    <synapse sourceNeuronName = "7" targetNeuronName = "46" weight = "0.05014278828100949" />
    <synapse sourceNeuronName = "7" targetNeuronName = "47" weight = "0.6893469960104119" />
    <synapse sourceNeuronName = "7" targetNeuronName = "48" weight = "-0.9134723871325021" />
    <synapse sourceNeuronName = "7" targetNeuronName = "49" weight = "-0.12123805530016929" />
    <synapse sourceNeuronName = "7" targetNeuronName = "50" weight = "0.11656935121645784" />
    <synapse sourceNeuronName = "7" targetNeuronName = "51" weight = "0.035884867458512604" />
    <synapse sourceNeuronName = "8" targetNeuronName = "12" weight = "-0.19751760920006678" />
    <synapse sourceNeuronName = "8" targetNeuronName = "13" weight = "-0.4446940993317501" />
    <synapse sourceNeuronName = "8" targetNeuronName = "14" weight = "0.9559421879802608" />
    <synapse sourceNeuronName = "8" targetNeuronName = "15" weight = "-0.8033887324471336" />
    <synapse sourceNeuronName = "8" targetNeuronName = "16" weight = "-0.16834335020143332" />
    <synapse sourceNeuronName = "8" targetNeuronName = "17" weight = "0.7048443633526051" />
    <synapse sourceNeuronName = "8" targetNeuronName = "18" weight = "0.08948931246766012" />
    <synapse sourceNeuronName = "8" targetNeuronName = "19" weight = "-0.49292939901394317" />
    <synapse sourceNeuronName = "8" targetNeuronName = "20" weight = "0.5754404771808079" />
    <synapse sourceNeuronName = "8" targetNeuronName = "21" weight = "0.6421590819162593" />
    <synapse sourceNeuronName = "8" targetNeuronName = "22" weight = "-0.5620790264949644" />
    <synapse sourceNeuronName = "8" targetNeuronName = "23" weight = "-0.5410891510085016" />
    <synapse sourceNeuronName = "8" targetNeuronName = "24" weight = "-0.8278294102588477" />
    <synapse sourceNeuronName = "8" targetNeuronName = "25" weight = "0.9963015851678074" />
    <synapse sourceNeuronName = "8" targetNeuronName = "26" weight = "0.9137307289270029" />
    <synapse sourceNeuronName = "8" targetNeuronName = "27" weight = "0.4200000117569742" />
    <synapse sourceNeuronName = "8" targetNeuronName = "28" weight = "0.03249442426536997" />
    <synapse sourceNeuronName = "8" targetNeuronName = "29" weight = "0.8144639503270421" />
    <synapse sourceNeuronName = "8" targetNeuronName = "30" weight = "0.4166190228951696" />
    <synapse sourceNeuronName = "8" targetNeuronName = "31" weight = "-0.24548088707438565" />
    <synapse sourceNeuronName = "8" targetNeuronName = "32" weight = "-0.48483003973026473" />
    <synapse sourceNeuronName = "8" targetNeuronName = "33" weight = "-0.08447933100413274" />
    <synapse sourceNeuronName = "8" targetNeuronName = "34" weight = "0.1013730788522127" />
    <synapse sourceNeuronName = "8" targetNeuronName = "35" weight = "-0.2528954022901233" />
    <synapse sourceNeuronName = "8" targetNeuronName = "36" weight = "-0.5450122809763733" />
    <synapse sourceNeuronName = "8" targetNeuronName = "37" weight = "0.21504947017195541" />
    <synapse sourceNeuronName = "8" targetNeuronName = "38" weight = "-0.2035750225274291" />
    <synapse sourceNeuronName = "8" targetNeuronName = "39" weight = "-0.22173987584176458" />
    <synapse sourceNeuronName = "8" targetNeuronName = "40" weight = "0.6266761550237336" />
    <synapse sourceNeuronName = "8" targetNeuronName = "41" weight = "-0.819955003565263" />
    <synapse sourceNeuronName = "8" targetNeuronName = "42" weight = "0.6730112990796715" />
    <synapse sourceNeuronName = "8" targetNeuronName = "43" weight = "0.2270694391944703" />
    <synapse sourceNeuronName = "8" targetNeuronName = "44" weight = "-0.8134528479620529" />
    <synapse sourceNeuronName = "8" targetNeuronName = "45" weight = "-0.3681168284498666" />
    <synapse sourceNeuronName = "8" targetNeuronName = "46" weight = "-0.5538817114257968" />
    <synapse sourceNeuronName = "8" targetNeuronName = "47" weight = "-0.5537186987538101" />
    <synapse sourceNeuronName = "8" targetNeuronName = "48" weight = "0.36854406292071773" />
    <synapse sourceNeuronName = "8" targetNeuronName = "49" weight = "-0.23314225962463309" />
    <synapse sourceNeuronName = "8" targetNeuronName = "50" weight = "-0.16114962986572046" />
    <synapse sourceNeuronName = "8" targetNeuronName = "51" weight = "-0.19208849367840175" />
    <synapse sourceNeuronName = "9" targetNeuronName = "12" weight = "0.8894104617845155" />
    <synapse sourceNeuronName = "9" targetNeuronName = "13" weight = "0.22146741051925511" />
    <synapse sourceNeuronName = "9" targetNeuronName = "14" weight = "0.47213681994972" />
    <synapse sourceNeuronName = "9" targetNeuronName = "15" weight = "0.23005198618607348" />
    <synapse sourceNeuronName = "9" targetNeuronName = "16" weight = "-0.6344583240010939" />
    <synapse sourceNeuronName = "9" targetNeuronName = "17" weight = "0.20886563178340456" />
    <synapse sourceNeuronName = "9" targetNeuronName = "18" weight = "-0.29115022964019777" />
    <synapse sourceNeuronName = "9" targetNeuronName = "19" weight = "-0.320707433796076" />
    <synapse sourceNeuronName = "9" targetNeuronName = "20" weight = "-0.7800526877106857" />
    <synapse sourceNeuronName = "9" targetNeuronName = "21" weight = "0.6154083183702119" />
    <synapse sourceNeuronName = "9" targetNeuronName = "22" weight = "0.17659567266052445" />
    <synapse sourceNeuronName = "9" targetNeuronName = "23" weight = "0.45273024390598504" />
    <synapse sourceNeuronName = "9" targetNeuronName = "24" weight = "-0.30672438056415774" />
    <synapse sourceNeuronName = "9" targetNeuronName = "25" weight = "-0.36123135081843705" />
    <synapse sourceNeuronName = "9" targetNeuronName = "26" weight = "-0.28569851905031474" />
    <synapse sourceNeuronName = "9" targetNeuronName = "27" weight = "-0.381237983137074" />
    <synapse sourceNeuronName = "9" targetNeuronName = "28" weight = "-0.2326808731684118" />
    <synapse sourceNeuronName = "9" targetNeuronName = "29" weight = "0.5673281602262481" />
    <synapse sourceNeuronName = "9" targetNeuronName = "30" weight = "0.8487625831644308" />
    <synapse sourceNeuronName = "9" targetNeuronName = "31" weight = "-0.3955926097318152" />
    <synapse sourceNeuronName = "9" targetNeuronName = "32" weight = "0.06887230763655383" />
    <synapse sourceNeuronName = "9" targetNeuronName = "33" weight = "-0.7209792683961564" />
    <synapse sourceNeuronName = "9" targetNeuronName = "34" weight = "0.48116744322790117" />
    <synapse sourceNeuronName = "9" targetNeuronName = "35" weight = "0.3476427705229972" />
    <synapse sourceNeuronName = "9" targetNeuronName = "36" weight = "0.9695719995361947" />
    <synapse sourceNeuronName = "9" targetNeuronName = "37" weight = "-0.8513175376756772" />
    <synapse sourceNeuronName = "9" targetNeuronName = "38" weight = "0.34169391532758664" />
    <synapse sourceNeuronName = "9" targetNeuronName = "39" weight = "-0.11353604431134601" />
    <synapse sourceNeuronName = "9" targetNeuronName = "40" weight = "-0.6708006024244031" />
    <synapse sourceNeuronName = "9" targetNeuronName = "41" weight = "0.05652581034916837" />
    <synapse sourceNeuronName = "9" targetNeuronName = "42" weight = "-0.9852836875733815" />
    <synapse sourceNeuronName = "9" targetNeuronName = "43" weight = "-0.5536617259458905" />
    <synapse sourceNeuronName = "9" targetNeuronName = "44" weight = "0.4315499154000786" />
    <synapse sourceNeuronName = "9" targetNeuronName = "45" weight = "0.12440198976314121" />
    <synapse sourceNeuronName = "9" targetNeuronName = "46" weight = "-0.8981637131316844" />
    <synapse sourceNeuronName = "9" targetNeuronName = "47" weight = "-0.463908334733264" />
    <synapse sourceNeuronName = "9" targetNeuronName = "48" weight = "-0.6537970067866794" />
    <synapse sourceNeuronName = "9" targetNeuronName = "49" weight = "-0.1796965252256888" />
    <synapse sourceNeuronName = "9" targetNeuronName = "50" weight = "0.17475756480061766" />
    <synapse sourceNeuronName = "9" targetNeuronName = "51" weight = "-0.6609441654341168" />
    <synapse sourceNeuronName = "10" targetNeuronName = "12" weight = "0.7688105655535342" />
    <synapse sourceNeuronName = "10" targetNeuronName = "13" weight = "0.35223437327259055" />
    <synapse sourceNeuronName = "10" targetNeuronName = "14" weight = "-0.5514845471393393" />
    <synapse sourceNeuronName = "10" targetNeuronName = "15" weight = "-0.42363943136358295" />
    <synapse sourceNeuronName = "10" targetNeuronName = "16" weight = "-0.7485032389435804" />
    <synapse sourceNeuronName = "10" targetNeuronName = "17" weight = "0.8837627653447149" />
    <synapse sourceNeuronName = "10" targetNeuronName = "18" weight = "-0.37383069673571523" />
    <synapse sourceNeuronName = "10" targetNeuronName = "19" weight = "-0.8937960853451401" />
    <synapse sourceNeuronName = "10" targetNeuronName = "20" weight = "0.6940918323879917" />
    <synapse sourceNeuronName = "10" targetNeuronName = "21" weight = "0.21945151006704644" />
    <synapse sourceNeuronName = "10" targetNeuronName = "22" weight = "-0.3275398055935421" />
    <synapse sourceNeuronName = "10" targetNeuronName = "23" weight = "-0.4385591672128215" />
    <synapse sourceNeuronName = "10" targetNeuronName = "24" weight = "0.18250870232600236" />
    <synapse sourceNeuronName = "10" targetNeuronName = "25" weight = "-0.21918022926871683" />
    <synapse sourceNeuronName = "10" targetNeuronName = "26" weight = "-0.38232366484825286" />
    <synapse sourceNeuronName = "10" targetNeuronName = "27" weight = "-0.9738007238400037" />
    <synapse sourceNeuronName = "10" targetNeuronName = "28" weight = "-0.3586566769240409" />
    <synapse sourceNeuronName = "10" targetNeuronName = "29" weight = "-0.36068708515774417" />
    <synapse sourceNeuronName = "10" targetNeuronName = "30" weight = "0.7472049312037801" />
    <synapse sourceNeuronName = "10" targetNeuronName = "31" weight = "-0.33107295286479466" />
    <synapse sourceNeuronName = "10" targetNeuronName = "32" weight = "-0.8966678654564533" />
    <synapse sourceNeuronName = "10" targetNeuronName = "33" weight = "0.2026998689346835" />
    <synapse sourceNeuronName = "10" targetNeuronName = "34" weight = "-0.9228883198438882" />
    <synapse sourceNeuronName = "10" targetNeuronName = "35" weight = "-0.3588747118197413" />
    <synapse sourceNeuronName = "10" targetNeuronName = "36" weight = "0.5427210467725367" />
    <synapse sourceNeuronName = "10" targetNeuronName = "37" weight = "-0.48383581986468815" />
    <synapse sourceNeuronName = "10" targetNeuronName = "38" weight = "0.08462890932130396" />
    <synapse sourceNeuronName = "10" targetNeuronName = "39" weight = "0.2083608767814229" />
    <synapse sourceNeuronName = "10" targetNeuronName = "40" weight = "-0.8572179560688591" />
    <synapse sourceNeuronName = "10" targetNeuronName = "41" weight = "-0.036423853747165724" />
    <synapse sourceNeuronName = "10" targetNeuronName = "42" weight = "-0.6014363516097145" />
    <synapse sourceNeuronName = "10" targetNeuronName = "43" weight = "-0.3244963014677005" />
    <synapse sourceNeuronName = "10" targetNeuronName = "44" weight = "0.7456245752313735" />
    <synapse sourceNeuronName = "10" targetNeuronName = "45" weight = "-0.218395270556474" />
    <synapse sourceNeuronName = "10" targetNeuronName = "46" weight = "-0.1992094931697208" />
    <synapse sourceNeuronName = "10" targetNeuronName = "47" weight = "-0.4830762518967118" />
    <synapse sourceNeuronName = "10" targetNeuronName = "48" weight = "-0.2776240371878185" />
    <synapse sourceNeuronName = "10" targetNeuronName = "49" weight = "-0.13093850832930576" />
    <synapse sourceNeuronName = "10" targetNeuronName = "50" weight = "0.19767698324510707" />
    <synapse sourceNeuronName = "10" targetNeuronName = "51" weight = "0.3325882118577106" />
    <synapse sourceNeuronName = "11" targetNeuronName = "12" weight = "-0.8931457259806652" />
    <synapse sourceNeuronName = "11" targetNeuronName = "13" weight = "0.46456483482907873" />
    <synapse sourceNeuronName = "11" targetNeuronName = "14" weight = "0.8363719982647959" />
    <synapse sourceNeuronName = "11" targetNeuronName = "15" weight = "-0.7094517629921873" />
    <synapse sourceNeuronName = "11" targetNeuronName = "16" weight = "0.3187353473878378" />
    <synapse sourceNeuronName = "11" targetNeuronName = "17" weight = "0.7667852102291199" />
    <synapse sourceNeuronName = "11" targetNeuronName = "18" weight = "0.8066241378562036" />
    <synapse sourceNeuronName = "11" targetNeuronName = "19" weight = "-0.44432327639809577" />
    <synapse sourceNeuronName = "11" targetNeuronName = "20" weight = "-0.24529210278476832" />
    <synapse sourceNeuronName = "11" targetNeuronName = "21" weight = "0.9702592133386743" />
    <synapse sourceNeuronName = "11" targetNeuronName = "22" weight = "-0.9674392749025971" />
    <synapse sourceNeuronName = "11" targetNeuronName = "23" weight = "-0.6179576919456364" />
    <synapse sourceNeuronName = "11" targetNeuronName = "24" weight = "-0.6286957776530091" />
    <synapse sourceNeuronName = "11" targetNeuronName = "25" weight = "0.9789110278065649" />
    <synapse sourceNeuronName = "11" targetNeuronName = "26" weight = "-0.37805507692350226" />
    <synapse sourceNeuronName = "11" targetNeuronName = "27" weight = "-0.5161275918229122" />
    <synapse sourceNeuronName = "11" targetNeuronName = "28" weight = "0.7240122633750512" />
    <synapse sourceNeuronName = "11" targetNeuronName = "29" weight = "-0.9617554081744912" />
    <synapse sourceNeuronName = "11" targetNeuronName = "30" weight = "0.3535704328687581" />
    <synapse sourceNeuronName = "11" targetNeuronName = "31" weight = "0.6584098373552496" />
    <synapse sourceNeuronName = "11" targetNeuronName = "32" weight = "-0.6161449219029695" />
    <synapse sourceNeuronName = "11" targetNeuronName = "33" weight = "0.45002450007205264" />
    <synapse sourceNeuronName = "11" targetNeuronName = "34" weight = "0.2785152166535716" />
    <synapse sourceNeuronName = "11" targetNeuronName = "35" weight = "0.9122393305692695" />
    <synapse sourceNeuronName = "11" targetNeuronName = "36" weight = "-0.24234617778205392" />
    <synapse sourceNeuronName = "11" targetNeuronName = "37" weight = "-0.874635295234037" />
    <synapse sourceNeuronName = "11" targetNeuronName = "38" weight = "-0.9317436199216598" />
    <synapse sourceNeuronName = "11" targetNeuronName = "39" weight = "0.2301395655495242" />
    <synapse sourceNeuronName = "11" targetNeuronName = "40" weight = "0.7466890176941741" />
    <synapse sourceNeuronName = "11" targetNeuronName = "41" weight = "-0.27074522783394417" />
    <synapse sourceNeuronName = "11" targetNeuronName = "42" weight = "-0.02352019214905643" />
    <synapse sourceNeuronName = "11" targetNeuronName = "43" weight = "0.2420625621014436" />
    <synapse sourceNeuronName = "11" targetNeuronName = "44" weight = "-0.9962626977829043" />
    <synapse sourceNeuronName = "11" targetNeuronName = "45" weight = "-0.765551778069469" />
    <synapse sourceNeuronName = "11" targetNeuronName = "46" weight = "0.43693624898291517" />
    <synapse sourceNeuronName = "11" targetNeuronName = "47" weight = "-0.18309554922773597" />
    <synapse sourceNeuronName = "11" targetNeuronName = "48" weight = "0.6122263778345503" />
    <synapse sourceNeuronName = "11" targetNeuronName = "49" weight = "-0.059872947523037956" />
    <synapse sourceNeuronName = "11" targetNeuronName = "50" weight = "0.3002366741510174" />
    <synapse sourceNeuronName = "11" targetNeuronName = "51" weight = "-0.6546598847368106" />
</neuralNetwork>