<neuralNetwork>
    <neuron name = "0" type = "sensor" linkName = "Link1" />
    <neuron name = "1" type = "sensor" linkName = "Link7" />
    <neuron name = "2" type = "motor"  jointName = "Link0_Cube00" />
    <neuron name = "3" type = "motor"  jointName = "Cube00_Cube10" />
    <neuron name = "4" type = "motor"  jointName = "Cube10_Link1" />
    <neuron name = "5" type = "motor"  jointName = "Link0_Cube01" />
    <neuron name = "6" type = "motor"  jointName = "Cube01_Link2" />
    <neuron name = "7" type = "motor"  jointName = "Link2_Cube02" />
    <neuron name = "8" type = "motor"  jointName = "Cube02_Link3" />
    <neuron name = "9" type = "motor"  jointName = "Link2_Cube03" />
    <neuron name = "10" type = "motor"  jointName = "Cube03_Cube13" />
    <neuron name = "11" type = "motor"  jointName = "Cube13_Link4" />
    <neuron name = "12" type = "motor"  jointName = "Link3_Link5" />
    <neuron name = "13" type = "motor"  jointName = "Link5_Link6" />
    <neuron name = "14" type = "motor"  jointName = "Link2_Cube06" />
    <neuron name = "15" type = "motor"  jointName = "Cube06_Link7" />
    <synapse sourceNeuronName = "0" targetNeuronName = "2" weight = "0.12217049447460315" />
    <synapse sourceNeuronName = "0" targetNeuronName = "3" weight = "-0.13181726205217403" />
    <synapse sourceNeuronName = "0" targetNeuronName = "4" weight = "0.15619052878148" />
    <synapse sourceNeuronName = "0" targetNeuronName = "5" weight = "-0.016770859705370844" />
    <synapse sourceNeuronName = "0" targetNeuronName = "6" weight = "0.8927043961378482" />
    <synapse sourceNeuronName = "0" targetNeuronName = "7" weight = "-0.9060791330287141" />
    <synapse sourceNeuronName = "0" targetNeuronName = "8" weight = "0.6016599486114569" />
    <synapse sourceNeuronName = "0" targetNeuronName = "9" weight = "0.6390673514585508" />
    <synapse sourceNeuronName = "0" targetNeuronName = "10" weight = "-0.25281922578621674" />
    <synapse sourceNeuronName = "0" targetNeuronName = "11" weight = "-0.2572395647931447" />
    <synapse sourceNeuronName = "0" targetNeuronName = "12" weight = "0.47877640795191634" />
    <synapse sourceNeuronName = "0" targetNeuronName = "13" weight = "-0.1343601114721733" />
    <synapse sourceNeuronName = "0" targetNeuronName = "14" weight = "-0.016158394802052722" />
    <synapse sourceNeuronName = "0" targetNeuronName = "15" weight = "0.10783989336033484" />
    <synapse sourceNeuronName = "1" targetNeuronName = "2" weight = "0.7581160008351133" />
    <synapse sourceNeuronName = "1" targetNeuronName = "3" weight = "-0.12502550444081728" />
    <synapse sourceNeuronName = "1" targetNeuronName = "4" weight = "0.659603072592883" />
    <synapse sourceNeuronName = "1" targetNeuronName = "5" weight = "0.6123842596718483" />
    <synapse sourceNeuronName = "1" targetNeuronName = "6" weight = "-0.4738246109205744" />
    <synapse sourceNeuronName = "1" targetNeuronName = "7" weight = "0.7401307303128395" />
    <synapse sourceNeuronName = "1" targetNeuronName = "8" weight = "0.3476838427893709" />
    <synapse sourceNeuronName = "1" targetNeuronName = "9" weight = "0.9693823591031709" />
    <synapse sourceNeuronName = "1" targetNeuronName = "10" weight = "-0.9731910202552057" />
    <synapse sourceNeuronName = "1" targetNeuronName = "11" weight = "-0.922645617608429" />
    <synapse sourceNeuronName = "1" targetNeuronName = "12" weight = "0.996407892259974" />
    <synapse sourceNeuronName = "1" targetNeuronName = "13" weight = "0.4490386312851067" />
    <synapse sourceNeuronName = "1" targetNeuronName = "14" weight = "-0.9722759673625252" />
    <synapse sourceNeuronName = "1" targetNeuronName = "15" weight = "-0.24200939070361005" />
</neuralNetwork>