<neuralNetwork>
    <neuron name = "0" type = "sensor" linkName = "Link0" />
    <neuron name = "1" type = "sensor" linkName = "Link2" />
    <neuron name = "2" type = "sensor" linkName = "Link3" />
    <neuron name = "3" type = "sensor" linkName = "Link5" />
    <neuron name = "4" type = "motor"  jointName = "Link0_Cube00" />
    <neuron name = "5" type = "motor"  jointName = "Cube00_Link1" />
    <neuron name = "6" type = "motor"  jointName = "Link0_Cube01" />
    <neuron name = "7" type = "motor"  jointName = "Cube01_Cube11" />
    <neuron name = "8" type = "motor"  jointName = "Cube11_Link2" />
    <neuron name = "9" type = "motor"  jointName = "Link0_Cube02" />
    <neuron name = "10" type = "motor"  jointName = "Cube02_Link3" />
    <neuron name = "11" type = "motor"  jointName = "Link0_Cube03" />
    <neuron name = "12" type = "motor"  jointName = "Cube03_Link4" />
    <neuron name = "13" type = "motor"  jointName = "Link2_Cube04" />
    <neuron name = "14" type = "motor"  jointName = "Cube04_Link5" />
    <synapse sourceNeuronName = "0" targetNeuronName = "4" weight = "0.22185004479042236" />
    <synapse sourceNeuronName = "0" targetNeuronName = "5" weight = "0.8541299045074062" />
    <synapse sourceNeuronName = "0" targetNeuronName = "6" weight = "-0.5334874846728646" />
    <synapse sourceNeuronName = "0" targetNeuronName = "7" weight = "-0.7951087994775168" />
    <synapse sourceNeuronName = "0" targetNeuronName = "8" weight = "-0.01679380060130664" />
    <synapse sourceNeuronName = "0" targetNeuronName = "9" weight = "0.6532036204521892" />
    <synapse sourceNeuronName = "0" targetNeuronName = "10" weight = "0.034169906436157804" />
    <synapse sourceNeuronName = "0" targetNeuronName = "11" weight = "0.06493815972633743" />
    <synapse sourceNeuronName = "0" targetNeuronName = "12" weight = "-0.7616830327077084" />
    <synapse sourceNeuronName = "0" targetNeuronName = "13" weight = "-0.8850211351218162" />
    <synapse sourceNeuronName = "0" targetNeuronName = "14" weight = "0.17940828073763937" />
    <synapse sourceNeuronName = "1" targetNeuronName = "4" weight = "0.8245912393969872" />
    <synapse sourceNeuronName = "1" targetNeuronName = "5" weight = "-0.23490735032245924" />
    <synapse sourceNeuronName = "1" targetNeuronName = "6" weight = "-0.27954112132782005" />
    <synapse sourceNeuronName = "1" targetNeuronName = "7" weight = "-0.9997586741905837" />
    <synapse sourceNeuronName = "1" targetNeuronName = "8" weight = "-0.5928038869283963" />
    <synapse sourceNeuronName = "1" targetNeuronName = "9" weight = "0.7603133715361756" />
    <synapse sourceNeuronName = "1" targetNeuronName = "10" weight = "-0.7724339374983962" />
    <synapse sourceNeuronName = "1" targetNeuronName = "11" weight = "0.6948648698323994" />
    <synapse sourceNeuronName = "1" targetNeuronName = "12" weight = "0.7059698840023925" />
    <synapse sourceNeuronName = "1" targetNeuronName = "13" weight = "0.5787261639761518" />
    <synapse sourceNeuronName = "1" targetNeuronName = "14" weight = "-0.8677527034645605" />
    <synapse sourceNeuronName = "2" targetNeuronName = "4" weight = "0.691581735036747" />
    <synapse sourceNeuronName = "2" targetNeuronName = "5" weight = "-0.4962754282066104" />
    <synapse sourceNeuronName = "2" targetNeuronName = "6" weight = "0.5511507700485863" />
    <synapse sourceNeuronName = "2" targetNeuronName = "7" weight = "-0.07605859623552158" />
    <synapse sourceNeuronName = "2" targetNeuronName = "8" weight = "-0.9758387772070685" />
    <synapse sourceNeuronName = "2" targetNeuronName = "9" weight = "-0.11068015839157419" />
    <synapse sourceNeuronName = "2" targetNeuronName = "10" weight = "0.8276285751316677" />
    <synapse sourceNeuronName = "2" targetNeuronName = "11" weight = "0.08692161116408137" />
    <synapse sourceNeuronName = "2" targetNeuronName = "12" weight = "0.18711002277197353" />
    <synapse sourceNeuronName = "2" targetNeuronName = "13" weight = "0.12349304810081341" />
    <synapse sourceNeuronName = "2" targetNeuronName = "14" weight = "0.9927463866994859" />
    <synapse sourceNeuronName = "3" targetNeuronName = "4" weight = "-0.5875527342115459" />
    <synapse sourceNeuronName = "3" targetNeuronName = "5" weight = "0.5835039066173673" />
    <synapse sourceNeuronName = "3" targetNeuronName = "6" weight = "0.9544238408430219" />
    <synapse sourceNeuronName = "3" targetNeuronName = "7" weight = "-0.4081076044699785" />
    <synapse sourceNeuronName = "3" targetNeuronName = "8" weight = "0.6934005127921534" />
    <synapse sourceNeuronName = "3" targetNeuronName = "9" weight = "-0.5060105225969582" />
    <synapse sourceNeuronName = "3" targetNeuronName = "10" weight = "-0.3285058764415041" />
    <synapse sourceNeuronName = "3" targetNeuronName = "11" weight = "0.8789283534658439" />
    <synapse sourceNeuronName = "3" targetNeuronName = "12" weight = "0.07173865169431104" />
    <synapse sourceNeuronName = "3" targetNeuronName = "13" weight = "0.9058898204061221" />
    <synapse sourceNeuronName = "3" targetNeuronName = "14" weight = "0.14348428887366893" />
</neuralNetwork>