<neuralNetwork>
    <neuron name = "0" type = "sensor" linkName = "Link1" />
    <neuron name = "1" type = "sensor" linkName = "Link7" />
    <neuron name = "2" type = "motor"  jointName = "Link0_Cube00" />
    <neuron name = "3" type = "motor"  jointName = "Cube00_Cube10" />
    <neuron name = "4" type = "motor"  jointName = "Cube10_Link1" />
    <neuron name = "5" type = "motor"  jointName = "Link0_Cube01" />
    <neuron name = "6" type = "motor"  jointName = "Cube01_Link2" />
    <neuron name = "7" type = "motor"  jointName = "Link2_Cube02" />
    <neuron name = "8" type = "motor"  jointName = "Cube02_Link3" />
    <neuron name = "9" type = "motor"  jointName = "Link2_Cube03" />
    <neuron name = "10" type = "motor"  jointName = "Cube03_Cube13" />
    <neuron name = "11" type = "motor"  jointName = "Cube13_Link4" />
    <neuron name = "12" type = "motor"  jointName = "Link3_Link5" />
    <neuron name = "13" type = "motor"  jointName = "Link5_Link6" />
    <neuron name = "14" type = "motor"  jointName = "Link2_Cube06" />
    <neuron name = "15" type = "motor"  jointName = "Cube06_Link7" />
    <synapse sourceNeuronName = "0" targetNeuronName = "2" weight = "-0.8795143891571968" />
    <synapse sourceNeuronName = "0" targetNeuronName = "3" weight = "0.6681263516519254" />
    <synapse sourceNeuronName = "0" targetNeuronName = "4" weight = "-0.4568206749004049" />
    <synapse sourceNeuronName = "0" targetNeuronName = "5" weight = "-0.7349901846168745" />
    <synapse sourceNeuronName = "0" targetNeuronName = "6" weight = "-0.017767091301361893" />
    <synapse sourceNeuronName = "0" targetNeuronName = "7" weight = "-0.20926726654085503" />
    <synapse sourceNeuronName = "0" targetNeuronName = "8" weight = "0.6350624514198335" />
    <synapse sourceNeuronName = "0" targetNeuronName = "9" weight = "0.4122763049073308" />
    <synapse sourceNeuronName = "0" targetNeuronName = "10" weight = "0.6139293419099641" />
    <synapse sourceNeuronName = "0" targetNeuronName = "11" weight = "-0.19283955083346083" />
    <synapse sourceNeuronName = "0" targetNeuronName = "12" weight = "0.8411967606815791" />
    <synapse sourceNeuronName = "0" targetNeuronName = "13" weight = "-0.764516822844465" />
    <synapse sourceNeuronName = "0" targetNeuronName = "14" weight = "0.8394056953213205" />
    <synapse sourceNeuronName = "0" targetNeuronName = "15" weight = "-0.6839263706687826" />
    <synapse sourceNeuronName = "1" targetNeuronName = "2" weight = "-0.9475981610777662" />
    <synapse sourceNeuronName = "1" targetNeuronName = "3" weight = "0.3094173517920673" />
    <synapse sourceNeuronName = "1" targetNeuronName = "4" weight = "0.9545353882337466" />
    <synapse sourceNeuronName = "1" targetNeuronName = "5" weight = "0.7360844456583233" />
    <synapse sourceNeuronName = "1" targetNeuronName = "6" weight = "-0.9386694213232591" />
    <synapse sourceNeuronName = "1" targetNeuronName = "7" weight = "-0.17709749950136922" />
    <synapse sourceNeuronName = "1" targetNeuronName = "8" weight = "-0.3211164426084887" />
    <synapse sourceNeuronName = "1" targetNeuronName = "9" weight = "-0.5638171864130925" />
    <synapse sourceNeuronName = "1" targetNeuronName = "10" weight = "-0.18110833697706652" />
    <synapse sourceNeuronName = "1" targetNeuronName = "11" weight = "-0.3770103165598804" />
    <synapse sourceNeuronName = "1" targetNeuronName = "12" weight = "0.9504328717310973" />
    <synapse sourceNeuronName = "1" targetNeuronName = "13" weight = "0.16949058032868125" />
    <synapse sourceNeuronName = "1" targetNeuronName = "14" weight = "-0.49090681479961606" />
    <synapse sourceNeuronName = "1" targetNeuronName = "15" weight = "-0.48473499570878964" />
</neuralNetwork>