<neuralNetwork>
    <neuron name = "0" type = "sensor" linkName = "Link1" />
    <neuron name = "1" type = "sensor" linkName = "Link2" />
    <neuron name = "2" type = "sensor" linkName = "Link4" />
    <neuron name = "3" type = "sensor" linkName = "Link6" />
    <neuron name = "4" type = "sensor" linkName = "Link9" />
    <neuron name = "5" type = "sensor" linkName = "Link10" />
    <neuron name = "6" type = "motor"  jointName = "Link0_Link1" />
    <neuron name = "7" type = "motor"  jointName = "Link0_Cube01" />
    <neuron name = "8" type = "motor"  jointName = "Cube01_Link2" />
    <neuron name = "9" type = "motor"  jointName = "Link0_Cube02" />
    <neuron name = "10" type = "motor"  jointName = "Cube02_Cube12" />
    <neuron name = "11" type = "motor"  jointName = "Cube12_Link3" />
    <neuron name = "12" type = "motor"  jointName = "Link2_Cube03" />
    <neuron name = "13" type = "motor"  jointName = "Cube03_Cube13" />
    <neuron name = "14" type = "motor"  jointName = "Cube13_Link4" />
    <neuron name = "15" type = "motor"  jointName = "Link4_Link5" />
    <neuron name = "16" type = "motor"  jointName = "Link2_Cube05" />
    <neuron name = "17" type = "motor"  jointName = "Cube05_Cube15" />
    <neuron name = "18" type = "motor"  jointName = "Cube15_Link6" />
    <neuron name = "19" type = "motor"  jointName = "Link2_Cube06" />
    <neuron name = "20" type = "motor"  jointName = "Cube06_Cube16" />
    <neuron name = "21" type = "motor"  jointName = "Cube16_Link7" />
    <neuron name = "22" type = "motor"  jointName = "Link1_Cube07" />
    <neuron name = "23" type = "motor"  jointName = "Cube07_Link8" />
    <neuron name = "24" type = "motor"  jointName = "Link3_Cube08" />
    <neuron name = "25" type = "motor"  jointName = "Cube08_Cube18" />
    <neuron name = "26" type = "motor"  jointName = "Cube18_Link9" />
    <neuron name = "27" type = "motor"  jointName = "Link2_Cube09" />
    <neuron name = "28" type = "motor"  jointName = "Cube09_Cube19" />
    <neuron name = "29" type = "motor"  jointName = "Cube19_Link10" />
    <synapse sourceNeuronName = "0" targetNeuronName = "6" weight = "0.15262340772487804" />
    <synapse sourceNeuronName = "0" targetNeuronName = "7" weight = "0.5511282339849908" />
    <synapse sourceNeuronName = "0" targetNeuronName = "8" weight = "0.6262074156428554" />
    <synapse sourceNeuronName = "0" targetNeuronName = "9" weight = "0.590452072744307" />
    <synapse sourceNeuronName = "0" targetNeuronName = "10" weight = "0.31567011018994307" />
    <synapse sourceNeuronName = "0" targetNeuronName = "11" weight = "-0.4932054047627783" />
    <synapse sourceNeuronName = "0" targetNeuronName = "12" weight = "0.8786651469393001" />
    <synapse sourceNeuronName = "0" targetNeuronName = "13" weight = "0.3791855724715121" />
    <synapse sourceNeuronName = "0" targetNeuronName = "14" weight = "0.4467658324653465" />
    <synapse sourceNeuronName = "0" targetNeuronName = "15" weight = "-0.2046900160114311" />
    <synapse sourceNeuronName = "0" targetNeuronName = "16" weight = "-0.4878004917135932" />
    <synapse sourceNeuronName = "0" targetNeuronName = "17" weight = "-0.02086763243313472" />
    <synapse sourceNeuronName = "0" targetNeuronName = "18" weight = "-0.011869847425287183" />
    <synapse sourceNeuronName = "0" targetNeuronName = "19" weight = "-0.7178377732546579" />
    <synapse sourceNeuronName = "0" targetNeuronName = "20" weight = "-0.6275025983371518" />
    <synapse sourceNeuronName = "0" targetNeuronName = "21" weight = "0.6941090135539949" />
    <synapse sourceNeuronName = "0" targetNeuronName = "22" weight = "0.9940027213933147" />
    <synapse sourceNeuronName = "0" targetNeuronName = "23" weight = "-0.029747795699800683" />
    <synapse sourceNeuronName = "0" targetNeuronName = "24" weight = "0.07403068377450062" />
    <synapse sourceNeuronName = "0" targetNeuronName = "25" weight = "-0.06122305774276682" />
    <synapse sourceNeuronName = "0" targetNeuronName = "26" weight = "0.5581395353819212" />
    <synapse sourceNeuronName = "0" targetNeuronName = "27" weight = "0.8765017564581312" />
    <synapse sourceNeuronName = "0" targetNeuronName = "28" weight = "-0.4750234941479241" />
    <synapse sourceNeuronName = "0" targetNeuronName = "29" weight = "-0.23199384083647634" />
    <synapse sourceNeuronName = "1" targetNeuronName = "6" weight = "0.28713909496541756" />
    <synapse sourceNeuronName = "1" targetNeuronName = "7" weight = "-0.29325496890273395" />
    <synapse sourceNeuronName = "1" targetNeuronName = "8" weight = "-0.5466051748160812" />
    <synapse sourceNeuronName = "1" targetNeuronName = "9" weight = "0.6182970549501494" />
    <synapse sourceNeuronName = "1" targetNeuronName = "10" weight = "-0.5510629245474934" />
    <synapse sourceNeuronName = "1" targetNeuronName = "11" weight = "0.39367061033225537" />
    <synapse sourceNeuronName = "1" targetNeuronName = "12" weight = "0.37522456829380624" />
    <synapse sourceNeuronName = "1" targetNeuronName = "13" weight = "-0.9645839017219751" />
    <synapse sourceNeuronName = "1" targetNeuronName = "14" weight = "-0.8765581354372343" />
    <synapse sourceNeuronName = "1" targetNeuronName = "15" weight = "-0.636739538323035" />
    <synapse sourceNeuronName = "1" targetNeuronName = "16" weight = "0.890819169027095" />
    <synapse sourceNeuronName = "1" targetNeuronName = "17" weight = "-0.1254888280066755" />
    <synapse sourceNeuronName = "1" targetNeuronName = "18" weight = "-0.026886883580480747" />
    <synapse sourceNeuronName = "1" targetNeuronName = "19" weight = "0.03607298900462186" />
    <synapse sourceNeuronName = "1" targetNeuronName = "20" weight = "0.37423696426403397" />
    <synapse sourceNeuronName = "1" targetNeuronName = "21" weight = "0.18394787672995916" />
    <synapse sourceNeuronName = "1" targetNeuronName = "22" weight = "-0.03503136494748893" />
    <synapse sourceNeuronName = "1" targetNeuronName = "23" weight = "-0.1542881642372631" />
    <synapse sourceNeuronName = "1" targetNeuronName = "24" weight = "-0.10977739229787709" />
    <synapse sourceNeuronName = "1" targetNeuronName = "25" weight = "-0.9628966961431531" />
    <synapse sourceNeuronName = "1" targetNeuronName = "26" weight = "0.7565319958442265" />
    <synapse sourceNeuronName = "1" targetNeuronName = "27" weight = "-0.6347086445418613" />
    <synapse sourceNeuronName = "1" targetNeuronName = "28" weight = "0.9080766626579932" />
    <synapse sourceNeuronName = "1" targetNeuronName = "29" weight = "0.25233679926836583" />
    <synapse sourceNeuronName = "2" targetNeuronName = "6" weight = "0.13747167232879187" />
    <synapse sourceNeuronName = "2" targetNeuronName = "7" weight = "-0.060544733596081146" />
    <synapse sourceNeuronName = "2" targetNeuronName = "8" weight = "0.770829851199643" />
    <synapse sourceNeuronName = "2" targetNeuronName = "9" weight = "0.07680390795151948" />
    <synapse sourceNeuronName = "2" targetNeuronName = "10" weight = "0.19081471743713263" />
    <synapse sourceNeuronName = "2" targetNeuronName = "11" weight = "0.9216943738896117" />
    <synapse sourceNeuronName = "2" targetNeuronName = "12" weight = "0.3441158408706806" />
    <synapse sourceNeuronName = "2" targetNeuronName = "13" weight = "0.9675589809280665" />
    <synapse sourceNeuronName = "2" targetNeuronName = "14" weight = "-0.7292074034049272" />
    <synapse sourceNeuronName = "2" targetNeuronName = "15" weight = "-0.14101690682358936" />
    <synapse sourceNeuronName = "2" targetNeuronName = "16" weight = "0.6080716270342057" />
    <synapse sourceNeuronName = "2" targetNeuronName = "17" weight = "-0.9396287668671337" />
    <synapse sourceNeuronName = "2" targetNeuronName = "18" weight = "0.2651844917691273" />
    <synapse sourceNeuronName = "2" targetNeuronName = "19" weight = "0.6339038550753855" />
    <synapse sourceNeuronName = "2" targetNeuronName = "20" weight = "0.7323685784050782" />
    <synapse sourceNeuronName = "2" targetNeuronName = "21" weight = "0.1686374317836401" />
    <synapse sourceNeuronName = "2" targetNeuronName = "22" weight = "-0.4535478137519686" />
    <synapse sourceNeuronName = "2" targetNeuronName = "23" weight = "0.17336376700728717" />
    <synapse sourceNeuronName = "2" targetNeuronName = "24" weight = "-0.7935017129848443" />
    <synapse sourceNeuronName = "2" targetNeuronName = "25" weight = "-0.6250304652716552" />
    <synapse sourceNeuronName = "2" targetNeuronName = "26" weight = "0.7960524714904191" />
    <synapse sourceNeuronName = "2" targetNeuronName = "27" weight = "0.2670451138860117" />
    <synapse sourceNeuronName = "2" targetNeuronName = "28" weight = "0.6912344065771299" />
    <synapse sourceNeuronName = "2" targetNeuronName = "29" weight = "-0.255978732949077" />
    <synapse sourceNeuronName = "3" targetNeuronName = "6" weight = "-0.8188604159883477" />
    <synapse sourceNeuronName = "3" targetNeuronName = "7" weight = "0.573298853480704" />
    <synapse sourceNeuronName = "3" targetNeuronName = "8" weight = "-0.17290938346205653" />
    <synapse sourceNeuronName = "3" targetNeuronName = "9" weight = "-0.7769567432025108" />
    <synapse sourceNeuronName = "3" targetNeuronName = "10" weight = "0.2969886154259638" />
    <synapse sourceNeuronName = "3" targetNeuronName = "11" weight = "0.10476637414076984" />
    <synapse sourceNeuronName = "3" targetNeuronName = "12" weight = "-0.03292510069586063" />
    <synapse sourceNeuronName = "3" targetNeuronName = "13" weight = "-0.5247160278668783" />
    <synapse sourceNeuronName = "3" targetNeuronName = "14" weight = "0.8215865013435377" />
    <synapse sourceNeuronName = "3" targetNeuronName = "15" weight = "0.020063117747585624" />
    <synapse sourceNeuronName = "3" targetNeuronName = "16" weight = "-0.4964110042366645" />
    <synapse sourceNeuronName = "3" targetNeuronName = "17" weight = "0.9738689661948046" />
    <synapse sourceNeuronName = "3" targetNeuronName = "18" weight = "-0.5989833632858854" />
    <synapse sourceNeuronName = "3" targetNeuronName = "19" weight = "0.2998899895337279" />
    <synapse sourceNeuronName = "3" targetNeuronName = "20" weight = "-0.8795566823904994" />
    <synapse sourceNeuronName = "3" targetNeuronName = "21" weight = "-0.8286268134900538" />
    <synapse sourceNeuronName = "3" targetNeuronName = "22" weight = "-0.8593318381439388" />
    <synapse sourceNeuronName = "3" targetNeuronName = "23" weight = "-0.3814128776137129" />
    <synapse sourceNeuronName = "3" targetNeuronName = "24" weight = "0.9189440912383469" />
    <synapse sourceNeuronName = "3" targetNeuronName = "25" weight = "-0.7813779103408829" />
    <synapse sourceNeuronName = "3" targetNeuronName = "26" weight = "-0.35034920737725184" />
    <synapse sourceNeuronName = "3" targetNeuronName = "27" weight = "0.302191220654368" />
    <synapse sourceNeuronName = "3" targetNeuronName = "28" weight = "0.23885470327159086" />
    <synapse sourceNeuronName = "3" targetNeuronName = "29" weight = "-0.3215192054960425" />
    <synapse sourceNeuronName = "4" targetNeuronName = "6" weight = "-0.08186841265277156" />
    <synapse sourceNeuronName = "4" targetNeuronName = "7" weight = "0.8709336965110561" />
    <synapse sourceNeuronName = "4" targetNeuronName = "8" weight = "-0.1343395451669256" />
    <synapse sourceNeuronName = "4" targetNeuronName = "9" weight = "-0.30798598703940305" />
    <synapse sourceNeuronName = "4" targetNeuronName = "10" weight = "-0.6125293708607218" />
    <synapse sourceNeuronName = "4" targetNeuronName = "11" weight = "0.013649626608485121" />
    <synapse sourceNeuronName = "4" targetNeuronName = "12" weight = "0.577889035449284" />
    <synapse sourceNeuronName = "4" targetNeuronName = "13" weight = "-0.5950159910301509" />
    <synapse sourceNeuronName = "4" targetNeuronName = "14" weight = "0.6295453572518428" />
    <synapse sourceNeuronName = "4" targetNeuronName = "15" weight = "-0.24886182357688824" />
    <synapse sourceNeuronName = "4" targetNeuronName = "16" weight = "-0.9728184568501355" />
    <synapse sourceNeuronName = "4" targetNeuronName = "17" weight = "0.08483600128987501" />
    <synapse sourceNeuronName = "4" targetNeuronName = "18" weight = "0.9613358016089155" />
    <synapse sourceNeuronName = "4" targetNeuronName = "19" weight = "-0.15281207042867417" />
    <synapse sourceNeuronName = "4" targetNeuronName = "20" weight = "0.7314520755129643" />
    <synapse sourceNeuronName = "4" targetNeuronName = "21" weight = "0.4372011069811137" />
    <synapse sourceNeuronName = "4" targetNeuronName = "22" weight = "-0.9499791747471611" />
    <synapse sourceNeuronName = "4" targetNeuronName = "23" weight = "-0.4043222765210248" />
    <synapse sourceNeuronName = "4" targetNeuronName = "24" weight = "0.07763869533917478" />
    <synapse sourceNeuronName = "4" targetNeuronName = "25" weight = "0.605036987582475" />
    <synapse sourceNeuronName = "4" targetNeuronName = "26" weight = "0.03279002041033707" />
    <synapse sourceNeuronName = "4" targetNeuronName = "27" weight = "0.5742478825872912" />
    <synapse sourceNeuronName = "4" targetNeuronName = "28" weight = "-0.40807280613652286" />
    <synapse sourceNeuronName = "4" targetNeuronName = "29" weight = "0.3258364486930099" />
    <synapse sourceNeuronName = "5" targetNeuronName = "6" weight = "0.5941838692628321" />
    <synapse sourceNeuronName = "5" targetNeuronName = "7" weight = "-0.634808565798922" />
    <synapse sourceNeuronName = "5" targetNeuronName = "8" weight = "0.9059655785510525" />
    <synapse sourceNeuronName = "5" targetNeuronName = "9" weight = "0.30961693748966335" />
    <synapse sourceNeuronName = "5" targetNeuronName = "10" weight = "-0.615715238397236" />
    <synapse sourceNeuronName = "5" targetNeuronName = "11" weight = "0.8496351689888577" />
    <synapse sourceNeuronName = "5" targetNeuronName = "12" weight = "-0.6116929142039689" />
    <synapse sourceNeuronName = "5" targetNeuronName = "13" weight = "0.9429833270871" />
    <synapse sourceNeuronName = "5" targetNeuronName = "14" weight = "-0.9482329383759698" />
    <synapse sourceNeuronName = "5" targetNeuronName = "15" weight = "-0.4774080874773936" />
    <synapse sourceNeuronName = "5" targetNeuronName = "16" weight = "-0.2512266154628644" />
    <synapse sourceNeuronName = "5" targetNeuronName = "17" weight = "-0.38730185277316354" />
    <synapse sourceNeuronName = "5" targetNeuronName = "18" weight = "-0.5129746674271844" />
    <synapse sourceNeuronName = "5" targetNeuronName = "19" weight = "-0.5458346241362266" />
    <synapse sourceNeuronName = "5" targetNeuronName = "20" weight = "-0.4184947109326267" />
    <synapse sourceNeuronName = "5" targetNeuronName = "21" weight = "-0.33193265640863756" />
    <synapse sourceNeuronName = "5" targetNeuronName = "22" weight = "0.7595494052810396" />
    <synapse sourceNeuronName = "5" targetNeuronName = "23" weight = "0.6593988305563443" />
    <synapse sourceNeuronName = "5" targetNeuronName = "24" weight = "0.25914403494484683" />
    <synapse sourceNeuronName = "5" targetNeuronName = "25" weight = "0.9547407820415534" />
    <synapse sourceNeuronName = "5" targetNeuronName = "26" weight = "0.520086145100954" />
    <synapse sourceNeuronName = "5" targetNeuronName = "27" weight = "0.6687711855982248" />
    <synapse sourceNeuronName = "5" targetNeuronName = "28" weight = "-0.5924187418472877" />
    <synapse sourceNeuronName = "5" targetNeuronName = "29" weight = "-0.6183877952785597" />
</neuralNetwork>